Drug	feature0	feature1	feature2	feature3	feature4	feature5	feature6	feature7	feature8	feature9	feature10	feature11	feature12	feature13	feature14	feature15	feature16	feature17	feature18	feature19	feature20	feature21	feature22	feature23	feature24	feature25	feature26	feature27	feature28	feature29	feature30	feature31	feature32	feature33	feature34	feature35	feature36	feature37	feature38	feature39	feature40	feature41	feature42	feature43	feature44	feature45	feature46	feature47	feature48	feature49	feature50	feature51	feature52	feature53	feature54	feature55	feature56	feature57	feature58	feature59	feature60	feature61	feature62	feature63	feature64	feature65	feature66	feature67	feature68	feature69	feature70	feature71	feature72	feature73	feature74	feature75	feature76	feature77	feature78	feature79	feature80	feature81	feature82	feature83	feature84	feature85	feature86	feature87	feature88	feature89	feature90	feature91	feature92	feature93	feature94	feature95	feature96	feature97	feature98	feature99
DB00742	0.0412317	-0.0211259	0.0388529	0.00324638	-0.0372359	-0.100486	-0.0181252	-0.0700225	-0.00401307	-0.0516096	0.0935821	0.0759177	0.0830339	0.0185327	-0.0840781	0.0120952	0.0927604	-0.0248253	-0.0568431	0.0739774	0.0497419	0.0841868	0.0275409	0.000567571	-0.0304711	-0.0290484	-0.0984453	-0.0611231	-0.0267562	-0.0697473	0.0227906	-0.0614458	0.163927	0.0329405	0.0159745	-0.141669	-0.00375138	-0.0928845	-0.0425595	0.0207721	0.117766	0.0273293	-0.00495293	0.0168723	-0.0696053	0.0540259	-0.0103198	-0.0898415	0.0388829	-0.0890037	-0.0530259	-0.0627832	0.0290482	0.129808	-0.0466498	0.095731	0.0990622	0.0275541	0.0433084	0.254249	-0.0668882	-0.0799252	0.0368711	-0.00582302	0.0576538	0.100339	-0.139732	-0.0333102	-0.0776037	0.0531779	-0.0613829	0.00754696	-0.0752255	-0.00390641	-0.13271	0.0344967	0.0364741	-0.0707923	-0.0954759	-0.0690189	-0.0771514	-0.0671336	-0.0243702	-0.00293969	-0.102354	-0.0145445	0.0285132	0.0117654	-0.0123356	0.0483274	-0.0484408	-0.0624741	0.0958704	-0.0504328	0.109991	0.0818399	-0.00335119	0.0237783	0.0438709	0.0540846
DB05107	0.0735839	-0.0151716	0.0598336	0.00941176	0.0124674	0.0238245	-0.00912952	-0.0364768	0.0671379	-0.0541802	0.00112412	0.0238307	0.0468071	-0.0250532	-0.0072435	-0.0186193	0.0603299	-0.0537164	-0.0673559	0.0251202	0.060128	0.0412988	0.0334189	-0.0703322	-0.0220325	-0.0533443	-0.0645862	-0.0186958	0.00928463	-0.0847292	0.027922	-0.0286917	0.100027	0.00401366	0.0158579	-0.0712225	0.0175814	-0.0943868	0.00772264	0.072615	0.0467248	-0.0150958	-0.0131852	0.0179141	-0.0100311	0.0321967	-0.00033981	-0.0262959	0.0492493	-0.0816113	-0.0183785	0.0150361	0.0651235	0.100705	-0.0269454	0.0353733	0.103745	0.0359667	-0.0544501	0.201062	-0.0549967	-0.062521	0.00804166	0.0365309	0.051288	0.0703142	-0.0372804	-0.0491643	-0.0350868	-0.00694539	-0.0522526	-0.032266	-0.0238392	-0.0829512	-0.0315244	0.0857518	0.0136097	-0.0791669	-0.0787432	0.00497633	-0.0900297	-0.027597	-0.106884	-0.0376337	-0.0639983	-0.0121541	0.0259366	0.01093	0.000197866	0.0560887	-0.0839794	-0.023343	0.0211592	0.03015	0.0873519	0.0487279	-0.00370687	-0.0395924	-0.0442907	0.0753353
DB00743	0.000282179	-0.0273562	0.0424838	0.0191822	-0.0716604	-0.0459575	-0.0295371	-0.0164884	0.0375673	-0.0218376	0.0902068	0.0847004	0.0769094	0.0839409	-0.0660471	-0.0165327	0.0268456	-0.0119503	-0.0442357	-0.000635868	0.0571126	0.0650556	0.0542531	0.0319753	-0.0540694	-0.0673861	-0.0668578	-0.0659677	-0.00319604	-0.0844907	0.0564847	-0.0554081	0.170794	0.0187595	0.0385485	-0.0693475	0.0256547	-0.0624682	-0.0209763	0.0431588	0.121039	0.00687495	-0.0269081	0.000848478	-0.0520917	-0.00437298	-0.0231576	-0.105002	0.0220891	-0.0893553	-0.0622752	-0.0561482	-0.0336389	0.141519	-0.0441402	0.0442127	0.0960227	0.0672316	0.0125403	0.235091	-0.0746083	-0.0302025	0.0213991	0.0278329	0.0689241	0.103533	-0.110482	0.0194463	-0.0984332	0.0356486	-0.0887207	-0.0056231	0.0194906	-0.0239357	-0.0918785	0.082877	0.040957	-0.0912754	-0.104561	-0.0597162	-0.0661722	-0.0268134	-0.103457	-0.0163063	-0.10038	-0.0287716	0.0805498	0.0140601	-0.0174917	0.0331878	-0.0404938	-0.0696411	0.0782903	-0.0321709	0.0793305	0.0454131	0.0296572	0.0250401	-0.00296591	0.0805694
DB05101	0.0216254	-0.0279163	-0.0287092	-0.0308128	-0.0181944	-0.0763484	-0.0142051	-0.00679871	0.0322229	-0.0230582	0.0141114	0.0218242	0.0205282	-0.0820865	-0.0478474	-0.055755	0.0534551	-0.0458334	-0.0279069	0.0574822	0.0349515	0.0480761	-0.0320254	0.0150673	-0.0356426	-0.0488855	-0.0381812	-0.0152428	-0.0415244	-0.047907	-0.0282757	-0.0378536	0.0601861	0.0325509	-0.0385112	-0.077329	0.0475789	-0.035186	0.0337865	0.0262783	0.19632	0.00345437	0.0160269	0.00836507	0.0475485	-0.0193163	-0.00723199	-0.0638182	-0.00706151	-0.0274741	0.00977053	0.0127067	0.0402627	0.0608119	0.00638792	0.0338888	0.033354	-0.00933346	-0.0285624	0.172513	-0.0271285	-0.0281655	0.0619944	-0.0275685	0.0661581	0.0135006	-0.033143	-0.0123425	0.000959476	-0.000810402	0.0105777	-0.0771457	-0.0243415	0.0181613	-0.0545055	0.0623424	-0.000743139	-0.0584076	-0.0533083	0.0296251	-0.0626654	-0.0276124	-0.0392096	0.00190898	-0.0761711	-0.0279331	0.0868203	0.0293139	0.0337462	0.0482088	-0.0321492	-0.0491799	0.01239	-0.0193247	0.0539701	0.0431363	0.0147144	0.0194618	-0.0118203	0.0227909
DB05100	-0.00292474	-0.0553409	-0.0169368	0.00370741	-0.0441594	0.0249847	-0.011721	-0.013871	0.0485612	-0.0269568	0.0531539	0.0395451	0.11621	0.0399099	-0.0632636	-0.0357966	0.102924	-0.0515433	-0.0438123	0.0447546	0.0484387	0.0792687	0.0429053	-0.0420255	0.0105281	-0.0659515	-0.028761	0.0104639	0.000256303	-0.0830487	0.0419208	-0.0445155	0.0446112	-0.00235224	0.00946505	-0.120999	0.0754735	-0.0927313	-0.059532	0.071212	0.142193	-0.0253497	0.0404869	0.0693836	-0.064665	0.0527311	-0.0189092	-0.0154477	0.0441894	-0.0464544	-0.0198484	0.00945101	0.0479151	0.0402729	-0.0056341	0.018715	0.0442403	0.0166277	-0.0237522	0.168557	-0.00749546	0.0332711	0.0400026	0.00626355	0.0491055	0.0719783	-0.0395806	-0.0426034	-0.0361702	-0.0193559	-0.0549971	0.0151096	0.0501603	-0.0892801	-0.0306976	0.0222446	-0.0126169	-0.0831756	-0.0962896	-0.031201	-0.0944749	-0.0824076	-0.055732	-0.0236863	-0.0918952	-0.0338327	0.0163131	0.0308932	-0.00384254	0.00551646	-0.03016	-0.0275581	0.0189383	-0.07151	0.0327966	0.0808629	-0.00858959	-0.0201152	-0.0467229	0.0396943
DB09161	0.101886	-0.0293459	0.0484824	0.0276075	-0.0479842	-0.124	-0.0336692	-0.0136877	0.0343981	-0.00828606	0.0907708	0.0686385	0.0307477	0.0363228	-0.0334519	0.0385173	0.118273	-0.0301984	-0.0657417	0.0623695	-0.0180265	0.0624737	0.0376077	0.0393651	-0.00564837	-0.0305299	-0.067941	0.014804	-0.006664	-0.00277858	0.0332269	-0.0360359	0.0611987	0.0139413	0.0439084	-0.0864089	-0.0124754	0.00368967	-0.0658414	0.0973093	0.0684003	-0.00172539	-0.0331967	0.0312275	-0.0613119	0.0205519	-0.00304169	-0.0828741	0.0322737	-0.0416311	-0.0304418	0.0105153	0.00840648	0.0956052	-0.0521598	0.031139	0.0325788	0.0200306	0.0185583	0.185876	-0.0843593	0.0460175	0.0705496	-0.0173961	0.0678968	0.0704868	-0.031283	0.00378757	-0.0493715	0.0442579	-0.0558737	0.0240553	0.0416879	-0.0402709	-0.0424573	-0.00535207	0.0202688	-0.0667522	-0.0690862	-0.0727847	-0.077665	-0.0401078	-0.0572001	-0.0389943	-0.0490753	-0.0335815	0.0214891	0.00429243	-0.0125333	0.0304364	-0.0457323	0.00214985	0.0718055	0.0325778	0.0498302	0.0434327	0.00209022	-0.0533906	0.00998198	0.0547395
DB09162	0.061338	-0.0223767	-0.0455268	-0.0503714	-0.0674529	-0.0513072	-0.0012396	0.0517333	0.0616261	0.0353904	0.0209806	0.065808	0.0539162	-0.0056809	-0.0230762	-0.0068736	0.0389653	0.00956945	-0.0432278	0.0608561	0.00324666	0.0667206	-0.00612558	0.0411164	-0.0255958	-0.0806841	0.0136888	-0.0182965	-0.0323207	-0.0701698	0.0266624	-0.0350543	0.063429	0.0189353	0.0343396	-0.0800206	-0.014776	-0.0439947	-0.0311478	0.0254625	0.109273	-0.00814718	-0.00683452	0.011771	-0.0290351	0.0319432	-0.00877225	-0.0437052	-0.0100461	-0.00510673	0.00506695	0.0244003	0.0162886	0.0908312	-0.0351226	0.0381774	0.0801565	0.0459103	-0.0075626	0.193451	-0.0395769	-0.0103361	0.0377495	-0.0440526	0.0848118	0.0368358	-0.0466605	0.0155455	-0.0437557	0.0287136	-0.0472154	5.88379e-05	-0.00154789	0.0367624	-0.0615372	-0.00499163	0.0296825	-0.0765805	-0.0164518	-0.0419834	-0.0465046	-0.00549421	-0.0130031	-0.00634461	-0.0920179	-0.0157953	0.0517035	-0.00593	0.0267746	0.0383556	0.00662769	-0.0261104	0.0481183	-0.0180621	0.00421859	0.00815028	0.0341057	-0.0123496	0.0249458	0.0165877
DB05109	0.0803189	-0.0196261	0.0264335	-0.00754284	-0.0306427	0.0269941	0.019625	-0.0479604	0.0216757	-0.0638401	0.0942887	0.0226911	0.137002	-0.0341493	-0.0912847	-0.0558416	0.103235	0.000816935	-0.0296402	0.0686684	0.0498902	0.131255	0.0510322	0.0499845	-0.0335358	-0.0023674	-0.0980053	0.00202623	-0.0306489	-0.0312318	-0.0313543	-0.0616295	0.104293	0.0243452	-0.0134391	-0.129237	0.0215867	-0.106825	-0.0121339	0.0479015	0.0678359	0.0366737	0.0460586	0.0475964	-0.0534077	0.0124386	-0.000109402	-0.1067	0.0611016	-0.0430338	0.00116655	-0.0875831	-0.00235798	0.0600205	-0.0258565	0.0876424	0.0739393	0.0440408	0.00670268	0.245154	-0.04204	-0.0350032	0.0681563	0.0202907	0.0461397	0.10877	-0.11427	-0.0659421	-0.0544764	0.0289319	-0.0451882	-0.0358471	0.0059516	-0.0776574	-0.0718925	0.0650004	0.0371838	-0.105276	-0.0914507	-0.0839088	-0.108306	-0.0600694	-0.0787968	-0.0733991	-0.0582952	-0.00296011	0.0776937	0.0250497	-0.0254617	0.0269228	-0.0433678	-0.0854545	0.0631337	-0.0374099	0.0917935	0.0641455	0.0461102	-0.0101549	0.046551	0.0511599
DB01319	0.0114003	-0.0259612	0.0499674	-0.0262894	-0.0475269	-0.0516009	0.028248	-0.017867	0.0035982	-0.0555061	0.106256	0.02665	0.115551	-0.0134591	-0.0763255	-0.0316543	0.0891849	-0.0602614	-0.0818577	0.0811155	0.0501947	0.0951487	0.0333847	-0.0525501	-0.0275584	-0.0508264	-0.108981	-0.0121368	-0.0106582	-0.00667343	-0.0252073	-0.0417214	0.167993	0.0414664	-0.0220744	-0.0894382	0.0427237	-0.0944728	-0.00688962	0.026952	0.0628	0.0429277	-0.0292292	0.0371564	-0.0666369	0.0335257	-0.0392397	-0.0864534	0.0335453	-0.077664	-0.0494908	-0.0685148	0.0244499	0.121378	-0.0293753	0.0644618	0.112708	0.0729833	-0.0168858	0.238467	-0.0738741	-0.0543697	0.0698925	0.0353793	0.0467156	0.103023	-0.0961683	-0.0381376	-0.0602318	0.00270526	-8.72766e-06	0.00306307	-4.73764e-06	-0.0545248	-0.109688	0.0201782	0.0282212	-0.0664531	-0.0979405	-0.0935363	-0.0808215	-0.0630205	-0.105621	-0.0328455	-0.0804008	0.00109187	0.043621	0.0339345	-0.0272299	0.0609306	-0.0837727	-0.0604828	0.0566869	0.000824671	0.0251741	0.0488039	0.00809156	-0.0162557	0.0470666	0.0867365
DB01178	0.0129826	-0.00863349	-0.00631306	-0.0214827	-0.0382255	-0.0952152	-0.0148585	-0.060795	-0.0172771	-0.0562569	0.0974603	0.019258	0.121585	0.0397825	-0.066119	-0.0108253	0.0493709	-0.0250524	-0.0332621	0.0503051	0.0589451	0.0664518	0.0326448	-0.0623264	-0.00915912	-0.0436089	-0.0541746	-0.009928	0.0191163	-0.0854779	0.0570693	-0.0534105	0.145293	0.00369067	0.0142828	-0.104954	0.0632585	-0.0924266	-0.00364306	0.0284831	0.137008	-0.00881523	-0.0245357	0.0187617	-0.0702459	0.0137767	0.0081936	-0.0575978	0.0531413	-0.0347486	0.00589965	-0.0539684	0.048618	0.139436	-0.0392731	0.0243603	0.00852121	0.0194251	-0.00280837	0.209406	-0.0609914	0.0308399	0.0757121	0.0216996	0.0637238	0.0800857	-0.118282	-0.0392993	-0.0599133	0.0329162	-0.0559536	-0.00642148	-0.069018	-0.0742154	-0.0374326	0.0824268	-0.00955184	-0.0941428	-0.114447	-0.0874081	-0.121003	-0.109755	-0.0414604	-0.0327671	-0.0939449	-0.0308795	0.0387599	0.0366033	0.00678424	0.0558517	-0.0718216	-0.0670098	0.0251846	-0.0667456	0.106415	0.120707	0.00235914	-0.0114885	-0.0344212	0.055425
DB01179	0.0291276	-0.0229359	0.026447	-0.0119939	-0.0503586	-0.0341959	-0.0135768	-0.0663925	-0.0170653	-0.0801901	0.10401	0.0408711	0.109569	0.0288293	-0.0380429	0.00170291	0.103167	-0.0273135	-0.0351448	0.0826366	0.0595995	0.132204	0.0205826	-0.0362202	-0.0623274	-0.0272948	-0.0847376	-0.0231317	-0.0217807	-0.075382	0.0157324	-0.0662262	0.145967	0.0317888	-0.00162556	-0.152624	0.0453821	-0.103518	-0.0520349	0.0227829	0.154429	0.0169975	0.0157523	0.0208315	-0.0799692	0.0425668	0.0119017	-0.0986769	0.0241728	-0.0975215	-0.032245	-0.0817637	0.034192	0.129023	-0.0331813	0.0546009	0.0638385	0.00952506	-0.0522922	0.260939	-0.0403727	-0.0690893	0.0573174	0.0188718	0.0265835	0.0845454	-0.139223	-0.068712	-0.0599204	0.010302	-0.0537129	-0.0021282	-0.0604055	-0.0119866	-0.133331	0.0749138	0.0408755	-0.0771704	-0.0770339	-0.0591923	-0.0780688	-0.105296	-0.0556417	0.0209476	-0.100131	0.0267632	0.0590668	0.0342267	-0.0107038	0.0301301	-0.0998402	-0.0605239	0.046738	-0.00745098	0.0876192	0.107959	0.000710084	0.0123393	0.0479934	0.0329809
DB01176	0.10581	-0.00956137	0.0268926	-0.0387039	-0.0313541	-0.109551	0.00115381	-0.0588415	-0.00341959	-0.0604634	0.0938236	0.0438688	0.113114	0.0238007	-0.0922401	0.00621505	0.0875507	-0.00696732	-0.0321202	0.0662601	0.016619	0.126047	-0.0111361	-0.0660886	-0.0534973	-0.0471139	-0.0848963	-0.056275	0.00774902	-0.0307575	0.0246792	-0.0447365	0.147039	0.0112683	0.0218914	-0.102916	0.0656542	-0.103373	0.0198233	0.053543	0.0833391	0.0133192	-0.0240045	0.0125292	-0.0550601	0.0209315	0.0228219	-0.105913	0.0125735	-0.0785657	-0.0488968	-0.0540013	0.0125974	0.1195	-0.0367442	0.0415348	0.0526588	0.037068	0.0124995	0.268982	-0.0441042	-0.0319534	0.068156	-0.00190797	0.0486185	0.0743104	-0.146556	-0.0111269	-0.0632622	0.0427865	-0.0188525	-0.06597	-0.0374045	-0.0109207	-0.110013	0.0830615	0.034317	-0.0847416	-0.0844633	-0.0974189	-0.0949295	-0.0547966	-0.0251692	-0.0341977	-0.0752909	0.00498658	0.0642802	0.0251138	0.00159035	0.0578996	-0.0544041	-0.0618817	0.065676	-0.0457803	0.107624	0.0566119	0.00876447	0.0114077	-0.0205602	0.0796766
DB01177	0.0837275	-0.0123585	0.0542441	-0.0412495	-0.0195115	-0.0629003	0.0146121	-0.0922604	-0.031345	-0.0590582	0.0838655	0.0446619	0.045954	0.00656935	-0.0942866	-0.0289798	0.123467	-0.0299219	-0.0279546	0.0936028	0.00356418	0.106078	-0.00185872	-0.0769196	-0.0477323	-0.0378329	-0.106995	-0.00407303	-0.0230417	-0.0817541	0.0141316	-0.0835409	0.171077	0.0639934	-0.0116554	-0.155342	0.0536187	-0.10149	0.00651	0.0783672	0.156081	0.0245785	-0.00738077	-0.0321445	-0.107909	0.054964	-0.0124877	-0.102099	0.0526667	-0.0884839	-0.0428513	-0.0811306	0.0257675	0.0659624	-0.0615461	0.106168	0.0214763	0.0337564	0.018923	0.24543	-0.0766715	-0.099602	0.0631212	0.0137469	0.0600098	0.0980286	-0.153426	-0.0162718	-0.0662597	-0.00169738	-0.0437893	-0.0271308	-0.0382553	-0.0309794	-0.108394	0.0722185	0.0287245	-0.0959215	-0.110736	-0.0872606	-0.0969973	-0.0545327	-0.0714869	-0.0527982	-0.0989492	0.00573949	0.0405745	0.0396596	-0.0251211	0.0168247	-0.0754932	-0.0384603	0.039353	-0.0443588	0.0812074	0.04574	0.0217325	0.0132203	0.0455641	0.0643215
DB01174	0.0794672	-0.038488	-0.00573489	0.00337571	-0.00428404	-0.07153	-0.0246237	-0.0784264	-0.0321964	-0.0816642	0.081758	0.0790236	0.104466	0.0188283	-0.0818576	-0.0337641	0.0874785	-0.0183026	-0.0507906	0.110414	0.0470385	0.120681	0.0543612	-0.0198971	-0.068399	-0.033398	-0.107006	-0.0839058	0.0148036	-0.0994666	-0.0151419	-0.0879235	0.171516	0.0526881	-0.0109328	-0.173265	0.0180997	-0.0984281	-0.0597128	0.0240526	0.0656424	0.0166353	0.0104568	-0.0335856	-0.0974747	0.0512913	0.0151233	-0.112888	0.0175757	-0.0956399	-0.0520959	-0.0751163	-0.0151347	0.0947568	-0.0049971	0.0880536	0.111867	0.049883	0.00888455	0.243539	-0.0564075	-0.0937723	0.051999	0.00351566	0.0174454	0.0990818	-0.153101	-0.0693747	-0.0723704	0.0758907	-0.0860662	0.00792781	-0.0648005	-0.0725964	-0.156618	0.0811858	0.0643735	-0.0838061	-0.0655816	-0.0915372	-0.0963514	-0.055585	-0.0652944	-0.0223724	-0.106902	-0.0148528	0.0836434	0.0134366	-0.0160487	0.0337488	-0.0791396	-0.00149274	0.080291	-0.020484	0.0780181	0.0488312	0.055873	0.0165674	0.00626135	0.0603332
DB01175	0.0366576	0.00282783	0.0581826	-0.0160351	-0.0133468	-0.0622445	0.00997178	-0.041768	-0.0225588	-0.0768967	0.0942949	0.0461304	0.116419	0.00683078	-0.0944025	-0.00368364	0.0463799	-0.0366604	-0.0490365	0.0730777	0.0563729	0.128031	0.0248617	-0.0255358	-0.0518476	-0.0244677	-0.0855691	-0.0636999	-0.0340013	-0.0910845	-0.0245403	-0.095545	0.169468	0.0651722	-0.0295877	-0.146985	0.0702026	-0.0968558	-0.00790298	0.0743947	0.0986941	0.0419749	0.00473343	0.0276625	-0.0766478	0.0483559	-0.0182737	-0.0914499	0.0492163	-0.101643	-0.0229846	-0.0722098	0.0127843	0.135328	-0.0552678	0.108533	0.101239	0.0436376	-0.0348181	0.260346	-0.056242	-0.0968521	0.0263454	0.0326415	0.0267275	0.0885157	-0.152743	-0.00926089	-0.0862494	0.00382063	-0.0380507	-0.0269961	-0.0320834	-0.00961889	-0.0900863	0.0570412	0.0641624	-0.0851577	-0.0703485	-0.100464	-0.112177	-0.0483538	-0.110522	-0.0467018	-0.0717349	-0.0224491	0.0565868	0.046159	-0.0325577	0.014654	-0.0825477	-0.0479418	0.0453906	-0.0559141	0.0963164	0.0534616	-0.00146962	0.0137272	0.0140407	0.055346
DB01172	0.042495	-0.0233366	-0.0119516	-0.00200139	-0.0204246	-0.0673156	0.0294402	-0.0738106	-0.039803	-0.0521686	0.0773649	0.0312581	0.11945	0.0259551	-0.0795898	-0.0177893	0.0209835	-0.012115	-0.0400237	0.0456696	0.0536271	0.122843	0.0172613	-0.0476661	-0.0274845	-0.0563014	-0.101622	-0.0155229	0.0212181	-0.0736991	0.00482245	-0.0618529	0.113216	0.0387918	-0.0083438	-0.144494	0.0619922	-0.101954	-0.0282634	0.0268548	0.153646	0.0308261	-0.0125535	-0.0292421	-0.0612951	0.0337155	-0.00991956	-0.0752776	0.0544534	-0.0918782	0.0012247	-0.0752224	0.0481289	0.0698946	-0.035848	0.0406454	0.0895323	0.0408378	-0.0318568	0.245116	-0.0537424	-0.0657559	0.0386475	0.026238	0.0453312	0.0702474	-0.13444	-0.0631253	-0.0734516	0.00657298	-0.0282279	-0.0744665	-0.0584364	-0.0705062	-0.142059	0.0733846	-0.00388201	-0.0771874	-0.0670391	-0.0547804	-0.0671237	-0.0908422	-0.0309188	-0.0492105	-0.107172	-0.0210411	0.0464949	0.00912813	-0.0310571	0.0196042	-0.0685653	-0.0599795	0.0642159	-0.0532104	0.107328	0.0394459	0.0200211	0.0247978	0.0583616	0.0598933
DB01173	0.0259074	-0.0190726	0.0248564	-0.0310436	-0.0227689	-0.0677337	-0.0477829	-0.0691175	-0.0123447	-0.0705776	0.108488	0.0765435	0.0900893	0.0305563	-0.100423	-0.00452035	0.0338469	-0.0674359	-0.034461	0.0979204	0.0568852	0.119911	-0.0101432	-0.0404706	-0.0641847	-0.039815	-0.0996023	-0.0752747	-0.0032666	-0.0432364	0.0581113	-0.0647155	0.18619	0.056337	0.0120799	-0.151479	0.0477958	-0.12229	-0.0166924	0.037508	0.133638	0.00670145	-0.00303173	-0.00824867	-0.0761985	0.0273131	0.00560114	-0.121428	0.0384694	-0.0830986	-0.0664072	-0.0638686	-0.010114	0.116659	-0.0444432	0.0791848	0.0886533	0.0524895	-0.0391594	0.256218	-0.0667784	-0.0834691	0.0595818	0.00870494	0.0591784	0.0877851	-0.152439	-0.0326708	-0.108297	0.0498694	-0.0567278	-0.0626274	-0.05245	-0.0681241	-0.134978	0.0805718	0.0521164	-0.0667024	-0.0823678	-0.0592914	-0.122558	-0.0492661	-0.0305615	-0.00786935	-0.0613529	-0.0118789	0.0738257	0.0217731	0.0131068	0.0497735	-0.0992179	-0.0214302	0.0766964	0.0252036	0.0382371	0.0455282	-0.0111683	0.0346029	0.0386519	0.0575793
DB01170	0.0549203	-0.0228811	-0.00359856	-0.0390554	-0.0443153	-0.0773139	0.00131905	-0.0297734	-0.0330504	-0.0456775	0.104155	0.0521905	0.111918	0.027108	-0.0696599	-0.013045	0.0804729	-0.01454	-0.0295667	0.0699595	0.0637061	0.0874091	0.0230445	-0.0488023	-0.0438405	-0.0559645	-0.0916591	-0.0095244	0.00646836	-0.0894511	0.026609	-0.0584631	0.135685	0.0571536	-0.0050848	-0.158125	0.0496386	-0.103152	-0.0113761	0.024892	0.129386	0.00563791	0.0334402	0.0358698	-0.0870043	0.0341011	-0.0183894	-0.111173	0.0321795	-0.0898989	-0.047588	-0.0610707	0.0443848	0.126053	-0.046301	0.0401077	0.0821444	0.0364203	0.0165695	0.276799	-0.0746177	-0.0513152	0.0576502	0.0215397	0.0489488	0.106649	-0.145169	-0.0276146	-0.0811065	0.0501786	-0.0164268	-0.0464571	-0.075154	-0.0835239	-0.116238	0.0610254	0.0382644	-0.0836826	-0.105775	-0.0867254	-0.0990523	-0.100862	-0.0292049	-0.044736	-0.100641	-0.0226845	0.045088	0.0133734	0.00495874	0.0122796	-0.048449	-0.0526306	0.0572608	-0.0481979	0.0821652	0.0406791	0.0112975	0.0333364	-0.0302049	0.0877936
DB01171	0.0793468	-0.00549699	0.0309433	0.00899686	-0.0109235	-0.0935344	0.0137553	-0.0405761	0.00961817	-0.0781519	0.0946141	0.0509169	0.0999573	0.0354121	-0.101246	-0.0357756	0.0458615	-0.0107443	-0.0503209	0.0748552	0.0384659	0.12009	0.0515146	0.0259573	-0.0316499	-0.0558505	-0.0693097	-0.0449215	0.00330352	-0.0719414	-0.011595	-0.0520386	0.139264	0.0238737	-0.00338548	-0.123725	0.045882	-0.0932994	-0.043185	0.0197593	0.0432209	0.0181507	-0.00642337	0.0235326	-0.0809807	0.0219018	-0.00900196	-0.112823	0.0641372	-0.106302	-0.0479804	-0.0833992	-0.00497837	0.111964	-0.0398435	0.0692528	0.0558561	0.0361869	0.0391008	0.248848	-0.0336655	-0.0682443	0.027043	0.0297923	0.0351986	0.103825	-0.120349	-0.0600994	-0.0627741	0.062001	-0.0393926	-0.0386714	-0.0713128	-0.0152837	-0.128805	0.0701322	0.0319712	-0.0783825	-0.104666	-0.0959017	-0.114539	-0.0476893	-0.0494006	-0.0383877	-0.0934252	-0.0320482	0.0780659	0.0336577	-0.0284991	0.0284696	-0.0880431	-0.0465354	0.0612415	-0.0558208	0.101973	0.0727238	0.0432453	0.0180403	-0.0160806	0.0401353
DB01489	0.0684534	-0.0184737	-0.0111946	-0.0126869	-0.0502994	-0.010263	0.00223123	-0.00333683	0.0181456	-0.0791843	0.0323082	0.0394677	0.123842	0.0483866	0.00841676	-0.0209888	0.0979462	-0.0298242	-0.0187058	0.0209725	0.0534561	0.0942943	0.0297046	-0.0489826	0.0260473	-0.0757087	-0.0767535	-0.00448066	-0.0137701	-0.095131	0.0498368	-0.0632556	0.1049	-0.0137072	0.0363466	-0.145142	0.064234	-0.0930228	-0.0564366	0.0648785	0.0642503	0.0202792	-0.0271207	0.020437	-0.0347521	0.0473103	0.0116611	-0.074742	0.0897697	-0.097348	-0.0392488	-0.0588932	0.103352	0.0947607	-0.0346853	0.0310221	0.0245416	0.00759911	-0.0736482	0.186202	-0.00751038	-0.0433564	0.0725231	0.0133818	0.0330364	0.0386632	-0.114738	0.0175379	-0.0689641	0.0360005	0.0262026	0.0151082	-0.00102141	-0.058624	-0.103012	0.055086	-0.00430074	-0.100308	-0.115191	-0.0431666	-0.12272	-0.0883695	-0.0358648	-0.0285056	-0.10502	-0.036542	0.0311937	0.0172766	-0.0283082	0.00271676	-0.0706415	-0.062132	0.0388416	-0.0737433	0.0790547	0.0514941	0.0018009	-0.0331283	-0.0438756	0.0828055
DB01484	0.0937402	-0.0189176	-0.00552137	0.0263795	-0.0300767	-0.0695298	0.014793	-0.0715241	0.0562604	-0.0243345	0.0874898	0.0619239	0.112015	-0.0363194	-0.00634514	-0.0109124	0.0942907	-0.0338333	-0.0589973	0.0747031	0.0603225	0.049498	0.0334387	-0.0479333	-0.0147688	-0.0580964	-0.0289038	0.00895321	-0.00920353	-0.0068805	0.0341882	0.013277	0.0492611	0.0145698	-0.000753469	-0.155589	-0.017374	-0.00897566	-0.044839	0.0802667	0.0937801	-0.00122566	-0.0146615	-0.0223745	-0.0583115	0.0432901	-0.0034989	-0.0474203	0.0831841	-0.0952114	-0.0327331	0.0112118	0.0108191	0.0629997	-0.00555379	0.0417678	0.0226728	-0.0180625	-0.0634134	0.145033	-0.0804271	0.040177	0.0562599	0.0565655	0.0219558	0.0635257	-0.0513832	-0.0611177	-0.0382326	0.0409592	-0.0537206	0.0199719	0.0198294	-0.0961495	-0.120981	0.0502487	0.0260069	-0.0917879	-0.110592	-0.050587	-0.0725668	-0.0426144	-0.0526711	-0.0558722	-0.0213704	-0.0347079	0.0381159	0.0442946	0.00505836	0.00205727	-0.07695	0.00283079	0.0326073	-0.0710812	0.0176416	0.101428	0.00978709	-0.0392191	-0.0288198	0.0153824
DB01483	0.094584	0.0241648	-0.0108352	-0.0331915	0.0367447	-0.0309768	-0.0199853	-0.00192976	0.00566862	-0.0724256	0.00475499	0.00353369	0.0653261	-0.0334351	-0.0800337	-0.00122029	0.0629966	-0.0530797	-0.0315374	0.0677792	0.0552985	0.0943801	-0.0229874	-0.0688744	-0.0584222	0.00962488	-0.101854	-0.0627763	0.0277699	-0.00821616	0.0659774	0.00114209	0.161591	0.020773	-0.0421311	-0.176066	-0.0201066	-0.0665471	0.0142925	0.0777038	0.145529	0.016443	0.0189664	-0.012676	-0.0422636	-0.0149822	0.0282141	-0.0843033	0.0296311	-0.0561732	-0.041269	-0.0926701	0.00552209	0.104007	-0.0121445	0.0673471	0.0328145	0.00925704	0.022173	0.208642	-0.0777782	-0.00307908	-0.0541168	0.00616099	0.0396916	0.0693788	-0.0974685	-0.0777309	-0.0695227	0.0210104	0.0332962	-0.0820016	0.0526735	-0.0949026	-0.0987351	0.0831539	0.0443414	-0.0877143	-0.103574	-0.0973922	-0.0986084	-0.0572477	-0.0267627	-0.0647304	-0.0686696	-0.0396921	0.0524726	0.0292041	0.0234594	0.0653466	-0.0280008	-0.00672639	-0.0163908	0.0580531	0.103811	0.0875836	0.0283678	-0.020954	0.0195972	-0.00685329
DB00741	0.0784605	-0.0398886	0.064678	0.012311	-0.0704038	-0.0711696	-0.0411226	-0.0878179	-0.0243216	-0.10141	0.115727	0.0936323	0.0996013	-0.0252452	-0.119031	0.0208489	0.115775	-0.0238618	-0.0713798	0.0881308	0.0553233	0.11363	0.0136327	-0.0529611	-0.0872631	-0.0524042	-0.108867	-0.0642433	-0.0226523	-0.0685996	0.00504143	-0.0852234	0.171428	0.0605867	-0.00628118	-0.167791	0.00591072	-0.155873	-0.0518934	0.0545748	0.0607436	0.0225145	0.0323801	-0.0184663	-0.117969	0.0667747	-0.0325561	-0.113746	0.0111122	-0.10142	-0.0552201	-0.0355411	-0.0413232	0.120871	-0.0526438	0.119995	0.0982971	0.0473812	-0.0542562	0.261429	-0.0755497	-0.112797	0.0685584	0.0174854	0.0568907	0.108235	-0.149425	-0.0662936	-0.0838842	0.0496214	-0.0919483	0.0216743	-0.0642655	-0.0289853	-0.159378	0.0353767	0.0472725	-0.0449217	-0.0762539	-0.0983001	-0.12899	-0.0217251	-0.0513898	0.00315867	-0.111035	-0.00423948	0.0863423	0.036109	-0.0211704	0.0365743	-0.0879366	0.0076291	0.0908499	-0.0548533	0.117974	0.0150137	0.0748638	0.0283537	0.0557668	0.0345366
DB01002	0.0273863	-0.0612593	0.0565339	-0.00499651	-0.0560489	-0.0218747	0.00733948	-0.0663271	-0.0166057	-0.0680031	0.0894852	0.0684825	0.109905	0.0397729	-0.0252099	-0.025684	0.0283464	-0.0264155	-0.0284212	0.0369585	0.0189761	0.118569	0.0322604	0.0182625	-0.0302512	-0.0746155	-0.0605909	-0.0136943	-0.00316838	-0.075429	0.0169113	-0.041971	0.134029	0.00893032	-0.00868311	-0.12576	0.0606618	-0.0881462	-0.0159871	0.084173	0.122885	0.0192718	-0.00701744	0.0547144	-0.0146521	0.0186832	-0.0171032	-0.0688895	0.0665884	-0.109111	-0.0428577	-0.0691363	0.00533529	0.144874	-0.0483823	0.0533307	0.0253327	0.0263502	0.012709	0.202293	-0.0385186	-0.0179757	0.0488417	0.02701	0.0500778	0.0715105	-0.127153	-0.0597672	-0.0684478	0.0546328	-0.0574361	-0.0245252	-0.0665205	-0.0771739	-0.0818279	0.0825462	0.041604	-0.0829109	-0.111722	-0.082776	-0.0923589	-0.0959389	-0.094412	-0.0539855	-0.0730723	0.0277839	0.039708	-0.000497072	-0.040804	0.031267	-0.0678293	-0.0824942	0.0843884	-0.0590312	0.100729	0.0553129	0.00702516	-0.00562207	-0.026959	0.0774873
DB00578	0.048189	-0.00316949	-0.00502018	-0.0573718	0.00789275	-0.0137712	0.0166961	-0.0688551	-0.0291396	-0.0477386	0.0700791	0.0197183	0.113979	0.01313	-0.0618669	-0.0613745	0.0988843	-0.0244448	-0.0358038	0.0590137	0.0383094	0.129547	0.0287264	-0.0228509	-0.0250361	-0.0674347	-0.116039	-0.0131353	-0.00173361	-0.0916455	0.0376912	-0.0462645	0.164295	0.019112	-0.0177928	-0.0982639	0.0608571	-0.0913304	-0.0153554	0.0624905	0.136815	0.00111575	-0.0111022	0.0260745	-0.0566872	0.0374761	0.00395686	-0.0853644	0.069327	-0.0530073	-0.00176133	-0.100164	0.0413912	0.0929848	-0.0589723	0.0841761	0.0847189	-0.0070659	-0.0359826	0.271479	-0.0573683	-0.0476281	0.036587	0.0311223	0.0464484	0.100878	-0.158666	-0.0684437	-0.0603714	0.0355587	-0.0149834	-0.0626384	-0.0270091	-0.0841988	-0.143565	0.0141901	-0.0324074	-0.0901865	-0.0790652	-0.0825278	-0.0768403	-0.109539	-0.0792386	-0.0613939	-0.0410591	0.0278543	0.0624708	0.0205318	-0.0313057	-0.00624741	-0.0601122	-0.0562738	0.0505962	-0.0526577	0.11838	0.0558621	0.0157787	-0.0011865	-0.00196169	0.0624682
DB01000	0.0397095	-0.0406321	0.0518346	-0.0529007	0.053615	-0.0889806	-0.0285639	-0.0825659	-0.0393448	-0.0748529	-0.023584	0.0475483	0.109468	0.0347417	-0.0487743	-0.0279643	0.0987346	-0.0266526	-0.0258109	0.0459666	0.0486517	0.124554	0.0041347	0.0269831	-0.0223795	-0.0396718	-0.103654	-0.0312283	0.0569562	-0.0986142	0.0403375	-0.066151	0.16958	0.0279554	-0.00227795	-0.115486	0.0611012	-0.0977724	-0.00339193	0.0744352	0.128097	0.0350948	-0.0183568	0.0186201	-0.0682036	0.0191321	0.0448927	-0.0810356	0.034797	-0.0915766	-0.0301117	-0.0913579	0.0910183	0.105142	-0.00341638	0.035877	0.0426797	-0.0140934	0.0142338	0.221113	-0.0291823	-0.0289641	0.0355431	0.0128769	0.0391025	0.0900856	-0.144754	-0.0481793	-0.0266248	0.0410857	-0.0526538	-0.0451468	0.00801065	-0.0780479	-0.129695	0.0752612	-5.4126e-05	-0.106347	-0.0973026	-0.0380101	-0.12748	-0.0986758	-0.0898586	-0.0495825	-0.0958069	-0.0214397	0.064675	0.00880453	0.00182068	0.041724	-0.0782512	-0.0523012	0.00774769	-0.0635289	0.115916	0.0543511	0.00466962	0.0242894	0.010709	0.0429428
DB01001	0.0638356	-0.0294129	0.0511972	0.0293284	-0.0573542	-0.0825828	-0.00845677	-0.0722842	-0.0152508	-0.0557882	0.126888	0.0925867	0.104969	-0.0123363	-0.0951634	-0.00859634	0.0322117	-0.0670485	-0.0928682	0.0931597	0.0521975	0.100292	0.0552466	-0.0055642	-0.0652828	-0.062356	-0.0948025	-0.0552515	-0.00287135	-0.0527099	0.0172868	-0.0561236	0.161314	0.0707936	0.0219512	-0.141349	0.0191906	-0.14828	-0.0418174	0.0623047	0.091082	0.031974	0.0108511	-0.0238605	-0.09853	0.0582755	-0.044967	-0.132335	0.0241301	-0.092805	-0.0691779	-0.0473335	-0.0482415	0.133369	-0.0267778	0.0948674	0.0999501	0.0719187	-0.0305774	0.230107	-0.0732278	-0.0841024	0.0583949	0.0321985	0.0538631	0.0945488	-0.140096	-0.0715675	-0.0896031	0.0498145	-0.0685347	0.0356187	-0.065842	-0.0388019	-0.11028	0.0296758	0.0488186	-0.0604588	-0.0978483	-0.0877033	-0.0974878	-0.043986	-0.0381521	-0.0133846	-0.0879244	0.00756347	0.0517138	0.0291098	-0.0115681	0.0167687	-0.075298	-0.0320128	0.0980484	-0.0291628	0.0413157	0.0534415	0.0148825	0.0521112	0.0241486	0.0676659
DB01006	0.106606	-0.0365983	0.0479552	-0.0197047	-0.0578029	-0.0959055	-0.0167733	-0.0633085	0.0139279	-0.047797	0.0931977	0.0537404	0.100441	-0.0182384	-0.108122	-0.0161663	0.11956	-0.0161376	-0.0637916	0.0795968	0.0340686	0.119117	0.038277	-0.0515181	-0.051214	-0.0648488	-0.0511295	-0.0245934	-0.0306895	-0.0535881	0.00920686	-0.0384817	0.14525	0.0282135	0.0151337	-0.149191	0.0240009	-0.126939	-0.0234294	0.0327402	0.098124	0.0216257	-0.00188151	-0.0208323	-0.0653213	0.0302971	0.00817355	-0.0976916	0.0229928	-0.0066686	-0.0388777	-0.0551919	-0.0220355	0.127807	-0.0384229	0.0829912	0.0945937	0.0433219	0.0286858	0.268951	-0.0913069	-0.0888317	0.052028	0.0104461	0.0759555	0.103166	-0.131043	-0.0170624	-0.075517	0.0532079	-0.0194086	-0.0310544	-0.0527521	0.00750757	-0.104536	0.0550714	0.057904	-0.0600847	-0.0974778	-0.0940722	-0.0990031	-0.0653882	-0.0880151	-0.0315	-0.0878423	-0.0333458	0.0814274	0.0278772	0.0216509	0.0254838	-0.0781595	-0.0360511	0.0830089	-0.0623734	0.0427402	0.0582411	-0.00753136	0.0273538	-0.0124011	0.0704737
DB01007	0.0347429	-0.0413711	0.0172192	0.0110884	-0.0350888	-0.101882	0.0039062	-0.0427837	-0.0128609	-0.073072	0.104635	0.0584829	0.110466	-0.0378967	-0.108593	-0.0169572	0.0595305	-0.00873172	-0.0536489	0.0764859	0.0324497	0.1333	0.0252586	-0.0176088	-0.0636396	-0.0349555	-0.0868051	-0.0319541	-0.0358945	-0.0942354	0.00718187	-0.0342747	0.131652	0.0576848	-0.016663	-0.140329	0.0364582	-0.131328	-0.0183604	0.0293088	0.0810764	0.0310431	0.00817017	0.00144225	-0.0577306	0.0417832	-0.0150008	-0.0981765	0.0563369	-0.108383	-0.0353329	-0.0711836	-0.00664026	0.117418	-0.0350827	0.103104	0.0349732	0.04906	0.0172389	0.245798	-0.0324176	-0.0734162	0.0343523	0.00617846	0.0341387	0.106899	-0.135763	-0.0776992	-0.0539496	0.0311954	-0.0453427	-0.0256912	-0.0647632	-0.0406711	-0.10669	0.0495928	0.0622995	-0.102344	-0.100432	-0.0973061	-0.107979	-0.0703827	-0.117381	-0.0662977	-0.0918968	-0.0177042	0.0895471	0.0376399	-0.0380986	0.0293181	-0.0681227	-0.0719336	0.066169	-0.0418224	0.0864567	0.0811191	0.0264269	-0.00734339	-0.00450332	0.0440246
DB01004	0.0655198	-0.0294487	0.0540608	-0.0382031	-0.011883	-0.0640998	-0.0244015	-0.0632662	-0.00173599	-0.0684966	0.0802183	0.0399038	0.0580508	0.0214072	-0.086546	0.00943977	0.0885218	-0.00545877	-0.0532201	0.0816683	0.0755725	0.118897	-0.0238858	-0.017678	-0.0503375	-0.0307758	-0.0938379	-0.046504	-0.0108708	-0.0379402	-0.00327531	-0.0285585	0.176209	0.0412194	0.00590172	-0.128515	0.055433	-0.0693776	-0.0142181	0.0281934	0.100678	0.0400658	0.00687538	0.0363187	-0.0676139	0.0431634	-0.00980373	-0.100494	0.0448626	-0.0874263	-0.0240193	-0.0513513	0.0336422	0.136693	-0.0362789	0.115119	0.0841663	0.00754253	-0.00928276	0.242109	-0.0327565	-0.0962946	0.0409732	0.00846027	0.0403292	0.0706285	-0.155889	-0.0623231	-0.0804642	0.0560034	-0.0519417	-0.0182268	-0.0625282	-0.0150586	-0.0923	0.0312627	0.0249966	-0.0948647	-0.0586245	-0.0873298	-0.123421	-0.0528773	-0.0304186	-0.0353215	-0.0993973	0.0238821	0.0669362	0.0222218	-0.0146877	0.067474	-0.0813906	-0.0677839	0.0585146	0.0127501	0.0844022	0.0388543	0.0360467	0.0287099	-0.0170941	0.0703531
DB01005	0.0110956	-0.0139922	0.0160041	0.0201373	-0.0363993	-0.101534	-0.0181649	-0.0388827	-0.0173635	-0.0526829	0.0772271	0.0767199	0.106214	0.0315851	-0.0601336	0.00909379	0.0514299	-0.0169677	-0.0267192	0.0580391	0.0181065	0.0893748	0.0493619	-0.0531815	-0.0457982	-0.0663021	-0.0888186	-0.0788905	-0.0165262	-0.0962416	0.0395825	-0.0321003	0.170923	0.0112037	0.0272612	-0.157789	0.026405	-0.0945094	-0.0155746	0.0185345	0.152055	0.0290251	-0.023486	0.0175262	-0.0833428	0.0613593	0.00795659	-0.0949688	0.049814	-0.0948172	-0.0681749	-0.032487	-0.00442267	0.134205	-0.043488	0.0435456	0.0948358	0.0442245	0.0310149	0.267583	-0.0736305	-0.0592806	0.0464686	0.0303611	0.0458389	0.101437	-0.147832	0.00777075	-0.0946284	0.0796997	-0.0555851	-0.00200231	-0.0881558	-0.0217929	-0.11842	0.0764224	0.051225	-0.0763792	-0.103267	-0.0734465	-0.111238	-0.0500453	-0.0286556	-0.0252375	-0.103755	0.0106933	0.029801	0.00341632	-0.00711942	0.0182581	-0.100999	-0.0472706	0.0675187	-0.0397687	0.0609818	0.0560258	-0.00403788	0.0388643	-0.0150564	0.0802378
DB00571	0.0684527	-0.0455905	0.0577457	0.0127934	-0.0351953	-0.0586431	-0.0176814	-0.0732643	-0.00119743	-0.0935644	0.0990511	0.109641	0.10809	0.0133334	-0.115807	-0.0162961	0.0772346	-0.0331186	-0.0613936	0.11326	0.0500077	0.108057	0.039455	-0.0411064	-0.0689693	-0.0557688	-0.106667	-0.0665955	0.0150376	-0.0619017	-0.0100665	-0.0937096	0.183038	0.0231019	0.0093811	-0.162765	0.0259983	-0.0918937	-0.0278998	0.0570957	0.0836183	0.0564125	-0.0017443	-0.00621888	-0.0942146	0.0620631	0.00994541	-0.106754	0.0237111	-0.0898129	-0.076512	-0.0437405	-0.0267085	0.14205	-0.0387739	0.109527	0.102124	0.0450818	0.0154705	0.263339	-0.0668462	-0.0807538	0.00910073	-0.0204671	0.0470264	0.0973864	-0.149838	-0.0552894	-0.107008	0.0528262	-0.0874336	-0.0135145	-0.0481056	-0.0347693	-0.119181	0.0611172	0.0622457	-0.062075	-0.0868848	-0.100847	-0.114216	-0.0514922	-0.0673759	-0.0160828	-0.0998087	-0.0204925	0.0797648	0.00938122	-0.0159013	0.0163965	-0.081167	-0.00628645	0.0819165	0.0251622	0.0916961	0.0410523	0.0251082	0.0532881	0.0108473	0.0730142
DB00570	0.0398165	0.00116066	0.0622224	-0.0192577	-0.0056893	-0.0565001	-0.00579516	-0.0745408	-0.0153005	-0.0718098	0.0783774	0.050361	0.0933495	-0.00574695	-0.105771	-0.0295736	0.108247	-0.0615073	-0.0366015	0.0692597	0.035119	0.119819	0.0183428	-0.0436458	-0.03064	-0.0103597	-0.10668	-0.0573743	-0.0147022	-0.0872728	0.00251544	-0.0556619	0.165664	0.0373112	-0.0200872	-0.152662	0.0523066	-0.0719184	-0.0299032	0.0643308	0.11021	0.0425067	0.0215552	-0.0171557	-0.0704199	0.0345791	0.0247388	-0.123227	0.0212391	-0.0758637	-0.00924614	-0.0837384	0.059463	0.132246	-0.0549097	0.0925932	0.0697538	0.00249842	0.00145122	0.250233	-0.015955	-0.0938427	0.0456842	-0.00416943	0.0568833	0.0734066	-0.152947	-0.0789675	-0.0684351	0.00968562	-0.0388644	-0.0114139	-0.044347	-0.0609375	-0.13455	0.0407405	0.0205595	-0.0962467	-0.0611284	-0.0858093	-0.11782	-0.0547058	-0.103562	-0.0418191	-0.075331	0.0440734	0.0504897	0.0172293	-0.0205408	0.0327193	-0.0603387	-0.0650014	0.05894	0.00576058	0.111293	0.0206018	0.0394715	0.0145551	0.00247665	0.0698068
DB00573	0.0130445	-0.0236113	0.0440325	-0.0483032	-0.0489499	-0.0509384	-0.0278455	-0.0466873	-0.0193338	-0.0407207	0.110383	0.0503934	0.108777	-0.00230373	-0.0560623	-0.028407	0.0764662	-0.0345169	-0.0472601	0.0556672	0.0375128	0.123562	0.0259101	-0.0318169	-0.0355866	-0.0449418	-0.100572	-0.0646415	0.00841308	-0.0672191	0.0212343	-0.0674843	0.172369	0.0424481	-0.00538306	-0.12212	0.0586736	-0.097159	0.000850194	0.0869521	0.123327	0.00606223	-0.00668907	0.01859	-0.0788958	0.0248645	-0.03816	-0.106927	0.0390094	-0.0982157	-0.0570195	-0.0690124	0.012615	0.140573	-0.0332198	0.0517964	0.0929697	0.0211968	0.00557027	0.2333	-0.0520107	-0.0877241	0.0694094	-0.00601336	0.0675935	0.0740867	-0.144501	-0.0209316	-0.0776244	-0.0143254	-0.0537198	-0.00486961	-0.0639115	-0.0208448	-0.108766	0.0764689	0.0621536	-0.0396089	-0.101216	-0.0938391	-0.102992	-0.0446507	-0.0319127	-0.00488781	-0.111808	-0.00694111	0.0564966	0.0279226	-0.00644964	0.067948	-0.0839617	-0.0354913	0.0769301	-0.0474585	0.0930417	0.0993538	0.00162398	0.0205856	-0.0170608	0.0807349
DB00572	0.0576852	-0.0184994	0.0299749	-0.00320696	-0.0536736	-0.0669272	-0.0383638	-0.0611581	-0.0120405	-0.0819491	0.108032	0.0869574	0.114373	-0.00191315	-0.0794394	-0.0192081	0.103627	-0.0727691	-0.0499042	0.105678	0.040364	0.11525	0.0357842	-0.0523309	-0.0636342	-0.0222393	-0.109059	-0.0572153	-0.0233652	-0.0739009	0.0145025	-0.0839456	0.172678	0.0575275	0.0138633	-0.169726	0.032451	-0.110111	-0.0396611	0.0631456	0.0813351	-0.00803542	0.0235348	-0.0488122	-0.0837033	0.0576142	-0.00240283	-0.1201	0.0369299	-0.0802184	-0.0473289	-0.0493519	-0.00461877	0.126211	-0.0333543	0.0989033	0.100526	0.0373514	-0.0548356	0.2509	-0.0274392	-0.0953508	0.0572996	0.0580858	0.0323969	0.0908067	-0.15543	-0.0799828	-0.0741543	0.0366368	-0.0723193	0.0147261	-0.0578491	-0.0214008	-0.12956	0.0535908	0.0672551	-0.041605	-0.0796021	-0.0911587	-0.0877833	-0.0834749	-0.0534266	0.01962	-0.106567	-0.00521488	0.0495184	0.0401401	0.00804813	0.00945206	-0.065138	-0.0394461	0.0892393	0.0122943	0.0729099	0.0710952	0.0205395	0.00634212	0.0361178	0.0467707
DB00575	0.0595665	-0.0263817	0.00470957	0.0004772	-0.0283669	-0.0688373	-0.0286329	-0.082536	-0.015072	-0.0985953	0.100497	0.0748789	0.0914724	0.0251592	-0.0797134	-0.0150291	0.100487	-0.0204609	-0.0410638	0.105876	0.0643621	0.0999517	0.00622801	-0.0676261	-0.0734284	-0.0437228	-0.0973314	-0.0601883	-0.00466521	-0.0794477	0.00195385	-0.0719069	0.170608	0.0313973	0.00843225	-0.165258	0.0209995	-0.108559	-0.024596	0.0644373	0.0884389	0.038932	-0.00485728	-0.0384026	-0.108071	0.0488037	-0.0173027	-0.0947911	0.0112525	-0.0919336	-0.0550562	-0.0630556	-0.0178026	0.131698	-0.0111816	0.117295	0.101352	0.0092523	-0.00442781	0.240665	-0.0557282	-0.0956822	0.040436	0.0466688	0.0601423	0.0890882	-0.138463	-0.0671573	-0.0649214	0.0614517	-0.0792946	-0.031863	-0.0530775	-0.03588	-0.156481	0.0634443	0.0606489	-0.0587984	-0.111019	-0.0801888	-0.106726	-0.0434802	-0.0539606	-0.00152102	-0.0713618	-0.00162121	0.085065	0.0239048	-0.0273722	0.0367229	-0.0682689	-0.0333004	0.0775622	-0.00480306	0.0653142	0.0556085	0.0396771	0.0567155	0.00891985	0.0237225
DB00574	0.0325985	-0.0136325	0.00076149	-0.00768521	-0.0181635	-0.108519	-0.00997536	-0.0507942	0.00816855	-0.0541646	0.101595	0.0549828	0.0933991	0.00445589	-0.0890304	-0.0357382	0.0730399	-0.036273	-0.0408936	0.0677815	0.0612278	0.117415	0.0120687	-0.0600635	-0.048778	-0.0521087	-0.0823852	-0.015464	-0.0166553	-0.0868705	0.0379727	-0.0317901	0.160229	0.0407957	0.000667676	-0.128444	0.0559948	-0.0891789	0.0050164	0.0281703	0.133486	-0.014648	0.0180047	-0.00468534	-0.030821	0.00914916	0.00449514	-0.0943895	0.0155367	-0.0349692	0.000972125	-0.0693435	0.0599336	0.135891	0.00162958	0.0678925	0.074089	0.0265536	0.0230754	0.217728	-0.0696122	-0.0371136	0.066269	0.0308152	0.054009	0.100339	-0.111078	-0.0616343	-0.0825197	0.05305	0.0204473	-0.0721448	-0.0552039	-0.0758165	-0.0770564	0.0598406	0.0370547	-0.0856512	-0.0844611	-0.0875608	-0.107578	-0.0647132	-0.0884938	-0.0432682	-0.0829083	0.0366897	0.0702137	0.0228912	0.00163429	0.0314709	-0.0378168	-0.0565285	0.0265941	-0.0529944	0.0721224	0.0546209	0.0110422	0.00365077	-0.026501	0.0314765
DB00577	0.0377255	-0.0344286	0.0666108	0.00687107	-0.0324268	-0.0935499	0.00817519	-0.0725495	-0.00145488	-0.0757776	0.0904316	0.0729672	0.0644019	0.0270503	-0.118389	-0.0396525	0.0261593	-0.0648873	-0.0776115	0.0695718	0.0439037	0.110723	0.0183695	-0.026756	-0.01714	-0.0608871	-0.100529	-0.0395414	-0.0291951	-0.0841662	-0.0120402	-0.0499858	0.177826	0.0369285	-0.0159602	-0.151243	0.0357433	-0.0737868	-0.0278829	0.0415379	0.132791	0.0498896	-0.0162491	-0.0308282	-0.08062	0.0246567	-0.0144614	-0.108544	0.0507861	-0.0757491	-0.0411616	-0.0605175	0.0276219	0.135141	-0.0424944	0.0875807	0.0335573	0.0116354	-0.044604	0.2584	-0.0489033	-0.0806495	0.0328873	0.013512	0.0616127	0.0769254	-0.143975	-0.0639106	-0.0454416	0.0260656	-0.0659271	0.0066371	-0.0553934	-0.0841468	-0.142757	0.0426493	0.0380187	-0.0946234	-0.0839639	-0.0894893	-0.128105	-0.0359264	-0.039341	-0.0314598	-0.0648628	0.0621161	0.0401748	0.0231226	-0.0389828	0.0577509	-0.0433202	-0.0504574	0.0432732	0.0215104	0.0868168	0.0321778	0.0135982	0.0164115	0.0442868	0.0675534
DB00576	0.079508	0.011627	9.68471e-06	-0.0169301	-0.0369873	-0.0733872	0.0169613	-0.0838307	0.011695	-0.0940339	0.0769377	0.0501453	0.118975	0.0217184	-0.0370568	-0.044422	0.103329	-0.0490002	-0.0707048	0.0679953	0.0432141	0.11872	0.0117567	-0.02906	-0.0279843	-0.0373103	-0.107267	-0.00122606	-0.00837966	-0.0393461	0.0260739	-0.0551477	0.158267	0.0346973	-0.0380374	-0.104639	0.063372	-0.10545	-0.0219709	0.073718	0.0675912	0.00392221	-0.0193992	0.050098	-0.045095	0.0246103	-0.00800055	-0.0973559	0.0807275	-0.0964183	-0.0517785	-0.0979938	0.0112428	0.11987	-0.0589796	0.0586371	0.0745596	0.0219322	-0.0237544	0.227176	-0.0637578	-0.0343759	0.0571621	0.0187684	0.0330793	0.0928392	-0.143485	-0.0461526	-0.0625836	0.0524871	-0.00450183	-0.0706717	-0.0541032	-0.0192447	-0.0525772	0.0849046	0.0174066	-0.105122	-0.111379	-0.0907029	-0.082344	-0.0668175	-0.0831119	-0.0676443	-0.068297	-0.0334	0.081108	0.0468833	-0.023495	0.00558618	-0.0744119	-0.0447556	0.0441759	-0.0557811	0.0901674	0.0651916	0.0210293	-0.0287704	-0.0269016	0.029787
DB00751	0.101763	-0.0168616	0.0424749	-0.0373413	-0.0136004	-0.0962021	0.0128351	-0.0610678	-0.0200289	-0.0866427	0.077739	0.0350479	0.0982923	0.0225465	-0.0906181	-0.0110048	0.0831612	-0.0275899	-0.0414132	0.0656436	0.0564916	0.118839	0.0334174	0.0278777	-0.0308822	-0.0278019	-0.108563	-0.0581262	0.000512177	-0.0846615	0.0317179	-0.0386935	0.150843	0.0326992	-0.0404236	-0.143998	0.0368983	-0.115047	-0.0212441	0.0304123	0.111761	0.0191839	-0.00171189	0.0393504	-0.0599192	0.0197194	0.0134233	-0.12106	0.00366712	-0.0287356	-0.049601	-0.0821261	0.0190616	0.107147	-0.0417998	0.0614441	0.0643558	0.0252108	0.0026498	0.223132	-0.0301922	-0.0721961	0.0467289	-0.00309382	0.0322015	0.0648512	-0.147223	-0.0205476	-0.056899	0.0573922	-0.0204383	-0.0219895	-0.0451582	-0.067704	-0.122457	0.054053	0.0146945	-0.0892675	-0.100364	-0.0839261	-0.117973	-0.101517	-0.0356539	-0.0476094	-0.0903615	-0.00708702	0.0562026	0.0143703	-0.0155288	0.0272692	-0.0799878	-0.0319887	0.0291565	-0.0398194	0.0636426	0.0767235	0.0238607	0.0291953	0.0125165	0.0618608
DB00750	0.0698071	7.0161e-05	0.0693079	-0.017456	-0.0584753	-0.0626652	0.00503975	-0.0176538	-0.0193521	-0.0473634	0.104204	0.088553	0.08007	0.0336889	-0.0676275	-0.0117285	0.0915752	-0.0620985	-0.0740721	0.0727544	0.0251799	0.0776777	0.0109759	-0.0243086	-0.0533691	-0.0434143	-0.0709297	-0.0378437	0.0105486	-0.0661537	0.0391155	-0.0769831	0.15618	0.056792	0.0406164	-0.134166	0.0059663	-0.109023	-0.00268617	0.0765244	0.0729299	0.0242073	-0.0118481	0.0248779	-0.0796911	0.0498379	-0.0146762	-0.137372	0.0651755	-0.0961629	-0.0406133	-0.0499073	0.0163953	0.108698	-0.038569	0.0803713	0.0529811	0.0538563	-0.00311963	0.255993	-0.073155	-0.0576481	0.0741185	-0.0156383	0.0515904	0.0957821	-0.126515	-0.0674661	-0.0784705	0.0411782	-0.057156	0.0283042	-0.0539991	0.0009256	-0.0529996	0.0745752	0.0444631	-0.0892793	-0.0696416	-0.0886917	-0.116811	-0.0409428	-0.0519719	-0.0234517	-0.108829	-0.0243332	0.0330065	0.0284783	0.00237249	0.0115104	-0.0850647	-0.0348221	0.0744738	0.0234638	0.0781503	0.0542755	-0.00103752	0.0346436	0.0108418	0.0842905
DB00753	0.0260664	-0.00560583	0.0573864	-0.0351597	-0.0189323	-0.0423458	-0.0133343	-0.0212082	-0.0210477	-0.0746367	0.0854833	0.0307507	0.0909807	0.0221001	-0.0374592	-0.0387875	0.107286	-0.0310778	-0.0352642	0.0721336	0.0679329	0.0895935	-0.0236183	-0.0694873	-0.0495879	-0.00360984	-0.0960883	-0.0624785	0.000408297	-0.0880799	0.048304	-0.00172964	0.171415	0.0385098	0.00912333	-0.131641	0.0242417	-0.0962021	-0.0111206	0.0358497	0.139353	-0.013516	-0.0167614	-0.00123731	-0.0584472	0.0269986	-0.000100783	-0.0961689	0.0224734	-0.0896861	-0.0429428	-0.0796206	0.0193701	0.130605	-0.0116575	0.0566933	0.0971517	0.0433553	0.0215081	0.254546	-0.0603959	-0.070663	0.0350552	0.0302866	0.0692531	0.10189	-0.13044	-0.0315684	-0.0965255	0.00686351	-0.0512694	-0.0181914	-0.0631391	-0.0124424	-0.130174	0.0827741	0.0669879	-0.0553749	-0.0909092	-0.0926947	-0.114462	-0.0981194	-0.0373889	0.00357361	-0.0745962	-0.0316981	0.0559532	0.0114058	0.013394	0.05409	-0.07706	-0.0413394	0.0795266	-0.00547253	0.0977706	0.103956	0.00933334	0.00224365	-0.0472497	0.0794694
DB00752	0.0506405	-0.0181715	0.0242598	-0.00426714	-0.0159796	-0.0962276	-0.03182	-0.040914	0.0120556	-0.0425584	0.0903374	0.0271755	0.113221	0.0343398	-0.0772192	0.00771394	0.0381838	-0.0115373	-0.0318654	0.0483029	0.0526172	0.095451	-0.00154888	-0.0576508	-0.0697881	-0.0705135	-0.0881079	-0.0713077	0.0163271	-0.0957716	0.0367514	-0.0328466	0.161211	0.0497614	-0.000245825	-0.154207	0.0438647	-0.100586	-0.0199393	0.0571698	0.0736029	-0.000806173	-0.00742263	0.028554	-0.0583461	-0.00133744	-0.00604077	-0.110922	0.0201112	-0.113818	-0.0554159	-0.0697098	-0.015549	0.130294	-0.0377078	0.0643915	0.10186	0.0558986	0.00685959	0.247968	-0.0209934	-0.060487	0.026865	0.0377425	0.0670318	0.0614941	-0.127389	-0.0496485	-0.0718459	0.053206	-0.0588692	-0.0195869	-0.0547649	0.00249836	-0.12753	0.0855431	0.068079	-0.0697194	-0.0962584	-0.088206	-0.0959812	-0.0379815	-0.0272253	-0.0231788	-0.059944	-0.0258753	0.0616375	0.0226031	0.000945593	0.0597255	-0.0791253	-0.0420683	0.0640332	-0.0629904	0.0520776	0.0761399	0.0329795	0.0124764	0.0273709	0.067574
DB00755	0.0633274	-0.0190896	0.0247423	-0.0499287	-0.0487653	-0.0518336	-0.0247461	-0.0662465	-0.0126486	-0.0728539	0.096382	0.0714551	0.102639	-0.0263904	-0.0782497	-0.0299545	0.0896311	-0.0408852	-0.0402013	0.07905	0.0615612	0.126574	-0.00997528	-0.0371121	-0.07902	-0.0401015	-0.106324	-0.0692129	0.0292033	-0.0599463	0.0166141	-0.0892232	0.190042	0.0473021	0.000167526	-0.1479	0.0371757	-0.122968	-0.0277595	0.0713318	0.111725	0.0142623	0.00673572	0.0307813	-0.0844061	0.0225467	0.00507612	-0.10836	-0.00137432	-0.090928	-0.026663	-0.0687609	0.0202267	0.125026	-0.00894101	0.0811523	0.108007	0.0405679	-0.020387	0.260371	-0.0553483	-0.104742	0.0524019	-0.0132009	0.0628661	0.0846222	-0.147178	-0.0572122	-0.065857	0.0466248	-0.0798803	0.0103453	-0.0527611	-0.00849413	-0.132495	0.0792943	0.055342	-0.0428178	-0.0815655	-0.0843514	-0.108969	-0.0402035	-0.0711607	-0.0126301	-0.10924	-0.0256415	0.0808149	0.00760046	0.00858689	0.0373231	-0.0726815	0.003056	0.0752737	0.00703858	0.100404	0.0684097	0.0209973	0.0429047	0.0544185	0.034563
DB00754	0.0462597	-0.0435095	-0.0174241	-0.0127416	-0.00058133	-0.0714648	0.0135869	-0.0258616	-0.0203589	-0.0561896	0.0937502	0.043345	0.108405	-0.00346935	-0.0866095	-0.0129278	0.0771085	-0.038418	-0.0360552	0.0412376	0.0531049	0.113802	0.0601614	-0.0671983	-0.0320133	-0.0643166	-0.103724	-0.0385733	0.0268641	-0.0185052	0.0423832	-0.045205	0.147637	0.0224323	-0.00824985	-0.125438	0.0644098	-0.102965	0.000528071	0.0647961	0.136697	0.0381798	-0.00390796	-0.0160353	-0.0500976	0.0232902	-0.00595075	-0.0958679	0.0330121	-0.0865108	-0.0577294	-0.0686788	0.00501339	0.123494	-0.027233	0.0541022	0.0985907	0.0213209	0.0313846	0.243077	-0.051565	-0.0506728	0.0623281	0.0150926	0.0508672	0.05686	-0.134631	-0.00613162	-0.0509807	0.0184302	-0.0567391	-0.0072312	-0.0904062	-0.00924859	-0.0800785	0.0736524	0.0326729	-0.083038	-0.110486	-0.08965	-0.108474	-0.062455	-0.0801541	-0.0259404	-0.0987797	0.00348461	0.0710386	0.0139149	0.0135005	0.0515952	-0.0789161	-0.0353276	0.0784599	-0.0559846	0.100853	0.0813323	0.0013657	0.020065	0.0448986	0.0221553
DB00209	0.0759481	0.00666465	0.0674454	-0.00101216	-0.038268	0.0116763	-0.000598792	-0.0516049	0.0370015	-0.0768636	0.0915335	0.0488087	0.0967719	-0.0318778	-0.0873587	-0.04417	0.0305888	-0.0756299	-0.035744	0.0734437	0.0606968	0.0865621	0.0250202	-0.0208998	-0.0656076	-0.0459674	-0.113377	-0.0542214	-0.0219084	-0.0779613	0.0120272	-0.0320496	0.162564	0.026966	-0.000731511	-0.165739	0.0654536	-0.109008	-0.00130056	0.0317989	0.0832749	-0.0046472	-0.00357476	-0.00814282	-0.0628611	0.0238346	-0.0174506	-0.11902	0.0538289	-0.0829016	-0.0690537	-0.00257387	-0.00218474	0.119977	-0.0351072	0.0763901	0.0239929	0.059962	0.00585538	0.220634	-0.0665017	-0.0739529	0.0387314	0.0682089	0.0111959	0.0951333	-0.139656	-0.0101008	-0.0798564	0.0459075	-0.0561288	-0.016864	-0.0392048	-0.00599601	-0.0638167	0.0556028	0.0400336	-0.0804746	-0.107047	-0.0717087	-0.0897907	-0.043857	-0.0729818	-0.0310755	-0.1029	-0.0134142	0.0401003	0.0423842	-0.0369759	0.00785542	-0.0419717	-0.0715583	0.0693486	-0.0339808	0.100251	0.0470311	0.00998872	0.00363574	0.0532097	0.0314341
DB00208	0.0143997	-0.0329455	0.0392395	-0.0047548	-0.0369282	-0.0649532	0.0112489	-0.0776032	-0.0173047	-0.0837879	0.100957	0.0667045	0.106664	0.033298	-0.0743394	-0.0305427	0.0568958	-0.0107894	-0.0403317	0.0707654	0.0515617	0.0999022	0.0186079	-0.00634385	-0.0674163	-0.0489743	-0.107757	-0.0207829	-0.0226931	-0.0244311	0.00127574	-0.0311668	0.164126	-0.0105868	-0.0272458	-0.151327	0.0470839	-0.102629	-0.0349032	0.0235416	0.0673786	0.0322135	0.0295461	0.0300832	-0.0788061	0.0280313	-0.00148794	-0.095631	0.0481909	-0.104562	-0.0698877	-0.0341823	-0.021328	0.117487	-0.0477067	0.0708172	0.0699665	0.0607085	0.0102623	0.263155	-0.0458723	-0.0955447	0.0349462	0.0405543	0.0563555	0.10771	-0.129487	-0.0463673	-0.0767187	0.0569525	-0.0440032	-0.0623687	-0.0713996	-0.0131509	-0.0983347	0.0766203	0.0470955	-0.0866953	-0.0887665	-0.0539378	-0.114185	-0.0467088	-0.0817854	-0.0532983	-0.0758432	-0.0212754	0.0897567	0.0249909	-0.0237444	0.0262071	-0.0856486	-0.0776945	0.0675135	-0.0354786	0.0490045	0.0797041	0.0304841	0.0342331	-0.0288359	0.0776414
DB00207	0.0581774	-0.0400874	0.071792	0.00115523	-0.0371428	-0.0689393	-0.0379276	-0.0735831	-0.0128593	-0.095401	0.0945138	0.0569362	0.102816	-0.0168843	-0.119194	0.0171977	0.0916342	-0.0401493	-0.0604531	0.087392	0.0653646	0.11804	-0.00715551	-0.061734	-0.0749342	-0.0396558	-0.112441	-0.0605358	-0.0502815	-0.0901211	0.000813107	-0.10077	0.191885	0.0532953	-0.0283138	-0.164659	0.0460479	-0.120482	-0.0499033	0.0462658	0.133333	0.0363618	0.00922869	0.0109056	-0.100586	0.0290932	0.0236851	-0.134275	0.0384714	-0.0926483	-0.0349537	-0.0625287	-0.00886578	0.134273	-0.0761852	0.100081	0.11156	0.00861734	0.0120217	0.261554	-0.0474781	-0.101761	0.0383933	-0.00623544	0.0636776	0.100116	-0.156791	-0.0777154	-0.0845884	0.0209819	-0.0271807	0.00821044	-0.0671436	-0.0223169	-0.138985	0.0388596	0.0688586	-0.0618815	-0.0694922	-0.10106	-0.122676	-0.0557501	-0.0289045	0.0225981	-0.107901	-0.0108398	0.0704045	0.0306852	-0.0214707	0.0425808	-0.0898606	-0.0511334	0.0827604	-0.0400052	0.10588	0.0691779	0.00625071	0.0292423	0.0518934	0.0743471
DB00974	0.0105189	-0.00879453	-0.00115191	-0.0457232	-0.0274423	0.0249083	0.00237598	-0.0541106	-0.0200091	-0.0665061	0.0851972	0.0554327	0.104198	0.0276261	-0.0763451	-0.0212537	0.0440137	0.000907683	-0.0258257	0.0695464	0.0449126	0.0998398	-0.00908339	-0.0373561	-0.0315652	-0.0468469	-0.0942727	-0.0671067	0.0139629	-0.0456323	-0.00686014	-0.0642844	0.147973	0.0170107	0.00230849	-0.161352	0.0662051	-0.109032	-0.014952	0.031749	0.128619	0.0545798	0.0164782	0.0588204	-0.0206795	0.0340382	0.00242085	-0.105969	0.0360251	-0.103142	-0.0678939	-0.0643483	0.00177925	0.137367	-0.0135275	0.0471368	0.105091	0.00868236	-0.00531057	0.250637	-0.044299	-0.0588932	0.0302266	0.0324618	0.0635665	0.0959674	-0.149155	-0.0203682	-0.058512	0.0399113	-0.0287988	0.000630904	-0.0496573	-0.0775614	-0.136075	0.0950265	0.0455561	-0.095459	-0.0723174	-0.0497184	-0.102865	-0.114507	-0.0292741	-0.0351615	-0.0755949	-0.0183903	0.0539657	0.0362626	-0.021438	0.0341275	-0.0670954	-0.0626023	0.0678566	-0.064191	0.0860952	0.0423658	0.0268725	-0.00359802	0.0162151	0.0751488
DB00205	0.0881076	-0.0045491	0.00677361	-0.0300353	-0.024482	-0.0686083	-0.0152665	-0.0223943	-0.0280735	-0.0660476	0.0954447	0.0448391	0.083283	0.0221535	-0.0533892	0.00152136	0.0997352	-0.0195755	-0.0688821	0.0793571	0.051094	0.112984	0.0118419	-0.0530342	-0.0232285	0.00532555	-0.105043	-0.0675544	-0.0203056	-0.0791305	0.017589	-0.0474972	0.165541	0.0478718	-0.0194667	-0.0767148	0.0532634	-0.111013	-0.0223705	0.082375	0.142175	0.0421717	0.00204197	-0.0438146	-0.0690807	0.0302674	-0.00578991	-0.0928553	-0.00253563	-0.111688	-0.0410372	-0.0955733	0.0107376	0.12336	-0.0419308	0.0968406	0.101354	0.0180754	0.0157289	0.253963	-0.0616584	-0.0604174	0.0407171	0.00138201	0.0544414	0.0988742	-0.129749	-0.0215861	-0.0563513	0.0545012	-0.0198149	-0.0562852	-0.0601444	-0.0157296	-0.129837	0.074729	0.0379021	-0.0939523	-0.102097	-0.0856684	-0.101735	-0.0999441	-0.0278802	-0.0436266	-0.0843881	-0.0349789	0.0720891	0.0283982	0.000253565	0.0489254	-0.0860307	-0.041726	0.065967	-0.0545013	0.0752509	0.0624754	0.0454562	-0.00766785	0.00202099	0.0773829
DB00204	0.0485675	-0.0144764	-0.0153981	-0.00924706	-0.0468032	-0.0743585	-0.0171335	-0.0724124	-0.0170409	-0.0777126	0.0886595	0.0552012	0.1091	-0.0225688	-0.0761865	0.00312932	0.0752504	-0.0412244	-0.0347995	0.0971869	0.0727548	0.103461	0.0516385	-0.0554189	-0.0682265	0.0116266	-0.0898842	-0.00619577	0.00715856	-0.0772922	0.000154982	-0.0437393	0.146537	0.04784	-0.0119905	-0.102872	0.0541103	-0.113468	-0.00896247	0.0756263	0.0841117	0.048545	0.0370076	-0.00741763	-0.0590615	0.0297252	0.0056279	-0.123737	0.0066927	-0.0870642	-0.0685436	-0.0708308	0.0108074	0.131194	0.00134865	0.0729207	0.0313292	0.0334369	-0.0422732	0.261756	-0.0754493	-0.0553925	0.0409242	0.0583937	0.00787371	0.0608408	-0.128008	-0.0748285	-0.0387946	0.0470602	-0.0679828	-0.0440541	-0.0449896	-0.0334206	-0.0973966	0.0926232	0.0467965	-0.0853603	-0.0972034	-0.0989586	-0.117908	-0.0987175	-0.0970265	-0.0389518	-0.105804	0.0207869	0.0644886	0.0231702	0.000193235	0.0235964	-0.0289343	-0.0419176	0.0195203	-0.0544946	0.0601458	0.0622436	0.0171885	0.00596393	-0.027935	0.0254884
DB00203	0.0332059	-0.0190883	0.0637544	-0.0213069	-0.0281756	-0.0927887	0.00867333	-0.0913651	-0.0225922	-0.121912	0.0917533	0.060171	0.0289674	-0.0300185	-0.0987808	-0.0583618	0.093003	-0.0315281	-0.050054	0.0844547	0.0666128	0.132964	-0.000392161	-0.0464005	-0.0631057	-0.0544338	-0.115699	-0.00862272	-0.040836	-0.0699252	-0.0260139	-0.0495072	0.155967	0.0344936	-0.0291953	-0.15789	0.0523874	-0.113565	-0.0238977	0.0427693	0.134679	0.0481669	-0.00662807	0.0249479	-0.119053	0.0356647	-0.035305	-0.0827517	0.057065	-0.0349862	-0.0187132	-0.061962	-0.016922	0.134156	-0.00341919	0.122355	0.0416518	0.0245087	0.045927	0.259591	-0.0347385	-0.106818	0.0467433	0.0212218	0.0370237	0.111664	-0.16105	-0.0630927	-0.044378	0.0201414	-0.0712149	-0.0252102	-0.0446895	-0.0272324	-0.118665	0.0258828	0.0558074	-0.0422916	-0.10314	-0.103213	-0.0967966	-0.0509662	-0.0727549	-0.0551541	-0.0913483	0.0259539	0.0851264	0.0188709	-0.0243621	0.014038	-0.0502936	-0.0588824	0.0550446	0.0162563	0.0900013	0.0351699	0.050514	0.0473507	0.0508321	0.0269652
DB00202	0.0692354	-0.0294624	-0.00817224	-0.011993	-0.0398296	-0.0606259	0.00321944	-0.0469523	0.0305532	-0.0801909	0.0937797	0.0586971	0.0985983	-0.00351504	-0.0649348	0.0100982	0.0349633	-0.0586898	-0.0300448	0.0883945	0.0393665	0.100026	0.0610881	0.0286665	-0.0742746	-0.010418	-0.0912492	-0.051091	0.00874902	-0.0678985	0.0337172	-0.0415163	0.175278	0.0506654	0.00537	-0.15133	0.0293907	-0.141282	-0.00906285	0.0621252	0.131564	0.0388372	0.0123888	-0.0458924	-0.0832154	0.0361585	0.0130898	-0.136353	0.00659732	-0.0739544	-0.0415929	-0.0505957	0.00559483	0.107819	0.00167794	0.0616756	0.0748791	0.0350067	0.00449579	0.230027	-0.0765044	-0.0329923	0.0660772	-0.0073245	0.042904	0.0536224	-0.108864	-0.0327918	-0.0666214	0.0544921	-0.0752049	-0.0180058	-0.0390164	-0.0323386	-0.117508	0.0655355	0.0614347	-0.0894088	-0.0962256	-0.0902896	-0.118179	-0.0819292	-0.105325	-0.0335933	-0.0973329	-0.0431206	0.0532924	0.0166363	0.0515684	0.057549	-0.0752658	0.016019	0.0796924	0.016406	0.0283159	0.0402626	-0.0199913	0.0187015	-0.0369926	0.0644687
DB00201	0.0576886	0.00308245	0.0291848	-0.0261305	-0.0399122	-0.0829095	-0.0534176	-0.0685296	-0.0290892	-0.0814975	0.120671	0.0919533	0.106032	-0.034325	-0.0877181	-0.037099	0.0956673	-0.0797906	-0.0492875	0.120893	0.0660129	0.127899	0.000648506	-0.0506265	-0.0821369	-0.032273	-0.102162	-0.0860422	-0.0410249	-0.0760662	-0.029863	-0.113101	0.19471	0.0568113	0.00530723	-0.18123	-0.00401402	-0.0965643	-0.00429676	0.059871	0.0821784	0.0106682	0.0100128	-0.0422325	-0.0645711	0.061813	0.0117953	-0.101217	0.0172376	-0.0897155	-0.0480016	-0.0276581	-0.0164773	0.0960974	-0.0436425	0.0779989	0.106391	0.0292972	0.00813229	0.29053	-0.0343021	-0.0664281	0.042758	0.0370325	0.0072898	0.0979428	-0.160677	-0.117715	-0.119015	0.0417817	-0.0998097	0.0187007	-0.0625136	-0.0325956	-0.161184	0.0634351	0.0217419	-0.0952694	-0.0879038	-0.0283793	-0.135598	-0.0262747	-0.0397235	0.0121136	-0.0569139	-0.0344324	0.0770235	0.0357221	0.0146764	0.0320856	-0.0921992	0.00129176	0.137696	-0.00683382	0.133494	0.0743092	0.0499102	0.0106244	0.0285539	0.0494356
DB00972	0.0810908	-0.0396379	0.0208563	-0.0320795	-0.0163766	-0.0840255	0.0212291	-0.0790143	-0.0178222	-0.091921	0.110719	0.0552473	0.093846	0.0104922	-0.0895172	-0.0387926	0.049521	-0.00201149	-0.0319541	0.0732346	0.0556093	0.126508	0.014263	-0.0270014	-0.0260326	-0.0691789	-0.110823	-0.0526127	-0.0491132	-0.0547499	-0.0111166	-0.0525864	0.144529	0.0567042	-0.0386142	-0.149655	0.0472238	-0.106467	-0.0336945	0.0551374	0.0885644	0.0121276	0.000982205	0.0308236	-0.0622541	0.0219783	-0.000518602	-0.124854	0.0527048	-0.10193	-0.0211642	-0.03373	-0.0251472	0.138983	-0.0334074	0.0706905	0.0735762	0.055456	-0.00160625	0.243112	-0.0617587	-0.0831397	0.0359845	0.00679403	0.044407	0.112335	-0.107553	-0.0305901	-0.0711098	0.0735511	-0.0409966	0.00241542	-0.0303976	-0.0645511	-0.127697	0.033078	0.0588531	-0.0763156	-0.112804	-0.104884	-0.101841	-0.0449746	-0.0920846	-0.0490243	-0.0684094	-0.0204967	0.0302699	0.0250045	-0.0352397	0.0177534	-0.0490209	-0.0534598	0.0558701	-0.073741	0.0484474	0.0577189	0.0472623	0.0363968	0.0513892	0.0577698
DB04216	0.0906249	-0.00510296	0.0536685	-0.0429307	0.052769	-0.0543262	-0.0252745	-0.0778536	-0.0167017	-0.0761138	0.0330274	0.0333009	0.0253895	0.0337092	-0.0773579	-0.0336801	0.111544	-0.0234139	-0.00136053	0.0788305	0.0555815	0.134663	0.00391009	-0.0521558	-0.016915	-0.033201	-0.0861205	-0.0825379	0.0139694	-0.103329	0.0366031	-0.0427787	0.138243	-0.00661452	0.0012866	-0.159438	0.0383101	-0.0817266	-0.0153353	0.0783437	0.148074	0.0219669	-0.0395523	-0.0460224	-0.00296043	0.00167651	0.0392415	-0.124889	0.0356154	-0.0510424	0.00374531	-0.0684914	0.0541657	0.0554772	0.013734	0.0836994	0.109982	0.0123407	0.0281554	0.183963	0.0577568	-0.0614674	-0.012352	0.0295831	0.0729483	0.0453669	-0.119852	-0.070583	-0.0145976	0.0221569	0.0162024	0.0061263	0.0445498	-0.0275424	-0.135802	0.0681611	0.0181818	-0.0645939	-0.0718248	-0.0668483	-0.122591	-0.098913	-0.0440325	-0.0571847	-0.0185178	0.0258539	0.0659725	0.0231493	0.0093361	0.0348689	-0.0609545	-0.00574436	-0.000583781	-0.0632171	0.116378	0.0928197	0.0161501	-0.0098124	0.0211663	0.0404719
DB00683	0.0838542	-0.0374601	0.0618269	-0.015437	-0.0142921	-0.0875035	-0.038694	-0.0830641	-0.0256606	-0.069599	0.0911087	0.0883148	0.101029	-0.027558	-0.0799203	-0.0430717	0.0910156	-0.0501113	-0.0187764	0.0824885	0.0494232	0.0995822	0.0189157	-0.0178571	-0.0866377	-0.00404456	-0.10424	-0.0259457	-0.00345932	-0.091113	0.0270308	-0.0756661	0.157656	0.0084206	-0.0185234	-0.178374	0.0509688	-0.118889	-0.0556127	0.0457237	0.069786	-0.0106556	0.0303315	-0.0192456	-0.102852	0.00785527	0.0148333	-0.104866	0.0167778	-0.0797796	-0.0650426	-0.0792595	-0.0051686	0.122355	-0.0124713	0.0862964	0.0912207	0.0311217	0.0340841	0.242379	-0.0781105	-0.100694	0.0221669	0.0411065	0.00688649	0.0584945	-0.146885	-0.0905048	-0.102549	0.0394815	-0.0689593	-0.00438588	-0.0124887	-0.0737131	-0.128887	0.0642645	0.0824873	-0.0459981	-0.0586208	-0.100803	-0.0938182	-0.0857911	-0.0992433	-0.0433064	-0.102669	-0.0314063	0.0532469	0.00760856	-0.00182417	0.0176394	-0.0763505	-0.0204961	0.0573614	-0.0577101	0.0911645	0.0888858	0.0132251	0.0606142	0.0132986	0.0526091
DB00682	0.0188942	-0.0271903	0.0629563	-0.0339357	-0.0604374	-0.0397035	-0.00579549	-0.0787439	-0.0325561	-0.0909745	0.0882105	0.0710335	0.107944	-0.0281218	-0.0865062	-0.0300618	0.00894545	-0.0152093	-0.0374536	0.0869876	0.0251001	0.127153	0.036199	-0.0510526	-0.0387369	-0.058504	-0.105789	-0.0743233	-0.0256526	-0.0458804	-0.0227384	-0.0492602	0.186245	0.0234363	-0.0319676	-0.16453	0.00117996	-0.116438	-0.0368811	0.0611925	0.137786	0.00159238	-0.0173722	-0.00135814	-0.0563415	-0.000325466	-0.001536	-0.0998728	0.0366396	-0.106561	-0.0819036	-0.0558542	-0.0288744	0.147626	-0.0430676	0.0999476	0.0886763	0.0582731	0.0458571	0.255405	-0.0634783	-0.112559	0.0336133	0.0226339	0.0368036	0.110287	-0.126201	-0.0538304	-0.0858116	0.0548575	-0.0545926	-0.00275473	-0.0562836	-0.0203857	-0.115378	0.0268477	0.0677015	-0.0292279	-0.0903995	-0.112339	-0.105499	-0.0239703	-0.0378892	-0.0161278	-0.0533221	-0.0366714	0.0646546	0.0164116	-0.0468036	0.0178339	-0.0609036	-0.0476582	0.0761735	-0.0489556	0.0863576	0.0786	0.0621785	0.0365631	-0.0211152	0.0761375
DB00681	0.0672508	-0.000383502	0.0469369	-0.00132107	-0.0337648	-0.0547987	-0.00696469	-0.0519011	0.0343486	-0.0614605	0.097895	0.0607117	0.104988	0.0133515	-0.0852489	-0.0433851	0.0581883	-0.0467397	-0.0654833	0.0320741	0.0692076	0.128161	-0.0266215	-0.0646653	-0.0339296	-0.0696979	-0.0964436	-0.0109915	-0.00815485	-0.0615447	0.0105686	-0.046174	0.160012	0.065162	0.00597627	-0.153536	0.0723099	-0.0979564	-0.0384764	0.0596962	0.138204	-0.00231553	0.0115692	-0.038355	-0.104779	0.0442657	-0.0519499	-0.0860705	0.054051	-0.101937	-0.0414521	-0.0782624	0.0213014	0.12905	-0.0293667	0.0829498	0.0837476	0.0139749	-0.05758	0.237118	-0.0526991	-0.0823272	0.0495675	0.000421243	0.0458281	0.0949994	-0.148832	-0.0385868	-0.0644426	0.00420443	-0.00702408	0.0227823	-0.0613527	-0.0327608	-0.12229	0.0486123	0.026912	-0.0743576	-0.0718129	-0.0679875	-0.0837916	-0.0510346	-0.0850458	-0.0397755	-0.10544	0.0311905	0.0320147	0.0464063	-0.045259	0.0184854	-0.0744843	-0.0896415	0.0397355	-0.0612888	0.0715955	0.102412	0.011269	-0.012056	0.0507639	0.0765739
DB00680	0.00617398	-0.00493219	0.0398846	-0.0359439	-0.0267978	-0.069108	-0.0137704	-0.073553	-0.00867588	-0.0542595	0.0846379	0.047899	0.111044	0.0188089	-0.0214975	-0.0228205	0.0461669	-0.0471014	-0.0426623	0.0366727	0.0211369	0.0761085	0.0317788	-0.0619083	-0.0449827	-0.0203916	-0.0894826	-0.00634891	-0.00632031	-0.0465184	0.0437682	-0.0370091	0.131203	0.0329469	-0.00286695	-0.123147	0.0634484	-0.0901259	-0.00858582	0.0766899	0.073813	0.0366359	-0.0126725	0.0220419	-0.0469078	0.0182104	0.0141833	-0.0626793	0.0480618	-0.0802372	-0.0411912	-0.0611552	0.0822154	0.11792	-0.0504912	0.0407275	0.0481493	0.00848536	0.0255377	0.231774	-0.0367037	-0.000162033	0.0356294	0.010102	0.0353398	0.100888	-0.144571	-0.0499118	-0.064225	0.0636298	-0.039637	-0.010019	-0.0203427	-0.0670225	-0.127606	0.0306845	-0.00597351	-0.0766094	-0.100068	-0.0658761	-0.119903	-0.116694	-0.100756	-0.0501924	-0.0951009	-0.0228305	0.0540749	0.00839926	0.00533634	-0.00557236	-0.0993818	-0.0674642	0.0902959	-0.0570352	0.123777	0.059083	-0.00077379	-0.0282705	-0.00971542	0.0486562
DB00687	0.085014	-0.0015443	0.0114582	-0.00746792	-0.0283641	-0.0691563	-0.00938031	-0.066905	0.0114875	-0.0495709	0.108668	0.0522478	0.118685	-0.0362976	-0.0977683	-0.0214616	0.0314108	-0.0788657	-0.0539818	0.0806725	0.0463888	0.0687429	0.0460985	-0.0566062	-0.0516461	-0.00974872	-0.097478	-0.00841226	-0.0240984	-0.0767176	0.0154913	-0.0598383	0.133926	0.0521113	0.00166953	-0.133339	0.0492472	-0.120671	-0.0501346	0.0754	0.146299	0.0414963	-0.0154627	-0.0498201	-0.0917669	0.0618865	-0.0127579	-0.110232	0.0458596	-0.0740491	-0.0586768	-0.0416457	-0.000753826	0.123058	-0.0481065	0.0924806	0.05439	0.0172504	-0.0180293	0.281401	-0.0442669	-0.0623815	0.0634962	0.0201936	0.0204945	0.0998136	-0.118219	-0.0561985	-0.0738138	0.0295407	-0.0528225	0.013648	-0.0626095	-0.0860711	-0.136094	0.0309305	0.0276648	-0.0828073	-0.0943707	-0.0755721	-0.116995	-0.0463696	-0.0545028	-0.0435462	-0.0966363	-0.0101897	0.0830121	0.0343015	0.00646529	0.0420414	-0.0626246	-0.0332656	0.0695299	0.0304493	0.0655293	0.0659643	0.00605432	-0.00812216	-0.0153614	0.0238338
DB00686	0.0111232	-0.00894073	0.073435	-0.017311	-0.031737	-0.0712165	0.0044274	-0.0410566	0.00740067	-0.0401512	0.103692	0.0459854	0.114908	0.0348342	-0.0892818	-0.037176	0.0666482	-0.0655511	-0.0585859	0.0545583	0.062691	0.0702671	0.0368784	-0.0645024	-0.0414088	-0.0692125	-0.109572	0.00734977	0.0291514	0.0109048	0.00573651	-0.0563521	0.140201	0.0458208	0.0132337	-0.0841943	0.0701833	-0.0993212	0.0254366	0.0744009	0.0707119	0.0535384	-0.0235598	0.057798	-0.0758231	0.0190919	-0.0201998	-0.109802	0.0572155	-0.108419	-0.0656923	-0.0749936	0.0158883	0.0886207	-0.0527121	0.0413426	0.0904295	0.0456147	-0.0081264	0.246448	-0.0694187	-0.0277925	0.0574621	0.0406867	0.0539101	0.0947373	-0.114402	-0.0601499	-0.0451773	0.0207198	-0.0590299	-0.0323133	0.0212478	-0.0170899	-0.0946149	0.0890239	0.0395763	-0.073704	-0.0672328	-0.094261	-0.0678984	-0.0343849	-0.0725199	-0.0186169	-0.0803861	0.0153049	0.0723251	0.0446889	-0.0313572	0.0401275	-0.0333763	-0.0521431	0.0557105	0.00787473	0.0377358	0.0484212	0.0157449	-0.0174595	0.0103991	0.0686661
DB00685	0.0855775	0.00501186	0.058356	0.00584359	-0.0327089	-0.0364203	0.0204019	0.00693071	-0.0105389	-0.0368717	0.105051	0.0278457	0.114422	0.0149231	-0.0653468	-0.0633729	0.100299	-0.0699045	-0.0306665	0.0629551	0.0370688	0.0761616	0.0175607	-0.0764405	-0.0268223	-0.0491768	-0.0998487	-0.03957	-0.0576642	-0.0882481	0.0304227	-0.0410414	0.148238	0.0357244	-0.015056	-0.125139	0.0550229	-0.105467	-0.022053	0.0322072	0.115819	-0.00468119	-0.00400166	-0.0250035	-0.0672104	0.0372263	0.00577446	-0.101878	0.0715467	-0.0734154	-0.0309238	-0.0682754	0.00952066	0.137811	-0.0605415	0.0935381	0.091847	0.00256365	0.00845272	0.244012	-0.0649299	-0.0458459	0.059267	0.00711582	0.053917	0.0923474	-0.142617	-0.0583449	-0.0778165	0.030679	0.0158801	-0.0287559	0.029795	-0.0869568	-0.0933945	0.0629366	-0.0100886	-0.0954858	-0.0999585	-0.0992858	-0.124889	-0.0458706	-0.0309785	-0.0270044	-0.0899228	0.0210751	0.0318732	0.029902	-0.0390115	0.0102887	-0.0700532	-0.0795056	0.041227	-0.0720169	0.0878505	0.11408	0.0214722	-0.00525132	-0.0402407	0.0789781
DB00684	0.0701054	-0.0281745	0.0583539	-0.00291009	-0.0574944	-0.0630289	-0.0263566	-0.0486272	-0.0226256	-0.100906	0.108263	0.0842419	0.108726	0.00887608	-0.0901589	0.00401547	0.093723	-0.0508014	-0.0825137	0.0755581	0.035988	0.0994083	0.00375994	-0.0605623	-0.0566159	-0.0423265	-0.0984034	-0.0643905	-0.00991318	-0.0496755	-0.00215717	-0.0576548	0.162093	0.0710702	-0.00502305	-0.116962	0.0673862	-0.116327	-0.00447938	0.0770596	0.136387	0.0483576	-0.00627175	-0.00567349	-0.0921918	0.0561652	-0.0431543	-0.131613	0.0167962	-0.098253	-0.0465119	-0.0734513	0.00154858	0.141378	-0.0348928	0.102706	0.102783	0.0230789	-0.0313211	0.244734	-0.0594252	-0.0865524	0.0554012	0.00580662	0.0536036	0.083162	-0.136916	-0.0449109	-0.0746353	0.00393999	-0.0792184	0.0197561	-0.0629361	-0.00552898	-0.11383	0.0608089	0.0561855	-0.0532668	-0.0968017	-0.0943354	-0.0932017	-0.0392587	-0.0382158	0.0230402	-0.10337	-0.00209744	0.074845	0.0370045	-0.00740495	0.028336	-0.0742389	-0.0557127	0.0727633	-0.058148	0.0873499	0.0722386	0.022183	-0.000602873	0.0341799	0.0740681
DB00689	0.00970788	-0.0105225	0.00414542	-0.0519008	-0.0355935	-0.108923	-0.0213264	-0.06134	-0.00372282	-0.0498114	0.0959862	0.0453014	0.111396	0.0138998	-0.0768418	-0.0461695	0.112737	-0.0373975	-0.0164551	0.0505423	0.0588179	0.13745	0.0427761	-0.0369108	0.0169074	-0.042042	-0.0907754	-0.0326957	0.0161613	-0.0717108	0.0166871	-0.0601327	0.133681	0.0190981	0.0147723	-0.103553	0.0733094	-0.0705902	-0.0339164	0.0791217	0.143136	0.0286739	-0.0142307	-0.0148837	-0.0685933	0.0330886	0.0285732	-0.0719429	0.0668618	-0.092784	-0.0219488	-0.0843355	0.100079	0.112252	-0.0227327	0.0536556	0.0214014	-0.0440839	-0.0100689	0.269688	-0.0305663	-0.0533401	0.0602808	0.0122297	0.0421853	0.0468278	-0.102326	-0.0141217	-0.0521087	-0.000321841	-0.0356995	-0.0185788	0.0134158	-0.0978725	-0.103067	0.0656191	-0.0306478	-0.119923	-0.0671823	-0.0362111	-0.0904857	-0.0910947	-0.0512042	-0.0441625	-0.063542	-0.0169915	0.0354829	0.0391958	-0.0271033	0.0670689	-0.0779238	-0.072963	0.021406	-0.063872	0.106384	0.0623542	0.0121177	-0.0116917	0.0119146	0.0297442
DB00688	0.0351294	-0.0236587	0.0613501	-0.00703269	-0.0194716	-0.0666811	0.0162769	-0.0823638	-0.00920655	-0.0607809	0.115404	0.059453	0.111043	0.0117223	-0.119472	-0.0360354	0.0768986	-0.0137434	-0.0825159	0.0849102	0.0561693	0.117244	0.0266423	0.0153759	-0.0468182	-0.0667449	-0.104678	-0.0537058	-0.0007792	-0.080521	-0.00993443	-0.0758804	0.153093	0.0396781	-0.0304816	-0.146313	0.0534073	-0.0969276	-0.0337238	0.0404399	0.104216	0.0499043	0.00877265	0.00464548	-0.0823076	0.0361693	-0.0264942	-0.114223	0.0809142	-0.0924111	-0.0392405	-0.0610574	-0.0072359	0.125509	-0.0384644	0.0970286	0.102409	0.0491862	0.0330498	0.242049	-0.00549265	-0.102147	0.0326597	0.00491203	0.0263815	0.102508	-0.138108	-0.0715006	-0.063364	0.0620731	-0.0666678	0.0212207	-0.0334844	-0.0693751	-0.123776	0.0447086	0.0219136	-0.0934913	-0.0925045	-0.082946	-0.101086	-0.0522016	-0.0613243	-0.0564369	-0.0665047	-0.00306855	0.0496397	0.00255662	-0.0397395	0.0498436	-0.0915214	-0.0754613	0.0713397	0.00301404	0.1007	0.0313271	0.0320376	0.0243228	0.0440297	0.0288044
DB00373	0.0278499	-0.012379	0.040994	0.0203484	-0.0330103	-0.0703525	-0.0432726	-0.0539928	-0.0121903	-0.093797	0.105231	0.0871003	0.0833377	0.00962549	-0.125917	0.0114252	0.115545	-0.075122	-0.0820596	0.0820422	0.0572674	0.104272	0.00288122	-0.0434148	-0.0622855	-0.0400202	-0.102126	-0.0546244	-0.0415926	-0.0836169	-0.000591128	-0.0793573	0.186359	0.0412303	-0.0168754	-0.158208	0.00843247	-0.115438	-0.0444283	0.0341511	0.0872717	0.0379383	-0.00349795	-0.000625448	-0.0913315	0.0553998	-0.025092	-0.13975	0.0195093	-0.0952182	-0.00188687	-0.0494742	0.0135893	0.122917	-0.0539371	0.0932202	0.0939101	0.038745	0.0125781	0.266585	-0.0669091	-0.104948	0.0462453	-0.0210282	0.0339867	0.0905411	-0.140737	-0.0682293	-0.0708859	0.0291947	-0.0553241	-0.00176687	-0.0518261	-0.0214937	-0.135083	0.0243043	0.0218028	-0.051613	-0.0912784	-0.0843512	-0.128098	-0.0401267	-0.0821766	-0.0227699	-0.0979126	-0.0151186	0.0688504	0.0751488	-0.00665737	0.0505691	-0.0675134	-0.058936	0.0935213	-0.00430027	0.09733	0.036023	0.0247786	0.0116899	0.0284915	0.0334861
DB00372	0.0451654	-0.00991298	0.00163251	-0.049831	-0.0385478	-0.0820166	-0.000546622	-0.00808242	-0.0205524	-0.0376567	0.0467126	0.0490474	0.11839	0.0421198	-0.0820316	-0.0086592	0.0217906	-0.0474185	-0.0211205	0.0600631	0.0584252	0.0744344	0.0331628	-0.0662142	-0.0550727	-0.0572232	-0.0938171	-0.0361192	0.0257031	-0.091437	0.0519945	-0.0452045	0.165307	0.0151797	0.0075193	-0.0966918	0.0565072	-0.0900312	0.0107464	0.0648941	0.127172	-0.00806575	-0.0367877	-0.0374438	-0.0634417	0.0161583	0.019731	-0.0995191	0.0190249	-0.096861	-0.0450571	-0.077939	0.086928	0.138379	-0.0288482	0.0352275	0.0357955	0.0115027	0.00039837	0.251999	-0.0572624	-0.0202625	0.0654983	0.0143859	0.0630706	0.0929127	-0.143049	-0.0605419	-0.081505	0.0369424	-0.0505366	-0.0420647	-0.0514202	-0.0684182	-0.0815685	0.0713639	0.0333171	-0.0881655	-0.099716	-0.105157	-0.0857778	-0.0506359	-0.0880978	-0.0216606	-0.0824187	-0.0194885	0.0621692	0.00673163	0.00498249	0.0229761	-0.0637659	-0.0485757	0.0715946	-0.0705891	0.0958447	0.0576224	0.0116871	0.00952389	-0.0362965	0.062209
DB00371	0.0361503	-0.0415531	0.0101144	-0.00379981	-0.0134407	-0.0649583	-0.0176721	-0.0302598	-0.0149809	-0.0243467	0.0875183	0.0332598	0.117938	0.0436813	-0.066994	-0.0419815	0.0446492	-0.0653142	-0.0324952	0.0583919	0.06539	0.131249	0.0188607	-0.0333528	-0.0674404	-0.069166	-0.087149	-0.0810452	0.0418873	-0.0866468	0.0279388	-0.047264	0.189075	0.024381	0.00404745	-0.181021	0.0423467	-0.0887082	-0.00404816	0.032548	0.154538	0.0395403	-0.0222411	-0.0444895	-0.0708558	0.0234496	0.0165209	-0.0903604	0.0245984	-0.0797392	-0.0642082	-0.0633311	0.0266907	0.116383	0.00250744	0.0610757	0.111279	0.0360636	0.0242033	0.263472	-0.0633988	-0.0687657	0.00765707	0.0265819	0.058406	0.097213	-0.150276	-0.0381926	-0.104554	0.0482232	-0.0859701	-0.0165007	-0.0567787	-0.0362819	-0.121362	0.0866523	0.0719009	-0.0624624	-0.086982	-0.105876	-0.109246	-0.0430818	-0.0292062	0.0422936	-0.050465	-0.0191497	0.0630654	0.0129596	-0.000990481	0.0680486	-0.0755128	-0.0111683	0.0608316	0.0271739	0.099346	0.0520281	-0.00209163	0.0690874	0.0378133	0.0784653
DB00370	0.0712952	-0.0185175	0.0321089	-0.0351538	-0.0160088	0.00427451	-0.0129818	-0.0591977	-0.0378815	-0.105488	0.108493	0.0740875	0.108073	-0.0252127	-0.103072	-0.0260265	0.0622586	-0.0854456	-0.0380972	0.100551	0.0444961	0.133429	-4.56626e-05	0.00131941	-0.0710735	-0.0376089	-0.102534	-0.0582262	-0.00622783	-0.0992396	-0.0200056	-0.0876992	0.175213	0.0471052	-0.0353077	-0.167446	0.0366263	-0.104879	-0.0203696	0.0410427	0.102451	0.0332147	0.0377672	0.00398394	-0.0862056	0.0239768	-0.00431575	-0.105437	0.022275	-0.0935895	-0.0220875	-0.0589033	0.0103706	0.128	0.0180629	0.0752786	0.10838	0.0435232	-0.0332448	0.250006	-0.0460423	-0.11603	0.0554264	0.0258255	0.0270401	0.0925894	-0.153898	-0.0882839	-0.105034	0.00823309	-0.0395787	-0.0172983	-0.0570168	-0.0235251	-0.112666	0.0841713	0.0748274	-0.0445637	-0.085723	-0.0954445	-0.12296	-0.0630037	-0.107058	-0.029906	-0.0919691	-0.00962322	0.0723723	0.0377514	0.0018719	0.0488515	-0.0697678	-0.0470568	0.0707567	-0.0163812	0.0954979	0.0686726	0.0382309	0.0560667	0.0355366	0.0695792
DB00377	0.0439201	-0.0208126	0.0393701	-0.0279516	-0.0575917	0.0126715	-0.0151845	-0.0702937	0.0132142	-0.027489	0.0934327	0.040147	0.114617	0.00841658	-0.0499327	-0.042725	0.0819514	-0.0132063	-0.0414835	0.070898	0.0676728	0.0746862	0.0332072	-0.0495715	-0.0365777	-0.0646117	-0.098044	-0.0499348	-0.00628265	-0.0919303	0.0179247	-0.0537067	0.144176	0.046366	-0.00164685	-0.143687	0.0685361	-0.104776	-0.0331303	0.065965	0.124679	0.0119635	-0.00626676	0.0846687	-0.0879683	0.0191441	-0.0167484	-0.100955	0.0448545	-0.0953334	-0.0467977	-0.0496123	-0.00998809	0.124601	-0.0357629	0.0752535	0.095172	0.0330921	0.017411	0.255155	-0.0372826	-0.0696981	0.0456747	-0.00515943	0.055011	0.0962747	-0.15551	-0.00383373	-0.0849583	0.0215623	-0.0443037	-0.00941546	-0.0649688	-0.0337488	-0.119711	0.0482258	0.0398558	-0.0569643	-0.0922737	-0.0979422	-0.111105	-0.0631399	-0.0692679	-0.0236586	-0.0828564	-0.00403778	0.0770911	0.0165582	-0.0337193	0.0155675	-0.0612366	-0.0594988	0.0781317	-0.0232225	0.0900765	0.042885	0.0320194	0.0197265	0.0161083	0.0814412
DB00376	0.00865926	-0.00284658	0.0558113	-0.0321798	-0.028996	-0.0472107	-0.0258371	-0.0255661	-0.00601201	-0.060502	0.0910362	0.0695105	0.0693581	-0.0128048	-0.0802023	-0.0266168	0.0269035	-0.0516763	-0.032868	0.0654264	0.0310233	0.108244	0.0253171	-0.0461638	-0.0674121	-0.045191	-0.101186	-0.0407742	0.00694065	-0.0794356	0.0350133	-0.0296247	0.164939	0.0345124	0.0130096	-0.129444	0.0399051	-0.108969	-0.00455747	0.0601305	0.134776	0.0331936	-0.0133616	0.00720042	-0.0992602	0.024188	-0.0395544	-0.103492	0.0244599	-0.0888959	-0.0552822	-0.0347707	0.0219364	0.112002	-0.0289076	0.0656653	0.0914699	0.0195045	0.00408087	0.266278	-0.0437549	-0.0863447	0.0554333	0.00425548	0.0415003	0.0720209	-0.135416	-0.0613799	-0.0741842	0.0383075	-0.0520775	-0.017957	-0.0503002	0.00208662	-0.109496	0.0805588	0.0632804	-0.0603006	-0.081061	-0.0647889	-0.0884402	-0.0659363	-0.0396136	0.0313963	-0.110215	0.0250479	0.052731	0.0201252	0.0190961	0.0170273	-0.0708008	-0.0255117	0.0703917	0.01244	0.0973409	0.0883355	-0.0104737	0.0508551	0.0434501	0.0268264
DB00375	0.0214449	0.00682529	0.0593226	0.0173843	-0.0464708	-0.0284144	-0.0213252	-0.065683	0.0140896	-0.0470854	0.125414	0.0521917	0.0996871	0.00719596	-0.0715264	0.000718607	0.0362621	-0.0688953	-0.0490502	0.0700625	0.060024	0.0905293	0.0400276	-0.0569041	-0.0368239	-0.0677644	-0.0658849	-0.0244821	-0.0128896	-0.0678998	0.00985118	-0.0664221	0.163536	0.0607457	0.00733813	-0.15045	0.0662471	-0.103829	-0.01796	0.0334512	0.113747	0.0521035	-0.00112208	-0.0211614	-0.0937714	0.0275141	-0.0262638	-0.077716	0.0433692	-0.0469055	-0.0510683	-0.0730257	-0.00651991	0.124353	-0.050921	0.0563574	0.0948447	0.0231021	-0.0663409	0.228116	-0.0487202	-0.0833547	0.0256131	0.0102562	0.0599496	0.0887173	-0.136191	-0.0407571	-0.0812268	0.0260339	-0.0470532	-0.0456018	-0.0239619	-0.0257873	-0.105037	0.0505544	0.0335457	-0.0750548	-0.102812	-0.0980634	-0.10106	-0.0493862	-0.0614401	-0.0301776	-0.0976036	-0.00865435	0.0722461	0.0313102	-0.032288	0.0482857	-0.0934527	-0.0388775	0.0676799	-0.0620473	0.0268454	0.0645927	0.0159031	-0.0169809	-0.0021757	0.0574813
DB00374	0.0990305	0.0161919	0.0556824	-0.00143513	-0.0312713	-0.0926908	-0.0335287	-0.00712525	0.00431082	-0.064466	0.101711	0.0640653	0.0903064	-0.0280992	-0.103744	-0.0141372	0.0742183	-0.0350981	-0.0593859	0.0622081	0.0675633	0.132834	0.0348854	-0.0208413	-0.0585952	-0.0609083	-0.106631	-0.0345177	-0.018751	-0.0748002	0.0168372	-0.0517984	0.150843	0.0581496	-0.00768443	-0.108376	0.0443938	-0.112462	-0.0153933	0.0664328	0.119988	-0.00626023	0.0258539	0.0611421	-0.0835153	0.0202637	-0.0098804	-0.101575	0.0178707	-0.0502615	-0.0532538	-0.0670923	0.000930097	0.120152	-0.0403123	0.0619364	0.096518	0.0373301	0.00874734	0.245539	-0.082683	-0.0693229	0.0415608	0.00451169	0.0489764	0.0788301	-0.13755	-0.0576292	-0.0804445	0.0206339	-0.0409917	-0.00106607	0.0390154	-0.00742002	-0.129134	0.0271762	0.0302527	-0.0381078	-0.105764	-0.0984952	-0.0996408	-0.0799634	-0.0742723	-0.0357216	-0.101688	-0.0113208	0.0228141	0.0279003	-0.0148647	0.046029	-0.0908309	-0.0495028	0.0463341	0.00122968	0.0410316	0.0726841	-0.00083196	-0.00265377	0.0504056	0.0831142
DB00379	0.0268371	-0.0658077	0.0471476	0.0180624	-0.0468866	-0.0731249	-0.00340181	-0.0744181	-0.0165736	-0.0394734	0.11339	0.0770809	0.124543	0.0299756	-0.0636298	-0.0285653	0.022323	-0.00461243	-0.0225718	0.0872189	0.0674948	0.106392	0.056024	-0.013189	-0.0784436	-0.0440747	-0.0941768	-0.0472887	0.0145868	-0.0554429	-0.00187636	-0.0327666	0.168617	0.0477225	0.00103165	-0.157272	0.0429699	-0.10523	-0.0364674	0.0749471	0.0563525	-0.00282125	-0.00341299	-0.044111	-0.0625073	0.0139386	-0.024902	-0.120815	0.0415504	-0.10446	-0.0737531	-0.0802376	-0.0266998	0.133542	-0.0153253	0.0627764	0.103723	0.0461441	0.00214703	0.233777	-0.0674466	-0.0635159	0.0494492	0.0338107	0.0445087	0.0862318	-0.130506	-0.0490117	-0.0785733	0.0646863	-0.0653055	-0.016838	-0.0781546	-0.0529562	-0.116627	0.0781338	0.0751024	-0.0624035	-0.110117	-0.105236	-0.101105	-0.0684242	-0.0734303	-0.0332034	-0.0850301	-0.0169385	0.0593205	0.0249707	0.00971507	0.0432069	-0.0658715	-0.0248034	0.059987	-0.0128566	0.0729051	0.0488523	0.0140595	0.037508	0.0169036	0.0439864
DB00378	-0.00502866	-0.0378659	-0.0357076	-0.0272554	-0.0615892	-0.0977723	-0.0268594	-0.0175954	0.0409229	-0.0306489	0.0946223	0.0575628	0.13272	0.0362279	-0.0139532	-0.00829285	0.0878387	-0.0346505	-0.0265452	0.0490033	0.0484515	0.0491855	0.0501533	-0.0226731	-0.0590454	-0.061388	-0.0688701	0.00491555	0.0282575	-0.097617	0.0530645	-0.0495446	0.133739	0.0392363	0.0269064	-0.136929	0.0599477	-0.0985164	-0.000219879	0.0706558	0.049513	-0.011716	-0.0365614	-0.0269687	-0.0572277	0.0468196	0.00398092	-0.114277	0.0619241	-0.099634	-0.0648264	-0.0780415	0.00700058	0.144028	-0.0113895	0.0339298	0.0977481	-0.000665348	0.0149913	0.184463	-0.0504123	0.0253893	0.0717227	0.0300176	0.0530029	0.0941239	-0.0911847	-0.0525627	-0.0587808	0.0573678	-0.0624784	0.00455059	-0.0697237	-0.0923087	-0.0789821	0.0792531	0.0142011	-0.0928386	-0.123772	-0.0485445	-0.0907266	-0.11622	-0.0504661	-0.00727963	-0.0769785	-0.0275759	0.0500419	0.0181636	0.0480348	-0.00230914	-0.0762246	-0.0635274	0.0638567	-0.0652796	0.0635461	0.0546152	0.00404792	-0.00030109	-0.0390512	0.0720292
DB06237	0.0505929	-0.0415212	0.0629393	-0.00232646	-0.0147707	-0.00219769	0.017063	-0.0265943	0.0243803	-0.0492708	0.0824236	0.0589217	0.122619	-0.0436627	-0.0886612	-0.0127064	0.0993243	-0.0823224	-0.0391592	0.0702398	0.0311989	0.120488	0.0447005	0.0330307	-0.0269027	-0.0645466	-0.0994307	-0.00463493	-0.0343559	-0.0994209	-0.00340792	-0.0621821	0.126833	0.0471993	-0.0100787	-0.0873886	0.0230481	-0.109189	-0.0600095	0.0763438	0.129668	0.0422323	-0.032372	-0.0450762	-0.0494349	0.0261674	-0.00286137	-0.0178956	0.0313985	-0.101975	-0.0248218	-0.0798765	0.0498005	0.0573466	-0.0609301	0.0632668	0.0389988	0.0383809	0.0014705	0.272605	-0.0786295	-0.0756726	0.0512834	0.0335915	0.0579056	0.100841	-0.144145	-0.0521237	-0.0514452	-0.00949711	-0.0140833	0.00494355	-0.016509	-0.0307293	-0.0612774	-0.00799982	-0.0194927	-0.0899965	-0.112981	-0.0662989	-0.124677	-0.100032	-0.108445	-0.0341395	-0.0774147	-0.0071851	0.028911	0.00972873	-0.0253402	0.0192656	-0.0759835	-0.0768667	0.0743796	-0.0727006	0.107086	0.0500253	0.00579937	-0.035174	-0.00928613	0.0820554
DB04854	0.0766609	0.00349168	0.0176011	0.00999073	-0.0471392	-0.0804731	-0.0363617	-0.00411923	0.00505162	-0.0423872	0.0964311	0.0348005	0.125364	0.0205137	-0.0682874	-0.0168713	0.113347	-0.0161129	-0.0780353	0.0619853	0.0328614	0.0921167	0.0362753	-0.0388504	-0.0267571	-0.0429098	-0.0910412	-0.0401265	-0.00980055	-0.0934207	0.0194136	-0.00991058	0.14204	0.0535142	-0.0223272	-0.126325	0.066506	-0.0740541	-0.0393681	0.0390854	0.121433	0.0261769	0.00481001	0.0444838	-0.054536	0.0358222	-0.0280384	-0.0907411	0.0418921	-0.0950211	-0.0324192	-0.00191288	0.0188766	0.129998	-0.0530305	0.0857093	0.0259976	-0.0055077	0.0209992	0.236742	-0.0727099	-0.0401858	0.0590719	0.0187309	0.0461616	0.0563578	-0.137981	-0.0712508	-0.0731594	0.0389022	-0.0469026	-0.0126615	0.0044204	0.00447881	-0.123904	0.0179203	0.0107039	-0.0909051	-0.0949171	-0.0934843	-0.1243	-0.093456	-0.097464	-0.0289807	-0.090852	-0.0108268	0.0396533	0.0196199	-0.0188149	0.0342179	-0.0771348	-0.0746535	0.0482677	-0.0607086	0.104807	0.0827075	-0.0019518	-0.01065	-0.0230092	0.0421036
DB04855	0.0980951	0.0100839	0.0461954	-0.020867	-0.00226627	-0.0667787	0.013317	-0.0181988	-0.0374219	-0.111954	0.0914768	0.0313587	0.119872	-0.018641	-0.0844952	-0.0544467	0.0351865	-0.0535665	-0.0721425	0.0706107	0.0421471	0.135461	0.022464	0.00258214	-0.0408603	-0.0456084	-0.0810407	-0.0399842	-0.00831833	-0.0897281	0.031292	-0.0672098	0.176921	0.0314666	-0.0245299	-0.14965	0.0601715	-0.107271	0.00848122	0.0439124	0.117668	0.0272226	-0.000882649	-0.0217632	-0.074446	0.0135086	0.038019	-0.0860104	0.0105769	-0.0408914	-0.0193019	-0.0945176	0.00775195	0.130244	-0.060488	0.106066	0.093386	-0.00136608	0.0274964	0.205356	-0.0529153	-0.100832	0.0366917	0.0133759	0.0340228	0.0932437	-0.160596	-0.0700661	-0.0964304	0.015073	-0.034423	-0.016849	0.0285291	-0.0550112	-0.133255	0.0465918	0.0568571	-0.0841051	-0.110276	-0.0993387	-0.118344	-0.0759548	-0.0898477	-0.0592565	-0.0598696	-0.00943267	0.0287227	0.016793	0.00124366	0.0349209	-0.0926363	-0.0689489	0.0339933	0.0184595	0.098965	0.092099	0.0185986	0.0268504	0.0477445	0.0535329
DB04858	0.0772548	-0.0483079	-0.0088646	-0.0121681	-0.0177736	-0.0438013	-0.0191678	-0.0616476	0.0527374	-0.0487712	0.0134449	0.0287459	0.109686	0.043208	0.00437223	-0.00614824	0.0953191	-0.0386978	-0.00703757	0.0431076	0.0358009	0.0767871	0.0629124	-0.0475475	-0.0256253	-0.059073	-0.072002	-0.0296832	0.0368181	-0.0740345	0.0346058	-0.00777668	0.123709	-0.0132369	0.0091973	-0.135588	0.0494594	-0.079026	0.00773693	0.0354508	0.141653	-0.016109	-0.0166228	0.0278141	0.00822664	0.0115747	0.0112	-0.129537	0.0468209	-0.0653018	-0.038705	-0.0785512	0.0622161	0.0766721	0.00504379	0.0333229	0.0454953	0.0394321	-0.0488022	0.244931	-0.00489185	-0.0635902	0.00908723	-0.00785552	0.0622401	0.0293874	-0.0419913	0.0434371	-0.0357626	0.0654342	0.00385569	-0.0395612	-0.0278527	-0.0103785	-0.0898618	0.0905594	0.0366474	-0.0776373	-0.101664	-0.0556291	-0.0741054	-0.112227	-0.0851719	-0.0352884	-0.0918989	-0.0312854	0.0282714	-0.00580998	0.00874671	0.0613705	-0.0759272	-0.0252804	0.0242082	-0.0727705	0.0493772	0.0362762	-0.0216498	-0.0173088	-0.0563234	0.0551389
DB05239	0.00497013	-0.0458219	0.0435045	-0.00243896	-0.00979801	-0.112758	-0.0157985	-0.0547097	0.016515	-0.0385179	0.0925715	0.0626458	0.0894792	0.0124564	-0.0918072	-0.00902724	0.0219328	0.0192684	-0.0261944	0.0715229	0.0585579	0.133908	0.0191507	0.0491809	-0.0578476	-0.0490379	-0.0663803	-0.0630438	-0.00688457	-0.0972608	0.00244149	-0.0442288	0.154731	-0.0344776	0.00564395	-0.117533	0.0567745	-0.0275382	-0.0247661	-0.000409729	0.136502	-0.0371333	-0.031922	-0.00685028	-0.0325217	-0.000364243	0.0471309	-0.102966	0.00206692	-0.0311226	-0.0482988	-0.0702025	-0.00114532	0.0665292	-0.0479105	0.0715877	0.100533	0.0598458	0.0533692	0.248834	-0.0753604	-0.0401913	0.0401468	0.0074258	0.0598616	0.0766946	-0.148235	-0.0519811	-0.0792112	0.0674875	-0.0525592	-0.0710815	0.0466143	-0.0357606	-0.0687371	0.0306709	0.0172487	-0.0662254	-0.0882749	-0.0840272	-0.122835	-0.0408649	-0.0984088	-0.0309067	-0.0336259	-0.0223173	0.00556725	-0.0195554	-0.0262968	0.028522	-0.0498673	-0.0648358	0.0723346	-0.0063284	0.075533	0.0346088	-0.0328735	0.0474232	-0.0361978	0.0154491
DB04690	0.0281378	-0.0286151	0.0253003	-0.0441545	0.0497133	-0.0669626	-0.0296645	-0.0539394	-0.0246974	-0.0611941	0.0674158	0.0503518	0.114051	0.0495577	-0.0160757	-0.00267094	0.110493	-0.0215651	-0.0428741	0.0597849	0.0751418	0.115118	0.056601	-0.00640785	0.0359763	-0.0451007	-0.0850543	-0.00878437	0.000319969	-0.106079	0.0445069	-0.00020693	0.142821	0.00215949	0.0311712	-0.0843676	0.0499987	-0.0967244	-0.039653	0.072104	0.129862	0.0637458	0.00377311	0.0016393	-0.0627666	0.0425137	0.0263883	-0.0689111	0.0427709	-0.0587743	-0.00657365	-0.0578135	0.101182	0.107776	-0.0242778	0.0604477	0.0646313	-0.0350011	0.00984559	0.171592	0.00372373	-0.036982	0.0603655	0.0362114	0.0435793	0.0373434	-0.137062	-0.0726461	-0.0484431	0.050711	0.000954963	-0.0680309	-0.036272	-0.0824128	-0.127175	0.0269337	-0.0246729	-0.0971942	-0.106786	-0.0450462	-0.0976413	-0.0980109	-0.0417083	-0.0580451	-0.0518975	-0.0160388	0.0567869	0.0314161	0.000269276	0.0609023	-0.0731866	-0.0701866	0.0304204	-0.0574802	0.115386	0.099736	0.0204845	-0.0178244	-0.0236137	0.0679317
DB02237	0.00313358	0.00412672	-0.00853672	-0.0239173	0.0501082	-8.14581e-05	0.0389394	0.0254732	0.0470381	-0.0462357	-0.0128993	0.00772738	0.01358	-0.0400694	-0.0483821	-0.00228009	-0.00480871	-0.0503909	-0.0293426	0.0282437	0.0855445	0.0523414	-0.0258262	0.0268327	-0.0337681	-0.0273273	-0.0515627	0.00248903	0.0177581	-0.0840378	0.0267919	-0.0487878	0.0729623	-0.00335709	-0.00814472	-0.156125	-0.000192067	-0.0361435	0.0111122	0.0102423	0.0559833	0.0449843	0.00610303	-0.0452295	0.0257068	-0.000819309	0.0142465	-0.112171	-0.00998869	-0.0120318	-0.0375148	0.0103085	0.0922338	0.0890877	-0.0262524	0.0449455	0.0667602	0.00181218	-0.0550269	0.220042	0.0403434	-0.0175286	-0.0585059	0.0828561	0.0331785	0.0411963	-0.110285	-0.0660284	-0.0474125	-0.0134457	-0.0579042	-0.080335	0.0462343	0.00901833	-0.102928	0.0110528	0.012013	-0.0378523	-0.0653031	-0.0377143	-0.0908931	-0.0236284	-0.00577758	-0.0318449	-0.0247194	0.0573354	0.0735142	0.0241214	-0.00357974	0.0422997	-0.0126398	-0.0135963	0.0221544	0.0508687	0.0873975	0.0916309	-0.0192495	-0.0416795	0.048467	-0.0183943
DB00199	0.0633401	-0.0307755	0.0671612	-0.0134463	-0.0357193	-0.0843918	-0.0300987	-0.0787223	-0.0233255	-0.0920882	0.0981357	0.0838666	0.109569	0.00257786	-0.0971346	-0.0211686	0.0777324	-0.0356055	-0.0720468	0.0979935	0.0359119	0.113928	-0.024398	-0.0602681	-0.0740187	-0.0382826	-0.115862	-0.0448779	-0.0551242	-0.0753566	0.00674176	-0.0793854	0.188206	0.0541263	0.0119015	-0.162841	0.0506161	-0.120927	-0.0374145	0.0528806	0.094335	0.0397277	0.0278735	-0.0319152	-0.115182	0.0508403	-0.00523768	-0.14553	0.0231031	-0.0975921	-0.0539857	-0.0683008	-0.00131494	0.109565	-0.0530138	0.127063	0.0967931	0.0418761	-0.0313241	0.263115	-0.0607292	-0.11546	0.0538492	0.0133947	0.0492314	0.102082	-0.160417	-0.0740192	-0.0809085	0.00789339	-0.0887981	-0.00963731	-0.0428476	-0.0466813	-0.136582	0.0581476	0.0593218	-0.0440296	-0.0733689	-0.085481	-0.090126	-0.0284515	-0.0344561	-0.0252654	-0.105729	0.0215394	0.0729957	0.0370761	-0.023974	0.0189373	-0.0771961	-0.0258127	0.0752472	0.00907129	0.111451	0.0510148	0.0587376	0.0499126	0.0407633	0.0526184
DB00198	0.0579716	-0.00808732	0.0604633	-0.0552782	-0.0275989	-0.0580495	-0.0220439	-0.0760509	-0.0120552	-0.056743	0.0925546	0.0659489	0.085222	0.0403224	-0.0726486	-0.00807155	0.0963992	-0.0678662	-0.0572091	0.0540435	0.0674128	0.106901	0.0188084	-0.0286738	-0.0271726	-0.0499789	-0.100784	-0.0593954	-0.0120062	-0.0845883	0.0240291	-0.0647594	0.172699	0.0196975	-0.0304336	-0.141697	0.0589771	-0.106808	-0.0158797	0.0692747	0.064806	0.0525039	-0.0145641	0.0566304	-0.0896324	0.00939007	0.0152841	-0.11671	0.0388219	-0.0831831	-0.0536475	-0.067598	0.0072048	0.135143	-0.0484028	0.0907259	0.0986856	0.00635278	0.0040223	0.262969	-0.0424286	-0.081744	0.0447329	0.0098987	0.0567538	0.0917937	-0.136689	-0.0358087	-0.0777384	0.0615074	-0.069888	0.00746163	-0.0365255	-0.0300886	-0.121628	0.0520306	0.0190095	-0.0623735	-0.0900823	-0.0944399	-0.11712	-0.0384846	-0.089952	-0.033856	-0.0973389	-0.0226857	0.0761832	0.0157947	-0.0287338	0.0582965	-0.0529884	-0.0539926	0.0504601	-0.014941	0.0975623	0.0397785	0.0190776	-0.000727818	0.0517498	0.0246687
DB00197	0.0552856	-0.0492669	-0.0100472	0.00204093	-0.000903783	-0.0129719	-0.00895406	-0.0687848	-0.0218373	-0.112712	0.0932822	0.0290365	0.106967	-0.0517283	-0.0444343	-0.0630746	0.0697735	-0.00477198	-0.0324029	0.0602311	0.0644862	0.134386	0.0477846	-0.0450092	-0.0764678	-0.0290233	-0.113003	-0.0285446	0.0276506	-0.0963335	-0.0172862	-0.00875711	0.135072	-0.0290457	-0.0504114	-0.170976	0.0227133	-0.111936	-0.0454883	0.0414011	0.111722	0.0221951	-0.00534193	-0.00631708	-0.0367899	0.0208647	0.0126725	-0.117288	0.0578419	-0.104676	-0.0332082	-0.103664	-0.0190154	0.106593	0.0222696	0.107941	0.0565565	0.0399418	0.00808629	0.254908	-0.0333993	-0.0984706	0.0251875	0.0509803	-0.0271475	0.11585	-0.138508	-0.0830826	-0.0364822	0.0748418	-0.0331489	-0.031587	-0.0381536	-0.0848783	-0.139155	0.0767307	0.0431543	-0.0755247	-0.112127	-0.103644	-0.107735	-0.117839	-0.100821	-0.0505116	-0.034433	0.0540813	0.0884023	0.0166606	-0.00244959	0.0497064	-0.0846092	-0.0314597	0.0148521	0.0213815	0.0799318	0.0720139	0.0441308	0.0577006	-0.0347844	0.00560872
DB00196	0.0137376	-0.0562905	0.056587	0.0168787	-0.0290872	-0.0726196	-0.0262797	-0.0764953	-0.0236324	-0.0653569	0.0953272	0.0910244	0.0931338	0.0151673	-0.122791	-0.0202794	0.0684961	-0.0137042	-0.0555442	0.0797628	0.0365759	0.0786129	0.0203638	-0.0430588	-0.0568091	-0.0510309	-0.100208	-0.0386228	-0.0411612	-0.0529017	0.00616058	-0.0619853	0.165837	0.0220969	0.0155178	-0.168528	0.0253522	-0.10163	-0.0369586	0.0650117	0.085153	0.0407065	-0.0107663	0.033806	-0.0949057	0.0737889	-0.00367471	-0.10545	0.0327063	-0.0546964	-0.0416326	-0.0205069	-0.019593	0.129057	-0.0353586	0.0985369	0.109439	0.0425312	-0.0116022	0.267145	-0.0381311	-0.103452	0.0531576	0.00185402	0.0518398	0.105866	-0.132959	-0.0874669	-0.0909117	0.0627806	-0.0683195	0.0231751	-0.0807745	-0.00725244	-0.121048	0.0456768	0.0658456	-0.0417218	-0.0946836	-0.0649249	-0.0940793	-0.0480724	-0.0184133	0.0283067	-0.10259	0.0183099	0.087035	0.0262557	-0.03908	0.0117132	-0.0839565	-0.0364111	0.0919261	-0.0518789	0.0476888	0.0821089	0.0359921	0.0337083	0.0429454	0.0710381
DB00195	0.00567605	-0.0132562	0.00412097	0.0159975	-0.051072	-0.0723854	-0.012315	-0.0842482	0.0178593	-0.0572192	0.105978	0.0796911	0.111803	-0.0133054	-0.0167427	-0.0273547	0.0728889	-0.023166	-0.0727414	0.093004	0.0700008	0.0974687	0.00442433	-0.035636	-0.057166	-0.0457705	-0.101896	-0.0550461	-0.013993	-0.0883525	-0.00232682	-0.068896	0.160763	0.047162	-0.0174578	-0.157501	0.0191785	-0.108104	-0.0486541	0.074327	0.0832208	0.0294055	0.0081343	-0.00196973	-0.106378	0.0243751	-0.058125	-0.101591	0.0651213	-0.0849189	-0.0627884	-0.0669858	-0.0132656	0.120017	-0.0326506	0.0835221	0.0638265	0.0200985	0.000449083	0.243057	-0.0496612	-0.0830854	0.064736	0.023465	0.0198349	0.0963242	-0.145745	-0.0582043	-0.0783564	0.057138	-0.0462784	-0.00278791	-0.050611	-0.0477389	-0.10954	0.0772757	0.0545355	-0.065395	-0.0984887	-0.0901463	-0.108285	-0.100002	-0.08472	-0.0199198	-0.118257	-0.0176048	0.0456365	0.0326994	-0.00710495	0.0200899	-0.0346719	-0.0321882	0.0763513	-0.0547958	0.0822763	0.0826557	0.0283923	0.0059418	-0.0349563	0.0494256
DB00193	0.0378096	-0.0225648	0.0470703	-0.00697705	-0.0472136	-0.0736439	-0.00695528	-0.0430392	-0.0230695	-0.0855406	0.110402	0.0725381	0.0559138	-0.0131187	-0.12409	-0.0337583	0.0360425	-0.0750948	-0.0444623	0.102391	0.0623649	0.117536	0.00294401	-0.034872	-0.0711944	-0.0511169	-0.0932413	-0.0708885	-0.0203845	-0.070819	-0.0139333	-0.104188	0.193567	0.0415884	-0.0100785	-0.165869	0.0593501	-0.111478	-0.0207452	0.0471043	0.124509	0.0166581	0.00709603	0.00338382	-0.0904218	0.046348	-0.0209589	-0.109677	0.0388741	-0.0768287	-0.046537	-0.0303113	-0.01102	0.133671	-0.0302142	0.0922828	0.0812239	0.0430193	0.0175206	0.249283	-0.0679037	-0.0751543	0.0346978	0.0264317	0.0290197	0.102624	-0.14746	-0.0838519	-0.0989151	0.0215443	-0.0784982	-0.0469362	-0.0495998	-0.0300424	-0.120256	0.0680578	0.0442153	-0.0589878	-0.0768883	-0.0790866	-0.112985	-0.0351818	-0.0449623	0.0209984	-0.089976	-0.0219503	0.0559568	0.0227016	-0.0275707	0.0247195	-0.075736	-0.0439589	0.074504	0.029462	0.0774571	0.0949378	0.0361154	0.0142441	0.0409651	0.0538897
DB00191	0.0232647	-0.0466645	0.0439235	-0.0171628	-0.053855	-0.0561952	-0.0137617	-0.0664829	-0.027943	-0.082561	0.0999769	0.0687946	0.0936902	0.0132411	-0.105323	-0.0417823	0.014236	-0.0391039	-0.0242304	0.0806052	0.069832	0.101568	0.0192965	-0.0379657	-0.0750159	-0.0208407	-0.112112	-0.0367271	0.0400442	-0.0732381	0.0242468	-0.0654736	0.165161	0.000758651	0.0128259	-0.162528	0.0274468	-0.124212	-0.0113281	0.0371312	0.130852	0.0293377	-0.00333972	-0.0173815	-0.0658874	0.025401	-0.0137286	-0.120179	0.054834	-0.0830889	-0.0607778	-0.0384085	-0.00448108	0.114542	0.00775545	0.0651919	0.0962322	0.052078	-0.0378701	0.267567	-0.0512007	-0.101147	0.054442	-0.00663922	0.054603	0.106297	-0.143019	-0.0625407	-0.0908907	0.0138758	-0.0439039	-0.0677288	-0.0657616	-0.0196031	-0.0988193	0.0804363	0.0644857	-0.0134247	-0.0920103	-0.0794775	-0.11989	-0.0346081	-0.0411203	-0.0307315	-0.0951537	0.00653439	0.0745796	0.0309206	0.00493012	0.0250046	-0.0474545	-0.0403393	0.0570344	-0.0419289	0.0464004	0.0660291	0.0301003	0.0217812	0.038373	0.0258384
DB00190	0.0457522	-0.00783072	0.0343574	-0.0237701	-0.0391557	-0.0210769	-0.0246196	-0.0129089	-0.0343986	-0.0453205	0.132364	0.0680076	0.0666923	-0.00706383	-0.0452857	-0.0358636	0.1102	-0.0792388	-0.0566211	0.0780427	0.00861995	0.0966901	0.0545918	-0.0507236	-0.0199555	-0.0656765	-0.0990917	-0.00866621	-0.0202382	-0.0668912	0.0152377	-0.0842954	0.163755	0.0716129	-0.00471589	-0.142908	0.0763519	-0.0993663	-0.0683987	0.0845344	0.167574	0.0541338	0.0177838	-0.00533932	-0.080858	0.0283846	-0.00780939	-0.117351	0.0496089	-0.107426	-0.0497301	-0.0406168	0.00700851	0.10351	-0.0366901	0.08834	0.025162	0.0204072	0.0135631	0.255159	-0.0785275	-0.0697413	0.0581118	0.0274835	0.0481934	0.106018	-0.134871	-0.0302651	-0.0650103	0.0418875	-0.0475358	0.00775056	0.00318241	-0.0622987	-0.126395	0.0436742	0.025253	-0.092857	-0.0835477	-0.083636	-0.0923532	-0.0438445	-0.0536117	-0.0410186	-0.110478	-0.0312366	0.0360654	0.0288829	-0.0107807	0.057068	-0.0778137	-0.0559387	0.0582721	-0.0739163	0.0899535	0.0626047	0.00997273	0.015645	-0.00609327	0.0939528
DB09167	0.0730359	0.0146208	-0.00918345	0.00140033	-0.0388834	0.0192194	0.0285622	-0.0100473	0.0203937	-0.0569712	0.0586182	0.0394277	0.102465	0.0352922	0.00327707	0.022233	0.0970336	-0.0222666	-0.0381368	0.0240248	-0.0160888	0.077213	0.00999737	-0.0605726	-0.0134278	-0.047612	-0.0766858	0.00634695	0.00788391	-0.0196849	0.0118332	0.00502515	0.110176	-0.0350482	0.0296	-0.170804	0.0174064	-0.00248343	-0.074709	0.0796737	0.134172	0.00201542	-0.0259863	0.00358239	0.0266436	0.0572877	-0.0050255	-0.0615787	0.0534295	-0.102046	-0.000795012	-0.083903	-0.00354959	0.0984696	-0.0509871	0.0294965	0.0209783	0.0577251	-0.0530073	0.194131	0.0499937	0.0367817	0.0696919	-0.0120264	0.0289497	0.0632795	-0.0373642	0.0128839	-0.0705859	0.0210343	-0.0468794	0.0221856	-0.0472162	-0.00271019	-0.0335621	0.0117383	-0.0426165	-0.0777473	-0.131048	-0.0301403	-0.0746011	-0.0369304	-0.092715	-0.0220399	-0.0920305	-0.0245158	0.0337456	-0.00439673	-0.0344185	0.0457456	-0.0680833	-0.0298517	0.0699305	-0.0324122	0.110134	0.0408358	-0.0376422	-0.0531233	-0.00401056	0.0530028
DB06698	0.0709505	-0.030418	0.0662052	-0.0449898	-0.0499647	-0.0539748	-0.0243069	0.0074469	-0.0303642	-0.0389567	0.0726622	0.0434235	0.103995	0.0368051	-0.0296877	0.0165583	0.0853253	-0.0240403	-0.0859548	0.054655	0.0325456	0.133991	0.0343202	-0.028789	-0.0527439	-0.049045	-0.0642116	-0.00278807	-0.000525413	-0.103655	0.0540362	-0.0520429	0.164694	0.0550759	0.00791369	-0.122332	0.0135628	-0.0913318	0.0154301	0.080129	0.132964	0.00150327	-0.0110548	-0.062437	-0.0690635	0.0152809	-0.0268281	-0.0456308	0.0647869	-0.0804543	-0.0395332	-0.0695205	0.0395831	0.13113	-0.0512258	0.0655725	0.0937491	0.0058992	0.0233118	0.253067	-0.0763228	-0.0309609	0.0672401	-0.00222248	0.0432661	0.100867	-0.135408	-0.0354119	-0.0910891	0.0521699	-0.0489355	0.0110449	0.00722068	-0.0136026	-0.0693656	0.00379402	0.0329335	-0.0903261	-0.0689975	-0.0885305	-0.122778	-0.0472942	-0.0975553	-0.0539967	-0.0920485	-0.0178702	0.0185971	0.0287228	-0.00817059	0.054162	-0.0324982	-0.04453	0.0474855	0.0211245	0.112453	0.0507665	0.0285816	-0.00624911	-0.0254213	0.0736378
DB06699	0.090817	0.0277547	0.0528627	-0.00917371	-0.0418168	-0.0990074	0.0434962	-0.0444498	0.0295889	-0.0594627	0.0993715	0.0146655	0.108608	-0.0456535	-0.0973852	-0.0537072	0.0307322	-0.0700184	-0.0430157	0.0662285	0.0598203	0.0800229	0.0243625	-0.0538726	-0.040753	-0.0423054	-0.0984116	-0.00115846	-0.0620262	-0.0890747	-0.00627622	-0.0735018	0.134422	0.073735	-0.00973262	-0.103062	0.061896	-0.0936058	-0.0211851	0.0788971	0.134797	0.0346541	0.0284472	-0.0403842	-0.0845718	0.0251297	-0.0220247	-0.047609	0.0522532	-0.0152017	-0.0283639	-0.0410515	0.00842397	0.113772	-0.0586407	0.0830553	0.0205975	0.0134289	0.0292985	0.245857	-0.0321271	-0.0851217	0.0425183	0.0773533	0.0324241	0.0943495	-0.149771	-0.0531495	-0.0397311	-0.00820131	-0.0419598	-0.040732	0.0420031	-0.0340073	-0.0771551	-0.00900219	-0.031306	-0.0915368	-0.0645228	-0.0884074	-0.109213	-0.0597205	-0.0883299	-0.0411039	-0.111002	0.0529212	0.025243	0.0331345	-0.0410571	0.0111239	-0.065756	-0.0868274	0.0736957	-0.00363874	0.0949967	0.0486442	0.0431989	-0.0121989	0.0592895	0.0817858
