Drug	feature0	feature1	feature2	feature3	feature4	feature5	feature6	feature7	feature8	feature9	feature10	feature11	feature12	feature13	feature14	feature15	feature16	feature17	feature18	feature19	feature20	feature21	feature22	feature23	feature24	feature25	feature26	feature27	feature28	feature29	feature30	feature31	feature32	feature33	feature34	feature35	feature36	feature37	feature38	feature39	feature40	feature41	feature42	feature43	feature44	feature45	feature46	feature47	feature48	feature49	feature50	feature51	feature52	feature53	feature54	feature55	feature56	feature57	feature58	feature59	feature60	feature61	feature62	feature63	feature64	feature65	feature66	feature67	feature68	feature69	feature70	feature71	feature72	feature73	feature74	feature75	feature76	feature77	feature78	feature79	feature80	feature81	feature82	feature83	feature84	feature85	feature86	feature87	feature88	feature89	feature90	feature91	feature92	feature93	feature94	feature95	feature96	feature97	feature98	feature99
DB00742	-0.0869353	-0.0645466	-0.0261499	-0.0722081	-0.012036	0.0125075	-0.0835099	0.0473144	0.0659078	-0.0472635	0.144678	-0.0485693	-0.00783695	-0.169568	0.0208308	-0.113054	-0.00182641	0.106719	0.0478202	0.0177505	-0.123786	-0.0681898	-0.124755	-0.120655	-0.0931822	-0.0241224	-0.129837	-0.0617197	0.0822539	0.0122256	0.0661969	0.0437434	-0.0552768	-0.195833	-0.116331	-0.0477134	-0.00831526	0.104661	-0.00578386	0.0693737	0.00663188	0.151955	-0.0529233	-0.105927	0.010939	-0.108506	-0.153537	0.120079	-0.137263	0.0148194	0.1043	0.132777	0.050305	0.0134529	-0.0637578	-0.0755878	-0.175731	-0.126608	-0.160972	-0.0622772	0.051305	-0.02224	-0.0324596	0.0623263	-0.0419723	0.231211	-0.0918413	-0.0270074	-0.0418799	0.0572502	-0.0549838	-0.0190744	0.0725055	0.0403855	-0.0381353	0.18693	0.00782905	-0.0025279	-0.171925	-0.154819	-0.000950767	0.00357229	-0.0677981	-0.0483658	-0.106805	0.0333611	-0.0468586	0.0688851	-0.00251686	-0.0483531	0.062965	-0.0944827	0.0135476	0.0369833	0.107597	0.161354	-0.0691921	0.00149554	-0.0294133	-0.00313023
DB05107	0.0351119	-0.0646567	0.00569637	-0.00885906	-0.00246727	-0.00598567	-0.0508966	0.118175	-0.00161665	-0.0124815	0.136656	-0.121177	-0.00882638	-0.151465	-0.0638188	-0.0452954	0.0564719	0.11352	0.0690808	0.0147157	-0.0887376	0.0440251	-0.0932861	-0.0279918	-0.0234498	0.017029	-0.113793	-0.0476901	0.00777959	0.0453882	0.124013	0.0235995	-0.0720303	-0.159093	-0.118521	-0.0455406	0.0179461	0.00550709	0.0199392	0.0467936	-0.0604861	0.145052	-0.043356	-0.0845047	0.0405391	-0.0358236	-0.148242	0.0111496	-0.0698665	-0.0460147	0.0774322	0.0826663	0.141037	0.02979	-0.012945	-0.076012	-0.125489	-0.0841102	-0.159015	-0.0890513	0.0809885	-0.00722508	-0.0387384	0.0600559	-0.0283354	0.141401	-0.0700597	0.00795075	-0.0723038	0.0416655	0.0617878	-0.011327	0.0801429	0.0663121	-0.0408584	0.097034	0.0278706	0.00551052	-0.128834	-0.13297	-0.0253416	-0.0260448	-0.0196417	0.033391	-0.120127	0.00372875	-0.0694734	0.0238148	-0.0280839	-0.00275269	0.0409908	-0.0286793	0.0433671	0.0856785	0.104397	0.0678501	0.00532777	0.0810589	-0.0168706	-0.0228639
DB00743	-0.0364159	-0.0988601	-0.0317922	-0.00795504	-0.0597068	-0.0105957	-0.0988222	0.12068	0.13214	-0.0322408	0.131475	-0.0841828	0.0291199	-0.174075	-0.04733	-0.0774608	0.0185446	0.102243	0.0492957	0.00703453	-0.0686678	-0.0504019	-0.116015	-0.0823453	-0.0895343	-0.0791726	-0.128188	-0.0506947	0.0809223	-0.0240976	0.0999507	0.0512584	-0.0782668	-0.160927	-0.0437896	-0.00901027	0.0155835	0.102831	-0.0298473	0.019768	0.0474844	0.186622	-0.0514061	-0.121559	0.000275148	-0.0716108	-0.152618	0.129638	-0.119365	0.00328987	0.13309	0.144894	0.048833	0.0199898	-0.0356506	-0.101134	-0.172265	-0.0338354	-0.215589	-0.0885754	0.0781836	-0.059891	0.00674795	0.0956005	-0.0206068	0.14154	-0.0206378	0.0221536	-0.0560007	0.0524942	-0.0291842	-0.0439401	0.0621841	0.0565609	-0.0255804	0.171751	0.021336	-0.0480723	-0.188111	-0.140351	0.0298392	-0.00279144	-0.00856751	-0.0619276	-0.0948088	0.0726505	-0.00224126	0.0218787	0.0196794	-0.0380744	0.0627449	-0.110097	0.0613828	0.0513907	0.123857	0.0688598	-0.0950998	0.0905554	-0.00718131	0.0116654
DB05101	-0.00123205	-0.0363858	-0.055568	-0.0515894	0.0145649	0.0391627	-0.0304333	0.0581504	0.0163592	0.0102093	0.0990765	-0.0885677	-0.0399938	-0.0868464	-0.00673761	-0.0647679	0.00420259	0.0663139	0.0610595	0.0015189	-0.0402473	0.0144507	-0.0161823	-0.055146	-0.0451086	-0.0213666	-0.0873881	-0.0417863	0.0667482	-0.0393253	0.131531	0.017028	-0.0492106	-0.145129	-0.0794416	-0.0621448	0.0127742	-0.0056932	0.00244327	0.0327575	-0.0567771	0.150102	-0.0288842	-0.12941	0.0101817	-0.0167097	-0.0828062	0.0247897	-0.11104	-0.0518057	0.0996536	0.150841	0.132811	0.0210375	-0.00442826	-0.0535281	-0.115807	-0.153824	-0.084324	-0.0746515	0.0765229	-0.00339773	-0.0427468	-0.00506781	-0.0109314	0.15559	-0.0391046	0.0538737	-0.0372348	0.00574161	0.00254124	-0.0198365	0.0810921	0.0707723	-0.00944553	0.128304	-2.86985e-05	0.0291393	-0.0294422	-0.0724149	0.010643	-0.0181112	0.0566142	-0.0512635	-0.0892073	0.0493032	-0.0601651	0.0140898	-0.0217006	-0.0639075	0.0053287	0.0423864	0.0237363	0.0449815	0.0928895	0.0504369	-0.00814093	0.0310968	-0.0713382	-0.0152682
DB05100	0.00860606	-0.103453	-0.0446639	-0.0601337	0.000429172	-0.0174209	-0.0358001	0.108554	0.0109309	-0.0627014	0.110215	-0.146119	0.0284042	-0.154614	-0.0548227	-0.0752653	0.090017	0.0869112	0.0428723	-0.0384617	-0.098203	0.00223543	-0.0982651	-0.0247783	0.00251773	-0.0378822	-0.102466	-0.0226328	0.0838579	-0.030868	0.111373	0.0189243	-0.0907714	-0.16173	-0.0404742	-0.00968459	0.0233526	-0.0131993	0.0130746	0.0177249	-0.0476372	0.135832	-0.0368569	-0.141042	0.0163541	-0.00568807	-0.14913	0.00685089	-0.052479	0.0167516	0.100722	0.0987898	0.140785	0.0243021	-0.0175529	-0.0671122	-0.127049	-0.101134	-0.146138	-0.0790637	0.105128	0.00450159	0.0275993	0.0314125	-0.00446259	0.16516	-0.0941177	0.0769538	-0.0700987	-0.00740791	-0.00152486	-0.0174894	0.055059	0.0751732	-0.0596027	0.0522552	-0.016382	-0.0109155	-0.126235	-0.137178	-0.00484833	-0.0329385	-0.0739672	0.00586168	-0.0756991	-0.0334076	-0.0355224	-0.00628458	0.000924057	-0.0120946	0.0661856	-0.0680925	0.0357691	0.0231978	0.113607	0.0666799	-0.00953144	0.0694441	-0.029772	-0.00693184
DB09161	-0.0260563	-0.133941	-0.067421	-0.0546033	-0.016154	-0.0260936	-0.0786731	0.0598355	0.0308243	-0.0016103	0.112538	-0.0893765	-0.0398975	-0.108651	-0.0546482	-0.0932515	0.110066	0.102987	0.041523	-0.0133233	-0.090897	-0.0187511	-0.106517	-0.0403674	-0.0130027	0.0367776	-0.0828556	-0.0447427	0.0567301	0.0149331	0.0635722	0.0401911	-0.0393503	-0.139153	-0.0329236	-0.0322477	-0.0354432	-0.00957927	0.000158847	0.0622652	0.0423408	0.126402	-0.0353739	-0.129232	0.0565209	-0.0323068	-0.144586	0.019846	-0.12219	0.00134791	0.105928	0.0489484	0.0307045	0.00468607	-0.0267713	-0.0388879	-0.130422	-0.0892697	-0.144729	-0.0338226	0.0411435	0.00434505	0.0281093	0.045544	-0.0215889	0.197056	-0.0848266	0.0721286	-0.0486076	-0.00283181	0.0554525	-0.023377	0.0642358	0.045619	0.00384948	0.119291	-0.0625556	-0.0153069	-0.12767	-0.152391	0.000674627	-0.096924	-0.061021	0.00266259	-0.0720046	0.0352817	-0.030819	0.0016889	0.00376691	0.00825904	0.0469048	-0.0909719	-0.0271703	0.0103594	0.108297	0.0529937	-0.0244091	0.0180834	-0.017048	-0.012447
DB09162	-0.0706098	-0.0587844	-0.0488212	-0.0188991	0.0198928	0.055471	-0.024286	0.0730126	0.0350258	0.0279555	0.152461	-0.0654858	-0.000203	-0.0807323	-0.0410812	-0.0808676	-0.00238907	0.1168	0.0548011	-0.0118838	-0.090317	0.034785	0.0307577	-0.0819227	-0.0838118	0.0347969	-0.0775177	-0.0355479	0.0518527	0.00454273	0.110423	0.0645202	-0.0427301	-0.100827	-0.0156238	-0.0199487	-0.0462081	-0.00329131	0.0376319	0.0485646	-0.0561508	0.0978462	-0.0364601	-0.115566	0.0265922	-0.0406292	-0.0408173	0.0611979	-0.12693	-0.0452649	0.131584	0.109725	0.0754225	-0.00194415	-0.0628296	-0.0522061	-0.139726	-0.119445	-0.140958	-0.0621837	0.0532263	-0.0337063	-0.0128241	0.0972822	-0.0453348	0.170331	-0.040977	0.0356091	-0.0384072	0.0169283	-0.0249567	0.00521709	0.0513779	0.0791331	-0.00427261	0.173024	-0.00324796	0.0413046	-0.121245	-0.129873	-0.00415213	-0.000449011	-0.00406307	-0.0542467	-0.0791291	0.0329498	-0.0164708	0.0114821	-0.019499	-0.0254758	0.018222	-0.00359219	0.0524711	0.0145825	0.0608546	0.089121	-0.0302033	-0.026746	-0.02536	0.0607696
DB05109	-0.0465988	-0.0341086	0.049857	0.00161805	-0.00961856	0.013901	-0.0780277	0.0545438	0.016389	0.000174975	0.166673	-0.0587054	0.00785242	-0.197112	0.00107841	-0.0949284	0.0438357	0.0803887	0.0698667	0.0172265	-0.102005	-0.054636	-0.12163	-0.117737	-0.101241	0.0346883	-0.138764	-0.0362687	0.101386	0.0154442	0.0762154	0.0814411	-0.0511647	-0.16126	-0.0579603	-0.00704976	0.0225641	0.0928644	-0.0157474	0.0575947	-0.0458051	0.209683	-0.0605689	-0.064235	-0.0297686	-0.0581535	-0.158024	0.133023	-0.0779978	-0.055539	0.0571997	0.130921	0.045503	-0.030554	-0.0955286	-0.1089	-0.213036	-0.121103	-0.155942	-0.0806682	0.134475	0.0109167	0.0279406	0.150796	-0.00892952	0.172769	-0.11079	-0.00954727	-0.0744372	0.0540119	-0.0419338	-0.0302887	0.074655	0.0428254	-0.0732241	0.192109	0.0286874	-0.0102005	-0.107275	-0.162773	-0.0170334	-0.0228044	-0.0243549	-0.0650414	-0.0844827	0.0303644	-0.0284235	0.0600256	-0.0479101	-0.0488313	0.045503	-0.0979161	0.000151039	0.0411192	0.0986742	0.106621	-0.0915278	-0.000408765	-0.0298337	0.00689289
DB01319	-0.0726009	-0.0435491	0.0273049	-0.017618	-0.00984577	0.000274794	-0.120291	0.0567273	0.049994	-0.0471551	0.160408	-0.0590858	-0.00260125	-0.223695	0.00887923	-0.139821	0.000226905	0.0707679	0.0846071	0.0264996	-0.11502	0.0106439	-0.111648	-0.0683231	-0.0668311	-0.0222482	-0.135028	-0.0530905	0.104371	-0.0171477	0.0706329	0.0637104	-0.0309829	-0.182563	-0.0222275	0.00621219	0.0202403	0.00405563	0.00199754	0.0568514	-0.0327384	0.159691	-0.0653433	-0.0772765	-0.00217894	-0.0445109	-0.161867	0.107896	-0.0840961	0.0182812	0.118637	0.137569	0.0185097	-0.0246215	-0.0397539	-0.121986	-0.18727	-0.105857	-0.135839	-0.11731	0.0818682	-0.0105733	-0.010444	0.1268	-0.0362524	0.166935	-0.0820434	0.001302	-0.113029	0.0536392	-0.0630834	-0.0635444	0.0929507	0.0376195	-0.062355	0.161826	-0.000347041	-0.0257297	-0.144511	-0.178368	-0.0280556	-0.0307998	-0.0364856	-0.0150108	-0.113913	0.0629532	-0.0227737	0.0226416	-0.0754902	-0.0429405	0.0382649	-0.0940123	0.0644641	0.0533729	0.118299	0.0899508	-0.0270145	-0.0024401	-0.00716904	0.0370468
DB01178	-0.0186621	-0.0672654	-0.0430187	-0.00894205	-0.0226247	0.0080195	-0.0517239	0.120473	0.0385528	-0.0514195	0.140655	-0.086716	0.0240337	-0.165951	-0.0335658	-0.0997202	-0.0110239	0.147817	0.0618589	0.0295595	-0.0993084	-0.02036	-0.0704287	-0.141228	-0.0621414	0.0286166	-0.118031	-0.0525739	0.0927403	-0.0316701	0.0784574	0.0597121	-0.0707217	-0.198337	-0.089277	-0.0335419	-0.0154813	0.0967367	0.00734138	0.0608027	0.0450335	0.165625	-0.04998	-0.0731819	-0.0202814	-0.0789478	-0.130313	0.0915947	-0.10776	0.00536271	0.104178	0.131183	0.0656979	0.0419597	-0.0752554	-0.125159	-0.169013	-0.0472576	-0.149608	-0.120638	0.105606	-0.0519684	-0.0561551	0.058527	-0.0420025	0.180571	-0.0903194	-0.0231155	-0.0539953	0.067612	-0.0353466	-0.0285797	0.0735438	0.0548242	-0.0814557	0.165742	0.0226984	-0.0456397	-0.109659	-0.184754	-0.0228522	-0.0162283	-0.00084467	-0.0472994	-0.0750973	0.0477736	0.0139505	0.0302767	-0.0126879	-0.0219226	0.0624352	-0.124452	0.0307676	0.0757015	0.151712	0.122521	-0.0834373	0.0474691	-0.0124167	0.0131895
DB01179	-0.0481765	-0.0890234	0.0298273	-0.05134	-0.0425128	0.0199527	-0.0773	0.0754521	0.0404859	-0.0287512	0.155478	-0.106494	-0.0284522	-0.195374	0.0229436	-0.0897624	0.00390738	0.110286	0.060321	0.0103458	-0.110405	-0.0298425	-0.133341	-0.0912953	-0.106277	0.0432933	-0.146801	-0.0346341	0.104276	-0.0315932	0.109178	0.0606517	-0.0641108	-0.178748	-0.104871	-0.0636169	0.0236136	0.0846209	-0.00476981	0.0471072	-0.0341402	0.188208	-0.0320306	-0.107354	-0.00599185	-0.0919885	-0.155736	0.139174	-0.118692	0.0173357	0.0974849	0.120481	0.0608187	0.0218349	-0.0633936	-0.107737	-0.171765	-0.134533	-0.159992	-0.0999895	0.0615621	-0.0435667	-0.0343502	0.13853	0.0419728	0.167509	-0.0941707	-0.0250719	-0.072082	0.0837531	-0.0382586	-0.00674308	0.100358	0.0627343	-0.0349368	0.188731	0.0150407	-0.0668857	-0.155346	-0.16056	-0.0281432	-0.0236714	-0.00827522	-0.0510352	-0.0860916	0.0223898	-0.0429957	0.101824	-0.0397083	-0.0142808	0.0608016	-0.104786	0.0249573	0.0915966	0.132173	0.0794216	-0.0797049	0.059769	-0.0456039	-0.0405233
DB01176	-0.0570453	-0.0525135	-0.0312046	0.000815632	0.022815	0.0223389	-0.0517971	0.101229	-0.0132696	-0.0149511	0.143554	-0.061375	-0.0193635	-0.139022	0.0382193	-0.102469	0.0149568	0.096469	0.0728317	0.0374293	-0.108565	-0.00807234	-0.117777	-0.0612635	-0.109969	0.0293822	-0.114583	-0.0655049	0.101258	0.00391359	0.0503515	0.0202876	-0.0611081	-0.150155	-0.0384323	-0.0439126	-0.0172828	0.105171	0.0119603	0.0384682	-0.0338798	0.138258	-0.0481821	-0.10155	-0.0220322	-0.0332169	-0.144693	0.145536	-0.114706	-0.0082953	0.107634	0.120401	0.0232488	0.00317343	-0.0999097	-0.0849017	-0.177076	-0.0937643	-0.174732	-0.0973267	0.0815852	-0.0249395	-0.0525147	0.0810049	-0.0296247	0.214666	-0.0927923	-0.0315793	-0.0592704	0.0664208	-0.0651894	-0.0640868	0.0591506	0.0582344	-0.0438526	0.174235	-0.0240425	-0.0165078	-0.179363	-0.184568	-0.0164282	-0.0036611	-0.0354072	-0.0331021	-0.11842	0.0515505	-0.0201736	0.083093	-0.0198509	-0.0326674	0.0618988	-0.122628	0.0878759	0.0662579	0.136574	0.0933873	-0.0807067	0.032823	-0.0172323	-0.0265421
DB01177	-0.0313271	-0.0897362	-0.0323597	-0.018596	0.0074098	0.00575575	-0.0887361	0.123344	0.0470254	-0.0484556	0.163412	-0.0707526	-0.0165456	-0.180547	0.000360193	-0.116491	0.0337078	0.153107	0.107036	0.0271636	-0.130201	-0.0505884	-0.132499	-0.12162	-0.0840602	0.0315715	-0.144089	-0.0434354	0.0963843	0.0265296	0.0931162	0.0316816	-0.0532031	-0.131404	-0.121618	-0.035644	-0.00124518	0.0988008	-0.00878765	0.0102981	0.00172024	0.176397	-0.0700002	-0.136641	-0.0127692	-0.097811	-0.135747	0.143421	-0.094983	-0.000560261	0.105824	0.125873	0.078	-0.0216058	-0.093436	-0.0952655	-0.196615	-0.114684	-0.173622	-0.105557	0.0841136	-0.0312559	-0.0343995	0.1253	-0.00719114	0.194357	-0.0921473	-0.0233685	-0.0511493	0.0760618	-0.0457948	0.00279443	0.0861214	0.0786389	-0.0506617	0.183777	0.015741	-0.00181398	-0.168725	-0.162478	0.0121339	-0.0348211	-0.0040223	-0.047768	-0.0991164	0.0450424	-0.0635784	0.0506922	-0.0563158	-0.0403485	0.0676054	-0.104859	-0.023786	0.102371	0.105511	0.079245	-0.081425	0.0826723	0.0170159	-0.0354335
DB01174	-0.093833	-0.107219	-0.0352633	-0.0404745	-0.0320185	0.0228127	-0.0520789	0.0532275	0.123196	-0.0783356	0.13764	-0.0720498	0.00529596	-0.207285	0.067393	-0.133025	-0.00979848	0.11385	0.115183	0.0608492	-0.129707	-0.0107418	-0.139804	-0.134956	-0.0958878	0.0150968	-0.132605	-0.0364973	0.130798	-0.0447473	0.0789815	0.00268879	-0.0246597	-0.190982	-0.0977549	-0.0253491	-0.0187798	0.0833455	-0.0133223	0.044156	0.0400194	0.19116	-0.0714693	-0.0741293	0.0100588	-0.0748203	-0.162461	0.145331	-0.130771	0.0220473	0.0887504	0.13193	0.060487	-0.0248495	-0.0852429	-0.146458	-0.162523	-0.0905501	-0.148857	-0.0916348	0.0431008	-0.0621208	0.0214129	0.149225	-0.0375316	0.238812	-0.0911549	-0.0520923	-0.0803004	0.0559083	-0.0803896	-0.0172755	0.097506	0.0161683	-0.0279456	0.206821	0.0352619	-0.0261884	-0.186542	-0.153689	-0.0364176	-0.0116944	-0.074667	-0.0316874	-0.0509112	0.0498904	-0.0160046	0.00843504	-0.0945276	-0.0623797	-0.0119332	-0.111858	0.0967963	0.0251086	0.13316	0.129163	-0.0960528	-0.00796972	0.00646919	0.00836041
DB01175	-0.0893271	-0.0490597	0.0393604	-0.0733736	-0.022694	0.0135681	-0.118255	0.095378	0.0552684	-0.0521097	0.155374	-0.0517977	-0.0273849	-0.166085	-0.0544824	-0.127818	0.0138522	0.144682	0.0811535	0.0498004	-0.143126	-0.0227501	-0.124832	-0.131614	-0.0922357	-0.00721514	-0.152666	-0.050873	0.0875823	-0.0537419	0.0949242	0.0679062	-0.0337884	-0.189334	-0.052194	-0.0226686	0.0314645	0.0866765	0.00753334	0.0181442	0.0375594	0.173867	-0.0760752	-0.0993525	-0.0383845	-0.0402551	-0.167392	0.148361	-0.101141	-0.0315218	0.126738	0.144195	0.0624897	-0.000354606	-0.0984802	-0.143377	-0.182672	-0.139344	-0.171888	-0.0879472	0.0593972	-0.0466373	-0.0413415	0.150915	-0.0417509	0.182067	-0.111484	-0.0127571	-0.100055	0.0545886	-0.050307	-0.0361341	0.0876428	0.0129733	-0.0678437	0.186848	0.0380751	-0.0239946	-0.146298	-0.159941	-0.0245311	-0.0245126	-0.0307548	-0.0118869	-0.111619	0.0514863	-0.0145561	0.021394	-0.0727695	-0.0486291	0.0218471	-0.099241	0.0446014	0.0536625	0.119968	0.0810234	-0.0613977	0.00883057	0.037794	0.0146462
DB01172	-0.0267703	-0.0362737	0.0429956	-0.0150587	-0.0343415	0.015301	-0.0822592	0.0524657	0.00667238	-0.0441017	0.206595	-0.0832184	0.00218238	-0.143808	0.0124149	-0.099344	0.0483841	0.0986263	0.0495426	0.0403983	-0.11214	-0.0583961	-0.137256	-0.113539	-0.0632205	-0.0341794	-0.138664	-0.0748818	0.104686	-0.0135915	0.0716539	0.0583008	-0.072602	-0.190554	-0.0337714	-0.027244	0.0611214	0.09318	0.0257928	0.0447161	-0.0477838	0.188621	-0.0635177	-0.0838408	-0.019504	-0.112578	-0.172624	0.0928138	-0.0973724	0.047717	0.100682	0.142159	0.0296092	-0.0203229	-0.0897715	-0.0966946	-0.185414	-0.111724	-0.156473	-0.0908439	0.122968	-0.0157774	-0.0598428	0.161581	2.80847e-05	0.193914	-0.100874	0.000317562	-0.0719795	0.065651	-0.0396485	-0.0293585	0.116285	0.0678786	-0.0173382	0.207658	0.0570496	-0.0148482	-0.138501	-0.194491	-0.0125061	-0.0109471	-0.00573487	-0.00745379	-0.0475153	0.0603189	0.00456815	0.0173325	-0.0164634	-0.0311979	0.0709669	-0.120315	0.00790569	0.0667375	0.15418	0.0797756	-0.0599394	0.0367453	-0.0209623	-0.00727263
DB01173	-0.0956396	-0.0878364	-0.0278403	-0.0269717	-0.0338912	0.00757371	-0.0508117	0.0895121	0.0738594	-0.0526422	0.160856	-0.0850992	-0.0406808	-0.19248	0.0153708	-0.122037	0.0128044	0.134448	0.107262	0.0518736	-0.100191	0.0146039	-0.109084	-0.114652	-0.093867	0.030784	-0.135818	-0.0582012	0.0823094	0.0253055	0.0793068	0.0440523	-0.0263031	-0.173668	-0.0532221	-0.0328057	-0.0294555	0.0957401	-0.00281663	0.05411	-0.0140576	0.157985	-0.0571806	-0.0913118	-0.0413678	-0.0869161	-0.157209	0.147553	-0.119914	0.0333615	0.0895034	0.128331	0.0320167	-0.0106302	-0.0832177	-0.0839832	-0.18532	-0.10225	-0.166118	-0.0833937	0.0555709	-0.0337916	-0.00336405	0.120021	-0.0283224	0.21069	-0.12542	-0.0561606	-0.064455	0.0614699	-0.0767157	-0.0322043	0.0807455	0.0451365	-0.0529458	0.181404	-0.000123649	-0.0096965	-0.173077	-0.17423	-0.022604	-0.00611153	-0.056497	-0.0424992	-0.131864	0.0581272	-0.012164	0.0291068	-0.0580597	-0.0750711	0.0460695	-0.128084	0.0606546	0.0772731	0.12088	0.105493	-0.0972711	0.0530918	-0.0016791	-0.0108228
DB01170	-0.0385927	-0.0511013	-0.0165871	-0.0249571	0.00173536	0.0104681	-0.0908277	0.107986	0.0246433	-0.0244579	0.106289	-0.087552	-0.00706528	-0.156918	-0.0119805	-0.11967	-0.000115036	0.105491	0.0509658	0.0488181	-0.104313	-0.0315781	-0.105188	-0.0715828	-0.042423	-0.00745608	-0.125413	-0.0372267	0.056433	-0.0274619	0.10171	-0.0213327	-0.083181	-0.197029	-0.105373	-0.033198	-0.00641983	0.0280549	-0.0252757	0.0482218	0.0339037	0.227094	-0.0649058	-0.100299	0.0447832	-0.0521758	-0.17045	0.133544	-0.113701	0.0206606	0.100614	0.139686	0.0327459	0.0145386	-0.0667927	-0.0523642	-0.149565	-0.0974193	-0.138637	-0.0554569	0.0545117	-0.057645	-0.0412883	0.141228	-0.0293721	0.166698	-0.116433	-0.00204205	-0.0670345	0.0567205	-0.0466967	-0.0478909	0.0820388	0.0782511	-0.0427674	0.171448	-0.0214693	-0.0230555	-0.156632	-0.176537	-0.000313932	-0.0164218	-0.0488853	-0.0218122	-0.0898192	0.00514172	-0.0182592	0.00757989	-0.0106878	-0.0361575	0.0746746	-0.0895585	0.0135495	0.092393	0.116279	0.0610462	-0.0620524	0.051631	-0.0300743	-0.00371832
DB01171	-0.0871191	-0.0448009	0.00117972	-0.0551291	-0.01354	0.00814737	-0.136745	0.106933	0.0749369	-0.0679977	0.144002	-0.072806	-0.00380075	-0.207644	0.00841746	-0.124173	0.049175	0.106138	0.0750668	0.0336923	-0.128746	0.00709621	-0.106929	-0.117307	-0.0755529	-0.0339163	-0.134407	-0.0636624	0.117268	-0.0141794	0.0780178	0.0593441	-0.0502927	-0.170942	-0.106289	-0.0243303	-0.0368464	0.11096	0.00222111	0.0612723	-0.00390747	0.167626	-0.0643035	-0.0987639	0.00823571	-0.0886373	-0.155667	0.106898	-0.131756	0.0440409	0.0983165	0.140379	0.0324809	-0.0451632	-0.0741362	-0.136324	-0.198998	-0.117153	-0.163225	-0.0996755	0.0837093	-0.0319297	-0.0489247	0.148873	-0.0289799	0.17758	-0.10675	-0.0520805	-0.0620177	0.0921347	-0.0789587	-0.0443241	0.0801396	0.0580451	-0.0578687	0.174687	0.0505525	-0.00809718	-0.180218	-0.174243	-0.0565116	-0.015703	-0.040514	-0.036184	-0.0787254	0.051552	-0.0432504	0.0639777	-0.0556525	-0.0164674	0.0787663	-0.100015	0.0406626	0.0563591	0.113405	0.0807234	-0.0732578	0.00386093	0.00262224	-0.000611456
DB01489	-0.0100598	-0.0486195	-0.0575447	-0.0346073	-0.00666695	0.0155416	-0.0456678	0.0660591	0.0141456	-0.0529616	0.129026	-0.084868	0.0146979	-0.170913	-0.0426398	-0.104348	-0.00433529	0.0816778	0.0475489	0.0325366	-0.0919929	0.00157448	-0.103385	-0.0533863	-0.0863331	0.0257917	-0.119468	-0.0326247	0.0968101	-0.0182509	0.0805868	0.0632968	-0.0806265	-0.12625	-0.086809	-0.0260393	-0.0104659	-0.0269418	0.0341045	0.0386577	-0.0463179	0.118723	-0.0865434	-0.112682	-0.0139264	-0.0990654	-0.137078	0.0772056	-0.108228	0.0371655	0.0942763	0.139757	0.0512001	0.0253704	-0.0830713	-0.0963733	-0.19317	-0.0909095	-0.16132	-0.10938	0.077399	-0.0640554	-0.0364443	0.084229	-0.0091933	0.199158	-0.0995363	0.0193052	-0.0883892	0.0560955	-0.0192311	-0.048703	0.0918735	0.0626565	-0.0640143	0.150859	-0.0254303	-0.00331117	-0.0857039	-0.181702	-0.0173164	-0.0110594	0.0161806	0.0171409	-0.0776859	-0.0187739	-0.0192106	0.00358428	-0.0234724	-0.00269751	0.033604	-0.11153	0.0406813	0.076083	0.108193	0.0892311	-0.0774407	0.0153541	-0.0110073	0.0102136
DB01484	0.0446295	-0.0796073	-0.0519702	-0.0339391	0.00126952	-0.0160418	-0.0652956	0.0656299	0.0016581	-0.0112019	0.0864562	-0.136027	0.033119	-0.16229	-0.078924	-0.0318087	0.0231195	0.080625	0.0650112	-0.060186	-0.0796404	-0.0072874	-0.114091	-0.0477336	0.00662091	-0.0228297	-0.0970932	-0.0181745	0.0582208	-0.0164952	0.0794739	-0.000568739	-0.092246	-0.128788	-0.0601781	-0.0134754	0.0101873	0.0570394	0.00815373	0.0106435	0.038331	0.139448	-0.0872425	-0.0761697	-0.0317776	-0.0354621	-0.178688	0.00664193	-0.0457509	0.033202	0.0466012	0.122941	0.146646	0.0080107	-0.019618	-0.0596669	-0.16179	-0.0910577	-0.13739	-0.111649	0.0591462	-0.0231971	0.028529	0.0748716	-0.0213899	0.134687	-0.108737	0.0801233	-0.088052	0.0691843	0.02293	-0.0442459	0.0696646	0.0531654	-0.0375003	0.0919234	-0.0342608	-0.090714	-0.0552063	-0.168326	-0.0107186	0.00212834	-0.0460795	-0.0433076	-0.0902081	0.0291173	-0.00736883	0.123804	-0.0300522	0.0151172	0.0291706	-0.0162019	0.034776	0.0541098	0.0575415	0.162221	-0.0161744	0.0284224	-0.0213706	0.00260246
DB01483	-0.0254383	-0.0438469	0.0681837	-0.00560105	0.00477411	-0.0425684	-0.0771488	0.0602256	-0.000359289	-0.0285161	0.149693	-0.107583	-0.0245271	-0.159284	-0.00875767	-0.0781595	0.0140904	0.101429	0.0620893	0.0582993	-0.0258046	-0.0657352	-0.123707	-0.0304893	-0.105497	-0.0456028	-0.120449	-0.0899223	-0.00847639	0.0253358	0.0586983	0.0580832	-0.0680943	-0.192837	-0.124114	-0.0546468	-0.00852056	0.0980544	-0.0149314	0.079704	0.0374745	0.141077	-0.0455761	-0.0967131	-0.040787	-0.0775166	-0.1516	0.0773179	-0.0688389	-0.0658671	0.0649347	0.111427	0.0999537	0.0677026	-0.0180079	-0.0770057	-0.165608	-0.120623	-0.129661	-0.0988352	0.0601773	-0.00745871	-0.0619941	0.0766497	-0.00099474	0.12468	-0.0652861	-0.000541955	-0.0677934	0.0464296	-0.0296801	-0.0419791	0.0648018	0.0752287	-0.00811769	0.121394	-0.00628625	-0.0874018	-0.101371	-0.154432	0.000506237	-0.0218463	0.0192809	0.0110792	-0.0765707	0.0302879	-0.00581719	0.123492	-0.0154274	-0.0275606	0.0412135	-0.121524	0.0315426	0.117649	0.137019	0.0771061	-0.0705843	0.047236	0.00126825	-0.00939192
DB00741	-0.138151	-0.113063	0.0452854	-0.0329747	-0.0317217	0.00923768	-0.0973595	0.0541436	0.0987131	0.00158641	0.0952163	-0.0270237	-0.0510874	-0.190257	0.0237934	-0.120594	-0.00593173	0.103415	0.108547	0.027505	-0.106331	-0.0428905	-0.132274	-0.107498	-0.0972793	0.0258373	-0.125213	-0.0243952	0.0978254	0.0537954	0.0878734	0.0362234	-0.0382502	-0.189738	-0.10943	-0.00944285	0.0057317	0.107998	-0.0498858	0.0128386	-0.0353458	0.170209	-0.0408248	-0.066425	-0.0247132	-0.0827229	-0.209092	0.142364	-0.130518	0.0265632	0.112484	0.123108	0.040325	-0.0326331	-0.114422	-0.130362	-0.186232	-0.134379	-0.180801	-0.0933977	0.0391548	-0.0319397	0.0202105	0.130903	-0.0293367	0.19452	-0.0664587	-0.0762196	-0.0420137	0.106828	-0.0570576	-0.00149561	0.0785901	-0.0125495	-0.0155475	0.185369	-0.00753092	0.0135567	-0.191377	-0.170876	-0.00794665	-0.0274431	-0.101543	-0.0886772	-0.109503	0.0481903	-0.0440968	0.00847575	-0.0963166	5.01715e-05	0.0651915	-0.12666	0.0246175	0.0472926	0.111069	0.124248	-0.0972798	0.00260641	0.0047756	-0.012854
DB01002	-0.0469196	-0.0460239	-0.0223537	-0.0245275	0.0210565	0.00961774	-0.126395	0.0584578	0.0592678	-0.0867963	0.157231	-0.0665143	0.0184746	-0.199619	-0.0501672	-0.129543	0.0556321	0.12479	0.0545761	0.0240362	-0.105521	-0.0398695	-0.123545	-0.0826369	-0.0760029	-0.0580641	-0.142698	-0.0543352	0.0953719	-0.00287366	0.0953274	0.0644909	-0.0770979	-0.195662	-0.114589	-0.0458355	-0.00740331	0.0865949	-0.0228738	0.0362761	0.0293843	0.16027	-0.0644314	-0.1106	-0.0176845	-0.0932886	-0.160167	0.117998	-0.118413	0.0234557	0.0633355	0.150812	0.0461824	-0.0052521	-0.0898483	-0.0900531	-0.186332	-0.100012	-0.143584	-0.107339	0.0822541	-0.0343086	-0.0420845	0.0955757	-0.0335823	0.176021	-0.0962284	-0.00939995	-0.100996	0.0652814	-0.057908	-0.0366631	0.0938551	0.0689137	-0.0473579	0.18623	0.0410572	-0.0236858	-0.156011	-0.173036	-0.0622165	-0.0349404	-0.00856523	-0.0455153	-0.111934	0.0764219	-0.0248609	0.0695848	-0.0292996	-0.0343034	0.0437779	-0.102157	0.0309622	0.0971259	0.138817	0.0694042	-0.0834001	-0.0046912	0.00108656	0.028066
DB00578	-0.0181102	-0.0702056	-0.0213874	-0.0477859	-0.00990564	0.000303818	-0.0791584	0.0951	-0.00844935	-0.0514849	0.112229	-0.0702261	0.00969191	-0.165149	0.0129132	-0.0918015	0.0693441	0.0916677	0.0494524	0.0412429	-0.115713	-0.0499486	-0.133947	-0.0686119	-0.0959031	-0.0361526	-0.143261	-0.0452144	0.111869	-0.0368982	0.0820767	0.0579279	-0.0628966	-0.184019	-0.0855962	-0.0294777	0.00481023	0.0824668	0.0133737	0.0502435	-0.0457072	0.209895	-0.0529059	-0.109902	0.0318982	-0.0849654	-0.156364	0.107966	-0.068738	0.0394747	0.101812	0.110648	0.0568873	0.0297103	-0.0737997	-0.0653616	-0.190715	-0.103795	-0.173555	-0.0966206	0.0597992	-0.0406282	-0.0589239	0.0598937	0.0154647	0.14565	-0.0772236	-0.0224071	-0.0609532	0.0799184	-0.0583434	-0.0392904	0.0443378	0.0482719	-0.0517333	0.151801	0.0373626	-0.0030049	-0.159165	-0.168856	-0.0144857	-0.0177996	0.00159627	-0.0461104	-0.0584812	-0.00269868	-0.0179311	0.0370626	0.00635217	-0.0350932	0.0634285	-0.109911	-0.0308195	0.0970207	0.11563	0.0681665	-0.0831724	0.0792369	-0.00324744	-0.00467543
DB01000	-0.0239051	-0.0660017	0.0344964	-0.0433047	-0.0128305	0.00470367	-0.0690531	0.0966893	0.0198816	-0.015547	0.115792	-0.0734108	0.0125303	-0.185071	0.0216456	-0.111504	0.0240121	0.109038	0.0918373	0.0240029	-0.101989	-0.071303	-0.111196	-0.0506523	-0.053666	-0.0371742	-0.117788	-0.0660508	-0.00484418	-0.0205552	0.0801103	0.0639329	-0.0696728	-0.153383	-0.107811	0.00493841	-0.00783245	0.0923209	0.0144803	0.0634376	-0.0485288	0.162337	-0.0100892	-0.115822	0.026322	-0.0390464	-0.145721	0.112063	-0.0865771	0.0259099	0.093471	0.0965039	0.0529609	0.0249602	-0.0543359	-0.0830104	-0.178612	-0.0747612	-0.178473	-0.0769342	0.105442	-0.0568301	-0.0438242	0.0930489	-0.0260236	0.17757	-0.107349	-0.0493637	-0.0843895	0.0685632	-0.0519428	-0.0790568	0.0435472	0.0457125	-0.0598498	0.152437	0.0142957	-0.0601136	-0.153243	-0.136582	-0.0640978	0.0124212	-0.0242714	0.000669665	-0.0718435	-0.00280753	0.00106022	0.00198913	-0.0275509	-0.00914151	0.0564745	-0.0742332	0.0299225	0.102563	0.14126	0.120897	-0.0583157	0.118205	-0.00887643	0.00236638
DB01001	-0.136244	-0.110225	-0.028494	-0.0811636	-0.0214982	0.0344853	-0.0692964	0.0503193	0.101021	-0.00428153	0.12454	-0.0423073	-0.01827	-0.181825	-0.00503574	-0.146667	0.0144988	0.118163	0.0635083	0.0325359	-0.124733	-0.0535975	-0.0891152	-0.0887405	-0.0869099	0.0108652	-0.13233	-0.0586716	0.0988399	-0.0117271	0.0766094	0.0481417	-0.0214222	-0.211904	-0.101607	-0.0120884	-0.00606024	0.100722	-0.0182204	0.0254436	-0.0137542	0.16448	-0.0765306	-0.101468	-0.0309305	-0.0690859	-0.210003	0.135652	-0.132199	0.0306157	0.100562	0.121678	0.0338505	-0.00866387	-0.0560722	-0.144086	-0.193476	-0.162284	-0.175133	-0.0812557	0.0602755	-0.0325303	-0.0360389	0.171471	-0.040262	0.191708	-0.103746	-0.0438375	-0.0845953	0.0705898	-0.0386709	-0.0243255	0.112612	0.00875147	-0.0520337	0.183878	-0.00452901	-0.010581	-0.182096	-0.166042	-0.0285303	-0.0794695	-0.0985048	-0.0502423	-0.10636	0.0534574	-0.0413948	0.0802064	-0.0979451	-0.0451696	0.0615724	-0.0752955	0.0522234	0.0174663	0.143038	0.0658174	-0.079437	0.00580363	-0.0252769	-0.00457185
DB01006	-0.0797549	-0.104653	0.0211107	-0.0429768	-0.0668993	0.0148199	-0.0805348	0.0776412	0.0490411	-0.0303727	0.146281	-0.0323441	-0.0409125	-0.193215	-0.0148237	-0.114015	0.0355225	0.106025	0.0604164	-0.00121281	-0.110074	-0.0384922	-0.134765	-0.0749544	-0.0866696	0.00817011	-0.128065	-0.0569566	0.11023	0.0260684	0.112092	0.0275759	-0.0572932	-0.187091	-0.111734	-0.0244639	-0.0382074	0.0641671	-0.00746106	0.0495668	-0.0369328	0.158221	-0.0479296	-0.153608	-0.0303426	-0.097187	-0.140818	0.150414	-0.0751838	-0.0606603	0.125655	0.129535	0.0326484	0.0227265	-0.073386	-0.141444	-0.163927	-0.132308	-0.163299	-0.0824686	0.0439763	-0.00259031	-0.0123581	0.103663	-0.0321805	0.187028	-0.0648246	-0.0119216	-0.0302796	0.0759373	-0.035664	-0.0451258	0.073244	0.0286175	-0.0145505	0.166226	-0.0356458	-0.0245899	-0.159205	-0.150602	-0.00943583	-0.00614484	-0.052128	-0.0556779	-0.108643	0.0657858	-0.0387457	0.0257243	-0.0509224	-0.0437953	0.126864	-0.0855378	0.0490612	0.0816287	0.119189	0.1112	-0.0648405	0.0355374	-0.0126867	-0.00347163
DB01007	-0.0425839	-0.13676	0.0316353	0.00666097	-0.0380749	-0.00573549	-0.0745358	0.0938362	0.00296772	-0.0352247	0.127814	-0.0449711	-0.0509095	-0.168341	0.00112171	-0.0979047	0.028402	0.115306	0.103049	-0.00577969	-0.0952561	-0.0806085	-0.147398	-0.0706746	-0.117243	-0.0437569	-0.161274	0.000890825	0.0914617	-0.0420696	0.0977605	0.0346111	-0.0682011	-0.193964	-0.0845191	-0.0235759	-0.000281959	0.0951056	0.00548485	0.0427102	0.0497504	0.190458	-0.0273756	-0.0939202	0.0377591	-0.0815001	-0.182344	0.141286	-0.0892368	0.00321409	0.0910974	0.1195	0.0337839	0.0120106	-0.0967449	-0.103924	-0.199479	-0.126198	-0.156569	-0.096722	0.0503238	-0.0485909	-0.048044	0.145492	0.0153782	0.156977	-0.0656414	-0.0444348	-0.0343624	0.0638521	-0.0357063	-0.033981	0.0831669	0.0496723	-0.0271014	0.197299	-0.00368272	0.000831171	-0.156644	-0.148297	-0.0569771	-0.021284	-0.0114058	-0.0528851	-0.0651174	0.0232086	-0.056054	0.00339549	-0.0137372	-0.0118529	0.0962441	-0.0979538	0.0217113	0.0548374	0.108479	0.0954229	-0.0694489	0.0150516	0.0105313	0.00962692
DB01004	-0.0493467	-0.0604176	-0.0429931	-0.0649381	-0.044767	-0.0167445	-0.143133	0.101752	0.090031	-0.0336161	0.125745	-0.0722519	0.00849717	-0.198444	0.00387057	-0.108084	0.0194851	0.12367	0.0537829	0.0408101	-0.121566	-0.0855095	-0.171091	-0.104491	-0.107562	0.024248	-0.151514	-0.0204269	0.103191	-0.0113293	0.0803562	0.0492821	-0.0712423	-0.16404	-0.13579	-0.034208	-0.00794769	0.098804	-0.00932684	0.0486517	0.0564496	0.205923	-0.0304641	-0.105993	-0.00580485	-0.0893085	-0.147431	0.149173	-0.134781	0.0182773	0.091964	0.120107	0.054093	0.00771079	-0.0920168	-0.104414	-0.188956	-0.13111	-0.145876	-0.0961851	0.0743362	-0.0618765	-0.0597063	0.0981606	-0.00252379	0.206833	-0.0906953	-0.0326447	-0.0556297	0.0705952	-0.0508567	-0.0242949	0.0790609	0.075747	-0.0285579	0.182197	0.0282722	0.00253849	-0.160635	-0.156225	-0.0634638	-0.0241041	-0.0224679	-0.059899	-0.053428	0.0149187	-0.0414981	0.0463423	-0.0175101	-0.0129089	0.0548308	-0.101039	0.0160456	0.0923745	0.13973	0.142865	-0.0819563	0.0472458	0.0076048	-0.0175562
DB01005	-0.0649197	-0.0605152	-0.0571193	-0.045677	-0.0255626	0.00997489	-0.131716	0.095524	0.0307178	-0.0648217	0.132493	-0.0391803	-0.0100388	-0.18549	-0.0133906	-0.114328	0.0196221	0.110603	0.0395866	0.0050785	-0.106818	-0.0613685	-0.105334	-0.0972336	-0.0773075	-0.0699603	-0.155867	-0.0498168	0.0903312	-0.0179487	0.0485125	0.0224305	-0.062933	-0.181538	-0.110048	-0.0325962	-0.00495708	0.0988796	-0.0132651	0.051596	0.0538541	0.150472	-0.0613456	-0.127646	-0.0126724	-0.0755124	-0.144191	0.143513	-0.143386	0.0246651	0.0817845	0.133607	0.0392425	-0.0261008	-0.0706541	-0.0893945	-0.152936	-0.111888	-0.166205	-0.0852986	0.0521529	-0.0262537	-0.0391219	0.0865922	-0.0512706	0.222014	-0.0895992	-0.0343089	-0.0536691	0.059361	-0.0520399	-0.0442178	0.0848468	0.0462198	-0.0541722	0.157992	-0.0124274	-0.0477085	-0.166817	-0.153022	-0.038671	0.0131636	-0.0798392	-0.0147241	-0.0765543	0.0302999	0.0123968	0.031253	-0.0377921	-0.00485775	0.061186	-0.107276	0.0395335	0.0697448	0.125669	0.0762386	-0.0729456	0.00930238	-0.0270655	0.0142047
DB00571	-0.103406	-0.100161	0.0113988	-0.0549309	-0.0499854	0.0198412	-0.0548514	0.115217	0.0765909	-0.0260056	0.14034	-0.0578817	-0.0415091	-0.204669	0.0520421	-0.125249	-0.00360279	0.111028	0.0608158	0.00277334	-0.104223	-0.00268674	-0.122303	-0.138422	-0.118052	-0.0305429	-0.133686	-0.0246523	0.120544	-0.0255868	0.0741505	0.0194421	-0.0466331	-0.197502	-0.110573	0.00334084	0.0498037	0.0792679	-0.0381068	-0.00674419	0.000771733	0.174174	-0.0500249	-0.0946757	-0.0370169	-0.0884787	-0.174664	0.138093	-0.125337	0.0213074	0.106769	0.139809	0.0348727	0.0326719	-0.0980639	-0.140443	-0.176326	-0.136283	-0.176583	-0.103955	0.0329033	-0.0543052	0.000115689	0.130246	-0.0306251	0.19899	-0.124919	-0.0773764	-0.0395805	0.084638	-0.0631864	-0.0365209	0.0856302	0.0359578	-0.0521286	0.179618	0.0364252	-0.00552379	-0.182654	-0.165369	-0.0274298	0.00631266	-0.0739593	-0.0619958	-0.0926449	0.0283829	-0.0324018	0.00759059	-0.0782397	-0.0508619	0.0525454	-0.0985787	0.0381477	0.0581957	0.137622	0.108144	-0.0588638	0.0182526	0.00786072	-0.0129
DB00570	-0.0655793	-0.0700993	0.0277765	-0.0127954	-0.00369891	0.0108996	-0.0566653	0.103182	0.0143435	-0.0395952	0.134203	-0.0419931	0.00352132	-0.169664	0.0328244	-0.118119	0.0561475	0.0824799	0.0790513	0.0327882	-0.124791	-0.00358753	-0.169592	-0.099554	-0.0954926	0.0474804	-0.152542	-0.0243867	0.121335	-0.00747186	0.0680354	0.0449404	-0.0704014	-0.196528	-0.109681	0.00740863	0.0293084	0.0188134	0.0117417	-0.00502382	-0.0239421	0.184908	-0.0515263	-0.1155	-0.0121136	-0.0495343	-0.149113	0.112751	-0.0365414	0.0120752	0.0742276	0.122973	0.0646157	0.0172907	-0.0850516	-0.0691842	-0.213188	-0.152291	-0.170627	-0.0903226	0.0913311	-0.0245328	-0.00438175	0.15054	-0.00794271	0.145877	-0.0978641	-0.0427479	-0.0819017	0.0708952	-0.0722964	-0.0495363	0.0805654	0.0477686	-0.0304924	0.15879	0.0166026	-0.00276268	-0.159468	-0.161795	-0.0173641	-0.0141614	-0.0108566	-0.0460623	-0.0589017	0.0353879	-0.0232874	0.0632588	-0.0512446	-0.0270958	0.0314872	-0.129339	0.00688036	0.0758357	0.127546	0.104134	-0.0958759	0.0722334	0.0163298	-0.0276506
DB00573	-0.0720941	-0.0550519	0.0329458	-0.0600979	0.0334458	0.0212644	-0.1206	0.076201	0.0657483	-0.0670922	0.144363	-0.0799021	-0.0374264	-0.167201	0.0247482	-0.10771	0.0262624	0.107905	0.0587018	0.0650378	-0.109109	-0.0359513	-0.139086	-0.101114	-0.0932395	-0.0478106	-0.0874993	-0.0417868	0.109502	-0.0608285	0.0922804	0.0604594	-0.0568911	-0.179315	-0.101006	-0.0280183	-0.0318183	0.104685	-0.0110201	0.0334378	-0.0449276	0.163068	-0.0486994	-0.140053	-0.0258452	-0.103864	-0.154293	0.134793	-0.100533	0.0413624	0.085732	0.139372	0.0546507	0.00328812	-0.0451846	-0.116857	-0.195202	-0.117946	-0.17571	-0.0636226	0.0914092	-0.0401912	0.0241407	0.112862	-0.0237912	0.174976	-0.0798388	-0.034024	-0.0725243	0.0759026	-0.0601506	-0.0507599	0.0771694	0.0645231	-0.0203515	0.164473	0.0308464	0.00243092	-0.161338	-0.188767	-0.00107052	-0.0126131	-0.0658311	-0.0487797	-0.0611224	0.0224613	-0.0288297	0.0338343	-0.0385	-0.0397743	0.0404854	-0.0913407	0.00183861	0.0767584	0.116357	0.1345	-0.0526357	0.0729314	0.00212678	0.0104833
DB00572	-0.0688438	-0.103173	-0.0333456	-0.0204703	-0.0457437	0.0108471	-0.0790207	0.0752056	0.0592841	-0.0311988	0.146811	-0.0734939	-0.0483007	-0.169849	0.0124267	-0.120778	0.0274737	0.102731	0.0653543	0.0169086	-0.113053	-0.0316819	-0.129266	-0.125697	-0.0968538	0.0386994	-0.136707	-0.036063	0.101007	-0.00994433	0.0830718	0.0753135	-0.0454868	-0.184083	-0.118667	-0.0291074	0.0041488	0.0946078	-0.0225795	0.00932994	0.00225242	0.186229	-0.0565341	-0.0857289	-0.0403418	-0.101223	-0.180558	0.132146	-0.123609	0.0488405	0.0987316	0.139309	0.0371063	-0.0196331	-0.0916282	-0.0995256	-0.156382	-0.119414	-0.172471	-0.0645718	0.118341	-0.0302784	0.0208845	0.106321	-0.0452939	0.194616	-0.116039	-0.0395378	-0.0828247	0.052414	-0.053516	-0.0303398	0.119654	0.0407107	-0.045325	0.186931	0.013677	-0.0423269	-0.168546	-0.188761	-0.0427238	-0.0249649	-0.0485126	-0.0372802	-0.0793159	0.06386	-0.0298919	0.0507497	-0.0598117	0.00896078	0.0570077	-0.132876	0.0209789	0.0589685	0.111854	0.17224	-0.074008	0.0243125	-0.0114889	0.00173584
DB00575	-0.109783	-0.0742366	-0.0508713	-0.0729839	-0.0132731	0.0023037	-0.0855116	0.121798	0.0917042	-0.053555	0.128382	-0.0876521	-0.0520457	-0.19014	0.0402926	-0.133671	0.0105278	0.1236	0.127277	0.0400508	-0.13945	-0.0516088	-0.155869	-0.136038	-0.0859162	0.0373824	-0.128714	-0.0166123	0.109384	-0.0316957	0.0737763	0.0157448	-0.0672819	-0.184645	-0.109905	-0.00203728	-0.0083008	0.107398	-0.00148694	-0.00342863	0.030301	0.216075	-0.0450381	-0.105685	-0.0427748	-0.0828461	-0.149782	0.138024	-0.122146	0.0408534	0.0991725	0.142022	0.0499521	-0.00468834	-0.0760278	-0.106378	-0.187404	-0.11693	-0.157253	-0.088739	0.056938	-0.0681736	-0.0170243	0.169231	-0.0427514	0.180513	-0.0811087	-0.0676268	-0.0698467	0.077901	-0.057149	-0.0373985	0.101083	0.0488253	-0.0460058	0.191968	0.00423254	0.00589767	-0.164797	-0.186326	-0.0219781	-0.00686668	-0.0698488	-0.0599356	-0.090709	0.0321777	-0.0266229	0.0608962	-0.0873082	-0.078213	0.0527088	-0.108723	0.0571406	0.0552642	0.108717	0.0792008	-0.080644	0.0236799	0.00163495	-0.0102802
DB00574	-0.032361	-0.0674755	0.049483	-0.0117986	0.0136478	0.000797705	-0.109846	0.0655017	-0.0134419	-0.0100367	0.120075	-0.0676644	0.00805341	-0.147332	0.00861754	-0.107491	0.0280648	0.0881976	0.030605	0.0346258	-0.100144	-0.00534734	-0.116761	-0.0850426	-0.0793743	-0.00591367	-0.111236	-0.0655593	0.102774	-0.031872	0.0884004	0.0565121	-0.108193	-0.204389	-0.133441	-0.03391	0.000295342	0.0917546	-0.0164579	0.0258472	0.0227261	0.173558	-0.0556952	-0.100885	-0.00358461	-0.0645039	-0.142053	0.12937	-0.0859357	-0.0367808	0.0713019	0.142389	0.0697474	0.0932091	-0.0866951	-0.0692829	-0.151868	-0.105834	-0.181645	-0.0598242	0.0634748	0.0144192	0.0180119	0.0882693	-0.0276084	0.186843	-0.107165	0.0207009	-0.0807469	0.07696	-0.0424995	-0.0947468	0.119811	0.0533881	-0.0618157	0.177328	-0.0512925	-0.0781596	-0.155309	-0.175727	-0.0138834	-0.0127706	-0.0867905	0.0103232	-0.102748	0.0517422	-0.0256437	0.0360263	-0.00479003	-0.0457309	0.0506515	-0.100479	0.0355512	0.0637712	0.103498	0.135901	-0.0883267	0.0572506	-0.0347995	-0.000880281
DB00577	-0.0701957	-0.112887	-0.0237117	-0.0398305	0.0284285	-0.0174392	-0.122601	0.0539638	0.0740659	-0.0365638	0.147514	-0.0552343	-0.0110498	-0.173762	-0.0163045	-0.108539	0.016525	0.11097	0.130902	0.0376184	-0.11078	-0.0317284	-0.128597	-0.0899246	-0.113779	0.0221428	-0.114261	-0.0266589	0.0835065	-6.04844e-05	0.0825855	0.043263	-0.0509076	-0.160429	-0.117046	-0.055992	0.00891877	0.0253179	-0.018787	0.0121155	0.0336038	0.219879	-0.0473983	-0.0972615	0.00436102	-0.0641995	-0.17241	0.130212	-0.111011	0.0347862	0.0822286	0.133815	0.0475432	-0.0168597	-0.0571242	-0.111342	-0.177102	-0.10484	-0.172744	-0.0864108	0.0650097	-0.0360106	0.0269912	0.131746	-0.058713	0.199312	-0.0932162	-0.0369628	-0.0763124	0.0571328	-0.0756167	-0.0313485	0.0906422	0.0855732	-0.000963027	0.165385	0.0046306	-0.00617851	-0.181385	-0.146891	0.0100613	-0.0320522	-0.0460685	-0.0593067	-0.0807739	-0.0225008	-0.035078	0.0227336	-0.0658363	-0.0385703	0.0663035	-0.119711	0.0334696	0.094614	0.125135	0.0390348	-0.0536304	0.0816946	0.0113614	-0.037005
DB00576	-0.0409696	-0.0415045	0.0555042	-0.00865817	-0.0529856	-0.015707	-0.13256	0.118795	0.0213242	-0.0537833	0.127343	-0.0915666	0.0174584	-0.174558	0.0202762	-0.10622	0.0170523	0.104618	0.0530636	-0.0128185	-0.0863656	-0.0807334	-0.131241	-0.0696791	-0.104615	-0.0616603	-0.109745	-0.0711731	0.118939	-0.0120874	0.0960198	0.0481833	-0.0813974	-0.197865	-0.115006	-0.0410308	0.0122469	0.0834423	-0.000583956	0.0675411	-0.044381	0.178898	-0.00859096	-0.10454	0.0445784	-0.0686459	-0.186314	0.122522	-0.114559	0.0235553	0.110905	0.124131	0.0979506	0.00554204	-0.0703822	-0.115964	-0.161005	-0.0887102	-0.16687	-0.0894513	0.087046	-0.0106416	-0.0375498	0.0779027	-0.0139371	0.188193	-0.0946758	-0.0538848	-0.0664291	0.0726307	-0.0444192	-0.078988	0.0610236	0.0542281	-0.049829	0.141712	0.0160636	-0.0586197	-0.145599	-0.160691	-0.00402874	0.00352846	-0.0386896	-0.0548396	-0.0634527	0.00168922	-0.00619659	0.0457512	0.0522159	0.00521096	0.0708188	-0.110275	0.00558468	0.0899463	0.145024	0.0545931	-0.0466995	0.112285	-0.0686199	-0.0452766
DB00751	-0.0623936	-0.0418082	0.0585712	-0.0284006	-0.0181138	0.014851	-0.137446	0.10316	0.00904387	-0.000955356	0.120071	-0.031359	-0.0589505	-0.18718	0.00327114	-0.124991	0.0496922	0.0903137	0.0616338	0.047845	-0.0791801	-0.0424324	-0.153357	-0.067773	-0.0900961	-0.0465527	-0.132106	-0.0512372	0.0985755	-0.0199158	0.0970828	0.057395	-0.0732448	-0.172999	-0.122678	-0.0418373	-0.00905333	0.0378723	-0.00708793	0.0583831	0.0307801	0.229155	-0.0455915	-0.10123	-0.0252206	-0.0977965	-0.187845	0.129192	-0.108477	0.0239461	0.0960127	0.124878	0.0324985	-0.00489992	-0.0717962	-0.0929593	-0.178161	-0.126394	-0.178757	-0.0683822	0.0713333	0.00111212	-0.0324526	0.0743414	-0.0481669	0.175267	-0.119826	0.00337711	-0.0484033	0.0771062	-0.0540567	-0.0675383	0.0968468	0.0588279	-0.0632909	0.155075	-0.0257853	-0.0176119	-0.174539	-0.178406	-0.0097517	-0.0293253	-0.00522668	-0.0481627	-0.0719786	0.0368678	-0.0346811	0.0276878	-0.0133983	-0.0649923	0.0237622	-0.0936893	0.0265825	0.0924441	0.117772	0.0737328	-0.0892316	0.09316	-0.0470749	0.00499932
DB00750	-0.054188	-0.0530932	-0.0492101	-0.0269634	-0.0334346	0.0154599	-0.0985796	0.110863	0.0393073	-0.0610762	0.137612	-0.0563591	-0.0302538	-0.175638	0.00922616	-0.124131	0.0162603	0.137371	0.0947658	0.021415	-0.123057	-0.0339519	-0.11791	-0.0578942	-0.0756807	-0.0165655	-0.103424	-0.0430113	0.0910069	0.00183784	0.0610616	0.0449724	-0.0598657	-0.200307	-0.0647966	-0.0278177	-0.018481	0.0990468	0.00975464	0.00561916	-0.063787	0.13925	-0.0585557	-0.13987	-0.019281	-0.0922728	-0.163258	0.121351	-0.114948	0.0290428	0.0736062	0.0651192	0.0256516	-0.00214223	-0.0583711	-0.0743756	-0.185467	-0.10634	-0.186724	-0.0577647	0.0568835	-0.0350209	-0.00233821	0.107944	-0.0571321	0.187383	-0.0774994	-0.02392	-0.0551651	0.0746397	-0.0575259	-0.0466827	0.083654	0.0606011	-0.0286665	0.157121	-0.00535104	-0.0481812	-0.168474	-0.178984	0.00171856	-0.00186459	-0.0889574	-0.0155206	-0.0759377	0.0573574	-0.0439123	0.0772665	-0.0320415	-0.0233903	0.040021	-0.106289	0.0163095	0.0857668	0.120341	0.205204	-0.0418274	0.0323093	-0.013497	0.0163835
DB00753	-0.0878164	-0.100723	0.042476	-0.00832295	0.00667757	0.0298649	-0.120519	0.110717	0.061627	-0.0648708	0.136339	-0.0555253	0.0104933	-0.190929	0.0198663	-0.128388	-0.0092715	0.104159	0.143034	0.0556983	-0.105749	-0.0889595	-0.117579	-0.0651965	-0.0810512	-0.00951097	-0.10408	-0.0541806	0.0885735	-0.0136778	0.079589	0.0386904	-0.0449347	-0.184738	-0.102512	-0.00982731	0.00482514	0.110877	0.00297636	0.0330294	0.0701757	0.224279	-0.0417733	-0.0960369	-0.0430733	-0.0915365	-0.15543	0.137559	-0.0856405	0.0247225	0.125556	0.122785	0.0582247	-0.0409548	-0.0805048	-0.0720662	-0.213018	-0.130224	-0.187819	-0.0845185	0.048855	-0.0534957	0.0141971	0.125933	-0.00964921	0.240216	-0.091481	-0.0626548	-0.0738036	0.077517	-0.0645633	-0.0465608	0.0722549	0.0333948	-0.0652403	0.186466	-0.00271062	-0.0313989	-0.18142	-0.175485	-0.0165213	-0.015422	-0.0377829	-0.0508364	-0.102933	0.0477866	-0.0203926	0.0159631	-0.0177373	-0.0533373	0.0109841	-0.0845479	0.0468806	0.0796711	0.107473	0.165638	-0.100962	0.0211794	-0.0472428	-0.0184726
DB00752	-0.0624922	-0.0607589	-0.0411827	-0.0311064	-0.0166365	-0.000626908	-0.0634443	0.0988912	0.0842731	-0.0650104	0.137909	-0.0539347	-0.0287007	-0.153682	0.026103	-0.122428	0.0232198	0.0804096	0.0549665	0.0615057	-0.110915	-0.00669865	-0.117791	-0.0636397	-0.0729337	-0.00091796	-0.129971	-0.0909257	0.0822275	-0.0495892	0.0351342	0.0374076	0.00278996	-0.194864	-0.0371068	-0.0212388	-0.0323144	0.104011	0.0125734	0.0380721	0.0393213	0.148744	-0.0900376	-0.101701	-0.00524283	-0.0701685	-0.149322	0.137874	-0.109968	-0.0374332	0.0845175	0.141685	0.0216974	-0.0298208	-0.0453254	-0.142411	-0.167263	-0.126208	-0.12571	-0.0760638	0.0365868	-0.0492732	-0.0251351	0.153389	-0.0420206	0.204348	-0.101466	-0.0522503	-0.0551065	0.0632102	-0.0693301	-0.0715683	0.0553945	0.0299391	-0.0586198	0.191241	0.0263452	0.00178809	-0.158791	-0.156907	-0.0138191	-0.0195482	0.00138775	-0.0372549	-0.0594969	0.0773078	-0.0067704	0.0152051	-0.0180099	-0.0412234	0.0508604	-0.0929109	0.0705413	0.043099	0.129583	0.152812	-0.0854298	-0.00847076	0.0299402	-0.00138
DB00755	-0.0936855	-0.0905052	0.00960961	-0.0740375	-0.0500961	0.00342852	-0.0967865	0.102845	0.0704758	-0.0533964	0.138465	-0.0159657	-0.026513	-0.181183	0.0224714	-0.116178	0.0145899	0.108989	0.0626159	-0.0320004	-0.109477	-0.0796941	-0.126444	-0.118742	-0.0942347	-0.0377871	-0.145884	-0.0320708	0.0849184	-0.00495169	0.0925741	0.0514682	-0.0681087	-0.151711	-0.108725	-0.070996	0.0516205	0.0957526	-0.0258187	0.066069	-0.0378787	0.159336	-0.0611856	-0.0831944	-0.0404311	-0.0932952	-0.158959	0.145309	-0.124125	0.0158901	0.0954401	0.140652	0.0413283	-0.0413715	-0.0840719	-0.134388	-0.196965	-0.120995	-0.161971	-0.0958612	0.0641873	-0.0303171	0.0249417	0.124625	-0.0482146	0.204686	-0.103812	-0.0469394	-0.0582836	0.075581	-0.0777568	-0.046499	0.0972015	0.0582342	-0.0514104	0.184196	-0.0296886	-0.0204625	-0.169593	-0.180808	-0.0133196	-0.0246547	-0.0736539	-0.0535004	-0.0492733	0.0415031	-0.0424242	0.00511546	-0.0533257	-0.0400445	0.0419431	-0.117112	0.035617	0.0941962	0.128719	0.0676652	-0.0679763	0.0448724	-0.00867623	0.00771692
DB00754	-0.0139592	-0.0811909	-0.0278885	-0.076411	-0.0446443	0.0144884	-0.0527253	0.114571	0.0207876	-0.0789472	0.115054	-0.0650584	0.000767145	-0.173262	-0.00810177	-0.133232	0.032351	0.0924574	0.0666964	0.0392379	-0.0850795	0.00486428	-0.125179	-0.0998088	-0.105519	-0.0404806	-0.129839	-0.0412746	0.115851	-0.00510393	0.0982952	0.053109	-0.0659732	-0.195114	-0.0859484	-0.0562456	0.00548736	0.0877097	0.00894031	0.0523373	-0.0218215	0.138247	-0.0246524	-0.100902	-0.0405107	-0.0897088	-0.133726	0.116851	-0.109945	0.0136767	0.100833	0.135005	0.0512226	-0.00202489	-0.0811655	-0.0958161	-0.171754	-0.111867	-0.154042	-0.126944	0.0810445	-0.0212244	-0.0459838	0.065624	-0.0150558	0.177296	-0.10388	-0.0220272	-0.0708869	0.117471	-0.0366915	-0.0403575	0.0862453	0.0462331	-0.0097184	0.172161	0.0167407	0.00148174	-0.166349	-0.159101	-0.0902042	-0.00619391	-0.00365967	-0.00487467	-0.0740148	0.0785856	-0.0402585	-0.00190937	-0.0294618	-0.0242421	0.0173601	-0.112803	0.0269589	0.0973241	0.0988513	0.146096	-0.0911555	0.0633635	-0.0217186	0.0216422
DB00209	-0.0156933	-0.0914299	-0.0391181	-0.0699601	-0.0204984	0.00689259	-0.126369	0.0799652	0.023687	-0.0480198	0.133829	-0.10432	-0.0321305	-0.17639	-0.0172558	-0.117216	0.0143881	0.103977	0.0791823	0.0273422	-0.110422	-0.00593961	-0.139632	-0.0835271	-0.0563729	0.045212	-0.161169	-0.0243474	0.09119	0.0340891	0.0898123	0.0727977	-0.0366913	-0.191676	-0.121667	-0.0269173	0.0261601	0.0898595	-0.00081383	0.0325535	0.0275832	0.158737	-0.0357905	-0.105953	-0.00743439	-0.0880186	-0.189713	0.129689	-0.102885	0.0292428	0.0777505	0.127748	0.0370044	-0.00754582	-0.0454577	-0.112243	-0.198584	-0.128594	-0.167805	-0.104729	0.0900515	-0.0129863	-0.0226776	0.111931	-0.00743315	0.201151	-0.056589	-0.00199568	-0.0981951	0.0576679	-0.0528519	-0.00921761	0.0840748	0.0871179	-0.0210221	0.156789	0.0293821	-0.0250632	-0.173872	-0.157115	0.00553563	-0.0966666	0.0110772	-0.0494211	-0.119414	0.0602307	-0.0882051	0.0585838	-0.0382979	-0.055322	0.0578867	-0.108998	0.0280299	0.0671376	0.117704	0.20763	-0.0879396	0.0377767	0.0333605	-0.0194292
DB00208	-0.0571624	-0.0583826	-0.0260242	-0.0200741	-0.0523613	0.0388424	-0.117694	0.0652935	0.053039	-0.0669789	0.135237	-0.0583243	-0.00978391	-0.194005	0.0191352	-0.134858	0.0680982	0.125365	0.088363	0.0383874	-0.125783	-0.0017412	-0.138669	-0.132794	-0.0971691	-0.0308898	-0.145167	-0.0829885	0.0674693	-0.0297536	0.0769067	0.0386044	-0.0448867	-0.190493	-0.108161	-0.0300173	-0.00740758	0.112728	-0.00214487	0.015722	-0.0178027	0.144964	-0.0635234	-0.102864	-0.0334305	-0.0754268	-0.140191	0.133956	-0.0962604	-0.03777	0.102966	0.142854	0.0506209	-0.00555699	-0.080271	-0.0906911	-0.18156	-0.0880038	-0.18317	-0.138805	0.0843379	-0.0242713	-0.0401301	0.137029	-0.0243166	0.184508	-0.107381	-0.0502557	-0.0527218	0.0814556	-0.0660078	-0.0660418	0.0655972	0.0319847	-0.0821735	0.195345	0.0419855	-0.0342079	-0.165792	-0.130412	-0.0405529	-0.0326634	-0.0390788	-0.0534926	-0.10882	0.0737636	-0.0226029	0.00222456	-0.0532575	-0.0899709	0.0507533	-0.124662	0.0304104	0.0430256	0.142186	0.0837572	-0.0960005	0.00304437	-0.00434848	-0.0393693
DB00207	-0.0710651	-0.0506037	0.0493059	-0.0265764	-0.0655793	0.0273121	-0.127008	0.0504246	0.0593682	-0.0321762	0.123836	-0.0406902	-0.0566493	-0.200548	0.0316712	-0.116375	0.0211058	0.0986943	0.0927436	0.0190537	-0.145384	-0.0402877	-0.154181	-0.143683	-0.106498	0.0409313	-0.166497	-0.0329183	0.110511	0.0147098	0.0813367	0.05551	-0.0606198	-0.191689	-0.12554	9.46417e-05	0.0390895	0.0489548	0.00289134	0.0221482	-0.0329744	0.214499	-0.0175907	-0.0935809	0.0156261	-0.095925	-0.180198	0.137885	-0.122671	0.0448485	0.0948003	0.137507	0.0263601	-0.00906444	-0.100636	-0.109478	-0.176899	-0.142512	-0.179855	-0.106172	0.070297	-0.0389253	-0.00478037	0.160872	-0.0231401	0.211164	-0.0966936	-0.0386672	-0.0408871	0.0497279	-0.0616628	-0.0181468	0.0914688	0.0565284	-0.0427753	0.171937	0.0343367	-0.0306305	-0.19371	-0.16833	-0.0268045	-0.0110163	-0.0891708	-0.0484053	-0.0869246	0.0428605	-0.058446	0.0675147	-0.110929	-0.024573	0.0460054	-0.126302	0.0253381	0.0811356	0.143211	0.116727	-0.0382805	0.00109631	-0.0218605	0.0104145
DB00974	-0.0782551	-0.0953028	-0.0447485	-0.0328638	0.0252161	0.0257937	-0.109287	0.0352511	0.0668957	-0.0724478	0.138016	-0.051097	-0.0287439	-0.171052	0.0151735	-0.0968511	0.0447162	0.150874	0.053312	0.0522865	-0.117937	-0.0067412	-0.137007	-0.0865662	-0.0513011	0.0194179	-0.11917	-0.0744628	0.00132492	-0.0422461	0.0959843	0.0635989	-0.0339003	-0.160995	-0.093648	-0.0309585	0.00636889	0.0978483	0.000294181	0.0156494	0.0465428	0.185539	-0.0710032	-0.106095	-0.0399359	-0.113318	-0.161133	0.142625	-0.108829	0.0235302	0.108188	0.133564	0.0493074	0.0155067	-0.0831902	-0.139088	-0.182173	-0.124663	-0.166283	-0.0696129	0.0516595	-0.0444645	0.0319175	0.131131	-0.0402677	0.202009	-0.109916	0.00489122	-0.0577661	0.0733363	-0.053374	-0.0364124	0.0895198	0.0293259	-0.0446286	0.227129	0.0170168	0.00334467	-0.160708	-0.163577	-0.0190807	-0.00867472	-0.00646804	0.0227812	-0.0717057	0.0397773	0.0171898	0.0509917	-0.0399115	-0.053789	0.0140445	-0.125426	0.0301087	0.0661082	0.145603	0.0920953	-0.0899088	0.0226628	-0.0195262	-0.00227371
DB00205	-0.0617858	-0.0468121	0.0382729	-0.0655039	-0.000242015	0.0103763	-0.109803	0.0893488	0.0346308	-0.0646233	0.141119	-0.0352101	0.000703336	-0.199183	0.0272599	-0.0936974	0.0068555	0.126888	0.0565817	0.0291091	-0.0913778	-0.0502016	-0.120563	-0.103109	-0.0762584	0.00702048	-0.138717	-0.0275003	0.097525	-0.0167873	0.0695978	0.0551332	-0.0594107	-0.197212	-0.0338061	-0.0178494	-0.0120422	0.0883694	-0.0134406	0.00708015	0.0593001	0.197916	-0.083176	-0.123739	-0.0379914	-0.0578923	-0.163715	0.150391	-0.0917071	0.00888837	0.139076	0.136202	0.0352186	-0.0425518	-0.0726846	-0.0930071	-0.181133	-0.116404	-0.165337	-0.0771046	0.0841386	-0.000819763	-0.0196461	0.0717438	0.0170717	0.188198	-0.113892	-0.0293875	-0.068202	0.081121	-0.0607054	-0.0423364	0.11041	0.0520135	-0.00742532	0.173253	-0.00974002	-0.0216956	-0.173806	-0.158153	-0.0101833	-0.0563359	-0.00823713	-0.00761619	-0.061192	0.0707201	-0.0610921	0.00713805	-0.0285691	-0.036442	0.0550995	-0.124061	0.0173102	0.0896099	0.11291	0.159385	-0.0786469	0.0384356	0.00431409	0.0105231
DB00204	-0.130115	-0.0580199	-0.0422565	-0.0458831	0.00062181	0.0334173	-0.0860214	0.0575295	0.0600718	-0.0247427	0.143957	-0.0287821	-0.0285827	-0.176291	0.0316625	-0.14838	-0.0175518	0.122415	0.0326562	0.0368691	-0.121998	-0.0672312	-0.107146	-0.109535	-0.10337	0.00191232	-0.103538	-0.0761216	0.0991373	-0.0260957	0.0705892	-0.0243553	-0.0366233	-0.173857	-0.0692684	0.0199437	-0.0348324	0.0859361	0.00971262	0.00396776	-0.00823825	0.164533	-0.0765214	-0.0887263	-0.00845555	-0.0921037	-0.177535	0.130671	-0.109053	0.0227194	0.0729738	0.137372	0.0513059	-0.0130515	-0.0793774	-0.102141	-0.20058	-0.133443	-0.174879	-0.102055	0.0519184	-0.0437258	-0.0306081	0.10538	-0.0640812	0.177013	-0.0638741	-0.0495355	-0.065665	0.0738267	-0.0771553	-0.0727136	0.0946081	0.026559	-0.0627093	0.185605	0.0301984	-0.0992392	-0.174274	-0.17203	-0.0214389	0.0107801	0.0351945	-0.0545656	-0.110625	0.0509497	-0.00427314	0.0890786	-0.0415036	-0.0635667	0.0166315	-0.105949	0.0786659	0.0190187	0.126149	0.171536	-0.0897327	-0.0178178	-0.0131968	0.00959497
DB00203	-0.0703022	-0.0647902	-0.0227783	-0.0252502	-0.00645483	-0.00555905	-0.103669	0.0827389	0.0300135	-0.0647574	0.164066	-0.045813	-0.0417824	-0.177951	0.0423359	-0.117779	0.0296848	0.104883	0.0849304	0.0405949	-0.111961	-0.0366416	-0.164554	-0.111094	-0.0654847	0.0180775	-0.15437	-0.0374752	0.126931	0.0125414	0.100216	0.0584977	-0.0414511	-0.206411	-0.0886451	0.0100676	0.0144696	0.0987907	-0.00271754	0.0306888	-0.0407347	0.212888	-0.0636752	-0.119663	-0.034402	-0.0728609	-0.158454	0.146944	-0.119564	0.0208878	0.0774626	0.142572	0.0313368	-0.00123204	-0.0608895	-0.13375	-0.218668	-0.136355	-0.142515	-0.128823	0.0717407	-0.0175028	-0.0230524	0.150712	-0.028073	0.197228	-0.100582	-0.0405278	-0.0854709	0.0624192	-0.0707642	-0.0157007	0.0785858	0.0632417	-0.0155703	0.199533	0.0358975	-0.0142231	-0.166923	-0.170119	-0.0126834	-0.0385267	-0.0129547	-0.06167	-0.0983178	0.0614647	-0.0517258	0.0525804	-0.0527512	-0.0353701	0.0446565	-0.106928	0.0464222	0.0744761	0.118814	0.104572	-0.0577563	0.00671845	0.00920331	0.00657097
DB00202	-0.0652851	-0.0760011	-0.0500122	-0.0258238	-0.0383506	-0.0122684	-0.122609	0.0918433	0.0490116	-0.0186751	0.130605	-0.0792182	-0.0291191	-0.169665	-0.0318158	-0.0988958	0.033833	0.100823	0.0825378	0.0417177	-0.130946	-0.0362381	-0.125733	-0.0733535	-0.0922293	0.0354111	-0.104838	-0.0792861	0.0924199	0.0160594	0.0756451	-0.00674708	-0.0517913	-0.197261	-0.0789493	-0.0408239	0.0183663	0.104512	-0.00406279	0.0645074	-0.0113118	0.194014	-0.0567031	-0.135351	-0.0331583	-0.0695729	-0.1586	0.132188	-0.126648	0.035346	0.12051	0.143371	0.0311018	-0.00945666	-0.0595039	-0.108974	-0.163905	-0.129132	-0.168396	-0.106438	0.101852	-0.0426457	-0.0355001	0.145331	-0.0404754	0.183706	-0.11319	-0.042592	-0.0266246	0.0690797	-0.0656647	-0.0355713	0.0758901	0.0358503	-0.0542604	0.178487	-0.0186491	0.0014102	-0.172939	-0.176694	-0.0241984	-0.0455685	-0.0336214	-0.0443764	-0.0976869	0.0366419	-0.0247522	0.106629	-0.0643772	-0.065806	0.03546	-0.12468	0.0189374	0.0726897	0.119697	0.123165	-0.102495	0.0376832	-0.0191619	-0.00917591
DB00201	-0.0883358	-0.0854637	-0.00159913	-0.0054944	0.00967072	0.0372115	-0.0780225	0.0397024	0.117954	-0.0540254	0.134781	-0.0879885	0.00482852	-0.176889	0.050474	-0.128317	0.00972966	0.0785522	0.0869684	0.0153356	-0.121647	-0.0806436	-0.154462	-0.0773213	-0.111014	0.0044795	-0.0871702	-0.0369698	0.13214	-0.0143339	0.0767197	-0.0391954	-0.0373048	-0.19432	-0.122243	-0.0318583	-0.0281347	0.107618	0.0030467	-0.0148536	0.00718921	0.188114	-0.0609691	-0.0584578	-0.00972997	-0.114189	-0.162245	0.150631	-0.0717431	0.0379116	0.120477	0.133429	0.0391355	-0.0800755	-0.0378642	-0.121015	-0.200516	-0.103606	-0.139293	-0.130809	0.103187	-0.0206063	0.0431706	0.16602	-0.0908494	0.238194	-0.12548	-0.0591812	-0.13013	0.0810878	-0.0607704	-0.0302072	0.0749112	0.0378606	-0.0548611	0.142961	0.0129269	-0.00659003	-0.159479	-0.18725	-0.0529115	-0.0302977	-0.0653934	-0.0915057	0.00282524	0.0248794	-0.0593553	0.0395514	-0.106402	-0.0506264	0.124905	-0.107463	0.020013	0.0843412	0.122905	0.120167	-0.0913842	-0.00211341	-0.0561138	-0.0176864
DB00972	-0.082187	-0.0460987	-0.0211554	-0.0302988	-0.00703042	0.010878	-0.119897	0.0526466	0.0665936	-0.035044	0.145373	-0.0769044	-0.0116273	-0.193462	0.0311212	-0.108781	0.0179048	0.106834	0.0905969	0.0585904	-0.117287	-0.064379	-0.110206	-0.0694989	-0.104435	0.0279532	-0.147823	-0.044069	0.103803	-0.0350454	0.0889124	0.00603364	-0.0454731	-0.197791	-0.0854929	0.00767247	-0.0180576	0.105611	0.0159608	0.0309178	-0.0434985	0.156922	-0.0903416	-0.0715519	-0.0236373	-0.0905162	-0.139686	0.144836	-0.0952912	-0.00858984	0.116093	0.134285	0.0321558	-0.0245377	-0.0895171	-0.142068	-0.183551	-0.127069	-0.131955	-0.0748871	0.0483826	-0.0622491	-0.0225595	0.173178	-0.0194365	0.18857	-0.0882283	-0.0411266	-0.0441582	0.0787592	-0.0544799	-0.0513709	0.0932406	0.0258749	-0.0420455	0.172253	0.043306	-0.00873925	-0.164636	-0.161178	-0.035214	-0.00551034	-0.00935947	-0.0703452	-0.0636405	0.0666625	-0.0394317	0.0187968	-0.0757924	-0.080858	0.0493621	-0.103212	0.0547569	0.0623947	0.134634	0.130622	-0.0782771	0.0187447	0.0139343	0.00306179
DB04216	-0.0337241	-0.0657138	0.064413	0.0134427	0.0198698	-0.0300006	-0.0860921	0.0777003	-0.024187	-0.032162	0.135997	-0.0673972	0.0363864	-0.177392	0.009873	-0.0934225	0.130953	0.0880001	0.123743	0.0420268	-0.0773867	-0.0440718	-0.138149	-0.067916	-0.0935341	-0.0230843	-0.111136	-0.060731	0.0386497	-0.00430765	0.109489	0.0588936	-0.103278	-0.132343	-0.115976	-0.0161698	0.0415166	0.0763477	0.0105339	0.0216211	0.0432361	0.212465	0.0109119	-0.0914915	0.0561802	-0.0120241	-0.145071	0.0142923	-0.0305999	0.0376957	0.023714	0.0942655	0.138381	0.0219556	-0.073535	-0.0707016	-0.163709	-0.142755	-0.106314	-0.123043	0.0332778	-0.0309305	-0.00178332	0.132318	-0.0232279	0.164215	-0.104834	-0.0404029	-0.0761898	0.0581848	-0.0640286	-0.0248498	0.0729195	0.10013	-0.0146345	0.13537	0.0143072	0.00971151	-0.0719627	-0.173897	-0.0558179	-0.0143825	-0.035051	-0.0393629	-0.0858405	0.0562407	-0.0157275	0.0309508	-0.0261645	-0.0246052	-0.00446788	-0.117663	0.0410352	0.10684	0.172824	0.0824994	-0.0634026	0.113616	-0.010527	-0.0693194
DB00683	-0.0922456	-0.061003	0.0355168	-0.0595418	-0.0225035	0.00219259	-0.120727	0.0807479	0.0663612	-0.00990653	0.138498	-0.0518552	-0.0589952	-0.184556	0.0251953	-0.131966	0.037548	0.136467	0.116742	0.028816	-0.144381	-0.0432454	-0.142312	-0.118974	-0.0959526	0.0112517	-0.130688	-0.0468819	0.11431	0.0145534	0.075091	0.0700963	-0.0830916	-0.191225	-0.129891	0.0141563	-0.000267517	0.106397	-0.0246674	0.0347289	0.0377848	0.201022	-0.0628191	-0.0797726	-0.0355872	-0.101439	-0.153958	0.147536	-0.0942371	0.0460367	0.0954219	0.144865	0.0373371	0.00210475	-0.0883762	-0.0982754	-0.204531	-0.136712	-0.167079	-0.0704295	0.0549081	-0.0435327	-0.0315931	0.165005	-0.0470741	0.161572	-0.0714428	-0.0360922	-0.0512626	0.0842988	-0.082591	-0.0664538	0.0862696	0.0495654	-0.0650965	0.227578	-0.00475299	-0.00562401	-0.170562	-0.165247	-0.023216	0.0163368	-0.0525311	-0.071411	-0.105419	0.0804356	-0.0101116	0.0858206	-0.0478161	-0.0876791	0.0455474	-0.125717	0.0815089	0.0511501	0.102784	0.0954894	-0.0858906	0.00785787	-0.00903871	-0.0283883
DB00682	-0.10578	-0.0166719	-0.0391731	-0.0728561	-0.0358207	0.0205543	-0.143439	0.059982	0.115433	-0.055956	0.161405	-0.025454	-0.0538877	-0.209793	0.0547692	-0.135231	0.00384181	0.106472	0.0580172	0.0540001	-0.126581	-0.0372304	-0.136838	-0.109817	-0.0638696	-0.020183	-0.168516	-0.0427298	0.122974	-0.0388621	0.0606862	0.0516719	-0.036039	-0.192973	-0.0924614	0.00554391	0.0260009	0.0971711	-0.0187629	-0.0172169	0.0233786	0.199002	-0.100076	-0.0781342	-0.0018631	-0.0872941	-0.166337	0.146003	-0.131959	0.0325165	0.0880372	0.132924	0.0576482	-0.00649157	-0.0849273	-0.0957408	-0.204371	-0.0704189	-0.136688	-0.0735752	0.0743472	-0.0742709	-0.0225097	0.169255	-0.0134507	0.180505	-0.0909562	-0.0330557	-0.0862221	0.0765365	-0.0597279	-0.044075	0.0768571	0.0267849	-0.0238984	0.201742	0.0220362	-0.00217425	-0.174894	-0.192607	-0.0206139	-0.0178365	-0.0283683	-0.0430882	-0.077511	0.0229791	-0.0696126	0.0299622	-0.0474641	-0.0420808	0.0375974	-0.0928966	0.0529728	0.0264095	0.11585	0.0698852	-0.0646584	-0.00604888	0.0198568	0.00827181
DB00681	-0.0579585	-0.0598446	-0.0180722	-0.0162402	0.0335908	0.0151973	-0.126197	0.0599456	0.0658476	-0.0299109	0.150695	-0.0658578	-0.0024395	-0.159916	0.00288152	-0.0870873	0.0216572	0.0903783	0.0636941	0.0272746	-0.117014	-0.0403241	-0.139266	-0.114488	-0.111941	-0.0390736	-0.160892	-0.0315186	0.103057	-0.0401887	0.0819976	0.0623899	-0.0871191	-0.164347	-0.112488	-0.00550778	0.0143809	0.083708	0.0136224	0.0395723	0.0169382	0.16849	-0.0349895	-0.120405	-0.0263359	-0.0552	-0.184781	0.132014	-0.140431	0.0387284	0.108114	0.127622	0.0402061	0.00020096	-0.0847005	-0.0902047	-0.175456	-0.131016	-0.197718	-0.109942	0.0683106	-0.0127784	-0.0102856	0.114867	-0.0227274	0.150461	-0.103838	-0.0366367	-0.0943508	0.0413643	-0.0576714	-0.0191028	0.077507	0.0699997	-0.0718197	0.166908	0.0221431	-0.00635667	-0.188862	-0.181998	-0.0746208	-0.0145103	-0.0759681	0.0209529	-0.0537427	0.0564943	-0.0249665	0.0353776	-0.0446096	-0.0170706	0.0655572	-0.102107	0.0181775	0.0838108	0.109523	0.168058	-0.0834678	0.0236651	0.0231675	-0.0476135
DB00680	-0.0121206	-0.0532062	-0.0385018	-0.0511318	-0.0460107	-0.00942466	-0.0870079	0.0973806	-0.01115	-0.0506516	0.12446	-0.0594374	0.0270726	-0.152768	-0.0514793	-0.10726	0.107161	0.116491	0.0225667	0.0335858	-0.128535	-0.111135	-0.132628	-0.0662058	-0.0650574	-0.0527351	-0.115154	-0.0644518	0.0950291	-0.0324921	0.0800978	0.0272807	-0.0873944	-0.16533	-0.101492	-0.0232701	-0.0142486	0.0190516	-0.0105023	0.0523565	0.0370087	0.172459	-0.0367818	-0.125634	-0.0244791	-0.07309	-0.156429	0.101396	-0.0777713	0.021473	0.0745843	0.101991	0.0428185	0.0262595	-0.0628058	-0.0650881	-0.159662	-0.0946851	-0.184654	-0.0843506	0.112842	-0.00624166	0.0196281	0.0438586	-0.0376975	0.184666	-0.120334	-0.0219054	-0.0497578	0.0780523	-0.0351207	-0.0194665	0.0821696	0.0505041	-0.063363	0.137992	0.0080347	0.00804425	-0.166783	-0.147728	-8.84312e-05	-0.00875139	-0.00688588	-0.0296851	-0.0829471	-0.0018812	-0.0377193	0.0432585	-0.00174849	-0.0576396	0.0491049	-0.122985	0.0136418	0.0890931	0.125101	0.0877408	-0.0817915	0.0555899	-0.00116403	-0.0412338
DB00687	-0.116252	-0.027538	0.0181724	-0.0836077	0.0201293	-0.000580072	-0.0891942	0.0538522	0.041352	-0.0495241	0.143419	-0.0805345	-0.0135234	-0.160904	-0.00117589	-0.101813	0.0101689	0.078097	0.0652205	-0.00318178	-0.13792	-0.00391133	-0.127516	-0.122571	-0.0850481	-0.0134958	-0.125357	-0.0464606	0.13741	-0.0190893	0.0579394	0.0435727	-0.0663554	-0.163209	-0.104926	0.013252	0.0323082	0.0945511	-0.0130207	0.0158361	0.0294394	0.182695	-0.0426056	-0.0747227	-0.0117272	-0.0871795	-0.149508	0.122065	-0.0957041	0.0191193	0.0771069	0.135157	0.0801831	0.0326235	-0.0796077	-0.0742804	-0.201894	-0.132121	-0.16221	-0.0768017	0.113927	-0.0511615	-0.0330888	0.125505	-0.0109426	0.197234	-0.0818415	-0.0497658	-0.0890935	0.0431879	-0.0854943	-0.0618466	0.07012	0.0577113	-0.0572822	0.171744	0.0176248	-0.00124553	-0.159502	-0.183124	-0.0207376	-0.00425614	-0.0280496	-0.0595999	-0.0568478	-0.0104682	-0.0324345	0.105774	-0.0573739	-0.05357	0.0357697	-0.115338	0.0392219	0.101939	0.101976	0.116783	-0.0704398	0.0452588	0.0266618	0.000714134
DB00686	-0.0630467	-0.0670804	-0.0409292	-0.0121931	0.0434209	0.0146345	-0.0697752	0.0532705	0.0734383	-0.066425	0.15317	-0.0409756	0.0152267	-0.126826	0.0162712	-0.11955	0.0805636	0.0798631	0.0588527	0.0477934	-0.117994	-0.0124413	-0.136992	-0.129646	-0.0288711	-0.0186716	-0.0926058	-0.0367884	0.102939	-0.0460647	0.0677324	0.0673694	-0.0516043	-0.137471	-0.0253611	-0.0407506	-0.024517	0.0923193	-0.00468286	0.0602678	-0.0511135	0.143567	-0.06487	-0.0931645	0.00468395	-0.0777537	-0.150292	0.128893	-0.0840932	0.0140356	0.119619	0.131809	0.0489353	-0.0141189	-0.0602626	-0.0818146	-0.194295	-0.119551	-0.181672	-0.0788115	0.137156	-0.0346738	0.0205083	0.114362	-0.0102086	0.193545	-0.0567603	-0.03468	-0.0526812	0.0872713	-0.0510818	-0.0504573	0.0707981	0.062992	-0.0495992	0.170266	-0.00750858	-0.04275	-0.180154	-0.18274	-0.0161514	-0.0439529	-0.01056	-0.0406098	-0.0648567	0.0493216	0.00633251	0.105314	-0.0369217	-0.0226605	0.0494166	-0.106197	0.0237588	0.0585788	0.160416	0.0896955	-0.0803828	0.0149793	-0.0022985	0.00316252
DB00685	-0.0340285	-0.107072	0.0500458	0.00442277	0.040244	-0.00855001	-0.127831	0.0441337	0.0217953	-0.0251736	0.14389	-0.0473881	0.00299974	-0.17107	0.0216416	-0.109723	-0.000778341	0.102696	0.0559004	-0.00250659	-0.089751	-0.0711038	-0.128687	-0.113069	-0.044516	-0.0381526	-0.126471	-0.0184246	0.118707	-0.00666453	0.111284	0.0689283	-0.0471103	-0.140628	-0.0867775	-0.0397631	0.00650979	0.0507954	-0.00622789	0.00237303	-0.0286482	0.141817	-0.0650194	-0.082607	-0.000265758	-0.0633809	-0.15243	0.131662	-0.103966	0.0288643	0.0929743	0.113097	0.0640613	0.086876	-0.0815404	-0.113745	-0.15172	-0.134919	-0.118353	-0.107332	0.0601974	-0.00758305	-0.0470902	0.125296	0.00721154	0.170034	-0.0873225	-0.00972117	-0.0740386	0.0553336	-0.0108397	-0.0356056	0.119674	0.0758577	-0.072684	0.170161	-0.0266379	-0.0129479	-0.170398	-0.166491	0.0127324	-0.0335242	0.0165101	0.0229041	-0.116505	-0.00727408	-0.03748	0.0352648	-0.0829093	-0.0652786	0.0970985	-0.104949	0.011259	0.0925785	0.147438	0.0882978	-0.0709022	0.0762368	-0.031952	0.0109416
DB00684	-0.0872448	-0.0556357	0.012475	-0.0435018	-0.0291683	0.000533643	-0.0812476	0.116233	0.0599563	-0.0608701	0.14455	-0.037479	-0.0344011	-0.192615	0.0219533	-0.141375	0.024877	0.0999926	0.0518953	0.0123472	-0.115685	-0.0571292	-0.12748	-0.109341	-0.0921916	0.00747868	-0.155811	-0.0343997	0.0996173	-0.0201061	0.0678056	0.0301541	-0.0393482	-0.165955	-0.125336	-0.00772848	-0.0124405	0.0720671	0.0180507	0.0536826	-0.0341526	0.223276	-0.0662534	-0.0814175	0.00914663	-0.0981244	-0.174197	0.136136	-0.128151	0.0419151	0.102235	0.132406	0.0405492	-0.0112191	-0.0708035	-0.132041	-0.188103	-0.149402	-0.18191	-0.0833989	0.0753092	-0.0680702	-0.0377983	0.168106	-0.0088511	0.193999	-0.0963986	-0.0488993	-0.042757	0.0623093	-0.0294749	-0.0407885	0.0856712	0.0270137	-0.0426303	0.206959	0.0434012	-0.0130125	-0.189275	-0.172232	-0.0466292	-0.0217668	-0.105821	-0.0369001	-0.0665622	0.0430908	-0.0268354	0.0357973	-0.0604692	0.00851653	0.0361497	-0.0956206	0.0186696	0.0672577	0.119227	0.110385	-0.0537507	-0.00543134	0.0134484	-0.00620651
DB00689	-0.0293733	-0.0485008	-0.024153	-0.0195898	-0.0194578	0.00487681	-0.068896	0.0867259	-0.0436358	-0.0459655	0.150816	-0.071753	0.028844	-0.166653	-0.0400359	-0.0976283	0.0815645	0.0992477	0.045005	0.0427177	-0.102578	-0.0412574	-0.136689	-0.104733	-0.105318	-0.0382652	-0.109823	-0.0738059	0.0860284	-0.0108252	0.0681552	0.0531774	-0.0788126	-0.203429	-0.117094	-0.0279024	-0.0260305	0.0424718	-0.000211868	0.0426723	-0.0569598	0.180564	-0.0492367	-0.104439	-0.00944231	-0.0526438	-0.162799	0.0641905	-0.0714264	0.0353755	0.0573443	0.135718	0.0671609	0.0248006	-0.0747534	-0.0420658	-0.184512	-0.128987	-0.171803	-0.0784651	0.122391	-0.0273238	-0.0570011	0.0718001	-0.0432411	0.187661	-0.0735785	-0.0263356	-0.0717108	0.0623233	-0.0653135	-0.0716069	0.0736249	0.0683078	-0.0566155	0.170346	-0.0155815	-0.0063492	-0.0636377	-0.164631	-0.0666258	0.000827644	-0.00920581	0.0200207	-0.0848857	0.0134122	-0.0193411	0.00682784	-0.0222018	0.004934	0.0637298	-0.10235	-0.00848528	0.107277	0.118652	0.157226	-0.0806758	0.11219	-0.0351338	-0.027334
DB00688	-0.0887641	-0.0897605	0.0235124	-0.0611633	0.0327611	-0.0255344	-0.116811	0.050332	0.0498069	-0.0457374	0.115132	-0.0716847	-0.0106506	-0.195625	0.0114577	-0.0881522	0.0465781	0.0954376	0.0915999	0.0205943	-0.089132	0.00830839	-0.148471	-0.0707451	-0.0864939	0.0156852	-0.154389	-0.0256181	0.0826322	-0.00933971	0.0947845	0.0702942	-0.0481971	-0.179174	-0.108145	0.0224032	0.0373399	0.0691578	-0.0158354	0.00673639	-0.0253245	0.187832	-0.0678758	-0.0693389	-0.0576237	-0.0862129	-0.181578	0.144298	-0.0907796	0.0561371	0.0643374	0.119454	0.0277071	-0.0420995	-0.0832804	-0.08772	-0.182393	-0.104659	-0.165812	-0.090696	0.0548382	-0.0405976	-0.00630477	0.151866	-0.0234857	0.222401	-0.0724027	-0.0210486	-0.104902	0.058313	-0.0484745	-0.0251743	0.0953493	0.0305981	-0.00846989	0.157139	0.0528008	-0.054235	-0.183959	-0.166279	-0.00214357	-0.036512	-0.056043	-0.038739	-0.0505857	0.0310765	-0.0579986	0.0648629	-0.0678875	-0.0245285	0.0235334	-0.123746	0.036919	0.0857662	0.120174	0.136802	-0.0965463	0.0302398	0.0154405	0.00937035
DB00373	-0.122065	-0.0880958	-0.0241191	-0.0776208	-0.0337521	0.0174925	-0.0779433	0.0952238	0.074589	-0.0356323	0.10283	-0.0493996	-0.0460611	-0.17459	0.00822857	-0.136286	0.0192983	0.123799	0.0888779	-0.0144586	-0.114383	-0.0475521	-0.143251	-0.0945618	-0.120807	0.00042416	-0.134213	-0.0306761	0.102588	0.00508977	0.0502404	0.0593768	-0.0058714	-0.16998	-0.116435	-0.0259958	0.0500125	0.0997159	-0.00726834	0.00526187	-0.0361471	0.209408	-0.0666629	-0.0791466	-0.0167289	-0.0891949	-0.177637	0.152461	-0.128907	0.0180224	0.115335	0.112932	0.0491431	-0.0173948	-0.102652	-0.0823242	-0.184232	-0.126942	-0.186495	-0.0959352	0.0604169	-0.0130813	-0.0288483	0.161285	0.00223435	0.190514	-0.0930909	-0.0507489	-0.0632442	0.061216	-0.0446164	-0.0225838	0.0967143	0.0679936	-0.0223082	0.187704	0.034849	-0.0271266	-0.178424	-0.167427	-0.0130006	-0.0211568	-0.055039	-0.0513297	-0.0605005	0.037118	-0.0379213	0.0435497	-0.0610497	-0.0472497	0.0868125	-0.103536	0.0350132	0.0396347	0.111208	0.0965516	-0.0757108	-0.0212922	-0.0234745	-0.0440955
DB00372	-0.0327148	-0.0724454	-0.00197758	-0.00383236	0.00139909	0.0236025	-0.125739	0.0577764	-0.0153738	0.00271216	0.1234	-0.0745209	-0.0104684	-0.154153	0.00930096	-0.107264	0.0806621	0.106792	0.0599725	0.0365879	-0.0602429	-0.0070773	-0.10819	-0.03129	-0.0941115	-0.0492782	-0.108596	-0.091902	0.0630512	-0.00664443	0.0755079	0.0353093	-0.0893623	-0.193397	-0.137461	-0.019696	-0.00914933	0.0730524	0.00472743	0.0888307	0.0389811	0.147653	-0.0235933	-0.116972	0.0139637	-0.0512062	-0.162112	0.0206833	-0.0937251	0.0199063	0.0684993	0.117262	0.0486129	0.0138684	-0.0733998	-0.104349	-0.1248	-0.120342	-0.160724	-0.0856114	0.115133	-0.0415473	-0.0547476	0.052527	-0.0324489	0.18865	-0.0736623	-0.026621	-0.0594584	0.0780224	-0.0489198	-0.0773104	0.0609776	0.0653797	-0.0342985	0.180743	-0.00464199	-0.084957	-0.163183	-0.180634	-0.00720726	-0.0167061	-0.0239562	0.0134509	-0.079079	0.0684474	-0.00267206	0.120219	-0.0316382	-0.0321473	0.0357698	-0.127229	0.0247714	0.101863	0.138492	0.0792401	-0.0956563	0.0987607	-0.0565313	-0.040285
DB00371	-0.081283	-0.100754	-0.0284472	-0.0609076	-0.00302278	0.0117684	-0.126894	0.0655758	0.0585274	-0.046475	0.146802	-0.0562605	-0.0145939	-0.175855	0.024812	-0.113406	0.0217066	0.118313	0.0550005	0.0228175	-0.0996406	-0.0779549	-0.143663	-0.134004	-0.0838578	-0.0472456	-0.153343	-0.0570068	0.0864846	-0.0220443	0.0871149	0.0354619	-0.0438632	-0.151022	-0.104809	6.76701e-05	-0.00594697	0.091291	-0.0115194	0.00626924	0.020628	0.15504	-0.0488923	-0.0948291	-0.0472239	-0.0390456	-0.173897	0.131328	-0.117415	0.0190819	0.106683	0.126816	0.0382104	0.0474156	-0.081145	-0.111138	-0.166069	-0.132337	-0.171325	-0.10272	0.0754407	-0.0388397	-0.00358808	0.0984684	-0.0258239	0.188727	-0.0781354	-0.030206	-0.0536715	0.0676837	-0.0580951	-0.0388793	0.0817101	0.0372516	-0.0255717	0.183732	-0.00953528	-0.0098576	-0.184403	-0.173316	-0.0248817	-0.0253803	-0.0559344	-0.0429585	-0.0847064	0.0565847	0.0192942	0.0348175	-0.0704574	-0.0293793	0.047907	-0.117938	0.0800911	0.0832535	0.133456	0.0965152	-0.0356849	0.0292626	-0.0369567	-0.0069653
DB00370	-0.119185	-0.0796071	0.00676763	-0.0741678	-0.0261992	0.0309344	-0.112286	0.0407202	0.0476833	-0.0741102	0.135961	-0.0466633	-0.0471786	-0.185163	0.0457154	-0.122868	0.00833497	0.111055	0.0940498	0.0378249	-0.0957507	-0.0356931	-0.135712	-0.07514	-0.0996463	0.038247	-0.136607	-0.0905376	0.112695	0.0154489	0.0787427	0.0582791	-0.00101794	-0.188733	-0.111036	-0.0124788	0.010647	0.0905602	-0.00689984	0.0225632	0.0159716	0.161173	-0.0562844	-0.0938748	-0.0251637	-0.0732018	-0.18954	0.131085	-0.0929134	0.0315993	0.101051	0.130376	0.0427612	-0.0260503	-0.0596111	-0.0916092	-0.191333	-0.132163	-0.163786	-0.0829486	0.0288967	-0.0292404	-0.0295081	0.148508	-0.0290037	0.180237	-0.0953251	-0.0696153	-0.0608688	0.092119	-0.0670742	-0.0514415	0.103287	0.00438775	-0.0526845	0.184032	0.0309925	-0.0027937	-0.189517	-0.181183	-0.073103	-0.0153342	-0.0261392	-0.0143584	-0.0795761	0.0319948	0.00261275	0.00848817	-0.0904567	-0.0785285	0.0600876	-0.121812	0.0537051	0.0388567	0.138335	0.133951	-0.0858154	0.00456403	-0.00771718	-0.00717414
DB00377	-0.031654	-0.103417	2.17131e-05	-0.0241395	-0.0334855	0.00669942	-0.130251	0.119444	0.0497023	-0.0134578	0.141189	-0.0852572	0.0149843	-0.184777	0.00218025	-0.130765	0.0500393	0.131034	0.0770909	0.0228661	-0.10804	0.00573594	-0.145515	-0.0866436	-0.0985201	0.0250421	-0.131087	-0.05201	0.085361	-0.0019308	0.107455	0.0354494	-0.113667	-0.2027	-0.130951	-0.038735	0.0084247	0.0886786	0.00584822	0.0608842	0.0349808	0.13242	-0.0481191	-0.0988326	-0.00060161	-0.0825146	-0.147322	0.146083	-0.121175	-0.0188071	0.0794987	0.166582	0.0398883	0.0126366	-0.0827811	-0.123124	-0.162359	-0.108029	-0.167371	-0.0982364	0.0910722	-0.0580523	-0.0514696	0.116951	-0.0365509	0.155237	-0.121289	-0.0110643	-0.0655226	0.067894	-0.0376088	-0.0429695	0.073201	0.0697897	-0.0419291	0.180519	0.0350042	-0.0115312	-0.160905	-0.192375	-0.00586472	-0.0204221	0.000878142	-0.0429947	-0.116851	0.0857506	-0.0487313	0.0316053	-0.0515956	-0.0770818	0.040761	-0.0876774	0.0364576	0.0780042	0.115901	0.0821826	-0.0661656	0.0458811	0.000242505	0.00169221
DB00376	-0.072159	-0.060459	0.0360843	-0.0340687	-0.0163899	0.0100311	-0.0802722	0.0945779	0.0585786	-0.0535326	0.143204	-0.0563975	-0.0471603	-0.18595	0.00868578	-0.121496	0.00290479	0.130852	0.0918066	0.0386512	-0.117272	-0.0751053	-0.112965	-0.0877235	-0.0943085	0.0252326	-0.156008	-0.0263321	0.0836064	-0.0171955	0.0541036	0.029752	0.0033097	-0.193746	-0.11047	-0.00440206	0.00173132	0.0926743	-0.00564137	0.0377118	0.031243	0.143444	-0.0614826	-0.109098	-0.0459028	-0.0725795	-0.16207	0.142011	-0.11639	0.0336568	0.11853	0.125587	0.0328093	-0.00369584	-0.0806645	-0.105249	-0.193438	-0.135887	-0.173959	-0.0881345	0.0728941	-0.0459057	0.0166924	0.104629	-0.0146406	0.205474	-0.113868	-0.0278927	-0.0582691	0.0794647	-0.0321933	-0.0340138	0.0703298	0.0482688	-0.0325886	0.17378	-0.000395797	-0.0271131	-0.182333	-0.181121	-0.0967406	-0.0270325	-0.019209	-0.0478526	-0.10064	0.0558349	-0.0216811	0.0114842	-0.06516	-0.00601187	0.0697407	-0.0924463	0.033614	0.0756046	0.121476	0.0772108	-0.0860424	0.0600945	0.0106608	-0.0288398
DB00375	-0.0356717	-0.0885428	-0.046018	-0.0282563	-0.029134	0.00787917	-0.137601	0.0512824	0.0340893	-0.0545476	0.123843	-0.0690199	-0.0192359	-0.177061	0.0282789	-0.117848	0.00220696	0.0956849	0.138809	0.0309068	-0.119212	0.0242811	-0.100778	-0.064916	-0.0313211	-0.00580751	-0.153852	-0.0428523	0.101	-0.0096513	0.0863245	-0.025961	-0.0871701	-0.189339	-0.134979	-0.0179421	-0.0211455	0.0874892	0.0182857	0.0641498	-0.0279521	0.180256	-0.0664311	-0.092768	-0.0031157	-0.0765153	-0.169536	0.13923	-0.125542	0.0449302	0.0993713	0.146211	0.0222011	0.0144437	-0.0616032	-0.0905348	-0.15881	-0.124895	-0.169482	-0.0760037	0.0831242	-0.0352726	-0.0464755	0.0839365	-0.0327523	0.170776	-0.102943	-0.0276086	-0.052875	0.0714232	-0.0393201	-0.0672372	0.102636	0.0735301	-0.0560783	0.183752	-0.0173421	-0.00830096	-0.174857	-0.176188	-0.0455243	-0.01605	-0.0568814	-0.0747984	-0.0846182	0.0403246	-0.0572812	0.0753762	-0.0359475	-0.0281632	0.0913009	-0.113618	0.0429717	0.0506625	0.101387	0.0874784	-0.0204354	0.0316816	-0.0301207	0.0136964
DB00374	-0.0675508	-0.0177234	-0.00848399	-0.0763927	-0.0105763	0.0129323	-0.132259	0.058841	0.0582267	-0.0511892	0.17982	-0.0742029	-0.0282411	-0.173254	0.0170173	-0.109524	0.0151414	0.140181	0.0598215	0.0425204	-0.105491	-0.011982	-0.119737	-0.120259	-0.0834212	0.00168265	-0.122175	-0.0586303	0.103851	-0.0393733	0.0768264	-0.0203039	-0.054419	-0.199211	-0.109894	-0.0295694	0.0310067	0.0834951	0.0171062	0.00672806	-0.0544534	0.169254	-0.090108	-0.0753171	-0.0131199	-0.0723064	-0.166473	0.154116	-0.130903	-0.0064559	0.0878452	0.132163	0.0442343	-0.0337148	-0.0935433	-0.0998605	-0.201602	-0.106594	-0.175439	-0.0733999	0.08785	-0.0401631	0.001581	0.177151	-0.0337261	0.170321	-0.0919409	-0.0243376	-0.0543341	0.0673872	-0.0389044	-0.0464112	0.092248	0.0562853	-0.0448526	0.190312	0.00137646	-0.0216872	-0.155431	-0.184013	-0.0311702	-0.0052785	-0.0460669	-0.0384047	-0.0834369	0.0517003	0.0120752	0.0586949	-0.086489	-0.062111	0.0912373	-0.103369	0.0204851	0.00418647	0.111118	0.0882778	-0.0543359	0.0464687	-0.0261207	0.0161534
DB00379	-0.0599908	-0.0750036	-0.0467518	-0.044405	-0.0267984	0.0177981	-0.0969328	0.115223	0.0574403	-0.0564234	0.133769	-0.0518868	-0.0265271	-0.182569	0.00320234	-0.126538	0.0207443	0.0871088	0.0623234	0.0227751	-0.11063	-0.0679728	-0.107913	-0.13978	-0.0545188	0.0218979	-0.120045	-0.0344763	0.0890966	-0.0320899	0.098579	-0.0123057	-0.045008	-0.18315	-0.0921685	-0.0327456	0.0270981	0.102948	-0.0246081	0.0463076	0.0402038	0.153868	-0.062277	-0.0918084	-0.0418823	-0.0739825	-0.154807	0.144311	-0.119213	-0.0373927	0.0951041	0.130739	0.0550908	0.00595259	-0.0855277	-0.10571	-0.168684	-0.130837	-0.164427	-0.0796085	0.122035	-0.02941	0.0396097	0.101402	-0.0312507	0.169177	-0.0912371	-0.0446933	-0.0862345	0.0798968	-0.0522479	-0.0462916	0.107348	0.0259387	-0.0428829	0.183485	-0.00302573	-0.0289132	-0.172141	-0.182731	-0.00788802	-0.021284	-0.0603718	-0.054209	-0.0772949	0.0466005	-0.0609443	0.0804517	-0.035687	-0.0650943	0.0274648	-0.120178	0.0568719	0.0250455	0.13405	0.0597475	-0.0686069	0.029999	-0.0241093	0.00571841
DB00378	-0.0552937	-0.0996156	-0.0274725	-0.0050414	-0.0451154	-0.023091	-0.0362996	0.112555	0.0355364	-0.036283	0.123086	-0.0571248	0.00914613	-0.178329	-0.0287546	-0.137294	0.040701	0.108898	0.0443581	0.0289708	-0.106969	-0.0564204	-0.159526	-0.0907997	-0.0894606	-0.0394841	-0.0954081	-0.0401238	0.0861465	-0.0236398	0.0621992	0.0468444	-0.0800545	-0.165309	-0.0839536	-0.0130169	-0.00411484	0.0877439	0.0100045	0.0167142	0.0641365	0.136637	-0.0723043	-0.0926246	-0.0358162	-0.0913812	-0.1402	0.132045	-0.103648	0.0301355	0.0644113	0.134203	0.0966331	0.0617871	-0.0569094	-0.0757558	-0.20614	-0.0897468	-0.174166	-0.0870146	0.136529	-0.0234472	0.0100369	0.0648359	-0.0367106	0.176679	-0.0803806	0.00465594	-0.0721527	0.0652864	-0.000509726	-0.0531306	0.0463209	0.04969	-0.0368371	0.177405	-0.010789	-0.0275294	-0.159202	-0.185068	-0.00510001	-0.030044	0.00487156	-0.0306521	-0.0724014	0.053309	0.0157118	0.10143	0.00205512	-0.0192103	0.0537941	-0.0879077	0.0143223	0.0515499	0.155339	0.0925624	-0.0977155	0.0277863	0.0241034	-0.00782806
DB06237	-0.0172869	-0.0323163	-0.0485577	0.00862101	-0.0136592	0.00249006	-0.0970814	0.11448	0.0378291	-0.0311366	0.151414	-0.0966238	0.0236942	-0.175417	-0.00350311	-0.0990388	0.0636549	0.145526	0.096369	-0.0142874	-0.118733	0.00571276	-0.105797	-0.109346	-0.0694727	0.0174962	-0.115658	-0.0483416	0.0979069	0.0209749	0.0865665	0.0646749	-0.0521398	-0.195016	-0.0583893	-0.0235472	0.0185344	0.0112368	0.00282652	0.0155847	-0.0581547	0.213974	-0.0472077	-0.0616929	0.0142345	-0.0276288	-0.141633	0.0846567	-0.101193	-0.0490187	0.0817886	0.13417	0.0582302	-0.0356156	-0.0807418	-0.082781	-0.16909	-0.130486	-0.161795	-0.0851273	0.0671268	-0.00984643	-0.021515	0.0806708	-0.0395598	0.235503	-0.0856578	0.00287811	-0.0638179	0.0572882	-0.0704749	-0.0143395	0.0517649	0.0757647	-0.0617095	0.169903	0.0344081	0.00624292	-0.131222	-0.166466	-0.0850458	-0.0233752	-0.0329921	-0.00197611	-0.0687716	0.0661109	-0.0264568	0.0671961	-0.0673546	-0.0102454	0.0422408	-0.120433	0.0110172	0.0542848	0.118091	0.170516	-0.0651558	0.0252777	-0.0145839	-0.0150124
DB04854	-0.0378719	-0.0517149	-0.036403	-0.0129536	0.00384032	0.00982651	-0.119326	0.0579002	0.0102699	-0.0190519	0.154118	-0.0508371	-0.0451205	-0.154284	0.0183341	-0.119988	0.0143608	0.0940672	0.0702536	0.031703	-0.103785	-0.0464719	-0.100446	-0.0887967	-0.0469642	0.0472022	-0.139138	-0.0599039	0.0986797	0.0565296	0.0764362	0.0844878	-0.064269	-0.140063	-0.0975296	-0.0194555	-0.0145096	0.0434256	0.00629755	0.040092	0.041918	0.178027	-0.0706203	-0.127275	0.0495576	-0.0940935	-0.165347	0.0681571	-0.0765146	0.0490613	0.0575901	0.112825	0.0727838	-0.00491135	-0.107312	-0.0650049	-0.152958	-0.115853	-0.18365	-0.105553	0.108292	-0.0120078	-0.0184555	0.121206	0.000539768	0.210181	-0.0819289	0.000257194	-0.0842002	0.0435486	-0.0336233	-0.0130403	0.0775899	0.0514049	-0.0407752	0.181153	-0.0075238	-0.0243267	-0.173505	-0.182128	-0.0746951	-0.00435341	-0.0706941	0.0265162	-0.0698495	0.0614195	-0.0146322	0.0478243	-0.0326398	-0.0171391	0.0439069	-0.104949	3.13243e-05	0.06455	0.110124	0.163044	-0.0682368	0.0302693	-0.0251798	-0.0464631
DB04855	-0.0900775	-0.0635058	0.0188846	-0.0295233	-0.0150889	-0.00479819	-0.116807	0.0811982	0.064157	-0.0527627	0.156434	-0.0768119	-0.00370051	-0.168004	0.027555	-0.135543	0.0174919	0.137392	0.0988652	0.058103	-0.0966811	-0.0373666	-0.127272	-0.0692678	-0.0753453	0.0338948	-0.140867	-0.0593828	0.109966	-0.0414259	0.108503	0.0784808	-0.0513913	-0.188479	-0.06291	0.0221186	-0.000292616	0.0729633	0.0140192	0.0311744	0.0198275	0.173936	-0.067751	-0.0797497	-0.0130705	-0.0915611	-0.176006	0.12382	-0.0976207	0.0328511	0.0914633	0.129676	0.0353848	-0.0293832	-0.0666185	-0.134675	-0.195703	-0.130737	-0.177662	-0.141318	0.105727	-0.0401651	0.0208703	0.147639	-0.00935278	0.183727	-0.0836229	-0.0462104	-0.102726	0.0565831	-0.0526689	-0.042762	0.112329	0.0402951	-0.0455403	0.175997	0.0240021	-0.0052296	-0.169346	-0.187317	-0.0654712	-0.0342464	0.00488761	-0.0459417	-0.0874392	0.0661396	-0.0354327	0.0868997	-0.0750287	-0.0749923	0.0373932	-0.130318	0.0940623	0.0834729	0.140412	0.11808	-0.0896718	0.0605326	0.00342832	0.00908874
DB04858	-0.0175112	-0.106991	0.0452405	-0.0568979	-0.0220556	-0.0170514	-0.0946773	0.122416	0.00726624	-0.00674517	0.129774	-0.118117	0.0255945	-0.14839	-0.0612372	-0.089158	0.110338	0.108525	0.048112	0.0178721	-0.0904502	0.00452942	-0.109185	-0.0471014	-0.0521428	-0.0533969	-0.0943352	-0.0509028	0.104276	-0.00986839	0.0957782	0.0423444	-0.0734362	-0.16464	-0.0392014	-0.0294044	0.0114892	0.0826555	-0.00610901	0.0235761	0.0361939	0.170881	-0.0264178	-0.101239	0.0331684	-0.0211079	-0.163685	0.0846766	-0.0697384	-0.0417973	0.0900594	0.130907	0.116158	0.0255063	-0.0225466	-0.09797	-0.13085	-0.0418503	-0.161706	-0.112791	0.0986966	-0.0142216	0.0498774	0.057727	-0.0349613	0.170557	-0.107026	0.049811	-0.103074	0.0398908	-0.018527	-0.0651159	0.082359	0.0332274	-0.00629725	0.14883	-0.00934141	-0.0865849	-0.0687843	-0.158018	-0.0152483	-0.00819809	-0.0231394	-0.0468837	-0.0897209	0.0654749	-0.0274965	0.0134068	-0.0158034	-0.0305773	0.02614	-0.113694	0.0310576	0.0688438	0.143321	0.0529658	-0.0803416	0.078138	-0.076438	-0.00621171
DB05239	-0.0387292	-0.0706569	-0.00239191	-0.039991	-0.0405906	-0.0250673	-0.0890014	0.0522061	0.0523034	-0.0333071	0.108343	-0.0606702	0.0101492	-0.188022	-0.00942498	-0.106627	0.0134654	0.106973	0.0708093	0.0333558	-0.0887741	-0.0406508	-0.10186	-0.105188	-0.0781122	0.00113908	-0.137656	-0.0690566	0.0396137	-0.0146137	0.0902508	0.0060673	-0.0685667	-0.142991	-0.0652141	-0.0193496	-0.00744429	0.0839216	-0.0104516	0.0359225	-0.0517578	0.17965	-0.075497	-0.0949335	-0.0216001	-0.0168767	-0.146909	0.115247	-0.0874514	-0.0609151	0.110046	0.093508	0.0292063	0.0266213	-0.0826188	-0.108625	-0.172434	-0.106761	-0.177106	-0.105983	0.07711	-0.0200274	-0.0521286	0.0605263	-0.057478	0.178977	-0.0989575	0.00944109	-0.0498572	0.0589439	-0.0315752	-0.0534091	0.0979638	0.050392	-0.00916011	0.188939	-0.00736283	-0.106377	-0.170199	-0.117954	-0.0147306	0.00639597	-0.0211152	-0.0339155	-0.115385	0.064624	0.0112407	0.014291	-0.0202208	-0.0580389	0.0328686	-0.109789	0.043907	0.0189814	0.169296	0.087864	-0.0129005	0.0139134	-0.0682087	0.0102119
DB04690	-0.0332602	-0.0823396	-0.0259868	-0.0140386	0.0210559	0.0147484	-0.0708248	0.0686361	-0.00981552	-0.0145949	0.115553	-0.0871559	0.0294846	-0.183621	-0.0140419	-0.109875	0.113276	0.0963915	0.0661611	0.00876151	-0.0058934	-0.0356879	-0.14142	-0.0630372	-0.0895464	0.0269252	-0.104021	-0.0513729	0.0537057	-0.00515797	0.0878844	-0.0186105	-0.0857861	-0.185492	-0.110528	-0.0362632	0.00529042	0.0748072	-0.0140245	0.0621344	0.0358515	0.225353	-0.0145296	-0.108552	0.0519081	-0.0904215	-0.137636	-0.000106755	-0.0714685	0.0290713	0.0821022	0.138369	0.108018	0.0347611	-0.0781321	-0.0625641	-0.163305	-0.0413528	-0.171566	-0.116526	0.0510887	-0.0384706	-0.0218844	0.0452568	-0.0240494	0.192206	-0.0971148	-0.0174708	-0.0890134	0.0626771	-0.0366086	-0.0697168	0.10514	0.0621013	-0.0427703	0.166256	-0.0443699	-0.0192541	-0.144504	-0.169085	-0.0192146	-0.0444222	-0.0386986	-0.009081	-0.0834593	0.044788	0.00865808	-0.00682953	0.0529602	-0.00511554	0.0622751	-0.118069	0.00187455	0.0876097	0.159165	0.0736841	-0.0796026	0.104339	-0.0397115	-0.00810218
DB02237	-0.0287283	-0.0694936	0.0528707	-0.00358965	0.00438573	-0.0491824	-0.102826	0.0918295	-0.0102275	-0.0527163	0.0867336	-0.079399	0.0102279	-0.0767899	-0.0405401	-0.0902493	0.128913	0.0851823	0.104077	-0.0270815	-0.0526028	-0.0170741	-0.116493	-0.056879	-0.0154411	0.0216378	-0.0936712	-0.0785606	0.0833995	-0.0162806	0.0700801	0.0189399	-0.0183372	-0.156006	-0.047688	-0.0244904	0.0286967	0.00474616	0.0267915	0.0499794	0.0129043	0.240427	-0.00948951	-0.138859	0.0110236	-0.0199659	-0.156882	0.0436524	-0.0435086	0.0369775	0.0379617	0.106112	0.0690354	0.0585931	-0.000444835	-0.0914753	-0.136652	-0.11094	-0.0826432	-0.101003	0.0582329	-0.00688211	-0.0143477	0.054621	-0.010201	0.156469	-0.0542191	0.00832195	-0.0623149	0.00785415	-0.00051034	-0.0471889	0.0650839	0.0542675	-0.0107949	0.102318	-0.0114002	-0.105764	-0.0265025	-0.147133	-0.0216293	-0.0822921	-0.0312432	0.0307222	-0.0776301	-0.0271599	-4.95125e-05	0.0274079	0.00869818	-0.0226583	0.101417	-0.0418747	0.0362423	0.0407791	0.122324	0.0646022	0.0162716	0.0616818	0.00773869	-0.0325763
DB00199	-0.0778332	-0.0752859	0.0358774	-0.0898551	-0.0253724	0.00960885	-0.0818321	0.0718108	0.0932649	-0.0217434	0.122711	-0.0482246	-0.0581022	-0.236223	0.035143	-0.134144	0.0577969	0.0911213	0.136424	0.0308799	-0.138986	-0.0520816	-0.133828	-0.0877801	-0.114568	-0.0131343	-0.146112	-0.0448924	0.106297	0.00513733	0.0805331	0.0557605	-0.0408591	-0.198545	-0.140074	0.0264674	0.00856096	0.0725756	0.00195743	0.0190813	-0.0260884	0.174871	-0.0598182	-0.0741998	0.00102639	-0.103537	-0.161414	0.15056	-0.129119	0.0273033	0.133854	0.124397	0.0635449	-0.020123	-0.099122	-0.116584	-0.186354	-0.143376	-0.174157	-0.0773912	0.0489333	-0.0269735	-0.0658254	0.164885	-0.0325208	0.217571	-0.0844585	-0.0661346	-0.10064	0.0671553	-0.0605932	-0.018877	0.0795898	0.0236294	-0.0282486	0.186426	0.0287421	-0.0070007	-0.166496	-0.181717	-0.0169767	-0.0302973	-0.0870096	-0.0686537	-0.11712	0.0335754	-0.0632144	0.043239	-0.0746515	-0.0338621	0.0526828	-0.114535	0.0251347	0.107328	0.107714	0.131917	-0.0724977	0.0215262	-0.00745383	-0.035205
DB00198	-0.0543893	-0.0441408	0.0188219	-0.0293742	-0.0173896	-0.000862288	-0.132596	0.0750684	0.0478642	-0.0168699	0.136303	-0.0788953	-0.0135404	-0.184757	0.00497115	-0.11087	0.0454166	0.0976845	0.0572113	0.0223371	-0.114624	-0.0692278	-0.114108	-0.115479	-0.0983778	0.0500942	-0.119607	-0.0325762	0.0940626	0.00648217	0.0892488	0.0323358	-0.0782665	-0.196758	-0.128812	-0.0394715	-0.00606907	0.033268	0.00438489	0.0333081	-0.0248622	0.217286	-0.0470552	-0.102272	-0.0281863	-0.0124143	-0.166425	0.135723	-0.103868	0.0244597	0.0681117	0.0732472	0.0601727	0.00572077	-0.0885855	-0.093584	-0.178486	-0.0995538	-0.175943	-0.110079	0.051882	-0.0120332	-0.0510603	0.118264	-0.0318458	0.182892	-0.0992575	-0.0369931	-0.0431017	0.070635	-0.0461136	-0.0479883	0.0843116	0.0941576	-0.0513929	0.173554	0.00536839	0.00352322	-0.17606	-0.163522	-0.0564993	-0.0663232	-0.049201	0.00228705	-0.0683859	-0.0181448	-0.0204663	0.0938306	-0.0706184	-0.0416245	0.0875306	-0.0970496	0.0297732	0.104296	0.114591	0.115042	-0.0861571	0.0456516	-0.0102939	0.00163722
DB00197	-0.0142826	-0.101312	0.0393001	0.0170872	-0.0241825	-0.0154581	-0.0795445	0.116678	0.0571738	-0.0228087	0.138183	-0.0788886	-0.0115894	-0.18497	0.0231759	-0.117488	0.064185	0.0919801	0.0578664	-0.0209165	-0.131248	-0.10193	-0.148079	-0.0661512	-0.0804028	0.0122528	-0.150082	-0.0359243	0.109176	-0.020815	0.110749	0.0479875	-0.107753	-0.205513	-0.0490645	-0.033064	0.0125981	0.107811	-0.0229968	0.0552341	-0.0513691	0.209202	-0.0518349	-0.0666872	-0.00817128	-0.085821	-0.148933	0.15546	-0.05892	0.00792878	0.112543	0.163076	0.0751496	0.0940153	-0.0587447	-0.149944	-0.204491	-0.135856	-0.0776495	-0.0830206	0.0746806	-0.0212696	-0.04845	0.136523	-0.0299509	0.185923	-0.0782016	-0.0457217	-0.0372037	0.0656297	-0.0425381	-0.0307068	0.103557	0.0527152	-0.0491546	0.206277	0.0488528	-0.0517932	-0.17153	-0.152802	-0.00741446	-0.0133316	0.011401	-0.0415853	-0.0787757	0.0512047	-0.0230861	0.0253838	-0.0256742	-0.0530177	0.0134069	-0.113264	0.0677004	0.0759357	0.117485	0.0775231	-0.0698802	0.0482675	-0.0193465	-0.0264838
DB00196	-0.0818704	-0.054401	-0.0424638	-0.0605312	-0.0463612	-0.00629388	-0.116048	0.0636114	0.105165	-0.0919119	0.141669	-0.0107044	-0.0366541	-0.211285	0.0162649	-0.130105	0.0210498	0.133093	0.0731828	0.0351678	-0.102384	-0.0383634	-0.141641	-0.105417	-0.0800095	0.0151983	-0.14983	-0.0536309	0.1084	0.0173124	0.0585486	0.0796653	0.00909404	-0.197626	-0.0661221	0.00549093	0.00521356	0.0916931	0.0188089	-0.0131763	-0.00264039	0.154476	-0.0816441	-0.0953317	-0.0313127	-0.0680552	-0.186791	0.138403	-0.118997	0.0532305	0.0962771	0.136039	0.00443116	-0.0275131	-0.0893639	-0.146193	-0.181174	-0.121854	-0.160943	-0.0766296	0.0467322	-0.0499887	-0.0322633	0.166986	-0.0234264	0.213475	-0.110136	-0.0515842	-0.113017	0.0500592	-0.0562966	-0.027045	0.0847386	0.0039323	-0.0522464	0.186912	0.0489008	-0.00389933	-0.184736	-0.165833	-0.00857495	-0.0674566	-0.0723027	-0.0165675	-0.116308	0.0822062	-0.0493898	0.0380907	-0.0933701	-0.0135428	0.0525875	-0.0863807	0.0636339	0.0627973	0.0937442	0.117046	-0.0849747	-0.00257806	0.0424927	0.0107298
DB00195	-0.10001	-0.0710018	0.0215835	-0.0819111	-0.0287682	0.0273024	-0.0603778	0.0360906	0.0840498	-0.0553906	0.125633	-0.0801342	-0.0342282	-0.170502	0.0355457	-0.0970197	0.0377294	0.109343	0.0616037	0.0268884	-0.120016	-0.0440861	-0.113906	-0.136833	-0.103948	0.0157408	-0.11185	-0.0532005	0.102481	0.00151493	0.0475625	0.00915723	-0.0717252	-0.19285	-0.103194	-0.0224738	0.00435563	0.107653	-0.0212991	0.0515955	-0.0391634	0.170235	-0.0836631	-0.0560437	-0.0340595	-0.0938233	-0.172469	0.126138	-0.0924574	0.000256903	0.104905	0.127631	0.0435628	-0.0194358	-0.0832872	-0.0904842	-0.205209	-0.128194	-0.167835	-0.0927161	0.0448256	-0.0511191	-0.0320655	0.146575	-0.0587678	0.19441	-0.0948754	-0.0427748	-0.0580336	0.0868583	-0.0744756	-0.0664046	0.0906926	0.0561031	-0.0492959	0.194291	-0.0253992	-0.00274146	-0.183538	-0.166859	-0.0185436	0.00894418	-0.012263	-0.0584211	-0.0995416	0.0562986	0.00356131	0.101012	-0.0527205	-0.0261614	0.0397524	-0.124116	0.0301394	0.0333068	0.118103	0.0846446	-0.0327787	0.0189203	0.005458	-0.00628774
DB00193	-0.0989727	-0.0821967	-0.0099424	-0.0264718	-0.0136153	0.014483	-0.0878699	0.0687685	0.0593593	-0.0633167	0.145867	-0.083039	-0.0142187	-0.177739	0.0416453	-0.136884	-0.0145469	0.138498	0.0775893	0.0123684	-0.110753	-0.0552958	-0.141785	-0.099795	-0.0919074	-0.011156	-0.157718	-0.0454093	0.102993	-0.0234867	0.0698419	0.0587865	0.00283315	-0.198868	-0.117847	0.0261622	0.0362681	0.0956271	0.00968979	0.0467097	-0.0014397	0.123368	-0.0582462	-0.0722813	-0.0193504	-0.10846	-0.173023	0.13754	-0.0961864	0.0205347	0.0901066	0.133021	0.0415287	-0.0172797	-0.0730481	-0.13376	-0.203892	-0.164252	-0.168792	-0.102739	0.0775041	-0.0380633	0.0286866	0.171886	-0.0340629	0.198958	-0.096226	-0.0486838	-0.0621219	0.0701361	-0.0603836	-0.0557899	0.0632618	0.00924219	-0.0620599	0.152712	0.0262698	-0.00584263	-0.162858	-0.166377	-0.0342263	-0.0301881	-0.0369803	-0.0583495	-0.058952	0.0445921	-0.0168371	0.0328895	-0.0818553	-0.0615456	0.0476766	-0.0985509	0.0410137	0.0559529	0.131923	0.149068	-0.088783	-0.00976065	0.0130112	0.000979101
DB00191	-0.0604676	-0.089638	0.0303635	-0.032443	-0.0220712	-0.0239864	-0.0779812	0.119167	0.0969016	-0.0405814	0.148312	-0.0815725	-0.0491929	-0.186101	0.0166823	-0.115092	-0.00573533	0.129893	0.0496926	0.0537056	-0.120221	-0.0566032	-0.0838263	-0.0920501	-0.0459289	-0.0125226	-0.146135	-0.0267535	0.0919715	-0.050476	0.0740996	0.0368637	-0.0392568	-0.191259	-0.124203	-0.0135518	0.0304537	0.108037	-0.0211698	0.0486097	-0.00167054	0.197128	-0.0684061	-0.0944683	-0.0506693	-0.0396165	-0.152302	0.145046	-0.149176	0.00627976	0.106681	0.1382	0.0465492	0.00122654	-0.0415143	-0.140332	-0.199862	-0.113899	-0.139914	-0.0800073	0.0495187	-0.0714447	-0.0055954	0.0856369	-0.0243774	0.165956	-0.0783042	-0.0385157	-0.105125	0.0819272	-0.0506892	-0.0306354	0.062333	0.0601124	-0.0157681	0.200194	0.0104043	-0.0128145	-0.162536	-0.160666	-0.00245296	-0.00587982	-0.0464822	-0.0522893	-0.0860324	0.0565019	-0.0343309	0.0264638	-0.0449632	-0.0955137	0.0371182	-0.0840422	0.0370972	0.0899443	0.111264	0.108441	-0.0881806	0.0294242	0.0151517	0.00949391
DB00190	-0.0682949	-0.0586505	-0.0507337	-0.0267242	-0.0101929	0.0194749	-0.071439	0.034126	0.0485589	-0.0522669	0.126922	-0.0597597	0.00931631	-0.160078	0.0216616	-0.121575	0.0255633	0.0855929	0.0708582	0.0312366	-0.0923793	-0.0453239	-0.120371	-0.1393	-0.0711123	0.0347638	-0.118178	-0.0691551	0.0918369	0.0145577	0.0819837	0.0323348	-0.0641411	-0.165926	-0.121834	-0.0136269	0.0290492	0.0572844	0.00674532	0.0204624	-0.0366106	0.167472	-0.0363397	-0.131327	-0.0220008	-0.0839189	-0.147789	0.130516	-0.105714	0.0300199	0.0566134	0.127446	0.0425905	0.0129917	-0.0794511	-0.0492806	-0.160066	-0.111219	-0.170112	-0.0763355	0.0625767	0.000147624	-0.0145173	0.0979351	-0.0268643	0.217104	-0.0741061	-0.0249394	-0.0618025	0.0666791	-0.0569194	-0.0297537	0.104111	0.059092	-0.0295193	0.164813	-0.00968582	-0.0175878	-0.164059	-0.171295	-0.0233339	-0.0577082	-0.0759862	-0.041889	-0.0525215	0.0567911	-0.0165711	0.0591661	-0.0783444	0.0147745	0.0471662	-0.0982939	0.0231077	0.0898917	0.121527	0.124277	-0.0890018	0.0336589	-0.0255872	0.01415
DB09167	-0.0286134	-0.0500511	-0.0552792	-0.0167743	0.016126	0.0193681	-0.0569812	0.0678586	0.00932838	-0.0727697	0.138967	-0.147487	0.0132348	-0.16927	-0.103654	-0.0612789	-0.0181765	0.110265	0.051312	0.0259502	-0.0937528	-0.0222212	-0.0965933	-0.0684679	-0.0353361	-0.0113971	-0.124044	-0.0850609	0.0976135	0.0650562	0.0543759	0.0643621	-0.0208964	-0.11449	-0.019596	-0.0399323	0.0106436	0.0202705	0.0132127	0.00937247	-0.0296407	0.15055	-0.0659471	-0.146069	0.0398329	-0.00331788	-0.156944	0.0434766	-0.112049	0.00583651	0.114458	0.139102	0.0798024	-0.00776549	-0.0338245	-0.0482955	-0.169049	-0.0790992	-0.1754	-0.0989467	0.134216	-0.019039	0.00561243	0.0492889	-0.0151912	0.1733	-0.0457178	0.0677057	-0.0615275	0.0593076	-0.0319933	-0.0270389	0.0646827	0.0734615	-0.0506831	0.14562	-0.0222577	-0.049425	-0.067045	-0.154176	-0.0209934	-0.090809	0.00098402	0.0251057	-0.0808524	-0.0309681	0.0131024	-0.0058734	0.00465808	-0.0103668	0.0267898	-0.120538	0.0153808	0.064512	0.123528	0.170333	-0.0312152	0.0103469	0.00811855	0.0356895
DB06698	-0.0385085	-0.0428949	-0.0210378	-0.0169518	0.019753	-0.0056522	-0.0682383	0.0756592	0.0604384	-0.0671361	0.115606	-0.0285055	0.00510142	-0.174887	-0.046057	-0.134984	0.0145234	0.1066	0.0871914	0.0259354	-0.113834	-0.00116514	-0.0783471	-0.0849195	-0.0561699	0.0196307	-0.142585	-0.0644749	0.0797587	-0.00906956	0.090803	0.0601328	-0.0381016	-0.188976	-0.117681	-0.0228872	-0.0264475	0.0962031	-0.0248767	0.0459721	-0.0411888	0.148724	-0.0657916	-0.113347	-0.0333812	-0.102223	-0.180092	0.122595	-0.131519	0.0435771	0.0919246	0.144627	0.0405876	0.0107495	-0.0813717	-0.0743779	-0.165142	-0.125226	-0.167273	-0.0891784	0.116312	-0.0316886	-0.0164523	0.103222	-0.0443237	0.193657	-0.0873242	0.0184445	-0.0812747	0.063489	-0.0325245	-0.0409987	0.0937649	0.0812509	-0.0358549	0.16484	-0.0276016	-0.0318898	-0.168451	-0.184227	-0.0250157	-0.000371611	-0.0196983	-0.00422394	-0.0954979	0.0641207	-0.00839021	0.0706698	-0.04745	-0.0295946	0.0497149	-0.075887	0.00762232	0.082266	0.113731	0.163837	-0.0806915	0.00380081	-0.0234666	0.000335969
DB06699	-0.0155227	-0.0435916	-0.0147315	-0.00971897	0.0211371	-0.000291714	-0.136625	0.0451384	0.0181304	-0.0443912	0.120863	-0.0689233	-0.02596	-0.15662	0.0542764	-0.116392	0.062714	0.0910429	0.0746788	0.0337176	-0.110099	-0.0512417	-0.128303	-0.117066	-0.0914588	0.0405813	-0.122103	-0.0565917	0.104546	0.0261859	0.105534	0.0982741	-0.0669174	-0.175732	-0.143669	0.0099064	0.036065	-0.00197797	0.032353	-0.000693037	-0.0351586	0.175571	-0.0600495	-0.0930758	0.00383014	-0.0515569	-0.172895	0.0745731	-0.0903654	-0.0128591	0.0756403	0.141862	0.0255076	-0.0155102	-0.0891644	-0.0751681	-0.141334	-0.134519	-0.168805	-0.10427	0.119103	0.018902	-0.0642085	0.111155	-0.00753864	0.169723	-0.0739194	0.00785507	-0.0698843	0.0223444	-0.0307556	-0.0514251	0.0576409	0.068974	-0.0663187	0.147534	0.0279701	-0.00891484	-0.157607	-0.176778	-0.029627	-0.0329933	0.0438815	-0.0190923	-0.0432848	0.0388722	-0.0525127	0.123405	-0.0485941	-0.0552222	0.114046	-0.116634	-0.0162074	0.0456902	0.125865	0.174798	-0.0448356	0.016814	-0.00252561	-0.0204932
DB03404	-0.0372981	-0.0811829	-0.0412391	0.000947725	-0.0205797	-0.0265523	-0.125785	0.0491468	0.0222746	0.0164743	0.0986963	-0.106125	-0.00886192	-0.167927	-0.0808073	-0.0830763	-0.00717297	0.0978397	0.0806446	-0.0413047	-0.0998686	0.00484464	-0.101408	-0.0765033	-0.0918297	-0.00477991	-0.109531	-0.079041	0.0653365	0.0458904	0.122059	-0.0197472	-0.0341819	-0.156654	-0.115975	-0.04026	0.0188396	0.0246397	0.00129214	0.07631	0.0642984	0.221342	-0.00439156	-0.135221	0.0660669	-0.0218835	-0.127158	0.0739715	-0.0726976	-0.0471699	0.108083	0.0926086	0.13379	0.025039	-0.0902026	-0.103179	-0.148044	-0.0936353	-0.116076	-0.0975511	0.0812452	-0.0422058	-0.0300443	0.0838055	0.029988	0.186756	-0.0895292	0.0749104	-0.138834	0.044174	-0.00407932	-0.0171154	0.0799344	0.0598567	-0.011228	0.15543	-0.01352	-0.0261954	-0.0523842	-0.152069	-0.0268654	-0.0208295	-0.0464344	-0.00447013	-0.101165	0.0489991	-0.0551311	0.00804701	-0.0306832	-0.00453355	0.0585436	-0.0248011	0.0271821	0.0764918	0.13587	0.135729	-0.0544547	0.0518406	-0.0732784	0.00340618
