Entity	feature0	feature1	feature2	feature3	feature4	feature5	feature6	feature7	feature8	feature9	feature10	feature11	feature12	feature13	feature14	feature15	feature16	feature17	feature18	feature19	feature20	feature21	feature22	feature23	feature24	feature25	feature26	feature27	feature28	feature29	feature30	feature31	feature32	feature33	feature34	feature35	feature36	feature37	feature38	feature39	feature40	feature41	feature42	feature43	feature44	feature45	feature46	feature47	feature48	feature49	feature50	feature51	feature52	feature53	feature54	feature55	feature56	feature57	feature58	feature59	feature60	feature61	feature62	feature63	feature64	feature65	feature66	feature67	feature68	feature69	feature70	feature71	feature72	feature73	feature74	feature75	feature76	feature77	feature78	feature79	feature80	feature81	feature82	feature83	feature84	feature85	feature86	feature87	feature88	feature89	feature90	feature91	feature92	feature93	feature94	feature95	feature96	feature97	feature98	feature99	feature100	feature101	feature102	feature103	feature104	feature105	feature106	feature107	feature108	feature109	feature110	feature111	feature112	feature113	feature114	feature115	feature116	feature117	feature118	feature119	feature120	feature121	feature122	feature123	feature124	feature125	feature126	feature127	feature128	feature129	feature130	feature131	feature132	feature133	feature134	feature135	feature136	feature137	feature138	feature139	feature140	feature141	feature142	feature143	feature144	feature145	feature146	feature147	feature148	feature149	feature150	feature151	feature152	feature153	feature154	feature155	feature156	feature157	feature158	feature159	feature160	feature161	feature162	feature163	feature164	feature165	feature166	feature167	feature168	feature169	feature170	feature171	feature172	feature173	feature174	feature175	feature176	feature177	feature178	feature179	feature180	feature181	feature182	feature183	feature184	feature185	feature186	feature187	feature188	feature189	feature190	feature191	feature192	feature193	feature194	feature195	feature196	feature197	feature198	feature199
<http://bio2rdf.org/drugbank:DB00682>	0.18831733	0.023552211	-0.103550784	0.22172497	-0.77301425	0.066485465	0.16018629	0.46829176	0.2827748	-0.41822264	-0.2917141	0.008739667	-0.35905546	-0.56964207	0.54113865	-0.14232571	0.6403174	0.56608826	0.12881288	0.16420345	0.29736978	0.45290762	0.739861	0.34733942	0.62350833	0.45336205	-0.08098883	0.048563126	0.3512197	-0.050775047	-0.23695906	0.32927954	-0.05800623	-0.1897607	0.90734	-0.061807048	1.126629	0.098992646	0.35292178	-0.5310386	-0.17669386	-0.102490604	0.5434687	0.7849864	0.08361179	-0.74892765	0.00910232	-0.25645047	0.06465516	0.2801701	0.49218747	0.011101412	0.12700598	-0.1301913	0.52010983	-0.1523255	0.3088495	0.088908836	-0.4055743	0.41362932	-0.09068182	0.12616621	-0.27135533	-0.43090248	0.136375	-0.07500428	0.1913703	-0.14924206	-0.29605618	-0.04245812	0.13465996	0.18142022	0.026751325	0.47568086	0.13984561	-0.11858821	0.84255445	-0.5989885	0.6219061	0.36850098	-0.52730423	0.123867415	0.2238371	0.2476108	0.020677323	-0.12128914	0.29573223	-0.012563001	-0.18989727	0.07139208	0.2419541	0.6394966	-0.23327753	-0.06680499	-0.48372102	-0.72045094	0.17024831	-0.4848469	0.42696983	-0.7259112	0.027957575	0.036088374	-0.58606833	0.4640871	-0.28713512	-0.16573034	0.20226045	0.39699328	-0.67319846	-0.0018734869	0.034260526	-0.38824937	-0.6325382	0.412937	0.38604078	-0.083961934	-0.0102894865	-0.33591455	0.11398831	0.10152676	-0.10091221	-0.23757264	-0.46001422	0.18891543	-0.06448277	-0.16089474	0.029679276	0.20044358	-0.24451327	-0.21913604	0.586644	-0.3671519	0.39523754	0.08232421	0.069567636	0.4106413	-0.041393965	-0.39050314	-0.7461832	-0.055865385	0.10545146	-0.051436126	-0.41419452	-0.045078672	-0.5882448	-0.1369168	-0.8327716	0.03411539	-0.54414624	0.63544756	0.726276	-0.6544073	-0.01278398	0.4707187	0.2885143	0.0981757	0.54863846	-0.14544743	-0.31233814	0.6548221	0.03748009	-0.022179728	-0.5816113	0.1198183	0.13005956	-0.114737734	0.03073598	-0.05445565	0.42718092	0.38939834	-0.114065535	0.11678045	0.3992249	-0.28599995	0.12536652	0.14496174	0.25106388	-0.07696838	-0.50119686	-0.6310169	0.38866714	-0.25460774	0.078010485	-0.14919417	0.23996332	-0.4295647	-0.04362487	0.43962944	0.64787257	-0.6443212	-0.6607998	-0.058322333	0.20950037	-0.26928028	0.5261481	-0.5583902	0.47915363	0.46324277	0.28524587	0.46309015
<http://bio2rdf.org/drugbank:DB00564>	0.3281672	0.07076931	0.17583764	0.021838704	-0.42599362	-0.36189726	-0.10036939	-0.2358935	-0.030771047	-0.17850484	-0.47441497	0.39769942	0.15739256	-0.6162369	-0.21296452	0.2699852	0.11327463	0.246048	0.056321595	0.040660266	0.14634964	0.7572728	0.14125733	-0.25139984	-0.13026194	-0.24316867	-0.31507316	-0.13736074	-0.30223432	-0.06752054	0.6127659	0.5282434	-0.09145573	0.34017783	0.52157295	0.23673812	0.5930564	0.5173807	-0.1404832	-1.0116404	0.23922376	-0.22666866	0.21406607	0.006196158	0.31229362	-0.25992092	-0.01604015	0.26849318	0.30047652	0.15033326	0.9135292	0.29170445	-0.47037053	-0.36313525	0.023274496	0.15488192	0.6419023	0.08851634	0.33892387	-0.0016864107	0.3691382	-0.24032903	-0.008581515	-0.47518972	0.5985336	-0.044144083	-0.033315662	0.16830485	-0.53347564	0.030722165	-0.49472296	0.37032148	-0.33445686	0.05191113	0.10794664	-0.2325843	0.3706217	-0.62461686	-0.49293026	0.2581275	-0.8144187	1.0038904	0.38692823	0.5474649	0.70058274	-0.73951	-0.5208841	-0.06743291	0.26517728	-0.39137816	0.16911325	-0.05530597	0.4657926	0.14319858	-0.1820297	0.056633506	0.7215639	-0.35555777	-0.41316026	-0.59635127	0.79519457	-0.046340197	-0.22505043	0.13693462	-0.21158828	0.42511392	0.59931743	0.35948724	-0.1876148	0.072583966	-0.024749514	-0.28145403	-0.3635098	-0.11299595	-0.28066552	0.50085974	-0.03203585	-0.6607641	-0.597042	0.11704245	0.024876904	-0.5345676	-0.1312537	0.07040428	-0.01823184	-0.13360345	-0.0037005206	-0.586831	-0.47181493	-0.1755899	0.19494575	-0.98920375	0.37650436	0.40948352	0.14152056	0.12568693	-0.09586228	0.06721023	-0.8067876	0.117271446	0.17521079	0.20974085	-0.067808345	0.6152981	-0.41074577	-0.23750195	-0.616046	0.24216329	-0.005631208	0.07562166	1.0788617	0.047637504	0.35919803	0.7671318	-0.3754794	-0.18895064	-0.024404738	-0.07292456	0.25127316	0.33679068	-0.30152926	-0.4645241	-0.37931693	-0.011259567	0.31745574	0.14705247	0.65324134	-0.54141986	0.2814843	0.4101998	-0.19356975	0.16563828	-0.35516348	-0.18777527	0.32654408	0.04970134	-0.14318253	0.1879979	-0.5602941	0.1629197	1.030729	-0.1834612	-0.36047214	0.8172487	-0.5591401	0.039534062	0.3254637	0.015713261	0.63102275	-0.1214798	-0.4827763	-0.0342741	0.29316005	-0.20370775	0.28608203	-0.4016256	0.37271512	0.48661295	-0.23066771	0.7699766
<http://bio2rdf.org/drugbank:DB00252>	0.17779078	-0.45388865	0.3106611	0.027300611	-0.3044783	0.2570239	0.09166252	0.11415758	-0.3447886	-0.7943728	-0.9708316	-0.13267268	0.1388256	-0.92492026	-0.04342832	-0.42310435	0.4183589	0.4606694	0.15152055	-0.33966735	0.08334614	0.2993168	0.2190678	-0.0996143	0.33745727	-0.1572429	0.27712587	0.11624398	0.6775772	0.24876325	0.081702895	0.6452425	0.19033642	-0.44034988	1.1261573	0.252491	0.27712238	0.20084536	-0.01287057	-0.70677024	0.13691409	0.1846588	-0.41424552	0.31152874	0.05099599	-0.5159062	-0.46051437	0.009327912	-0.16679658	0.49294207	0.37844422	0.39412633	-0.26514828	-0.18257983	0.34664768	0.009479617	0.20977351	-0.08650882	-0.08252102	0.0026051414	0.07785827	-0.011570765	0.40794513	-0.15035063	-0.34863275	-0.11210166	-0.3399789	-0.11035336	-0.6317612	-0.46974763	-0.10749809	0.3928438	0.05697174	0.2640272	0.39554006	-0.33644098	0.5063227	-0.1561242	-0.7608897	0.62816465	-0.5761301	0.5274554	0.18052013	0.080078214	0.2854461	-0.5094921	-0.1510212	0.19615138	0.4319066	0.008523436	0.37051082	0.35750887	0.35389772	0.15269907	-0.5092861	-0.64204514	0.72023004	0.27608275	-0.42517194	-0.5253068	0.26243684	-0.14836632	-0.07058114	0.18288125	-0.541931	0.09416103	0.5663722	0.33659837	-0.18441573	0.25279287	0.31798795	0.01359716	-0.29682085	0.21928939	-0.7039781	0.03644284	0.03601554	-0.28798765	-0.7014957	-0.002385974	-0.39545992	-0.78724325	-0.3585636	-0.09153093	-0.4018171	-0.063172445	-0.020923577	-0.07550577	-0.5053921	-0.26055643	0.36642805	-0.9279771	0.3931011	0.4195179	0.020425078	0.010415428	0.24025263	0.024888545	-0.5349905	-0.34846714	0.24492475	-0.15833887	-0.019162295	0.65147156	-0.36534172	-0.10031507	-0.9668705	0.32234237	-0.09852427	0.70459574	0.76581097	0.062100176	-4.3834198e-06	1.0212816	-0.5595247	0.17776024	0.49717292	0.46563542	-0.49378052	0.46339452	-0.27586272	-0.3011167	-0.7338501	-0.3636101	0.34943634	-0.18137197	0.3021302	-0.21794188	-0.14384565	-0.039421935	-0.13321298	-0.07527532	-0.3885463	-0.0072984938	0.16303866	-0.117618024	-0.20889556	0.2575941	-0.355447	-0.046254054	0.7741313	-0.14057401	-0.14572859	-0.13758606	-0.19413893	-0.045608576	0.072158046	0.5838417	0.28267685	-0.44661197	-1.1510142	-0.32709995	0.4442451	0.0057676877	0.34918216	-0.39048973	0.7028612	0.59659916	0.12683728	0.8457043
<http://bio2rdf.org/drugbank:DB00669>	-0.23882942	0.48609394	-0.098696455	0.41211638	0.07431427	0.93114066	-0.11296417	-0.046636187	0.25796732	-0.43093875	-0.40686482	0.86220944	-0.032042116	0.058169916	0.04211113	-0.13603768	-0.53015536	0.6052819	0.40105608	0.056073267	-0.11024077	0.24275126	0.20774263	0.7246106	-0.13983287	0.84954727	-0.18966103	-0.38381568	0.2937639	0.68395233	-0.13590387	0.17638932	-0.28522858	-0.15975527	0.95684403	-0.102751665	1.136564	0.26193103	-0.338948	-0.291077	0.031877227	-0.4788853	0.052950043	-0.007304025	1.1197433	-0.2978391	0.34859398	-0.044010222	-0.3266672	0.041635938	0.29710826	0.55564547	-0.058918722	0.21041457	0.06772568	-0.0031756756	1.0496527	-0.14232379	0.4841132	-0.06822372	0.2888872	-0.014180496	0.16061686	0.78359	-0.24204092	-0.28586316	0.13540828	-0.20820636	0.3772973	0.34102315	-0.13224187	0.15014492	-0.21678184	-0.14764206	0.6073415	-0.12314821	-0.074576594	0.11628644	-0.038822047	0.55392355	-0.64944166	0.62881964	0.26374507	0.09513103	0.11180984	-0.20283501	0.34427828	-0.12241991	-0.074989945	-0.10731467	0.30097857	0.07147046	0.71576333	-0.34955928	-0.3717276	0.0031596816	0.85840374	0.08226094	0.14523882	-0.5933252	-0.4190293	0.045934606	0.06274673	0.079600655	0.20828667	-0.9447396	0.7849793	0.64953464	0.24378708	-0.034272477	-0.1256655	-0.27910596	0.08053858	0.35443088	0.29623517	-0.36561155	0.21428965	-0.3957584	-0.35075262	-0.103737086	-0.6984786	-0.06795948	0.114061296	-0.32616797	0.17359535	-0.2679658	-0.24070501	0.44568217	0.3621103	-0.7702072	0.046642896	-1.0200857	0.78390527	0.07872412	-0.5757861	-0.3819928	0.09277907	-0.5465026	-0.31211576	-0.30008483	-0.040906623	0.5068583	-0.28178468	0.9266593	-0.11499884	-0.5188696	-0.6340764	0.43642	-0.72307307	0.7730235	0.19359678	0.29472834	0.06948468	0.39455414	0.22585806	0.112216875	0.7326207	0.3473463	0.0030204481	0.36653382	-0.96936	0.9522717	-0.5149467	-0.37520117	0.031724837	0.42073593	0.7730927	0.031241339	0.031005127	0.35355353	-0.17369968	-0.20817861	-1.6752428	-0.100432135	-0.32978767	-0.54162896	-0.016556585	0.62316984	-0.18965328	0.302814	0.59234685	0.14583874	0.21027784	0.536695	-0.36359504	0.56063616	0.05275933	1.2207223	-0.26142526	0.39848045	-1.2304404	-0.009467918	-0.07827163	-1.0386609	-0.07598313	-0.21675082	0.8428128	0.14364368	-0.25901484	0.8416373
<http://bio2rdf.org/drugbank:DB01418>	-0.63565874	0.009232582	0.03129697	-0.09453356	-0.7245375	-0.30518907	0.34160858	0.69286495	0.20711014	0.005977516	0.25048426	-0.16289164	-0.24649677	-0.75890374	0.6566091	0.6382627	0.6751473	0.2070406	0.16760291	0.19921537	0.15793784	0.27043653	0.41821948	0.5998983	0.23743244	0.5139619	0.43285686	-0.038697347	0.23402826	0.3900509	0.073795214	0.68319005	-0.37417468	-0.29813358	1.2318134	0.25217244	0.87284106	0.24100974	0.56607187	-0.5117353	-0.11726268	0.113315135	0.15358005	0.20679638	-0.033811178	-0.9601721	-0.37718046	-0.23309305	-0.17515199	0.6127883	0.81864864	0.13815913	-0.17083624	0.4135065	0.6816638	-0.13396513	0.739978	0.219822	-0.22882013	-0.012010468	-0.056249302	0.1276948	-0.4337858	-0.15618844	0.1471246	-0.2516081	-0.22336158	0.25467274	-0.09426977	0.14353538	0.055989746	-0.12256467	0.111436404	-0.03005708	0.30690134	-0.27749178	0.48434845	-0.7635573	0.13126661	0.32559803	-0.35499632	0.7375884	0.5472071	0.16638981	0.38118798	0.1703948	-0.020309296	-0.03923628	0.79793566	-0.22351842	-0.057907548	0.4807258	-0.53490674	-0.02903251	-0.41180834	-0.2726239	0.82988274	-0.15036114	0.1630632	-0.36592993	0.2304993	-0.027768193	-0.7560305	0.27309272	-0.28907433	-0.12149458	0.18162347	0.5139508	-0.7751591	-0.19928141	-0.4273344	-0.2873296	0.11282265	-0.267909	-0.22698934	-0.04989931	-0.028450437	-0.19644204	-0.2994064	-0.2336491	-0.32318532	-0.11502418	-0.2999777	0.17270179	-0.23788951	0.1361619	-0.017981248	0.031472582	0.27732837	-0.44673586	0.72042173	-0.29343268	-0.022384817	-0.021925064	0.24107327	0.5353618	-0.6609613	-0.4268676	-0.77808416	-0.15576619	-0.05394978	0.37205282	-0.61043125	0.20644768	-0.019280117	-0.27905607	-0.77133924	0.07591075	-0.37100068	0.830705	0.47975072	-0.28265616	-0.055820417	0.08244744	-0.23320235	0.078521654	0.6855549	-0.19029148	-0.3321539	0.3499885	-0.29708302	-0.58643144	-0.6058615	0.30889833	0.06278758	0.16213007	0.62031513	-0.46863443	-0.066422395	0.39444467	-0.026387686	0.0800294	0.18582822	0.18150522	-0.4730909	-0.22193688	-0.05192724	0.19412935	0.038745183	0.058091737	0.5878895	-0.11640167	-0.20131603	0.09792365	0.5538448	-0.23019189	-0.11580289	0.53259236	0.29272386	-0.516901	-1.023936	-0.4459439	0.6109087	-0.029521741	0.9855448	-0.0046522794	0.6607461	-0.20710553	0.15118271	0.3411962
<http://bio2rdf.org/drugbank:DB00338>	-0.7228646	-0.0365401	-0.04397951	0.19017078	-0.15405661	-0.3091598	-0.014254428	0.30921	0.56237113	-0.8208711	-0.1742196	0.08180928	0.5408474	-0.6436415	0.2592564	-0.42289913	0.4145386	0.11053911	0.020286206	0.69930744	0.537626	0.077277936	0.06802181	0.1407313	-0.28065887	-0.3099092	0.30876094	-0.51123184	0.31189957	-0.06519524	0.1803708	0.1122367	0.14785048	-0.41735294	0.8011886	-0.08478331	1.1613464	0.70123315	-0.5822966	-0.49932042	0.05597338	-0.2562839	0.32549	0.55648017	0.6374224	-0.75352293	-0.43727836	0.35158086	-0.12142944	0.27220285	0.946752	0.64646673	0.060337797	0.16961282	0.53263986	0.2950309	0.041256074	-0.38959825	-0.21101134	0.29367995	0.16389857	-0.3649298	-0.45531848	-0.105011255	0.15637407	0.29459274	-0.03873324	-0.16285105	-0.26441315	-0.04403369	-0.029548312	0.013438031	0.36517048	-0.04735807	0.1244036	-0.08986889	0.3359177	-0.8426729	-0.59599113	0.7851753	-0.31257758	0.23099566	0.28694427	0.15161738	-0.025653375	-0.64934367	-0.019752845	-0.14280078	-0.14163984	0.5520206	0.36549258	0.15319312	-0.1604341	-0.0061803875	-0.79209673	-0.54120165	1.0382951	0.06951045	-0.36673322	0.0630512	0.016969178	0.92852384	-0.38642472	0.4059494	-0.45807913	-0.2771768	0.53946525	0.1139651	-0.44758725	-0.1308531	-0.07831601	-0.5792728	0.35363656	-0.014365302	-0.38291043	0.067664385	-0.27929395	-0.4694013	-0.65323645	0.38918456	-0.64343	-0.32031053	0.20035763	0.29037276	-0.043432508	-0.21643575	0.09456645	0.08596935	-0.10973943	-0.3953234	0.5965229	-0.3217946	0.141564	0.003243969	0.0422657	-0.1134398	-0.6965806	-0.7500843	-0.22482435	-0.42312455	-0.36687234	0.5801399	-0.0337633	0.079684354	0.05744969	0.22858709	-0.84759426	0.17032605	-0.45013905	0.16085751	0.8149004	-0.5231671	0.67433167	0.22142498	-0.16759373	-0.32393163	0.010499537	0.016982041	0.5224183	0.70669895	0.021094002	0.1002415	-0.020949109	-0.33406502	0.037597314	-0.027198732	-0.054940257	0.064723544	-0.14669865	0.3715345	-0.38530746	0.41634494	-0.41834918	0.47681633	-0.32732606	0.0269129	-0.18965197	0.30341598	0.18453069	-0.17736094	0.64436185	0.16777556	0.355766	0.51268625	0.11473746	-0.44415238	0.040492017	0.6186037	0.16732569	-0.12140874	-0.32047898	-0.15577152	0.79381853	-0.58333653	0.49818537	0.19630805	0.37042192	0.3018336	-0.82701063	0.28182754
<http://bio2rdf.org/drugbank:DB00051>	-0.23121066	0.10331832	0.0018811107	0.527397	-0.688452	0.06481785	-0.23153134	0.18969105	0.5981909	-0.7395003	-0.104138024	0.4300644	-0.052540183	-0.37645227	-0.16858746	-0.17151906	0.30955815	0.32695293	0.39712825	0.41033366	-0.04840828	-0.27075163	0.11325887	-0.19643696	0.00876359	-0.45278868	0.11308331	-0.11500898	-0.22781236	-0.9745482	0.7226867	-0.32378381	0.46511444	-0.5324015	0.45286456	-1.009536	0.06874701	0.4498518	-0.20467241	-1.0773212	0.08413679	-0.35767213	-0.42573464	0.5832276	0.83175534	-1.3098202	0.25673103	0.6546205	-0.85567147	0.45507225	0.8008717	-0.09294291	-0.11322193	-0.10479182	0.6449209	0.07466375	0.5723441	0.13045175	-0.024335826	0.6695216	0.36886543	0.5058356	0.095925026	-0.58125514	-0.09080409	0.30795744	-0.48434094	0.26898	-0.15696822	0.27682632	-0.36637095	-0.21268466	-0.006522768	-0.08520154	0.34528106	-0.47411463	0.28400287	-0.4828094	-0.032410767	-0.4625613	-0.59539527	0.87121576	0.42076403	0.6726893	0.096224025	-0.4448727	-0.54017603	-0.6957628	0.17455082	-0.36545202	0.24962775	0.2902921	0.31229615	0.1939697	-0.775052	-0.39931902	0.72676235	0.37446034	-0.024889262	-0.13197601	0.025927776	0.4317328	-0.39444593	0.06612307	-0.2941259	0.3347601	-0.23302752	-0.18932669	-0.03501416	-0.37416926	0.11956938	0.42815703	-0.07186976	0.09591516	0.18112566	0.312291	0.22893485	-0.46619257	-0.22386225	0.2509072	-0.6815331	-0.94023585	-0.08819366	-0.57089627	-0.03666137	-0.15002424	-0.20900452	-0.3947577	0.31525806	-0.606961	-0.17770913	-0.2261861	0.018762337	0.43451923	-0.46701875	0.35051334	0.15162662	-0.17481124	-0.15094157	0.2998859	0.39951646	0.5197779	0.104576595	0.64730567	-0.3433361	-0.02980185	0.080408655	0.69519705	-0.35402608	0.5312903	0.8612131	-0.019799544	-0.21498178	0.8986781	-0.5542854	-0.37962678	0.35795465	0.3720047	-0.22385037	0.90906316	-0.5845433	-0.36352196	-0.09125802	0.028056506	-0.46622273	0.305351	0.34329942	0.34830764	-0.021451078	0.20737039	-0.38211882	0.38543618	0.6030551	-0.28305176	0.50088197	-0.024714293	0.0062906775	-0.23405595	-0.36714503	-0.8182794	0.3322588	-0.2854705	-0.41726518	-0.13080984	-0.31896317	0.040152248	-0.14013003	0.79532665	0.15195969	0.28213242	-0.5170082	-0.28083584	0.32100588	-0.6765808	0.26857045	-0.8686448	0.20503616	0.6547946	-0.60837346	0.42885968
<http://bio2rdf.org/drugbank:DB00005>	0.14376037	0.95489275	-0.022973958	1.000119	-0.34601846	0.12941533	-0.4139663	0.4754464	0.29239532	-0.31245556	-0.25087956	0.2391381	-0.5090859	-0.2806786	0.34228185	-0.2927443	-0.07770104	0.55022615	0.4105457	0.46690387	-0.43965033	0.17560907	0.1321352	-0.22782512	-0.09926363	-0.35353184	-0.11924876	-0.048810173	-0.2918101	-0.47921485	0.71770275	-0.32192442	0.136502	-0.5724009	0.82409954	-0.47365323	0.17685798	0.5551077	0.07219984	-1.406013	0.15155692	-0.25280774	0.13499267	0.4050376	1.0553907	-1.4365119	-0.603602	0.24997103	-0.55768615	0.30219468	0.6827767	-0.08918552	-0.19452977	-0.19219407	0.715514	0.58426166	0.8457328	0.17316003	-0.046694778	0.33342522	0.42650783	0.09505997	-0.1177625	-0.47338256	0.14031121	0.3464895	0.056548197	-0.5785235	-0.3120156	0.436968	-0.26081163	-0.18150865	0.15948911	-0.10441562	0.11894017	-0.39075682	0.21788433	-0.6306596	0.15445949	-0.23601899	-0.90868825	0.23785207	0.48997337	0.6810971	0.087730914	-0.7497438	-0.6120756	-0.6702458	0.4883042	-0.0024351142	-0.16173245	0.07073805	0.5631103	0.12351037	-0.5685905	-0.03301477	1.0893509	0.07231394	-0.23224133	-0.38661665	0.2934074	0.69268185	0.167123	0.031497028	-0.11758245	0.063953675	-0.097966224	0.15932359	0.03279105	-0.51153433	0.21758512	-0.081010304	-0.23276646	-0.0712064	-0.02466975	0.13603172	-0.04319286	-0.49552566	-0.11143822	-0.008359935	-0.48324436	-0.81075495	-0.36061117	-0.54299223	0.20465423	0.17151166	-0.9172432	-0.020479092	-0.029075539	-0.4033341	-0.24619873	-0.23561381	0.12069485	0.63091856	-0.35304257	-0.35163745	-0.054166608	-0.8254691	-0.10065858	0.23024456	0.7644889	0.64428246	-0.3248174	0.31376708	-0.4364552	0.094407186	0.12793615	0.48223922	-0.30700567	0.28372535	0.80190176	0.39444494	-0.091069676	0.76671255	0.0034326315	-0.02485456	0.47793773	0.35561708	-0.3923087	0.5703627	-0.81959784	-0.17472263	-0.2741049	0.077967644	-0.5748466	0.3441892	0.6136511	0.59744	0.043381076	0.2036271	-0.31570375	-0.06540821	0.8646926	-0.5649363	0.039694607	0.14978462	0.37591535	-0.09767715	-0.34203884	-0.05617153	-0.08931269	-0.097420335	-0.08424027	-0.08094418	-0.38445377	0.12132442	0.33839136	0.5902049	0.046523005	-0.06277991	-0.3583178	-0.16154212	0.27070507	-0.37295645	0.4928072	-0.7508408	0.052933693	-0.21307315	-0.39394018	-0.102919966
<http://bio2rdf.org/drugbank:DB00065>	0.18850692	0.5599943	0.13818565	0.7001463	-0.39488983	0.15701722	-0.63784117	0.2474341	0.3225737	-0.21861471	0.43460163	0.2731727	-0.22534062	-0.44862765	-0.08593277	0.06845932	0.49668816	0.0919903	0.19297764	0.2938239	-0.34207296	0.14004591	-0.005652139	0.02541984	0.041549087	-0.5295958	-0.0134777725	0.07683569	-0.12190599	-0.24275331	0.28424212	-0.041591465	0.061921496	-0.58701396	0.6445858	-0.5811114	0.43768162	0.3139895	-0.20707041	-1.1280452	0.58805263	-0.7501085	-0.4291658	0.6786895	1.1107067	-1.5988262	-0.12450904	0.051837176	-0.27949476	0.36524624	0.71861243	-0.018914817	-0.13868818	-0.24694036	0.8148445	0.48290795	0.7085593	0.11760039	-0.5665002	0.0016866402	0.26452774	0.10742844	-0.40756434	-0.3802464	-0.10362109	-0.25855523	-0.11673498	0.08816715	-0.35367832	0.37087914	-0.2659176	0.14267068	-0.022933671	0.21523963	-0.088439964	-0.56149834	0.40204123	-0.5146448	0.23342036	-0.5474659	-0.3735002	0.70997506	0.26858142	0.539436	-0.0302349	-0.51372606	-0.26974037	-0.5817779	0.37724838	-0.22256517	-0.46691307	0.29964876	0.30503383	-0.103558995	-0.6916278	-0.25863826	0.7633899	0.18072294	-0.22769618	0.19088262	0.09800231	0.558391	-0.045132533	-0.33650222	-0.3309057	0.22074683	-0.09721653	-0.12348864	-0.20830838	-0.46191362	-0.042025834	-0.41790783	0.12513562	-0.45991185	-0.16048644	-0.065991595	-0.050042365	-0.69971156	-0.20636764	0.08062109	0.004367636	-0.4633724	-0.6685651	-0.7029428	0.59623504	-0.32931435	-0.5427911	-0.21731488	0.44971097	-0.76109785	-0.13884903	-0.30013072	-0.2823393	0.24557683	-0.14375451	-0.10417015	-0.21164677	-0.8831874	-0.069132045	0.5232898	0.36551738	0.5928841	-0.34272936	0.738487	-0.83784634	-0.10468837	-0.38216966	0.6225476	-0.3097762	0.40437675	0.3359818	-0.26712933	0.013014325	0.6457368	-0.27046153	-0.22468422	0.15211277	0.5023127	-0.178125	0.6562393	-0.5486765	-0.4430986	0.21759136	-0.09524421	-0.7582908	0.33264822	0.72401977	0.66106725	-0.23979133	-0.0516112	-0.44186753	0.31202167	0.5992296	-0.19640033	0.27676836	0.35097864	-0.061984513	-0.5634841	-0.4245541	-0.24568525	-0.0103265075	0.25648835	-0.17723872	-0.021680836	-0.19336471	-0.04030387	0.496393	0.33777097	0.27033705	0.13963565	-0.5909661	-0.16573837	0.40215096	-0.61519533	0.3535639	-0.57080704	0.1719478	0.23687969	-0.37514344	-0.22277117
<http://bio2rdf.org/drugbank:DB00413>	-1.0950072	0.5483201	0.23579255	0.2813589	0.09245308	0.22233066	-0.018526006	-0.1326697	0.7507125	0.37691164	-0.22287908	-0.07550596	0.47628275	-0.051999856	1.180259	-0.3526211	0.24294749	0.44502953	-0.5597824	0.22159924	0.080928706	0.39155942	0.050968308	0.6819343	-0.28715637	0.39443725	-0.6739322	-0.5009464	0.12759721	0.24213095	-0.021212628	0.17349334	0.26252717	-0.30826962	0.49253035	-0.29005	0.64128965	0.476067	-0.23286079	-0.7898658	0.5000386	-0.07676241	0.03626901	0.019364255	0.3653259	-0.8058483	0.0019159489	0.3450271	-0.7086511	0.03174587	-0.03339805	0.7390919	-0.38798875	0.39399537	0.63845295	-0.08454066	0.8024325	-0.46352324	-0.114435196	1.2015711	0.19298545	0.11383084	0.8291822	0.3008652	1.0955498	-0.07534454	0.2429379	-0.38183767	-0.0298807	0.23913851	-0.3892615	-0.7678375	0.17887314	0.1968704	0.77945936	0.033103358	0.48499843	-0.51296633	0.15982893	-0.13615876	-0.92035526	1.1228908	-0.13049404	-0.18631095	-0.24733561	0.06664279	0.24354199	-0.26810154	-0.15012227	-0.15882123	0.3520225	0.39882657	1.0461488	-0.7728616	-0.76743335	-0.61874354	1.036757	0.26537466	0.027463462	0.0051624565	-0.44408634	0.20066062	0.5989239	-0.22046843	0.19503094	-0.016161934	0.6622746	0.21958877	-0.23021543	0.04868949	0.39381668	0.42199245	0.47010446	0.3208833	0.38157374	0.2030939	0.41842422	-0.015129753	-0.46892208	-0.42815378	0.24504213	-0.23743796	-0.22658713	-0.16171226	0.35803276	-0.3095431	-0.3242102	-0.52795434	0.3091676	-1.1841965	0.42804292	0.003980072	0.6486631	0.2532449	-0.061003543	0.13110358	0.40046892	-0.78335255	-1.066391	0.3175371	-0.14092952	-0.15703031	-0.44833142	-0.3259848	-0.25969335	-0.6305572	-0.6874744	0.39922702	-0.58668035	0.0029976768	0.76440966	-0.2330388	-0.015791874	0.49334282	-0.39096713	-0.035325076	0.44030708	0.02884831	-0.87242234	-0.4359003	-0.7840767	0.22784638	-0.5294027	0.09326633	-0.22582008	-0.15928034	0.6652849	0.21574081	0.36363092	0.6990089	-0.5184131	-0.21008606	-0.5382545	-0.34183106	-0.58156896	-0.112913705	-0.46777195	0.3290253	-0.14513038	0.5716957	0.22641881	0.6437524	-0.09339466	0.7566617	-0.3117642	0.4227646	-0.35193282	0.5130811	-0.11275382	0.53632164	0.43045467	-0.63799226	0.022581529	-0.91361684	-0.15218924	0.0387602	0.4596421	0.25788298	0.0976405	0.7600438
<http://bio2rdf.org/drugbank:DB00734>	-0.25960058	0.06586778	0.21790639	0.12534992	-0.12991644	0.084106795	0.48717785	0.16226715	-0.01829497	-0.06425363	0.07769982	-0.13696687	0.1603377	-0.46035168	0.11913559	0.019383192	-0.27522537	0.44829285	0.25065213	-0.014616906	0.16677235	0.104428016	0.15387462	0.50342095	0.41381717	0.45336747	-0.10428302	-0.34709784	0.14843522	0.11545284	0.28194985	0.26944298	-0.28224584	-0.294199	0.66705406	-0.15800986	0.4085187	0.069002636	0.13744317	-0.43537968	-0.3332395	0.032530714	-0.39866346	0.01143991	0.30749136	-0.53157204	-0.067413926	0.130026	-0.89941007	0.011822189	0.5396131	-0.05850398	-0.3637965	0.09489067	0.32944572	-0.32719684	0.4091997	-0.11655505	-0.61260384	0.47442845	-0.17048663	-0.38133848	0.07928372	-0.196351	0.06206024	-0.2539024	-0.1587828	0.09735253	-0.013423039	-0.31697136	-0.14778914	-0.12140657	-0.031245118	0.37948507	0.6164879	-0.5241466	-0.013740442	-0.3590234	0.31159806	0.64703417	-0.591431	0.44601694	0.8508819	0.3563377	0.8147603	-0.009382283	0.17754436	-0.23162979	-0.41806763	-0.18834119	0.4086395	0.27153036	0.4723078	-0.44417015	-0.24689963	0.16319954	0.8524365	0.17697704	-0.07687626	0.015198145	0.18587564	0.3247882	-0.25686446	0.21069442	-0.13322842	-0.2329979	0.05629248	-0.11477496	-0.57319134	-0.39044315	0.20862408	0.24958898	0.38286385	0.9407781	-0.09680014	-0.2268846	0.079673514	-0.05898555	-0.17931485	-0.54361475	-0.69038683	-0.54656416	-0.35785708	0.010101588	-0.5152737	-0.10933272	-0.2942649	-0.2333314	0.9275692	-0.7244925	0.27246973	0.057128012	0.29559243	0.10305194	-0.14322148	0.027182955	0.13840516	-0.42274562	-0.34945554	-0.031294897	0.20104259	0.5045163	-0.12014813	0.42020512	-0.44706646	0.0057806727	-0.55289227	-0.2680352	-0.108156435	0.7308064	0.37639052	-0.19683608	-0.03987688	0.3060218	-0.54086024	-0.014918895	0.21446781	-0.096448936	0.24476553	0.26406386	-0.7865068	0.08889856	-1.1096762	-0.22604021	-0.17943221	0.08761027	0.7919037	-0.22425306	0.2897939	0.19969992	-0.27938643	0.07361006	-0.61856765	0.09599847	-0.2590605	-0.0040824465	-0.3797123	0.22460221	0.2154205	0.5594644	1.108094	-0.52746147	0.06470719	-0.14536203	0.072898835	0.053092584	0.03615335	0.37911305	0.23398022	0.118021734	-0.77126145	-0.73678315	0.26729187	-0.6130332	0.44617605	0.15930179	0.13265543	-0.2583245	0.24579048	0.48800293
<http://bio2rdf.org/drugbank:DB00412>	0.6905162	0.3279246	0.8875264	-0.13051099	-0.515806	0.1533594	0.12194392	0.39810127	0.035157077	-0.50896204	0.2004062	0.20274249	0.082707234	0.0030180826	0.7225661	-0.315088	0.4740179	0.29838598	0.27933598	-0.2339294	0.034208756	-0.46729136	0.49315667	0.119763784	-0.29050413	0.265476	-0.5097825	0.20574082	0.0545175	-0.30445212	0.042563103	-0.14520982	-0.47825247	0.30271307	0.80320406	-0.72801924	0.704932	0.8996918	0.21613729	-0.23182394	-0.5523957	-0.055205017	-1.150391	0.7172305	0.4023404	-0.76142395	0.15475865	0.69845545	-0.13637584	0.29479274	0.4558259	0.33030683	0.9558925	-0.18896173	0.066957526	0.18727751	0.4263335	0.40181828	0.15769593	-0.30628237	0.6941573	-0.71973103	-0.096104644	0.076628916	0.16518885	-0.09556571	0.10976593	-0.21599334	0.36204875	0.06639981	0.23356664	-0.63210565	0.7828274	-0.40051633	-0.06321624	-0.4540513	0.72585183	-0.6950509	-0.17824762	0.11335733	-0.3729654	0.5158551	1.0183468	-0.038280915	-0.613118	-0.24477899	-0.3673102	-0.15144397	-0.70362705	0.31663275	0.48283535	0.7440678	0.20932493	-0.71050423	0.14932369	-0.73953253	1.0733101	0.030067354	-0.7640007	-0.43965665	0.5788724	-0.29003134	-0.41663444	0.8320327	0.17510349	0.06955905	0.4810327	0.054790486	0.13396448	0.8163681	-0.6215311	-0.18082578	0.1535382	0.5089089	0.23666506	-0.26172626	-0.09975699	0.20559411	-0.39068288	0.27584663	-0.8997086	0.12285204	0.33517444	0.046465866	0.8580902	-0.16784504	0.61677563	0.17628473	0.43398535	-0.40543568	0.6795126	-0.3286926	0.84436476	-0.5325857	-0.19749078	0.31875902	0.2749294	0.15815075	-0.41055927	-0.09480751	-0.5684079	0.05528879	-0.75901175	0.7598886	-0.5548961	-0.6507041	-0.94531745	0.27597654	-0.783006	0.80612105	0.57769495	0.06783778	-0.6449451	0.5947986	-0.15711384	-0.8529573	0.80470276	0.42368364	-0.5388111	0.44230154	-0.07948846	-0.29632285	-0.50725967	-0.48232946	-0.48677456	-0.13363248	0.7473504	0.22421005	0.112114266	0.4811077	-0.3052239	0.27975586	-0.63228637	-0.1111066	0.057135638	-0.30893236	0.060717948	0.114083275	-0.1152507	-0.36775175	1.1040093	-0.35163468	0.09764088	0.490316	-0.26890007	-0.15703124	-0.49979272	0.48487705	-0.3206416	-0.37519804	-0.6919566	-0.13643768	0.8343791	0.18542482	0.599234	-0.6747535	0.010731565	0.47018164	-0.049529985	0.35909277
<http://bio2rdf.org/drugbank:DB00938>	-0.061785642	0.33899155	0.8501317	-0.15773074	-0.5514247	0.35629076	0.3879354	-0.1538862	0.340836	-0.990179	0.098116696	-0.33737567	0.49159208	-0.048411865	0.2988615	0.1795089	-0.042973902	0.29304716	0.0020323135	0.37503397	-0.39269602	0.20165029	0.5169573	0.23305155	0.06488689	0.4479947	-0.7252698	-0.27926552	0.079038255	0.4065941	0.1436063	0.15455058	0.20777845	-0.035107195	0.43074188	0.44321474	1.2848619	0.24585533	0.042083886	-0.52809846	-0.32581136	-0.06271751	-0.18416098	0.53748244	0.29907012	-0.79949856	-0.5868121	-0.1401647	-0.6599276	0.14866284	1.2786716	0.3224997	-0.16797212	-0.5053731	0.24529694	-0.30469206	0.6542546	-0.55871445	0.20650095	0.5282999	-0.16064008	-0.17765802	-0.31505322	-0.5567817	0.4129395	0.12403293	-0.03875399	-0.18453805	0.014949774	0.5241757	-0.38704515	-0.04712635	-0.4489616	0.320599	0.27057734	-0.2592567	-0.23555134	-0.7496467	0.4764677	0.52392083	-0.7758423	0.3755288	0.30137342	0.71454597	0.4383333	0.0032659154	-0.27530694	-0.589584	-0.07359762	-0.077717066	0.08077966	-0.030872552	0.60835767	-0.5157035	0.27643165	0.2402986	0.7769118	0.9097969	-0.48460263	-0.9826118	0.49361676	-0.07372473	0.27827725	0.18912593	-0.3298271	-0.24548814	0.22965546	-0.5070488	-0.19128571	0.019073434	-0.678237	-0.062420588	0.24059926	0.53263724	-0.13379005	0.09824874	0.7223033	-0.45521045	0.14417379	0.5276939	-0.16173583	0.08119102	-0.7790166	-0.3408786	-0.05899135	-0.29026574	-0.21743654	0.05173793	0.6873468	-1.0861706	-0.015608096	-0.5349439	-0.14179748	0.61500025	-0.0057426267	-0.43439287	-0.18151745	-0.56838226	-0.2158969	-0.012692931	-0.024193507	0.46171647	-0.29212418	0.18923578	0.085611284	-0.7201786	-1.058843	0.21533063	-0.39343694	-0.09245149	1.4354471	0.5321638	-0.30177906	0.09171729	0.046016686	-0.6631276	0.5489149	0.29368955	-0.71664524	0.13806064	-0.34483296	-0.18191807	-0.9264268	-0.13366519	0.21037605	-0.3886831	0.86668134	-1.0486052	-0.22321111	0.76449364	-0.735593	0.33383676	-0.49927068	0.6984497	-0.3535849	-0.1037018	-0.20107897	0.10889908	-0.16652131	-0.11829792	0.8746507	-0.14358287	-0.7351145	0.9031791	-0.45708218	0.56908107	-0.2961906	0.92017055	-0.28349462	0.00033428488	-0.6877207	-0.2598771	0.5190344	-0.30916342	0.9182829	0.51515764	0.21261027	-0.46427435	0.034107164	0.4291402
<http://bio2rdf.org/drugbank:DB01001>	-0.37925917	-0.013694355	0.3010523	-0.29240024	-0.32272556	1.0303129	-0.49262556	-0.242458	0.4440242	-0.13837112	-0.24628368	-0.017019333	0.040322993	0.39051118	0.84055614	0.14223203	0.24843805	0.085062586	0.7255166	0.616274	-0.1122921	-0.21088792	-0.011930797	0.7856283	-0.4791726	0.9939355	-0.52151316	0.6796037	-0.0684524	0.07587604	-0.19103417	-0.24824461	-0.021673111	-0.40219435	0.64143044	-0.012539999	0.610797	0.741699	0.20016879	-0.70207536	-0.36633193	0.090634465	-0.01186001	0.9238426	0.28752625	-0.8567159	-0.18337521	-0.6939704	0.25671002	-0.03274293	0.947072	0.9382784	-0.36227074	-0.4626701	0.793089	-0.18248533	0.46165955	-0.23421213	0.036078084	0.14761707	-0.31490263	0.5291465	0.04936308	-0.81826824	0.61723214	0.4259479	0.020898445	-0.40910184	0.13734733	-0.37568548	0.068570666	0.037581135	-0.40748495	-0.18903434	0.23488566	0.22149885	0.74256843	-0.57451475	0.28953043	0.35783982	-0.73651713	0.1945969	0.42862043	0.47630474	0.10706158	-0.66504556	-0.4477412	-0.38887995	-0.21703404	-0.019490536	-0.21872629	0.25031808	0.20756045	-0.34737924	-0.63825315	-0.7971398	0.6479751	-0.02330146	-0.38755512	-0.7960246	0.19188009	0.20707847	-0.18571159	0.27344373	0.4405459	-0.2622134	0.029592909	-0.06864358	-0.24538499	-0.048482057	-0.13987006	-0.21727157	0.48435068	0.11811347	-0.27082807	0.31594178	0.41616717	0.22461027	0.2812797	0.62382543	0.09813966	-0.38805723	-0.53684825	0.45292944	-0.2635121	-0.20704299	-0.020856107	0.0009731996	0.6620881	-0.49002397	-0.44093153	-0.116171025	0.09307805	-0.3069402	-0.3400213	-0.3576977	0.5132755	0.069912165	0.012238398	-0.54233456	-0.33094177	0.6352288	-0.42903733	0.52744645	-0.14832221	-0.23015453	-0.19743124	0.6470805	0.4570879	0.40616247	0.8364592	-0.40943202	0.1419509	-0.07050196	-0.74085015	-0.46981016	-0.22532077	0.13665304	0.09431086	0.4918688	-0.6635642	0.050061245	-0.7243837	-0.47000834	0.035332028	-0.2890826	0.06450516	0.047361203	-0.15800835	0.6045172	-0.26795033	0.039362065	-0.65821356	0.61631745	-0.45152187	-0.106235944	-0.39675036	0.27256128	-0.86046684	0.036324196	-0.04590191	0.3259833	-0.17363286	0.27574965	-0.7003898	0.5035952	-0.43249905	0.683706	0.3497012	-0.3703328	-0.86154354	-0.82256436	0.3778312	0.17056432	1.2005868	-0.21997917	0.18214719	-0.29540682	-0.44009012	0.26853257
<http://bio2rdf.org/drugbank:DB00203>	-0.029000944	0.20531492	0.4383209	0.29295215	0.1419017	0.94294786	-0.25032333	0.0045439214	0.26451916	0.012076842	0.288951	0.2525563	-0.30628762	-0.42729396	0.77059036	0.28378138	0.11670073	0.7625593	-0.0017611348	0.44157016	0.035233904	0.25871724	-0.056725584	0.54665136	-0.1750017	0.3461904	-0.105171196	-0.2510342	0.022084046	0.3070753	0.21807294	0.08352229	0.10310867	0.03707718	0.70625985	0.031626537	1.3121588	0.98434603	-0.3158638	-0.33683842	-0.639353	-0.8659991	-0.37264568	0.71022415	0.22386038	-0.64926714	0.68859506	-0.13254547	0.11231459	-0.02579889	0.8427713	0.05031355	-0.39566284	-0.7990351	0.4135142	-0.56910765	0.8101295	-0.00953059	-0.19480003	0.0181983	-0.36532688	0.48537847	0.2851089	-0.11087909	0.28368285	-0.020981094	0.35533383	-0.058975752	0.39453512	-0.038781222	0.2213887	-0.038440596	-0.43330428	-0.57211465	0.5160792	0.22063611	0.043184415	-0.82405746	-0.39071727	0.8118932	-0.486465	0.1450693	-0.014909253	0.35726017	0.14858784	-0.27540243	0.22476113	-0.6386494	0.012183762	-0.09192214	0.32919502	-0.34676608	0.15169176	-0.45566878	0.046911888	-0.2549102	1.2711283	0.02516087	-0.8095089	-0.67337203	0.51748174	-0.054901212	-0.06864745	-0.047801945	0.22046947	-1.0169423	0.54888517	0.102914706	0.20324732	0.25855768	-0.85993886	-0.15724726	0.78963816	0.58106977	0.24906042	0.5326851	0.1919039	-0.37669444	0.01310593	0.3963984	-0.25744012	0.009203512	0.120005175	-0.35528812	-0.044999987	-0.22249469	-0.27057225	-0.16504292	0.34602225	-0.1505964	0.38458982	-0.7820738	0.80839425	-0.09842846	-0.08748588	0.1380374	0.2309694	0.072985195	-0.5057434	0.43327105	-0.22574484	0.9333124	-0.58714765	0.2784599	-0.13531844	-0.2523784	-1.239506	0.14940158	-0.63441885	0.35845527	0.5302636	0.44097835	-0.0012662604	0.04707533	0.34914815	-0.43265405	0.9979469	0.1424328	-0.33064702	0.14901781	-1.018365	0.18732975	-1.1149888	-0.86447895	0.21430512	-0.1721162	0.86940813	0.023787888	-0.22852616	0.0562411	-0.39595622	0.18761133	-0.38618279	0.19114506	-0.27334318	-0.08599409	0.08668556	-0.089542545	-0.48402733	-0.06308252	0.90955627	-0.15401495	0.31410968	0.7483195	0.18824624	-0.06612364	0.019329429	1.1135519	-0.28400084	-0.7832354	-0.8393137	-0.5595912	-0.16220616	-0.04524148	0.1967291	0.86188203	-0.39570236	0.20455939	-0.0923314	0.9916596
<http://bio2rdf.org/drugbank:DB00912>	0.083448835	0.11191845	0.73513156	0.4484872	0.09813341	-0.31835085	0.14504588	0.070104495	0.020723505	-0.18630265	0.01872167	0.40942508	0.1803757	0.4013765	0.62616307	0.2449019	0.16772403	0.17050742	0.08733668	0.18108714	0.14719272	-0.3444409	0.14510146	0.050256822	-0.48474985	-0.21245307	-0.8902386	0.39841837	0.16495773	-0.35102373	0.27514708	-0.059754763	-0.45847258	-0.49450383	0.8010005	-0.20576018	0.64127934	0.8136718	0.072346106	-0.73377526	-0.31744868	-0.098435305	-0.6906764	0.6540688	0.4127418	-1.0186138	-0.1122922	0.19962935	-0.03565016	0.7578616	0.6140762	0.5548901	0.335555	0.14202304	0.19580658	0.16081372	0.12724791	0.4263149	-0.34962845	-0.21214366	0.31550905	0.48534343	0.035204817	-0.28090227	-0.013480926	-0.00050375005	-0.15010431	-0.101967424	0.5436027	0.016096067	-0.19464575	-0.6976805	0.52909154	0.16481815	-0.04651248	-0.6188251	0.35900113	-0.03109678	0.30792037	-0.1073714	0.005189646	0.17286463	0.63753134	0.34055662	0.5103246	-0.3232344	-0.45732203	0.67740715	0.11543496	-0.105030596	-0.09084915	-0.3749988	0.24299952	-0.11061591	-0.6053789	-0.53834695	0.740704	-0.33426678	-0.4275172	-0.42507464	0.59037745	0.36069655	-0.23268555	0.5399978	0.17788085	-0.45205346	0.8392685	-0.29011282	0.006523184	0.46133867	-0.13678485	-0.08926085	0.074567266	0.4334839	0.048032492	0.032109007	-0.34711075	0.58895147	-0.10733608	0.15010796	-0.85657024	-0.17872526	0.41001862	0.3789144	0.25099754	-0.34063262	0.52235115	0.29885	-0.068584956	-0.32480845	0.3550619	-0.87376446	0.29276764	-0.23051572	0.64764804	0.43918344	-0.71146166	-0.70657796	-0.4593641	0.25045273	-0.059887085	0.6190656	-0.4590296	0.89246744	-0.15513776	-0.08716061	-0.7733917	0.7149866	-0.39533657	1.1071221	0.64176285	-0.17737822	-0.2762225	0.5445649	-0.032256503	-0.12302001	0.9300267	0.8769451	-0.40274522	0.42050698	0.14431965	-0.3245657	0.073911496	-0.52794445	0.29054812	0.1276069	0.33638322	-0.47577918	0.21799505	0.47709572	-0.935187	0.12372367	-0.19079563	0.12026177	0.07777189	0.10178314	0.14878508	0.621652	-0.668801	-0.37245116	1.0876956	0.22754541	-0.6877632	0.6679294	-0.28981403	-0.059074163	0.006202711	0.32339653	0.12881868	-0.20263927	-0.5090051	-1.1141236	0.92386484	-0.44871947	-0.007256763	0.13291131	0.33704713	0.47879735	-0.34428427	-0.071094334
<http://bio2rdf.org/drugbank:DB00370>	-0.6449882	0.28131485	0.23531859	0.3585137	-0.4688476	0.6735395	0.20072752	-0.27581614	-0.22136417	-0.8320666	-0.052776646	0.30867192	0.21513173	-0.2375166	0.07078813	0.26023456	-0.21881741	0.19836433	0.020161403	0.5726344	-0.122950114	0.14560963	0.29948586	0.29167238	-0.04912255	0.08439529	-0.51785755	-0.229456	-0.31219667	0.48165396	0.27119425	-0.15173371	-0.24864487	-5.883905e-05	0.87685144	0.0008810608	0.19293156	0.2349225	-0.27161866	-0.059732903	-0.18699041	0.29180235	0.11281649	-0.22699985	0.55611074	-0.408231	-0.3361256	-0.06097282	-0.62688553	-0.22541441	-0.012384431	0.6375536	0.10386978	0.017396081	0.140477	-0.06263384	0.23796174	-0.23876974	-0.53752875	0.35313466	0.07864673	-0.32702842	-0.0045408932	0.20865254	-0.51625806	0.010340075	-0.2517104	-0.11854691	-0.2969648	0.006672862	-0.07558262	-0.21296875	0.28481123	0.5219416	-0.17138131	-0.3451145	0.90512955	-0.9329313	0.37879685	0.6074672	-0.9611262	0.5555957	0.30117488	-0.44092837	-0.29636535	-0.43920392	-0.089767046	0.10634271	0.16024621	-0.073771805	0.34833574	-0.24817978	0.16823517	-0.29893523	-0.21409777	0.40446472	1.4198631	0.12509711	0.03294216	-0.23988186	0.3600312	0.6503069	-0.36665496	0.29174158	0.06982697	0.7108795	0.35962832	0.19947734	-0.4476578	-0.00299519	0.6337434	0.56009585	0.18973076	0.5322921	0.21012308	0.17781062	0.2849026	-1.0323566	-0.53515834	-0.56231743	-0.33644736	-0.039639097	0.16321315	0.27933744	-0.4458302	0.046508666	0.012513229	0.35628137	0.49142423	0.028673254	0.044706993	-0.4337407	-0.108208306	0.113128245	-0.52806014	-0.34772643	-0.7753017	-0.81907034	-0.15237617	-0.5049002	0.0417306	-0.08356038	-0.40656948	0.69157714	0.2753275	-0.53742296	-1.2026414	0.019653266	-0.038896326	0.8645087	0.7927384	0.33986744	0.15106139	0.53941107	-0.3649134	0.03698271	0.2119323	0.12138548	-0.06699275	0.04171138	-0.86355925	0.26114994	-0.19584164	-0.17564887	-0.02003755	0.05459418	0.47052392	-0.032525074	-0.23546153	0.5903198	0.0025123055	0.33576554	-0.6502548	0.13461442	0.24215648	0.32434702	-0.4067919	0.9789039	-0.5520564	0.057817083	1.4130077	-0.06385785	0.43235162	0.37382278	0.10925138	0.3109889	-0.06472068	1.5759653	0.28860736	0.13904344	-0.7896664	-0.03325786	0.6296404	0.05705585	0.692646	-0.5635566	0.29984465	-0.1671825	-0.19689494	-0.21962442
<http://bio2rdf.org/drugbank:DB00285>	-0.3212678	0.10654716	0.3225727	-0.13090378	-0.35461384	0.13136265	0.48673657	-0.11413355	0.14110807	-0.539473	-0.032353085	-0.1762907	-0.07910163	-0.12898019	0.37197408	-0.39820805	-0.2368685	0.0770825	-0.044144854	0.24742982	0.5139308	-0.28476977	0.15931574	-0.03988957	-0.062347885	-0.39274907	-0.09762638	-0.30174607	-0.090590395	0.5413374	-0.12851654	-0.18801884	-0.45202926	0.1771175	0.43125847	0.11456367	0.5140434	0.25624856	0.81245166	-0.37070495	0.064538985	-0.28877273	-0.42987853	0.20479494	1.0088693	-0.39194363	0.026167206	0.2798168	-0.53612536	-0.23499665	0.34703058	0.6029268	-0.6794301	0.025461428	0.22350714	0.14326458	0.10021398	-0.24481922	-0.22018741	0.2769478	-0.21285029	-0.30238408	-0.27898556	0.45410383	-0.03724663	-0.14677463	-0.1876459	0.11438494	-0.64023596	-0.09417489	-0.3971934	0.33601293	-0.39240664	0.4332531	0.1468717	-0.4500407	0.26331034	-0.83311933	-0.11323599	0.43960994	-0.7075461	0.9089052	0.12974603	0.22471926	0.47332326	-0.13871063	0.48386082	0.4125792	-0.07225812	-0.49085963	0.25944144	-0.48675144	-0.17225216	-0.101113	-0.24844383	0.017049322	0.68572754	0.36121854	0.24176902	-0.34644067	-0.6698898	0.7461763	-0.6582902	0.1394122	0.19897988	0.46467414	0.6008548	0.006998362	-0.5030208	-0.24964562	0.12841468	0.17947464	0.13512911	0.6224266	0.24344271	0.07230862	-0.33475	-0.49916068	-0.48317567	-0.5280892	-0.48951867	0.08610702	-0.44754112	0.42660606	-0.20489538	0.055415783	-0.21165194	0.6059607	0.33808088	-0.615391	-0.25277707	-0.5980924	0.25421146	-0.30300364	-0.73430127	-0.06445192	0.15052229	-0.5985352	-0.16783519	-0.0038772975	-0.06495266	-0.10390392	-0.008562879	0.582528	-0.23829727	0.19758756	-0.8934588	0.15748297	-0.28700852	0.5681368	0.88530016	0.066944554	0.11730113	0.7248953	-0.19827329	0.4125297	0.8113637	-0.0063014375	-0.17131442	0.6647311	-0.68848455	0.35692045	-0.7480109	-0.2420205	-0.006995998	0.21689118	0.32762903	-0.13435076	0.03509222	0.12111248	0.12734303	-0.66137505	-0.38827023	0.22042923	0.16703701	0.3048985	-0.06718269	0.48360744	-0.45006713	-0.21629174	0.81155574	0.048063334	0.319164	0.43621516	-0.009795372	0.022568466	-0.038346753	1.2298635	0.04288898	-0.042270824	-1.0500304	-0.39653015	0.13202167	0.09593122	0.36221457	-0.2873335	0.82719195	-0.030332552	0.14238816	0.36904237
<http://bio2rdf.org/drugbank:DB00471>	-0.43321344	0.10753065	0.82233846	0.14391589	-0.2823588	0.19458485	0.35409477	-0.4306824	0.041669387	0.3363825	0.10204048	-0.4365269	0.35942474	0.1883449	0.08504418	0.048772078	0.4913417	0.3219941	-0.16679892	-0.013406075	-0.28564712	-0.17383134	0.074610986	0.025570096	-0.43954828	1.1462233	-0.697934	0.84882736	0.05306657	0.64658684	0.022670303	0.043722052	-0.06633082	-0.8110245	0.14304335	-0.48902485	0.5708341	0.8075668	-0.074902356	-0.36780468	-0.17101203	0.080679186	0.33007574	0.7274584	1.1667763	-0.35616055	-0.014664834	0.5819776	-0.37873664	0.6674515	0.9529551	0.4719764	0.33121735	-0.25552738	0.72412753	0.0687716	0.62482727	-0.3481342	-0.30571386	0.5043564	-0.1525464	-0.40777338	0.33279908	-0.22640407	0.20021553	-0.48204198	0.20742	-0.14778797	0.2528821	0.79493237	-0.40704662	-0.5017985	0.029232875	-0.0153152	0.89903677	0.14776164	0.20867595	-0.17739993	0.49834323	0.5266209	-0.8045084	0.9320583	0.07063729	0.88441217	-0.014997439	-0.049777757	-0.31876615	0.035520412	-0.30964053	0.55618227	0.33737305	0.2742697	0.50930613	-0.8108269	-0.4860536	-0.5802914	0.399144	-0.016912885	0.06599463	-0.76544195	1.3424175	-0.4803832	-0.4907423	0.1423323	0.37122536	0.1315807	0.24875109	-0.094569035	-0.65453935	-0.4231298	-0.42662054	0.6054189	0.19466566	0.5643227	0.0053912294	0.2887947	0.85718405	-0.75585884	0.35803124	0.13855474	0.13472578	-0.10817653	-0.36500937	-0.23792343	-0.5618895	0.08036399	-0.16441269	0.4644048	0.427292	0.001723367	-0.12868054	-0.08216762	-0.35921055	0.1531633	-0.017482167	0.2174514	0.35478565	-0.0011216901	-0.27957115	0.07173017	0.39496988	0.9929034	-0.14958219	0.043801334	-0.61920077	-0.772575	-0.05840757	0.6251978	0.062399056	0.29563853	1.4766763	-0.08825477	-0.42629564	0.015763085	-0.2054535	-0.34284765	0.20100611	0.2729433	-0.34964684	0.2532967	-0.62145734	-0.098648	-1.2160687	-0.05372282	-0.25739104	-0.032844834	0.46469846	0.33229634	-0.7279814	0.33400965	-0.15401596	0.42827287	-0.31065023	0.8652215	-0.012679107	0.17393664	-0.41282558	0.1078123	-0.64908266	-0.03255241	0.75484806	0.12750112	-0.13028751	0.47278637	-0.45867828	0.539925	0.09493099	0.9629283	0.07737433	0.51345366	-0.050859585	-0.67268306	0.43068615	-0.2411324	0.8353266	-0.069223695	1.0848684	-0.11210155	0.15578738	-0.030299691
<http://bio2rdf.org/drugbank:DB00295>	-0.075473845	0.08870518	0.33828118	-0.15969752	-0.31581533	-0.42815435	0.24287279	0.09263638	-0.050549295	-0.27559403	-0.19130452	0.71392083	0.7651384	0.12944691	0.4318962	-0.14603034	-0.15096946	0.09242311	0.46149537	0.054109544	-0.34449944	0.31823647	0.7756553	0.15894178	-0.23906046	0.5536504	-0.5088094	0.13759442	0.076093525	0.071111396	0.1455824	-0.30259764	0.16972737	-0.23207171	1.0718688	0.020695677	-0.17579618	0.3207933	-0.31234413	-0.07269371	-0.1955831	0.5675274	-0.18580103	0.07563263	0.18582644	-0.998663	0.49269575	0.13222802	0.04037262	-0.120694645	0.62023944	0.3024958	-0.4233276	0.21987271	-0.0023629754	0.48908433	-0.094016254	0.10409166	-0.005171881	-0.5960083	-0.22464225	-0.24287726	-0.34436843	0.38058686	0.31524035	0.053460788	-0.30732188	0.24171866	0.0042257975	-0.1974222	-0.33268055	0.21464537	-0.22512624	0.59278315	0.28364927	-0.9515082	0.30000505	-1.3002131	0.15189105	-0.051470608	-0.62476254	0.7621792	0.5378484	0.5558557	0.3679095	-0.46501663	-0.0142153995	0.050355826	-0.15857083	0.003897263	0.41137823	0.046212606	0.4264372	0.05504211	-0.7315705	-0.48038977	1.1909194	0.31018066	-0.1559914	-0.15857667	0.32428807	0.4244123	-0.11621347	0.57146806	0.230028	-0.38131407	0.3909903	0.08255762	0.008628975	0.66155833	0.1724334	-0.09539086	-0.18518654	0.8971604	0.55278194	-0.4418012	-0.01629907	-0.30439198	-0.05986384	0.07004195	-0.37784865	-0.058924343	-0.5539462	-0.37778264	-0.018435251	0.5294515	-1.1410497	0.18850994	0.39930522	-0.95202327	0.45873877	-0.56628376	0.06591164	0.1898075	-0.3212343	-0.28332102	0.16747591	-0.56648153	-0.16144714	0.04606192	-0.36864898	0.49681953	0.0962172	0.6681786	0.33892912	-0.36307308	-0.372305	-0.34748	-0.1285793	0.2086911	0.42497447	-0.72273624	0.09046905	0.62645847	-0.18879929	0.106907114	1.1185815	0.12702242	0.3222108	0.24667048	-0.50054765	0.5266223	-0.5372504	-0.34269458	0.41980225	0.27367598	0.40669677	0.1248959	0.26108885	-0.24811804	-0.0835057	-0.0532973	-0.40805492	-0.39794967	-0.013452579	-0.38858688	-0.27826315	0.16971116	0.20731372	0.041380703	0.75263435	-0.21817492	-0.4244281	0.097684704	-0.42695436	-0.06304914	-0.29642567	0.88946813	0.38337085	0.24611335	-0.48226526	-0.4893651	0.3675397	-0.3383704	0.4262399	-0.32633516	0.7388446	-0.4335115	0.0110736005	0.25014728
<http://bio2rdf.org/drugbank:DB00704>	-0.2989655	0.23573524	-0.46299183	0.78575927	-0.34630704	0.4377571	0.27211508	1.0791979	0.33316934	-0.366646	-0.02142507	0.60880244	-0.19251966	0.16711673	0.31016666	-0.46286067	-0.4170185	1.0022131	0.49135584	-0.31827495	0.31195238	0.56593263	0.35868123	0.5654798	-0.40971455	0.79784155	-0.43217978	-0.28093764	0.08740124	1.0099463	-0.27129534	0.4056493	0.092612095	-0.5473387	0.69386005	0.17080027	0.26189408	0.28906572	-0.24534348	-0.3664484	0.2684895	0.18912661	0.17349148	-0.15687913	0.7759296	-0.21431746	0.38117337	0.42546165	-0.11245116	-0.23656906	0.27778718	0.54698056	0.0075943884	-0.29326737	0.122125834	-0.3283398	0.57009435	0.23855911	0.20472103	-9.065212e-05	0.18858483	0.3753694	0.24786182	0.45979628	-0.124464095	0.41991138	-0.413318	0.398225	-0.034552682	0.20568238	-0.68534493	0.14437066	-0.19630557	0.62357616	0.8313158	-0.5569169	0.25033286	-0.31807834	-0.18476294	-0.42435446	-0.88897216	0.7155525	0.044229817	0.0763542	-0.30192947	-0.31167215	-0.35883394	0.049356688	0.23784694	0.0068882634	0.20669618	-0.15425032	0.019443596	-0.23626873	-0.71066475	-0.40197662	0.4858355	0.04633071	-0.47538605	-1.0036469	-0.6073111	0.11746932	-0.6877925	-0.15038781	0.6348574	-0.39229104	0.34974954	0.6893534	-0.21069823	0.57441145	0.47441113	-0.001459843	-0.09732263	0.43799457	0.042839874	-0.41867432	0.45603684	-0.6314442	-0.1560461	-0.30297998	-0.5177732	0.55518425	0.0127817355	-0.2285506	0.3148622	-0.0002579062	-0.23704337	-0.3623006	0.53313655	-1.0782001	0.2993253	-0.7845235	0.75455385	0.31362498	-1.8277959e-05	0.19977859	-0.03766249	-0.7285877	-0.49215186	0.20011032	0.4311052	-0.119438045	0.081244804	1.3675499	-0.7473737	-0.42073235	-0.43824995	0.17968842	-0.5218615	0.14100209	0.91827434	0.16448815	-0.21383502	1.2659595	-0.14589913	0.19986153	0.29353026	-0.077958584	-0.16074753	0.017957384	-1.4763659	0.7427295	-0.58503044	-0.2419672	0.2766375	0.14543423	0.06026453	-0.49093202	-0.11838541	0.485091	-0.0042159553	-0.10740864	-0.18951453	-0.0832835	-0.14080246	-1.2577269	0.19678214	0.50588256	0.052763574	0.047227148	1.0363275	-0.24211745	-0.30859315	0.32390583	-0.5695588	0.32418782	-0.17603563	1.1017323	-0.3085311	0.73668975	-0.8899715	0.038361464	-0.18850972	-0.46117616	-0.06254114	0.3201116	0.5395612	-0.06673321	-0.48650098	0.037870828
<http://bio2rdf.org/drugbank:DB00563>	0.14239165	-0.19075952	0.47376168	0.6390486	-0.15972234	0.21267079	-0.28607425	0.37466365	0.22006182	-0.6346092	0.09713454	-0.2785965	-0.32154602	-0.4605268	0.19667728	-0.37050036	0.18766078	-0.09909948	-0.3150627	0.31653798	0.087994166	-0.074013814	0.46604118	-0.059419613	-0.13502803	0.08302228	-0.65255356	0.18853623	-0.4804831	-0.11608275	0.23065652	0.21128583	-0.030031744	-0.59652406	0.78082967	-0.56078106	0.08507795	0.8591065	-0.242929	-0.32755274	0.114638776	-0.22829117	-0.16718812	0.030548062	0.028436905	-0.597878	-0.24826865	0.0064687477	0.6653196	0.48828974	1.0579455	0.40536487	0.13869923	-0.067064695	0.52081555	0.30563635	0.7562479	0.21527362	-0.0041988273	0.46027812	-0.027847318	0.36442712	-0.095617354	-0.042558696	-0.043708097	0.22986446	0.13536997	-0.21610476	0.22702768	0.465476	-0.13424653	0.019632509	-0.3026769	0.21645582	-0.11405134	-0.52856165	-0.020376747	-0.16665666	0.40296257	0.09010295	-0.52164936	0.52755016	-0.13910566	0.6560884	0.7063056	-0.01393393	0.0072978847	0.26600093	-0.16378328	-0.5450384	0.47469494	-0.13894466	-0.060539123	0.16418195	-0.62062454	-0.553075	0.11706397	0.122901164	0.09173797	-0.43108004	0.20030971	0.1583487	-0.4017724	-0.033354104	0.49329892	0.24289934	0.42226455	-0.12933578	0.44244355	0.047479264	-0.23728669	-0.4974839	0.5516021	0.56230766	-0.25085995	-0.08577058	0.081493974	-0.24274875	0.074696854	-0.29967526	-0.010087945	-0.24466337	-0.11695277	0.023989914	0.40151882	-0.74889904	-0.59599006	0.45583895	0.30055803	0.09565472	-0.1877318	-0.5156834	-0.031378936	-0.036493104	-0.16860512	0.22154553	0.034564424	-0.2896333	-0.39200887	0.18604903	0.3885776	0.18514666	-0.574677	0.21530607	-0.41917068	-0.28976825	-0.8862279	-0.041482132	0.0839601	0.75392437	0.91516304	-0.10094931	0.45011854	0.61557925	-0.03872672	0.14132892	0.89801306	0.07670344	0.2207017	0.4455898	-0.47765583	-0.15467864	-0.47131908	-0.34367892	0.63253987	-0.3598912	-0.19229163	-0.24887523	0.20557548	0.08317363	-0.68002224	0.24166292	0.0039661196	-0.43155572	0.43135762	0.00016386712	0.024461603	0.43306193	-0.27040163	-0.13622743	0.16006139	-0.14280692	-0.16804458	0.17042586	-0.33021438	-0.464489	-0.12787373	0.022615295	0.4980911	0.029386649	-0.38824773	-0.7801039	0.1367618	0.17253551	0.29580653	-0.20174512	0.2131134	0.31174102	0.08522934	0.42535138
<http://bio2rdf.org/drugbank:DB00264>	-0.7953407	0.39985126	0.52425593	0.08150517	-0.32120413	0.58998376	0.5632453	-0.2830054	0.016095312	-0.18439092	-0.23882903	0.21949652	0.33597836	-0.22712304	0.15923026	-0.18147352	0.42843324	0.45029488	0.17728221	0.72313505	-0.1707829	-0.2874933	0.40899754	0.44629025	0.111578465	0.92037255	-0.05993271	-0.015932057	-0.040416706	0.41109705	-0.085841134	-0.39498672	-0.16234028	-0.29327506	0.020410478	-0.021978334	0.37192535	-0.11006255	-0.15552272	-0.060689647	-0.22813228	-0.5308007	-0.14824991	0.63192785	0.043708857	-0.7490572	-0.2128567	0.2942789	-0.53409463	0.12985961	0.40039423	0.19233947	-0.19846815	-0.08067185	-0.077498	0.18992002	0.14536004	0.1531189	-0.42807952	0.1272743	-0.5967636	-0.25537944	-0.33604842	0.3344942	0.017492909	-0.06875115	-0.42422622	-0.049687278	-0.20907685	-0.43073827	-0.0024599386	0.26568472	-0.06728362	0.4063995	0.36279833	-0.12953475	0.7620453	-0.469972	0.21835904	0.37693083	-0.940632	0.39245722	0.2677406	0.6255392	0.29210484	-0.2746097	-0.20795926	0.19221339	0.3470442	-0.062422972	-0.021313122	-0.16573423	0.33314237	-0.2519174	0.08744007	-0.17762621	1.1976525	0.30510977	-0.1832297	-0.21187325	-0.17017008	0.40581194	0.22722591	0.57576144	0.09162021	-0.1858733	0.027779862	0.042024117	-0.33561864	0.24317265	-0.14806564	0.41917136	0.11003214	0.746544	0.58363324	0.2628358	-0.0026023271	-0.2210818	-0.2696687	0.4855689	-0.24765538	-0.38388234	-0.4722698	-0.024228116	0.017127467	0.06839263	-0.09854063	-0.5467371	0.42098033	-0.5865961	-0.13458054	-0.27702656	-0.056087155	0.5402877	0.0124031175	-0.64883524	-0.6966165	-0.40092516	-0.351066	-0.11270823	-0.24672656	0.4008767	-0.16912647	0.9012448	0.30526805	0.103310674	0.061443996	0.37963444	-0.07116674	0.22598302	1.2435513	-0.51095366	-0.3361096	0.5415741	-0.107778125	-0.08504203	0.28420654	0.6395813	-0.015615419	0.42558607	-0.49932882	0.17097789	-0.7664816	-0.11034135	0.20152195	-0.25225335	0.5755386	-0.0023285353	0.33910677	0.22960104	0.008731961	0.24127628	-0.27799773	-0.86304754	-0.14994101	0.27994063	-0.21613039	0.31914762	0.10077494	-0.2926515	1.119057	0.40033188	-0.45385885	0.1461542	-0.28637552	0.056215435	-0.3232014	1.3084354	0.7616207	-0.6233943	-0.30792293	-0.5056737	-0.1010953	-0.3632631	0.27649853	0.30209413	0.65940523	-0.47066456	0.08437635	0.23665795
<http://bio2rdf.org/drugbank:DB00334>	-0.25163224	-0.13868585	0.21165296	0.05909608	-0.5711556	-0.052865483	0.22197025	0.10080713	0.12629516	-0.23047814	0.07154668	-0.2177977	0.55713975	-0.108720794	0.65276355	0.21130808	-0.11229006	0.09842837	-0.099057466	0.23483606	-0.25141433	0.37581864	0.55475265	0.42467877	0.081883304	0.027839568	0.08951723	-0.76917607	-0.23841272	0.09881262	0.23848385	0.18887112	0.16810447	0.3169437	0.83824223	-0.30050528	0.46227422	0.5019166	-0.05380305	-0.40088296	-0.04691363	-0.45913067	-0.281454	0.027888535	0.5012741	-0.4539485	0.062321313	0.16260521	-0.4851136	-0.15158646	0.5201131	0.2859149	-0.14013731	0.37051517	0.44050133	-0.035341065	0.7864528	-0.20533608	-0.5400238	0.25377363	0.34451514	0.17804825	-0.092136145	-0.14367788	0.03979961	-0.05782264	-0.22203544	-0.40756023	0.46835884	-0.3836782	0.13682565	-0.2683936	0.035195448	-0.37432504	0.31803197	0.20968577	0.43581086	-0.29643863	0.010041942	0.8823213	-0.33989087	0.2827241	0.6968443	0.18248644	0.38701507	-0.40353894	0.21832351	0.19987045	-0.18055803	-0.14809835	0.81516415	0.14674287	0.7339263	-0.65905184	-0.21723327	-0.8354955	0.6069328	-0.02386963	0.5104071	-0.29516035	-0.08918722	0.35286152	0.2922537	-0.027763475	0.2662565	0.1060845	0.20138961	0.08442832	0.09343859	-0.39544913	-0.16614166	0.24358205	0.24403447	0.31630853	-0.30687538	-0.014396433	-0.23245671	-0.2476609	-0.3640397	0.298439	-0.18223195	-0.3481365	-0.26054484	0.4520695	0.06281892	0.3868697	-0.31663644	0.040114336	0.6504985	-0.7164205	0.47496432	-0.20767626	0.29983374	-0.23713784	-0.12217087	0.30795228	0.18781516	-0.5671203	-0.04526764	0.46331224	-0.36192557	0.052744593	-0.043254044	0.7536639	-0.32280722	-0.2540985	-1.0510799	-0.23903066	-0.84840083	0.7098108	0.3362179	-0.23237942	0.09017792	0.21666612	-0.11439372	0.22883415	0.29506096	0.06121372	0.05058201	0.677054	-0.68783337	0.44938216	-0.6690102	-0.16953743	0.34337297	0.5316665	0.35594735	-0.054140534	0.6252161	0.7270897	-0.51171315	0.5191981	-0.32638252	0.122150436	-0.11702657	-0.29749432	0.059406087	0.23071265	0.014863169	-0.30403045	0.6752911	-0.09219087	0.5544326	0.2287517	-0.16263166	0.3851589	-0.42185166	0.76334304	-0.2046758	-0.37501463	-0.73904026	-0.56029344	0.053282432	-0.12633057	0.13150562	-0.62093484	0.27037495	-0.4355491	0.2545305	0.5890042
<http://bio2rdf.org/drugbank:DB01115>	-0.11688812	0.10388586	0.3614851	0.20512043	-0.4836464	0.15341629	0.04272337	0.05260641	0.061587945	-0.08436078	-0.26014963	0.30089685	-0.5281294	0.16538568	0.7174395	-0.048060246	0.112870105	0.6178822	0.4026585	0.080054425	0.07696838	0.47428358	0.42998135	0.26308575	-0.039467283	-0.11120148	-0.7542466	0.04485627	0.028377306	-0.16181529	0.3353091	-0.41249767	-0.54160666	0.36729676	0.6384711	0.15880832	0.72267705	0.8639742	-0.09740412	-0.58063704	-0.4121932	-0.09339725	0.07104971	0.9251835	0.8378259	-1.0528288	0.015926104	0.13417095	-0.6436533	-0.4921616	0.9813248	0.7055022	-0.15393057	-0.3176832	0.048644602	-0.20224485	0.91643006	-0.24702226	-0.4990484	0.34862867	0.16865662	0.19026203	0.058699824	-0.63649076	0.5843789	-0.31302425	-0.16168365	-0.52972203	-0.14858246	0.45882463	-0.39172065	-0.34359375	-0.4417315	0.21649757	0.369875	-0.3823724	0.076511145	0.033746168	0.089365944	0.66955197	-0.50147474	-0.28615087	0.512489	0.25369594	0.33542994	-0.30636975	0.20029075	-0.09410839	-0.14670232	0.7270327	0.16594553	-0.2252035	0.8587126	0.054304834	-0.57099056	-0.2314548	0.48721212	-0.40836596	0.027224388	-0.4911404	0.01430147	0.026114857	0.2640633	0.68741256	-0.08995387	-0.669696	0.14534578	-0.8190729	-0.15040438	-0.07844204	-0.8956243	0.5357942	-0.13554175	0.30060488	0.121934496	0.08293445	0.21654584	-0.15254892	-0.28289166	0.49293986	-0.61929	-0.6583451	-0.029773276	0.017168611	-0.37308988	-0.008743677	-0.36404753	-0.27327898	0.09786547	-0.46597096	0.2623711	-0.3273433	0.257215	0.1975211	0.02215435	-0.1961776	-0.08425104	-0.46296328	-0.26373765	0.4952163	-0.6957557	0.69022876	-0.42174366	-0.053566966	0.3878557	-0.40192834	-1.0840685	0.36077812	-0.31909183	0.090758726	1.2087908	0.342184	-0.09206336	-0.21345074	0.0054762396	-0.41542217	0.5134016	0.44055858	-0.043178037	0.338608	-0.8297518	-0.17834996	-0.77303165	-0.08256407	-0.127338	0.0762216	0.9300839	-0.47069874	0.23309752	0.9266214	-0.45932665	0.23884663	-0.61307514	0.641287	-0.22961637	0.066264555	0.097030014	0.42342156	-0.5291322	0.04462806	0.9858775	-0.32510385	-0.61629105	0.021991704	0.041373592	0.106316835	0.3174458	0.40110427	-0.010144171	-0.4258822	-0.62161165	-0.7963007	0.42792085	-0.6588738	0.7837671	0.32872808	1.1263629	-0.23218645	-0.41977513	0.49369735
<http://bio2rdf.org/drugbank:DB01229>	0.36334294	0.24103561	0.46883014	0.21289672	-0.47888795	0.16466713	0.05224776	0.17928368	0.40626538	-0.48314014	0.12078764	-0.01813935	0.08296616	-0.2812549	0.25366947	0.4668227	-0.23886047	0.3657545	0.20413005	-0.074145384	-0.29962793	0.0568732	0.5547643	-0.082943305	0.09231746	-0.23120394	-0.85338706	-0.08039488	-0.41403323	-0.070565924	0.9494865	-0.35919023	-0.011464868	0.12702574	0.30112278	-0.441056	0.09709222	1.1738912	0.13523947	-0.5205158	-0.38148135	0.32186678	-0.6643167	0.112363376	0.4791453	-0.790818	0.16298239	0.24949594	-0.11855427	0.36508638	1.0251757	0.71955603	0.040080786	0.057551645	-0.26877692	0.036621843	0.87949735	0.47802413	-0.2542187	0.10174307	-0.0042788554	0.20364234	-0.5767845	0.30495542	0.13779731	0.18665107	-0.36940914	0.053534795	-0.43619776	0.2996886	-0.05931882	-0.2155518	-0.5097542	0.17965825	-0.7780261	-0.42704427	-0.15937896	-0.55514705	0.33278537	0.25028297	-0.6046596	0.41467056	-0.063767724	0.19839093	0.24320385	-0.58906585	-0.32120976	0.32045597	-0.2718288	-0.17556506	-0.044961475	-0.18304007	0.7304036	0.15652788	-0.60822964	-0.47700596	0.6362244	0.34463117	-0.25378397	-0.5319037	0.7753821	0.31450713	-0.4469658	0.42792043	-0.43037048	-0.2991718	0.5706094	0.17054826	-0.4406363	0.13621028	0.237818	0.021595435	0.42444122	0.38095888	-0.32924607	-0.75321573	-0.30246758	0.041417774	-0.4550038	-0.23533906	-0.8432084	0.2888093	0.042913526	-0.111499995	0.19161576	-0.06530423	-0.13544267	-0.16841492	0.45813194	-0.4118862	0.21010277	-0.5050023	-0.19924924	-0.8148087	0.07831453	-0.22326694	0.15322518	-0.37318373	-0.5293355	0.33768907	-0.28087586	0.49838433	-0.30668905	0.18524182	-0.4548388	-0.0046711285	-0.34550238	0.09660096	-0.40379596	0.31141117	0.28315338	0.18140991	-0.76257044	0.65350014	-0.042844094	-0.3687545	0.18076746	0.53061897	0.10668369	0.28254175	-0.7386742	0.03237678	-0.468802	0.11143235	0.6563998	-0.42510146	0.3407907	-0.38588443	0.07841082	0.3619565	-0.31834698	-0.049793445	-0.18618347	0.6840161	0.58839417	-0.09748821	-0.1328337	0.4085322	-0.5824989	-0.11201491	0.72225815	-0.14606619	-0.07509403	0.25762883	0.24316084	0.013430992	-0.39275023	0.109347925	-0.10017142	0.06863462	-0.59758437	-0.43620762	0.2173141	-0.12717317	0.58836603	0.16152589	0.97706115	0.07413287	-0.02725395	0.103938095
<http://bio2rdf.org/drugbank:DB00448>	-0.5213981	-0.06701456	-0.051419605	0.5509883	-0.040869053	0.2485905	-0.21031205	-0.27582172	0.10873973	-0.08503656	-0.08259015	0.0661951	0.21452853	-0.58374083	-0.107829124	0.036431603	0.30332196	0.10249224	-0.11521804	0.34884238	0.431293	-0.38625363	0.10170122	0.13710032	0.21204308	-0.16755967	0.12429819	-0.0038040427	0.577181	0.119309366	0.038933147	0.4425239	-0.21043006	-0.16092685	0.91299427	0.3370507	1.0120447	0.80831957	-0.11512617	-0.76680106	-0.25888205	-0.34861967	0.65278685	0.77481145	0.671586	-0.95749706	-0.77061015	0.805645	-0.47143772	0.5031131	1.0162079	0.45453954	0.48697641	-0.20971207	0.4167544	0.19297945	0.037183344	-0.5480966	0.10992618	0.60479254	0.34267658	-0.10376483	-0.2546119	-0.4686576	-0.1200025	-0.29771626	-0.26975495	0.19992538	-0.6226687	-0.021370959	-0.37805477	0.12795767	0.064209916	0.26312393	0.07793088	-0.1899294	0.14634009	-0.7755742	-0.55621153	0.36534125	-0.7632651	0.3077263	0.3799473	0.10039564	-0.12094209	-0.8224977	-0.1590575	-0.17258224	0.107388675	0.51702285	-0.0027573425	0.62423563	-0.04430156	-0.14477587	-0.8368658	-0.53601503	0.83011127	-0.22331722	-0.26378614	-0.1776267	-0.10006519	0.5666943	0.08025068	0.57847416	-0.1654013	0.39409575	0.18628791	0.27879354	-0.6963185	-0.10862384	0.047841325	-0.052369107	0.5742095	0.6949063	-0.00627051	0.01793952	-0.46979028	-0.91253006	-0.93747956	0.35273588	-0.66524214	-0.47955444	0.1259681	0.000982071	0.16911255	-0.029209731	0.16282743	-0.23505944	-0.12731247	-0.26877543	0.6945114	-0.71612215	0.13848987	-0.4843408	-0.13550799	-0.3687035	-0.0417009	-0.61364985	-0.29717267	0.10072221	-0.113159604	0.38666785	0.016684294	-0.13995223	-0.057576653	0.38756993	-0.8905268	-0.04899248	-0.9125086	0.66132385	1.0286965	-0.48358142	-0.012377887	0.3225334	-0.21759899	-0.49311826	0.30158097	0.35971454	0.058708496	1.1419635	-0.013281328	0.33212003	0.17642199	-0.4595005	-0.2417214	-0.047408074	0.48531714	-0.0023837348	-0.006754019	0.033928704	-0.032295004	0.2973073	-0.7366522	0.3838631	0.08695071	-0.077522025	0.30813077	-0.027095906	0.032927226	-0.2791015	0.8611527	0.3020704	0.23542273	0.05845608	-0.1542066	0.058091953	0.2916117	0.9780525	0.30232903	-0.17726396	-0.21664011	-0.4538564	0.1777173	-0.32155368	0.5233218	-0.16532966	0.4789603	0.3214991	-0.14458755	0.72838026
<http://bio2rdf.org/drugbank:DB00224>	-0.15250634	0.16115227	0.55449	0.6399536	-0.21456924	0.009471358	0.12800305	0.11276376	0.2004367	-0.32200882	0.017058894	0.36204723	0.21941155	-0.26646805	0.4868928	-0.21185829	0.32945028	0.37962067	-0.2449985	0.23925216	-0.16408019	0.577699	0.7127155	0.51508814	-0.12610564	0.22820584	-0.34594014	-0.99042106	0.4041606	0.20934904	0.25632593	-0.22242036	0.4265076	0.22667888	0.4962455	-0.3558812	0.71929294	1.0069894	-0.37206015	-0.38242608	-0.33191872	-0.043676257	0.016696732	0.3574868	-0.23931587	-1.0611271	0.02312176	-0.5283263	0.28791225	-0.019581206	0.5261342	0.6600237	0.36566985	-0.14941068	-0.22042213	-0.41205263	0.92407835	-0.6613398	-0.020577526	0.3979741	-0.096697114	0.10332916	0.17343889	-0.49351323	0.4579675	0.2979275	0.0950065	-0.81195056	-0.24897465	0.044137537	-0.23267485	0.21575429	-0.096810296	0.67917556	0.57538074	-0.056421597	0.023963796	-0.93321395	0.09304252	0.3919571	-1.0302271	0.5847352	0.3466862	-0.15887263	0.12842698	-0.77184504	-0.120237336	0.355178	0.3496499	0.17674862	0.60885763	-0.4431527	0.5131675	0.5204864	-0.16909039	0.32543218	0.8144432	0.12498803	-0.37156233	-0.53507745	-0.0061207637	0.41284552	-0.61432505	0.5019154	0.0057934467	-0.32804957	0.8432723	-0.03007627	-0.6038797	-0.1012875	-1.2363933	-0.15244839	0.11847724	0.83183885	0.11908097	0.009377719	-0.042899445	-0.6246218	0.056663327	0.69037956	0.07101243	0.26298022	-0.35529348	-0.0742517	0.3594187	-0.2730428	-0.81069523	-0.070089474	-0.18572083	-0.79579103	0.44191372	-0.80109787	0.09595205	0.35489514	-0.21611908	-0.30858722	0.17915902	-0.8836034	-0.42312908	0.3293592	-0.394677	0.41278264	-0.2979245	-0.22789834	-0.05836957	-1.0459545	-0.87835264	0.116446994	-1.253369	0.42650193	1.1932482	-0.21531086	-0.29338077	0.29272386	-0.2506863	-0.11656932	0.5900897	0.18288031	-0.41202912	0.50789726	-0.35653654	0.23785639	-0.9175141	-0.0862085	0.6054727	0.19857086	0.9628904	-0.60077155	0.17049961	0.59409773	-0.41039488	0.11388844	0.053174153	-0.06527362	0.15877531	-0.059105188	-0.46332565	0.15717728	-0.23021404	0.06018318	0.6563472	-0.27520323	-0.3995056	0.23510823	-0.30257663	0.36682934	-0.036919735	0.028955761	-0.10785963	-0.31690767	0.30212462	-0.32091594	0.33614498	-0.1614189	0.6094943	0.076928504	0.37051025	0.03401912	0.06352732	0.22323784
<http://bio2rdf.org/drugbank:DB00176>	-0.52452254	0.39069542	0.28959644	0.26571867	-0.26071942	0.018840624	0.46748647	0.13996474	0.05704898	-0.29599062	-0.020779079	-0.18341273	0.38137347	-0.26996422	0.54451936	-0.21284181	0.3465071	0.43958992	0.32983115	0.6442105	-0.021564983	0.11167187	0.109882176	0.3113678	-0.77310276	0.28928366	0.46784115	-0.47422177	0.19338432	0.53114074	0.09103335	-0.15060195	-0.4569983	-0.14643174	0.37586057	-0.2745926	0.45333174	0.16214289	0.48534453	-0.27121288	-0.21432288	-0.06617566	-0.2043711	0.3753437	0.29085252	-0.7400301	-0.01600338	0.119375035	-0.65555865	-0.18515953	0.7878655	0.424466	-0.34805924	0.28577447	0.045987103	-0.062502645	-0.5127563	-0.4518551	-0.39240292	0.2649575	-0.37081304	-0.6925063	-0.24482627	0.9256951	0.28291303	-0.22225174	-0.24165724	0.16583629	-0.22188593	0.13232036	-0.48457524	0.1488547	0.009072366	0.58679265	-0.11354566	-0.099767625	0.7935834	-0.4568668	-0.49130076	0.910669	-0.7007659	0.21366373	0.23665886	0.0824833	0.14868537	-0.21814825	0.46266806	0.11529547	-0.1273012	0.06480387	0.28888828	-0.11412625	0.55900866	-0.2398921	-0.5444007	-0.1210913	0.8170416	0.14208499	-0.33798507	0.14088564	-0.030663755	0.70058453	-0.5339344	0.48000598	-0.094144635	-0.2042766	0.64761114	0.38943672	-0.16640913	0.043597847	-0.487352	0.14018705	0.24251735	0.093020424	-0.11581584	-0.13807614	-0.7067457	-0.41053882	-0.76912767	-0.115214616	-0.5586219	-0.41726646	0.131697	-0.11530179	-0.09363074	0.2627961	-0.3582913	-0.047741286	0.43508542	-0.8626238	0.1008962	-0.22932518	-0.12930603	-0.07308285	0.091664575	-0.14307532	-0.104951575	-0.8813984	-0.5080786	-0.17705284	0.023135833	0.05678704	-0.36283368	0.530035	0.024501858	-0.14698356	-0.98982143	0.09994982	0.013836623	0.40736148	0.27376702	-0.44052655	0.53812116	0.28893322	-0.44136173	0.3044346	0.89820635	0.1859478	0.26009825	0.6238437	-0.31105745	0.1674481	-0.672806	0.048937712	-0.54006386	0.29980442	0.3943345	-0.003535725	-0.074375786	0.21288359	-0.09995591	0.09278904	-0.46599317	-0.6269875	-0.059791457	0.09672004	-0.28001967	0.72933865	-0.053003877	0.16827852	0.7461417	-0.18585016	0.6238684	0.36870402	-0.016562525	0.2780082	0.4434899	0.5660249	-0.07249894	-0.20602001	-0.15454398	-0.69058484	0.6241605	-0.52573633	0.40857592	0.19115171	0.04508747	0.37375727	-0.21636851	0.13673371
<http://bio2rdf.org/drugbank:DB04896>	-0.19134171	0.31872728	0.38257512	0.38085946	0.7359542	0.03352934	0.04735264	-0.5634064	0.051073223	0.03345298	0.0020199663	-0.62508965	0.9722525	-0.023886751	0.84683883	-0.31795084	0.17843616	0.382305	-0.3012046	0.27152562	-0.27642378	0.119897336	0.2689023	1.3617697	-0.5181277	0.29975018	-0.3515226	-0.59305364	0.016922064	-0.20803472	-0.061646085	0.44554886	-0.046390478	0.24215977	0.030712128	-0.1523071	0.50513494	0.118275836	0.5072249	-0.50240254	0.25242078	-0.4950682	0.1175903	0.16251802	1.0545362	-1.6324592	0.99787456	0.051470406	-0.67382205	0.17051753	1.1069081	0.21495627	-0.104763165	0.048181623	0.9971711	-0.12476019	-0.34967312	-0.035090994	0.23571287	0.860485	0.08724365	0.053057294	0.5024241	0.86249447	1.0787557	0.37285787	-0.38171497	0.13921992	0.028390128	0.7444979	0.040294446	0.2176834	0.3876568	0.38509876	0.015454663	0.2657995	0.70666426	-0.96198577	-0.3967061	0.082609236	-1.0113924	0.8309681	0.630279	-0.499575	-0.053194012	-0.25549445	0.5679167	0.14778154	-0.19566394	-0.61229116	0.20000926	-0.2581653	0.35741287	-1.2368525	-0.48062676	-0.09162149	0.1520653	0.5824167	-0.4109645	-0.6196741	0.14596553	0.9253391	0.37361535	0.6380252	-0.18121243	-0.17518076	0.29721355	0.19518769	0.16861466	0.89927804	0.28992242	-0.08401543	0.217403	-0.1880951	0.38269514	-0.48103863	0.66669536	-0.25717852	-0.05859062	-0.48572522	-0.14651367	0.30138418	0.33381605	0.051082782	-0.008247574	-0.06764227	-0.081345364	0.22126572	0.405363	-0.8073249	0.21697961	-0.07092601	-0.015855042	-0.3688478	-0.26553133	0.41134945	0.15040343	-1.0479889	-0.723063	-0.67544514	-0.457114	-0.118961714	-0.26027936	0.101639435	-0.28318083	-0.30452964	-0.9897065	0.76036626	-0.5995848	0.80601907	0.30885792	-0.41523644	0.24361345	0.90386635	-0.60167307	0.22459775	0.90968335	-0.4669347	0.19190283	0.12378437	-0.22158957	0.18885359	-0.9236295	-0.59834796	-0.21421194	0.63064045	0.47924486	-0.88469607	-0.36723432	0.095487885	-0.39429453	0.39379323	-0.030276274	-0.8456116	-0.38839838	-0.16951783	-0.49987367	0.5675645	0.08672164	0.39631817	1.3436254	-0.3969258	0.12233108	0.4472944	0.15962087	0.15695065	-0.38343957	0.89352936	0.054940924	0.23343402	-0.34131598	-0.71099293	0.41293758	-0.8495567	-0.1424018	0.191163	0.4973735	0.17353356	-0.011484976	0.5479191
<http://bio2rdf.org/drugbank:DB00715>	-0.46558687	0.056572005	0.17596994	-0.21200073	-0.07362527	-0.026533058	0.5165675	-0.25877222	-0.21073855	0.3705105	0.27770337	0.2326371	0.4293685	-0.20027572	0.109570876	-0.5672434	-0.061442915	0.28778705	-0.19534439	0.4924057	0.11596138	0.13437499	0.25597456	0.3076024	-0.12197106	0.28507245	-0.08859547	-0.21147299	-0.11941378	-0.21182369	-0.0034121464	0.44201046	-0.06747023	0.16910972	0.9125906	-0.22317116	0.54087436	0.3547738	-0.042093508	-0.61097217	0.089961864	-0.18915708	-0.2890376	0.42551523	0.11689856	-0.59142	0.43254706	0.34538513	-0.4659671	0.0068773455	0.33332565	-0.14659967	-0.4679093	0.0028338565	0.27921236	0.25377977	-0.011159536	0.09585166	-0.23254324	0.9208195	0.00025130977	-0.5959382	-0.12001775	0.7457026	0.2582085	0.19470261	-0.23555931	0.16249183	-0.46959284	0.07776027	-0.14563042	-0.35015142	-0.03467029	0.37949327	0.24323298	-0.13095331	0.48767978	-0.8440758	0.66634005	0.13993065	-1.318405	0.33277234	-0.29437384	-0.11201832	0.12829994	-0.17631458	0.7404497	0.03507401	-0.25427833	-0.43387002	0.06476473	0.08455986	-0.0788377	-0.12597434	-0.8188393	-0.038709637	0.6471135	0.24295233	-0.0023645344	-0.39112782	0.4391059	0.54501134	0.049833793	0.40058753	-0.613073	-0.070741154	0.71386474	0.18516478	-0.20013078	-0.1477188	0.006596241	0.0070904796	0.03363857	0.8477191	-0.19170754	-0.15389614	-0.16706362	-0.21887599	-0.31282064	-0.17707403	-0.16684163	-0.046338677	0.001549937	0.35510033	0.056850027	0.4319298	-0.41525352	0.12427053	0.49905676	-0.88375336	0.12237709	-0.3489929	-0.20708123	-0.016198957	0.062002588	0.20464803	-0.060986724	-0.90760475	-0.32269463	0.45421267	0.014921379	0.21120238	-0.16442572	0.6866642	-0.25292623	-0.4144559	-0.52018523	-0.095501445	-0.06721481	0.33731303	0.6734814	-0.215517	0.19395666	0.55893207	-0.34485543	0.4019219	-0.13087724	0.20868012	0.44134852	0.4190469	-0.4535798	0.26743636	-0.32721102	-0.2924738	-0.09736986	-0.058227718	0.2021322	-0.09035294	0.20293595	0.07199891	-0.10670644	0.15667503	-0.44586506	-0.5340613	-0.34923044	0.2626632	-0.37298486	0.83773476	-0.32526448	-0.069985196	1.1287154	-0.05335998	0.29630458	0.0402692	-0.212083	0.31205627	0.2623587	0.939749	0.15239897	-0.032203443	-0.11433738	-0.35480142	0.7018657	-0.22920352	0.46306112	-0.3896227	0.30463076	0.2238426	-0.15250765	-0.09973437
<http://bio2rdf.org/drugbank:DB00502>	0.14351949	-0.097500235	0.39727375	-0.38666263	-0.6183486	-0.23768143	0.60667807	0.112218454	-0.05030388	-0.13439594	0.0032049923	0.6988168	0.47039688	-0.27727908	0.96124744	-0.051717374	-0.21606657	0.3957312	0.43808556	0.66844344	0.02999138	0.35300356	0.42194355	0.11603669	-0.41057676	-0.0127304895	-0.01656486	-0.44850674	0.3145373	0.5642602	0.33245972	0.014471575	-0.088055305	0.33125585	1.2135161	-0.04763331	0.52002937	0.62735784	-0.15000333	-0.30976516	0.20023778	-0.108524345	-0.46954146	0.5386904	0.34706745	-0.46004224	-0.13068928	-0.0818077	-0.5881538	-0.43028903	0.7705614	0.48482382	-0.25388908	0.18716654	-0.2160127	-0.16013099	0.17722078	-0.09601068	-0.20887798	0.60791886	-0.06448609	-0.18800853	-0.44987503	-0.10552249	0.7039486	0.06340029	-0.7458569	-0.07612452	-0.213921	-0.27236685	-0.4385858	-0.38350517	-0.15261616	0.115785904	0.5000472	-0.4730086	0.3809747	-0.43921205	-0.1693184	0.18375163	-0.56823546	0.3161494	0.2567979	0.18742286	0.4584518	-0.34073958	0.0016153607	0.3916685	-0.8841681	-0.33864278	0.4556935	-0.24881077	0.15024321	-0.3396747	-0.3866605	-0.028285593	1.0369276	-0.2099414	0.25643092	0.06033401	-0.5437628	0.85113794	0.17347793	0.2748318	-0.08223159	0.12822928	0.44043967	-0.2415194	0.21196944	0.13357852	0.4096657	0.01629313	0.8100789	0.80265087	0.23867774	-0.077888235	0.16493586	0.047382258	0.017572768	0.08128894	-0.30733165	-0.112364255	-0.27070037	-0.2826336	-0.14422712	0.15580973	-0.46309322	-0.20550391	0.975363	-0.5649971	0.057391606	-0.09159121	0.063232966	0.084577195	-0.06731345	-0.36381376	-0.15516925	-0.5122501	-0.4598341	-0.15387596	-0.3117281	0.40869614	-0.48088178	0.7284979	-0.4693836	0.027788477	-0.84557384	-0.016280873	-0.20534782	0.80611753	0.46434063	0.018184574	0.15433043	-0.24728033	-0.42483485	0.22442079	0.58398885	0.4459506	0.46394283	0.38661683	-1.0496792	0.33745295	-0.35908702	-0.47894567	-0.27201086	-0.14708382	0.5719912	0.012439766	0.36879033	0.084139176	-0.34190372	-0.4803511	-0.27814707	0.09338406	-0.16855556	0.6453456	-0.09006799	0.31271073	-0.37732333	0.07173772	1.1230252	-0.32153976	-0.2595389	0.550517	-0.3411972	0.325061	0.23117542	0.60823226	0.0950032	-0.044074185	-0.6598633	-0.8119735	-0.17735055	-0.015279575	0.39291355	-0.10273907	0.06521963	-0.4382463	-0.18578601	0.24862272
<http://bio2rdf.org/drugbank:DB00850>	-0.10649806	0.18996006	0.76169163	-0.43116304	-0.27665696	-0.013272304	0.2038768	0.15146163	-0.07488425	-0.8876054	-0.23583545	-0.12440151	0.32149813	-0.23380156	-0.26601136	-0.43158674	0.024436021	0.43854263	0.5577598	0.5820924	-0.43168747	0.2573739	0.0746289	0.53014	-0.44763958	0.43215886	-0.70576155	-0.06969272	-0.05682944	-0.052919723	-0.3259417	0.15610157	-0.014078057	0.0057814005	0.9650234	-0.022577805	0.30589098	0.44637764	0.30505836	-0.6050762	-0.13235463	-0.2794026	-0.13819677	0.39628989	0.08382528	-0.7251417	-0.3939156	0.13417661	-0.30443624	0.5274457	0.66423583	-0.3788117	-0.3820289	0.18108828	-0.032954045	0.26530954	0.3981697	-0.5201881	-0.14497377	-0.47718304	-0.2136882	0.1868461	0.34671202	0.03637627	0.28396994	-0.03161963	-0.07534707	-0.42575994	-0.07524339	-1.0496386	-0.33797532	-0.051350065	-0.058108706	0.22265385	0.44844487	-0.7509053	0.4927756	-0.7767882	-0.14764892	0.74379027	-1.1156135	0.32582894	0.37979162	0.2512061	0.57616496	-0.4760439	0.5225991	0.11709361	-0.17386098	-0.47197735	0.36584088	-0.31397936	0.11490081	0.10462114	-0.6068273	-0.5529995	0.8819785	0.20086658	0.023641825	-0.078948446	0.17954053	0.08103888	0.043046143	0.4666039	0.18988377	0.16207136	0.4316279	0.24954632	0.16339126	0.19016925	0.26829404	0.13249713	0.3148147	0.2818464	0.17293474	-0.27446133	0.31611598	-0.5450252	-0.52737695	-0.089105986	-0.42747185	-0.25031015	-0.60518116	-0.63909614	0.13027622	-0.019230407	-0.69550186	-0.21786751	0.9224418	-1.0038586	0.3801624	0.005154257	0.4552124	0.10876714	-0.07450331	-0.7062304	0.72404134	-0.49083117	-0.6979049	-0.39738303	-0.4545916	-0.066983275	-0.046113834	0.9249688	0.19691405	-0.015962932	-0.42166585	0.19525523	-0.7715015	0.75038415	0.1437477	-0.44650763	0.30143273	-0.14288636	-0.80635947	0.121292844	0.87761724	0.51597106	0.2693232	1.1308026	-0.49417973	-0.026147291	-0.69762164	-0.14926264	-0.57536566	0.60137826	0.084161505	0.186219	-0.39999673	0.18937235	0.0767136	0.12344803	-0.30952638	-0.35260803	-0.310541	0.38972875	-0.23877248	-0.15497121	0.060638767	0.1223785	1.1074746	0.34587997	-0.456715	0.4109621	-0.2666872	0.91585183	-0.122373216	0.4421737	-0.13972907	-0.1640261	-0.35751814	-0.849525	0.03893568	-1.1688075	0.84362966	-0.29246867	0.21660452	-0.4712168	0.2578243	0.07570804
<http://bio2rdf.org/drugbank:DB01356>	-0.37962025	0.08351619	-0.082371004	0.20260927	-0.19342318	0.45816702	0.5095705	-0.00920124	0.028527595	-0.06091586	-0.1674255	-0.2075896	-0.14157777	0.3042865	0.21118458	-0.64090014	-0.08620713	0.34356195	0.054749373	-0.07055394	-0.19235358	0.36840084	-0.072803214	0.19066894	-0.26012868	-0.18314822	-0.11982066	0.2860196	0.6233288	0.52234536	0.26020786	0.40903375	-0.30424222	-0.42689478	0.35403195	0.37733883	0.55528116	0.17821236	-0.1093253	-1.1100878	0.17630917	-0.087247536	-0.016573062	0.11243547	1.1757783	-0.7569658	0.0100199	-0.26193246	-0.050409995	-0.06311465	0.27625364	0.60415727	-0.2573754	0.027880471	0.7694418	0.09458763	0.33776346	-0.25849864	-0.112535514	0.41695103	0.29357195	-0.43418062	-0.09267443	0.19576304	0.2532867	-0.59018016	-0.31341395	0.19022925	-0.25930387	0.30387115	-0.02740745	-0.61144716	0.34392968	0.3965251	0.16799152	-0.5451383	-0.028982159	-0.42083663	0.8113682	0.13660413	-0.618831	1.0985125	0.35949412	-0.10424327	0.41042322	-0.7784956	0.17874351	0.39624584	0.01332773	-0.14471264	-0.24926747	0.5185075	0.7003562	-0.14387292	-0.27491248	-0.39931923	0.98416483	-0.20392887	0.4697604	-0.31106275	-0.32900658	-0.35116282	-0.022880318	0.2715826	0.2782432	0.1224678	0.23759857	-0.068349235	-0.6089775	-0.15275164	-0.0047594844	-0.022005526	0.27612993	0.30079988	0.14095321	-0.5243965	0.23666121	-0.040282067	0.3404354	0.6626337	-0.33198905	-0.32268846	-0.28545535	-0.47434276	0.06487368	-0.30551302	-0.43888724	0.37789768	0.22553058	-0.559121	-0.15980749	-0.34409648	0.18587798	-0.0989135	-0.52800256	0.42113733	0.32037288	-0.25874373	-1.153944	0.14231704	-0.572242	0.11649901	-0.25766236	0.39583978	-0.1136906	-0.06062117	-0.9144856	0.052008204	-0.57689387	0.77295667	0.37988016	0.46459505	0.4127163	0.0011285977	-0.6444658	0.029528435	0.0074696396	0.29564056	0.3854573	0.21899894	-1.247672	0.50512457	-0.20161709	-0.21869302	-0.12544519	-0.010446789	0.00086027005	0.41148093	0.2744032	0.17093293	-0.2743701	-0.1333516	-1.1775438	0.24138208	-0.1090043	-0.31481057	-0.17332129	0.46635735	-0.1497739	0.239678	0.5006646	0.25419435	0.24779545	0.054063786	-0.7307594	0.3224408	0.4561976	0.8276042	-0.08388598	0.19306625	-0.36957157	-0.8439683	0.51561505	-0.15914783	0.11909096	-0.05354863	1.0970889	-0.12678228	0.07699199	0.3228305
<http://bio2rdf.org/drugbank:DB00184>	-0.102908894	-0.07395307	-0.4993957	0.38316	-0.5753008	-0.040631197	0.21290152	-0.020156078	-0.26047382	-0.2667016	-0.35718933	0.63708663	-0.22957043	-0.14871918	0.48123473	-0.22643167	-0.0922588	0.04822482	-0.005315976	-0.09688931	-0.10550972	0.2974153	0.09021878	0.20364791	-0.031383306	0.49528512	-0.28817335	-0.5924992	-0.35632268	0.018961336	-0.15468962	-0.042283025	-0.12455042	-0.062742166	1.200279	-0.25100183	0.75661397	0.6871439	0.10572372	0.16527933	-0.45001104	-0.24872981	0.14193791	0.3554818	0.0044145533	-0.7737494	-0.16866903	-0.1397344	0.07257016	-0.34668648	0.42840832	0.8508165	-0.65159637	0.13405141	0.2785781	-0.110092625	0.4682491	-0.02935308	-0.61866176	0.10715757	-0.19780944	0.1820311	-0.17980029	0.114795834	-0.061853386	0.6116497	-0.40599865	-0.072629854	0.065056965	-0.17190906	0.16143341	-0.34017277	0.034007166	0.31961015	0.019676924	-0.2683791	0.28508258	-0.111146025	0.41630083	0.19136567	-0.47758257	0.04295903	0.0019379671	0.56532913	0.057558108	-0.49858254	-0.06352729	-0.12915632	-0.15401968	-0.47517595	0.11434382	-0.068574384	0.698855	-0.16233242	-0.076354556	-0.21358672	1.2208438	-0.07008423	-0.21948995	-0.88485515	0.13460885	-0.38287863	-0.29985526	-0.4593817	-0.11625952	0.13569954	0.45231083	-0.057916254	-0.037511915	0.116923146	-0.25118998	-0.42947036	-0.33572522	0.05100601	0.39952624	-0.647952	0.4373789	-0.40517452	0.22319947	0.11526119	-0.5034311	-0.29343095	-0.338915	-0.42670298	-0.2810181	0.020447643	-0.6198892	-0.5074508	0.56420857	-0.031574413	0.06473026	-0.56889635	0.6591668	0.06906847	-0.62897056	0.46709538	-0.2174197	-0.43672663	-0.30856386	0.41006073	-0.2253776	0.5082551	-0.32156372	0.82764095	-0.07426302	-0.23285559	-0.5324811	0.45193288	-0.25570473	0.3812057	0.57805264	-0.14268768	-0.35602033	0.19683908	-0.21320987	0.15094203	0.1994077	-0.29242745	-0.3493068	0.53729826	-0.22379398	0.5727672	-0.8488196	0.47172993	-0.1069459	-0.16143975	0.46030128	-0.6049019	-0.14807042	-0.09043044	-0.20179589	0.103492826	-0.10650751	-0.29792118	0.077083275	-0.33916846	-0.43305144	0.65783423	-0.3820315	-0.15150575	0.41206017	0.1680446	0.077281624	0.6619588	-0.31246474	0.015947962	0.225769	1.1324193	-0.09815311	0.64412737	-0.60729504	-0.053898048	0.19207054	-0.076497816	-0.1158027	-0.898475	0.6441442	-0.22916627	0.1440565	-0.24691635
<http://bio2rdf.org/drugbank:DB00072>	0.20785773	0.7423916	0.23598737	1.2812452	0.076199256	0.50255376	0.17105883	0.6113148	0.13353036	-0.42351297	0.19431707	-0.31458837	0.10841091	-0.5235874	0.12434787	-0.22754735	0.31044	1.0574125	-0.17017226	-0.1593036	-0.37517393	0.27923852	-0.27636176	-0.07125825	-0.8841397	-0.9279812	-0.6262596	-0.36149096	-0.37909967	-0.2173692	0.25744975	-0.0061820834	0.7131461	0.012795609	0.427784	0.39952666	0.20562172	0.3790219	-0.046370078	-0.40029868	0.33200717	-0.028579954	-0.31455728	1.2040998	1.0681012	-1.6192348	0.45144543	0.5253622	-0.25646642	0.6209068	0.49286622	0.25692213	-0.073839866	-0.7554752	1.0609288	-0.14791933	0.62460977	0.057351902	-0.26555482	0.43518245	-0.16797636	-0.2896366	0.5680263	0.13147648	0.809905	-0.01870513	-0.2319455	0.2865425	-0.6091884	0.32236132	-0.58516866	0.018015034	-0.0072027133	-0.18568455	-0.40412933	-0.31516773	0.04382643	-1.0363251	0.5101787	-0.2091508	-0.1638433	0.77307063	0.046831697	0.5289777	-0.31560758	-0.55925125	-0.37857732	-0.50490665	-0.04863035	0.12766422	0.32118842	-0.22621073	0.18872361	-0.25592566	-1.0853125	-0.50857246	0.5407445	0.3130315	0.09959933	-0.9220986	0.049835853	1.0017322	-1.0794418	0.08917578	0.1012598	-0.33463174	-0.13901062	0.5691689	-0.3346228	0.012206106	0.22967218	0.43037495	-0.11007851	0.10770969	-0.0018630655	0.034817252	-0.09147874	-0.9652666	-0.2663958	-0.33502072	0.060196605	-0.25034207	-0.5280805	-0.23610564	-0.23703085	-0.1049806	-0.22260638	-0.056214035	0.36267313	-0.69544977	-0.14255506	-0.088668935	0.2567131	-0.08302087	0.25979564	0.014890225	0.48602358	-0.6436592	-0.06764603	0.28533083	-0.052031714	0.5353371	0.2933051	0.49052426	-0.5564268	-0.07898743	-0.5801301	0.3158034	-0.34619215	1.0179913	0.4908943	0.18353276	-0.769619	0.82724977	-0.32263303	-0.4909718	0.4647863	0.54721034	-0.43400666	0.31050995	-0.6923753	-0.45086008	-0.2966125	0.015454919	-0.18628895	-0.3447558	0.2598472	-0.002782591	0.20894156	-0.42225716	-0.6025312	-0.6024532	-0.053838525	-0.126945	0.57017606	0.2255133	0.40307885	-0.09079145	-0.46333632	-0.37160668	0.12881584	0.22257452	0.44937298	0.18331386	-0.12281688	0.22718503	-0.47395813	0.77838004	-0.13501297	0.20434125	0.1626036	0.021515612	-0.09380247	-1.0971931	0.24371615	-0.13003285	-0.17662786	-0.57334894	-0.55036944	-0.2342275
<http://bio2rdf.org/drugbank:DB00363>	-0.25045773	-0.34053868	0.5078084	-0.34737882	-0.682753	0.12938768	0.74850756	0.21231674	0.03325132	-0.74054694	-0.09608692	0.10381362	0.66385275	-0.23693843	0.43888977	-0.29477376	0.16339684	-0.029209947	0.19027548	-0.08288741	-0.0560704	0.11005701	0.1369266	0.5692718	0.283207	0.03950356	0.08554003	-0.24169184	0.07706618	0.5887558	-0.018670844	0.20268685	-0.2697507	0.0010873621	0.24318287	-0.002750089	0.4497276	0.19143687	-0.13478097	-0.22870024	0.047131296	-0.5961795	0.093422815	0.06324936	0.5732064	-0.41536835	-0.04827981	0.3341863	-0.28446376	0.28071102	0.4774437	0.32582453	-0.29771638	0.46403134	0.4910302	0.18737209	0.3224993	-0.5053323	-0.2069163	0.5862155	0.50763845	-0.31241718	-0.05703807	-0.022229448	0.062394116	0.14790033	-0.14054047	-0.8075677	0.029257154	0.12732972	-0.098732606	0.25422296	-0.055556968	0.5446741	0.6075265	-0.59114057	0.3919126	-0.6207436	-0.19254854	0.40348804	-0.72845805	0.84479547	0.27805212	0.17075232	0.57359505	-0.47137886	0.56058526	0.074229054	-0.20464706	-0.39799303	-0.092612855	-0.12038546	0.32571575	-0.12563401	-0.49779454	-0.3502752	0.3986188	0.41189426	0.090616	-0.37669533	0.2239924	0.58474934	-0.44998735	0.29899025	0.028055323	-0.18432598	0.28086704	0.2275957	0.25482392	0.32305905	-0.01823954	-0.094218574	0.5088958	0.74945986	-0.31396833	-0.65950155	-0.053109646	-0.28004268	-0.52764624	0.13367005	-0.056102745	-0.388308	-0.4407417	-0.12289017	-0.26492736	0.20392518	-0.39423534	-0.25738704	0.6860901	-0.44946232	0.2521294	-0.23460945	-0.20065615	-0.076656714	0.07918273	-0.32978663	-0.16694257	-0.39009547	-0.56122637	0.16417459	-0.07521818	0.13437726	-0.14486817	0.88007957	-1.0235451	-0.040566355	-0.26855966	0.10074644	-0.65076894	0.39296052	0.9425073	-0.30215728	0.66083205	-0.04102504	-0.57449275	0.14070387	0.42028448	0.375094	0.2951743	-0.053510163	-0.58014566	0.50454384	-0.9615644	0.1684151	-0.009375745	-0.4340108	0.23237054	0.22991084	0.5087842	0.0026227694	-0.61669564	0.0322567	-0.09058943	-0.48974332	0.26134148	0.36032632	-0.68871886	0.42824206	-0.0817291	0.046042055	0.7816544	-0.04304836	0.48870024	-0.12884419	-0.3721994	-0.11701832	-0.0875723	0.82379365	0.29054144	-0.054140825	-0.15705986	-0.22326158	-0.14105143	-0.10015136	0.30805385	-0.24577844	0.6711996	-0.1293069	0.08547281	0.45901915
<http://bio2rdf.org/drugbank:DB01224>	0.21200906	0.12027645	-0.21244556	0.22969739	-0.31181073	0.06303475	0.52823544	-0.010519498	-0.06791977	0.070010506	0.1408389	-0.5261585	0.63884354	-0.29494634	0.64390296	-0.101887345	0.06799921	-0.08312289	0.20818435	0.052220516	-0.072804585	0.34193552	0.058496296	0.41204965	-0.2610455	-0.12556629	-0.65730673	-0.6516762	0.17406419	0.36113352	0.30415928	0.6557102	0.49633405	0.28619665	0.957031	-0.031937506	0.6667387	0.45337746	0.2781557	-1.0399662	0.062180985	0.0024675806	-0.48518032	0.37323636	0.3980596	-0.44853863	-0.36770338	0.060799032	-0.5215633	-0.052262597	1.2217724	0.1019517	0.13015692	-0.31038713	0.26595026	-0.22588111	0.45308483	0.25469434	-0.16093193	0.25086522	0.38809478	0.036346205	0.29849565	-0.22943327	0.62414575	-0.08077386	-0.77993584	0.15589243	0.3034625	0.19370343	-0.34358165	0.17943397	-0.28401643	0.007875366	0.23655018	-0.3595113	-0.09483538	-0.9426964	-0.14180999	0.3974231	-0.8173012	0.37597778	0.40650845	0.37726748	0.8962451	-0.35245195	-0.26666102	-0.4219926	-0.13976607	-0.53344643	0.056734633	0.18107401	0.53660285	-0.40630868	-0.11252486	-0.035605963	1.1371374	0.22760032	0.07751441	-0.53744817	-0.25090468	0.14112481	-0.015964273	0.04213842	-0.23172787	0.4361432	0.3894167	0.19686481	-0.04009084	-0.071410336	0.12465285	0.03192883	0.9112094	0.7789703	-0.4083715	-0.050293013	0.38074324	-0.12457225	-0.038535018	0.1670291	-0.42764977	-0.24830945	-0.3491865	-0.27782872	-0.17336577	0.052913234	-0.40899652	0.14961472	0.75472575	-0.80186874	0.5398783	0.037792258	0.1698462	-0.15395896	0.14469631	-0.035448257	0.25567985	-0.42817858	-0.61834437	-0.20707081	-0.87107044	0.1824812	-0.3578798	0.79620713	-0.29633164	0.063723214	-0.95503914	-0.1434496	-0.6614352	0.41115713	0.34887105	-0.45054615	-0.023021033	0.7009314	-0.6880682	-0.08792034	0.34597304	-0.13666898	0.08139309	0.7119841	-1.0740618	0.42609367	-0.92315346	-0.53957653	0.052770432	0.54021436	0.5518224	-0.6847883	0.54383314	0.4319417	0.09337185	0.38901597	-0.21485326	0.11177559	-0.1974416	0.68598425	-0.36866567	0.43416294	-0.24931678	0.2837477	0.9296741	-0.5321508	-0.58467484	0.024787359	-0.4803305	0.031505622	0.2189541	0.74895656	-0.24453847	0.19403951	-0.9239057	-0.62581503	0.1487932	0.27345368	0.86049604	-0.063345805	0.13711593	-0.079684325	0.34453818	0.7976737
<http://bio2rdf.org/drugbank:DB00246>	-0.004383879	-0.2950627	0.72495466	-0.038525306	-0.048098247	0.2632235	0.4206925	0.121797934	-0.3465479	0.15700266	-0.20192668	-0.19505206	-0.28441662	-0.48273978	0.8144373	-0.4378032	0.36697394	0.409685	-0.2154606	0.32862097	-0.048165448	0.36101264	0.055568144	0.5389745	-0.36067078	0.42736667	-0.11773886	0.015027307	0.23176542	0.24434929	0.44881937	-0.03828242	0.18983664	0.60790354	0.959511	-0.39124876	0.84405875	0.0049844664	0.35722405	-0.8500923	-0.24913985	-0.15662314	0.20397763	0.43513256	0.7179828	-0.95422095	0.11461708	-0.27627063	-0.22377884	-0.25536084	0.5352234	0.39268523	0.4160416	0.32091686	-0.027301392	-0.53456527	1.1855272	-0.3034402	0.05353662	0.28242013	0.3288242	0.024976945	0.5861319	-0.4560296	1.1056929	0.4718125	-0.004505674	-0.26193607	-0.09529163	-0.1999934	-0.36565536	-0.037535734	-0.13530724	0.07785496	0.22054763	-0.4854008	0.8166639	0.15606633	-0.38141945	0.65275186	-0.8281946	0.45416605	0.6172907	-0.106723145	0.654178	-0.5259863	-0.24830337	0.09052037	-0.33937714	-0.23832574	0.3332963	0.46495888	0.3984159	-0.24950874	0.64056253	-0.18153957	0.26134893	-0.0469094	0.11822874	-0.2584377	-0.043693148	0.12319184	-0.16257814	-0.023796462	0.2505189	0.15343091	0.37054515	-0.34966874	-0.13133965	-0.90174526	0.104726724	-0.11238735	0.3592887	0.47513342	-0.1855278	-0.32654887	0.4621593	-0.12064741	0.10990327	0.10012322	-0.30373034	-0.4981273	-0.30342546	0.14369918	0.20459293	-0.45062122	-0.47721788	0.21398816	0.8132228	-0.9080447	0.304273	0.54330784	-0.0114077395	0.47632346	0.24494693	0.3076525	0.29019627	-0.8659995	-0.7997829	-0.058201287	-1.3337427	0.39839435	-0.37928072	0.20771599	-0.6175308	-0.21814618	-0.6199567	0.63835585	-0.40872246	0.779875	0.63074183	-0.3837964	0.3985464	-0.12022274	-0.7727312	-0.120652735	0.6261798	-0.10438798	-0.70915496	0.85754037	-1.0954726	0.29291412	-0.7683166	-0.84751886	0.1824614	0.92831826	-0.3825429	-0.7642643	0.28581682	-0.02478492	-0.124467745	-0.02713381	-0.3125182	-0.10006443	-0.37861836	-0.036598627	-0.60256386	0.20375013	-0.6067467	0.071910806	1.191446	-0.12503986	-0.13521448	0.5067925	-0.66152763	0.40490073	0.34841794	0.32879898	0.26424086	-0.13986637	-0.5109256	-0.8831082	0.45622358	-0.19357832	0.9009017	-0.09023498	-0.09164972	-0.41052255	-0.20316549	0.7101678
<http://bio2rdf.org/drugbank:DB01095>	-0.49361318	0.25408283	0.477972	-0.016017908	-0.3595725	-0.22600637	-0.3630652	0.68839663	0.37967542	-0.20319283	-0.28630227	0.38652068	0.25807142	-0.042971905	0.49870965	0.14658268	0.72376347	0.8059441	0.34661275	-0.17210332	-0.3472263	0.07481859	0.5260386	0.32215485	-0.18230747	0.51600647	0.026705699	0.31331378	0.37639013	0.21371382	0.057066277	0.08312199	-0.20318685	-0.14000627	0.9618793	-0.393147	-0.065924585	0.42878985	-0.08367389	-0.8787665	-0.07086532	-0.10803701	-0.27370816	0.17948464	0.1804704	-0.79153746	-0.35070035	0.3147395	-0.50552607	0.28247038	0.7579456	0.31367272	-0.08467516	-0.30160552	0.022905594	0.3846608	0.20197348	-0.0010601252	-0.19295946	-0.020701513	-0.38679275	0.06605452	-0.16204835	-0.22049204	0.06515008	-0.033663586	-0.09622699	0.47082412	0.34351414	0.64392126	-0.14280495	0.032368213	-0.38715732	0.2519465	0.21577828	-0.30616957	0.66046464	0.06965297	0.09907089	0.46025848	-0.5914937	-0.04588884	0.13425112	0.27163824	0.12946758	-0.39349982	0.3657482	0.42950404	0.31497642	-0.23752375	-0.018301994	0.052008603	0.3461748	-0.010635798	0.09905976	-0.08436417	0.87458444	-0.3049954	-0.8068234	-0.79145783	0.32313463	-0.1349676	-0.69084203	0.7437804	0.21137202	-0.20426407	0.035151474	0.13463321	-0.48827907	-0.35031494	-0.2419833	0.26362178	0.11683859	-0.09095561	0.2915596	0.102914	-0.07493449	-0.52874047	-0.07091949	0.5902619	-0.6083469	-0.62754804	-0.21424402	-0.18972789	-0.21310236	0.021265948	-0.19604115	0.067310564	-0.12529615	-0.0147040645	0.31141108	-0.5308255	0.44633248	0.6174746	-0.4041238	0.5859379	-0.27270094	-0.35412768	-0.5077873	0.60393965	0.07220758	0.88684416	0.14451112	0.24487883	-0.060381267	-0.4928958	-1.2064488	0.1778191	-0.74686474	0.5812495	0.1099632	0.39655775	-0.41160026	0.40092313	-0.28297374	0.2014007	1.0408946	0.6082378	-0.7895793	0.10537351	-0.41654766	0.19771838	-0.75204986	-0.7263011	0.71311563	-0.43661317	1.079606	-0.054540806	-0.07068001	0.5271929	-0.6907127	-0.047364056	-0.4785273	0.009988702	0.40449703	0.34615746	0.18711042	0.2137111	-0.44591242	0.06884348	1.616616	-0.57151	0.04912356	-0.083215475	0.1922365	-0.9674711	0.10673555	0.6837824	0.23243771	-0.5640283	-0.5920431	-0.5286051	0.3692861	-0.17485468	0.44957328	0.0963868	0.21706522	0.042447552	-0.0968678	0.36390373
<http://bio2rdf.org/drugbank:DB00175>	0.067196764	0.46797103	0.19329673	0.07192145	0.021639537	0.3885263	0.20200455	0.3511887	-0.26451987	0.06982882	0.33598027	0.022705259	0.27278534	-0.121550806	0.41494793	-0.07302439	0.32970208	0.1702071	-0.2654724	-0.08707066	0.007815584	0.06273479	0.31534737	0.3896604	-0.05144294	0.008716396	-0.83941305	0.27824053	0.1385304	0.24380003	0.12805241	0.121506274	-0.48239157	-0.14419684	0.38457614	-0.25300965	0.08852915	0.7159527	0.10543525	-0.62262696	0.31210104	-0.57259893	-0.06971913	-0.11218641	0.012581668	-0.50025374	-0.20386806	0.4549879	-0.48509037	0.7901732	0.8492369	0.27929994	0.9179192	0.1507942	0.1563413	0.2107261	0.030429088	-0.050903883	-0.42321318	0.5834295	0.29572538	0.051146414	-0.0124120675	0.18395163	-0.09530999	0.024541557	-0.18243772	0.038658213	0.4709482	0.9287152	-0.14635137	0.14542043	-0.32739756	0.31127322	-0.29442996	-0.34645164	-0.022433393	0.010668028	0.42585805	0.5776957	-0.75621086	0.30855155	0.4485145	0.25792265	0.33007434	0.27279392	-0.10285136	0.49563017	0.08224373	-0.11778815	0.13833208	0.11897667	0.699793	-0.29707143	-0.816462	-0.49711952	0.7549259	-0.03168304	-0.4054005	-0.73972875	-0.08402735	0.17879264	-0.08215562	-0.18165027	-0.13988526	-0.16817644	0.110112414	-0.4156985	0.0009957373	0.10238573	-0.25671577	-0.43228516	0.4311905	0.40989417	0.14818127	0.18580931	-0.09187622	-0.2920281	-0.27986187	0.62918717	-0.49928406	-0.122560784	-0.067701586	-0.41716483	0.057395674	-0.35459852	-0.28412506	0.12232412	-0.14026695	-0.32719335	0.2834824	-0.6395866	-0.20644209	-0.5845637	-0.30903456	-0.19067737	-0.16290016	-0.49308205	-0.80296487	0.9284055	0.27426204	0.5379367	-0.4909464	0.34379128	-0.50356084	-0.1250428	-0.84445834	-0.01782509	-0.7330261	0.4842868	0.77857816	0.28743273	0.21354392	0.5586361	-0.73629254	-0.063232005	0.7241181	0.38628665	-0.03056759	0.38995525	-0.095202036	0.24329251	-0.2962215	-0.09717567	0.75861126	-0.4659215	0.3985869	-0.41430563	-0.18332113	-0.06277874	-0.23972706	0.5528713	-0.63194966	0.32654375	0.02271849	0.11215772	0.14819239	0.08290701	-1.053249	-0.05973438	1.2396603	-0.45374882	0.27792248	-0.055328276	-0.10976999	-0.14396232	0.44965455	1.0682995	0.116312794	0.015504469	-0.6971963	-0.8855195	0.3127211	-0.051411293	-0.17128636	0.17007892	-0.011399006	0.2697633	-0.029657977	0.6425927
<http://bio2rdf.org/drugbank:DB01248>	0.112751015	-0.3463285	0.09084099	0.5210662	-0.54438883	0.014042002	-0.15153067	-0.15086094	0.5523849	-0.70431656	0.10077109	0.46332854	-0.06429629	-0.50782704	0.039285682	-0.10401188	0.36197826	0.8371305	0.31662688	0.0228382	-0.05598681	0.14558394	0.2332457	-0.23283906	-0.17113595	0.01236756	0.09768592	-0.1916634	0.08312756	-0.10664184	0.5433056	-0.16325459	0.14235489	0.17748483	0.2738203	-0.3879985	0.7749096	1.0993166	-0.07166824	-0.3174363	-0.4655135	-0.32809988	-0.05157425	0.57873046	0.54219335	-0.7396503	0.5565371	0.11637122	-0.11693079	0.40802723	0.77108073	0.24426962	0.008580485	-0.15882102	-0.37294033	-0.026904782	0.97519445	0.4250201	-0.13119139	0.44731307	-0.31272188	0.3221971	-0.28427687	-0.203391	0.5708221	0.51165664	0.0133337	0.15381435	-0.638129	-0.1257574	-0.29179367	-0.5392416	-0.4701	-0.3735504	0.6358815	-0.09173176	0.32748225	-0.04694238	0.6044365	0.46678048	-0.47280213	0.46518403	-0.16061158	0.38915396	0.4590613	-0.30065498	-0.13152553	0.37053892	0.338967	-0.14227368	0.44055143	0.21452616	0.28047568	0.059692748	-0.60452455	-0.18804747	0.5466533	-0.23706126	-0.07946566	-0.31026208	0.61108726	-0.18369733	-0.5488871	-0.36530656	-0.49326396	-0.85079443	0.45083517	0.5392044	-0.6425026	0.387587	-0.46299967	-0.2420031	0.35249558	0.35353518	0.45399213	-0.42505768	0.30185446	-0.15407313	-0.37956265	-0.3696951	-0.22724067	0.25969905	0.100822225	-0.05472715	0.39340186	-0.025375856	-0.07401037	-0.2362398	0.1228154	-0.16426057	0.35867596	-0.70088804	0.482017	-0.11554666	0.18535694	0.26373214	-0.4537606	-0.18482503	-0.5827937	0.3694519	0.23624086	0.7174919	-0.376397	-0.07750867	-0.55785555	0.089119405	-0.59955484	-0.067210995	-0.51892525	0.84734935	0.77048975	-0.02026528	0.008397546	0.05055405	-0.14281617	-0.6554936	-0.16887684	0.21453136	0.18127392	0.55095345	-0.82086045	0.022968994	-0.43261802	-0.05627274	0.39331838	-0.37111506	0.23091492	-0.38659072	-0.15467082	0.11958846	-0.3024864	0.1498221	-0.40575793	0.7044287	0.31584197	-0.7021028	-0.13339247	-0.12437147	-0.42969847	-0.051996447	0.64776236	-0.07700192	-0.20929462	0.4282522	-0.28452462	0.15121809	-0.5546237	0.3872731	0.6006881	0.10114774	-0.10445545	-0.23055305	-0.28478658	-0.028612759	0.25576636	0.31324407	0.29776266	-0.048777852	-0.32698306	0.4469245
