Drug	feature0	feature1	feature2	feature3	feature4	feature5	feature6	feature7	feature8	feature9	feature10	feature11	feature12	feature13	feature14	feature15	feature16	feature17	feature18	feature19	feature20	feature21	feature22	feature23	feature24	feature25	feature26	feature27	feature28	feature29	feature30	feature31	feature32	feature33	feature34	feature35	feature36	feature37	feature38	feature39	feature40	feature41	feature42	feature43	feature44	feature45	feature46	feature47	feature48	feature49	feature50	feature51	feature52	feature53	feature54	feature55	feature56	feature57	feature58	feature59	feature60	feature61	feature62	feature63	feature64	feature65	feature66	feature67	feature68	feature69	feature70	feature71	feature72	feature73	feature74	feature75	feature76	feature77	feature78	feature79	feature80	feature81	feature82	feature83	feature84	feature85	feature86	feature87	feature88	feature89	feature90	feature91	feature92	feature93	feature94	feature95	feature96	feature97	feature98	feature99
DB00742	0.00621986	-0.053732138	0.123064116	0.014853359	0.028346619	0.07530698	0.031237494	0.047630996	0.08165913	0.05339645	-0.056552283	0.14593203	-0.017144736	0.08135036	-0.031484738	0.046803754	-0.030286506	-0.04277789	0.048168242	-0.10604061	0.0773657	0.10248904	0.06792948	0.0077122115	-0.0028678724	-0.07922017	0.055597614	-0.046385817	-0.01619508	0.035456795	-0.042667218	-0.10346627	0.04409928	0.09829384	-0.01855705	0.0025256085	0.1164849	-0.04905256	0.089261346	-0.076984935	0.0045941966	0.096531495	0.07787104	-0.035417564	-0.07892438	0.057948668	-0.034946337	-0.052024145	-0.0011978002	0.041795176	-0.14219095	0.09550307	-0.078853786	-0.06720203	-0.07600834	0.17005979	0.027548993	-0.1428095	-0.0022149584	-0.094076656	0.11797331	0.12650463	-0.053061277	-0.055634215	0.0130345095	-0.08741304	0.04596718	0.05019027	0.04951518	-0.09324954	0.07644627	-0.0038607973	-0.10294863	0.08198719	0.12308812	-0.029093862	0.08994396	0.007974354	-0.10197638	0.026298104	-0.09771661	-0.03795248	-0.05916097	-0.009991199	-0.051503535	-0.11199446	0.023132477	-0.04261705	0.04727401	0.0492245	-0.0731193	0.062838875	-0.05152515	-0.07872767	0.019090606	-0.01806705	0.007187335	0.13929439	0.011621391	0.042407338
DB05107	-0.020970128	-0.055715375	0.10303969	-0.006798381	-0.019350022	-0.008949218	0.011175936	0.06341544	0.07673004	-0.007539062	-0.02965372	0.08159671	0.0026502279	0.010374866	0.0029445663	0.05615991	0.037763223	-0.017429527	0.02886241	-0.058839835	0.012943067	0.030210301	-0.04146022	0.04065412	-0.006477168	-0.065997854	0.052786622	0.03855833	0.030847063	0.015676316	0.017895788	-0.021123853	0.04951497	0.07330051	0.0064374655	0.04464284	0.05611881	-0.09147612	0.07360287	-0.050080348	0.073298156	0.058770463	0.02776542	-0.018131148	-0.045609698	0.09129114	-0.086934105	0.02600234	0.03960572	0.02268386	-0.045768034	0.04707726	0.017167838	-0.027248003	-0.07002866	0.08581163	0.04660374	-0.07495491	0.046346776	-0.063875824	0.08265867	0.075087585	0.0006585084	-0.040177386	-0.023587158	-0.039129872	-0.053011496	0.057501066	0.027782891	-0.08582879	0.04985556	0.028421525	-0.05165215	0.06543353	0.097172774	0.012408776	0.06083927	-0.0043648854	-0.03840157	0.028198697	-0.069715135	0.03526056	-0.004656291	-0.041489832	-0.0065978295	-0.073187135	0.010665925	-0.022426922	0.051346622	0.06546272	-0.029486232	0.05046007	-0.018372016	-0.028174287	0.05647873	-0.007763927	-0.029390775	0.10978468	0.0032787668	-0.016228924
DB00743	0.0008949953	-0.005144803	0.106890745	0.020693846	0.02778092	0.07240337	0.055760294	0.055769097	0.08068384	0.039858762	-0.018116727	0.078506105	0.013309546	0.06472357	-0.06784978	0.07142274	-0.0416361	-0.0040679844	0.031793714	-0.039761946	0.092176355	0.07165936	0.06746027	0.0074949553	0.026879273	-0.01369838	0.042044163	0.014256418	-0.02109283	0.050700817	-0.040430006	-0.092319526	0.074702926	0.034200244	-0.01047151	0.0034566547	0.1172563	-0.0423162	0.093589135	-0.03410612	0.0041495636	0.0972387	0.07220353	0.041231465	-0.074279666	0.04295679	-0.0708814	-0.04942717	0.035507448	0.030271566	-0.10252442	0.09067329	-0.055295505	-0.057579435	-0.012156626	0.14337936	0.010527423	-0.058290876	0.07499042	-0.065977655	0.088829994	0.1024615	-0.093514115	-0.060006928	-0.022404766	-0.08053465	0.031299066	0.030336685	0.07049999	-0.08591644	0.078836344	0.020769954	-0.082754485	0.043924905	0.053264152	-0.0060115196	0.06901415	-0.00078389933	-0.07571977	-0.006162543	-0.0987668	-0.04997614	-0.037717264	-0.05875716	-0.017785367	-0.099922545	0.050548453	-0.0029839873	0.005285992	0.05782445	-0.007581249	0.06001693	-0.04752626	0.0024018306	0.011939876	-0.038050517	-0.02705963	0.123140335	0.031885754	0.015306169
DB05101	-0.010579459	-0.032903254	0.05524055	0.010766781	0.037825853	0.035679303	-0.023094758	0.051525593	0.03750367	-0.035541512	-0.019687641	0.038850084	0.0149269225	0.017537143	-0.035494883	0.030034192	0.030136092	-0.03252124	0.052226838	-0.027483063	0.061978236	0.0070456797	-0.059702728	0.039203078	-0.019879805	0.031510964	-0.002038466	-0.03818121	0.0128145125	0.017824627	-0.035130095	-0.0031690141	0.036906384	0.004234177	-0.031471137	0.050217945	0.028178291	-0.060186833	0.031041496	-0.028190175	0.039976347	0.039982803	-0.008843425	-0.00859583	0.0009851807	-0.006584571	-0.030155538	-0.0003886005	0.03853453	-0.0022816171	-0.06380497	0.018130569	-0.020519005	-0.04363018	-0.018421613	0.07208098	0.0039956933	-0.06764403	0.020912401	-0.055811718	0.040070318	0.074906975	0.00049179955	-0.029824521	0.05174668	-0.054091606	-0.018653411	-0.0039558196	-0.009529155	-0.076622635	0.056534633	-0.024665521	-0.00908363	0.048113637	0.0101364385	-0.0015463771	0.063039266	0.009343612	-0.03261297	-0.0034474386	-0.0065525575	0.017848741	-0.026252352	-0.039001003	-0.033681486	-0.060022846	0.021026567	-0.007770655	0.06859237	0.044191286	-0.04950891	-0.0010709283	0.033960555	-0.010287783	0.0582027	-0.013334804	-0.051998362	0.08681059	-0.029798996	-0.008242356
DB05100	-0.040447664	-0.09030324	0.0989266	-0.051209256	0.02136579	0.015367486	0.0045346785	0.061091017	0.07889381	-0.017821556	-0.018147545	0.07864011	0.009552899	0.039532848	-0.05214539	0.05668183	0.021799766	-0.0639062	-0.008827668	-0.04340469	0.009157943	0.07078479	-0.05865533	0.04913718	0.02061857	-0.06676303	0.04369807	-0.027492577	0.052364927	0.0139654875	-0.031263243	-0.054447602	0.055466548	0.039660834	-0.009185614	0.052990306	0.07774449	-0.033227313	0.07350966	-0.033231426	0.02033369	0.058882236	0.078418136	0.022503957	-0.007012599	0.10818834	-0.06846133	0.022549694	0.026991706	0.050934315	-0.06736178	0.082118526	-0.036290392	-0.038927138	-0.04958701	0.09896529	0.043223582	-0.08973743	0.04692564	-0.051838476	0.106165305	0.08387893	-0.03446255	-0.03071419	-0.019374028	-0.06362771	-0.035836432	0.0058357655	0.042726014	-0.119526684	0.0504289	-0.031682428	-0.02010646	0.11528403	0.09578366	0.000557053	0.06766808	0.027437158	-0.060921006	0.01764815	-0.011685841	0.042720508	-0.026776899	-0.015731895	0.008341145	-0.03316639	0.0027139233	-0.037621025	0.035031907	0.08479679	-0.062314153	0.024725819	0.0003535205	-0.06834671	0.08057347	-0.0114921015	-0.050713807	0.09500814	-0.007922274	0.0035085813
DB09161	-0.015725128	-0.021717856	0.100420654	-0.05603128	-0.021139264	0.006680365	0.039296597	0.029889539	0.0990717	0.014025018	-0.06965677	0.09304781	-0.05863731	0.024199218	0.0028439714	0.06805986	-0.032945555	-0.043387726	-0.025044939	-0.024335599	0.05783023	0.091491155	0.019136548	0.0015669491	-0.024835989	-0.0703188	0.048133153	-0.02802023	0.0149380965	0.018569635	0.002426914	-0.042356756	0.07052183	0.038261175	-0.0028809635	-0.025493534	0.082385115	-0.011448684	0.07606369	-0.01838412	0.022244439	0.030599836	0.08553268	-0.034065213	-0.087169096	0.055286057	-0.04666002	0.014919003	0.012127808	-0.014689052	-0.068026885	0.033290446	-0.0324485	-0.051142566	-0.06458551	0.123882085	0.012732466	-0.07273309	0.008603239	-0.06914843	0.0859229	0.10031767	-0.026487553	-0.017570868	0.0053297556	-0.05705635	0.027787494	0.009467235	0.010097521	-0.04968764	0.046003845	0.002793712	-0.04522939	0.07943161	0.07774668	0.019655302	0.064267986	-0.020002412	-0.016644802	0.06855767	-0.03139869	0.018576449	0.04851417	-0.01826366	-0.062700935	-0.030275721	0.02092665	0.008352499	-0.0023536975	0.06956582	-0.015826682	0.030940248	-0.01820498	-0.08999463	0.0029896824	-0.064049885	-0.020425707	0.096036434	-0.0125752315	-0.018231891
DB09162	-0.009217425	-0.01047953	0.020299517	-0.014597061	0.04856848	0.045290254	0.009675272	0.03782958	0.037939653	-0.019020412	-0.022729479	0.06520418	-0.0079422435	0.042537544	-0.03377834	0.05777239	0.021154925	-0.02952822	0.027363896	-0.028870912	0.054264996	0.027021758	-0.018875431	0.024157934	0.012606267	-0.010809401	0.03133925	-0.019299563	-0.014370196	0.029488858	-0.036573216	-0.02166754	0.03375578	-0.03417318	-0.033212166	-0.017356435	0.09254845	-0.043412853	0.06869855	-0.009607533	0.030549519	-0.015432034	0.024300607	0.00064250256	-0.03229999	0.03596387	-0.026596615	0.0392365	-0.00481886	-0.009015743	-0.07536758	0.08754149	-0.029820383	-0.022030197	0.0023329626	0.0906281	0.040164325	-0.04638664	0.024330204	-0.030611506	0.046349112	0.08958565	-0.006184964	0.0152002545	0.02865155	-0.025732603	0.04018542	-0.008071135	0.0028961406	-0.05188644	0.04831483	-0.03469774	-0.017929174	0.067915544	0.038212184	-0.03127951	0.030063013	-0.018641192	-0.0062393593	-0.00249343	-0.022351421	0.016165221	-0.018236194	0.01801705	-0.009101657	-0.017651144	-0.0037952168	0.0064424956	0.02656419	0.06781019	-0.01562144	-0.024299895	0.018039819	-0.04619188	0.007225272	-0.05903082	-0.01248192	0.079761036	-0.015239051	-0.049568072
DB05109	-0.05810077	-0.046099797	0.09932362	0.004176562	0.022599692	0.0018751975	0.019907922	0.074562214	0.04314392	-0.015492426	-0.026075348	0.10161002	0.0047990317	0.0600445	-0.005741453	0.047292393	0.011924058	-0.043063205	0.009975443	-0.06046066	0.067282416	0.08991562	-0.007500711	0.03680225	0.052218508	-0.08584303	0.075696565	-0.025610004	-0.02383914	0.05719177	-0.024285184	-0.077953875	0.06565431	0.06819615	0.022857744	0.020996988	0.11687238	-0.022435367	-0.019815046	-0.016544525	0.032875203	0.10570383	0.025080502	-0.044359732	-0.033448383	0.09550053	-0.07567652	0.024251834	0.022569831	-0.0012743187	-0.0833818	0.10623608	-0.041359924	-0.059180208	-0.08191888	0.15853405	-0.0070820823	-0.10880377	0.042982873	-0.07793537	0.105743304	0.10176469	-0.013988512	-0.057439886	0.010007466	-0.0863861	-0.024211807	0.07643682	0.030992076	-0.11102213	0.070177145	-0.004285309	-0.110481225	0.053687386	0.0785915	-0.022482375	0.10294326	0.037830375	-0.090431765	0.035539817	-0.043377	0.0052134222	-0.006907982	-0.05930545	0.0043160273	-0.11129394	0.028383642	-0.006671852	0.05551459	0.08553186	-0.07045213	0.031563293	-0.047185	-0.07522479	0.055233818	-0.07872645	-0.013520416	0.13537586	-0.038284995	-0.0006585998
DB01319	-0.043287843	-0.057038452	0.102188595	0.009089738	0.017346844	0.032854885	0.01864516	0.060289245	0.05406861	0.025158176	-0.06030599	0.122363	-0.0043224036	0.06417362	-0.058941863	0.05201512	0.010077749	-0.0089362925	0.038649693	-0.10234091	0.05607272	0.09094065	0.01010854	0.038747232	0.018133247	-0.05501521	0.055045154	0.017978169	-0.016690338	0.059577785	-0.02039631	-0.018372133	0.030230196	0.019819446	-0.014642564	-0.01543007	0.10156033	-0.014387907	0.057985254	-0.027720062	0.07491261	0.101023085	0.015593363	-0.040046614	-0.08595091	0.06962824	-0.056403175	0.022253333	0.012475935	0.037509013	-0.109763026	0.0973584	-0.063663594	-0.07906094	-0.04495862	0.1399021	-0.024341587	-0.13076909	0.009015479	-0.072223514	0.09227178	0.08183558	-0.049746007	-0.039315544	0.012553731	-0.073255405	0.038428925	0.06999785	0.040305898	-0.07332865	0.054759696	0.00027364446	-0.07853612	0.0763307	0.075941026	-0.011524489	0.09191733	0.02099891	-0.101804584	0.024952056	-0.07320191	-0.0046829088	-0.027108045	-0.07599234	-0.013261904	-0.090404846	0.039437853	-0.06687147	0.075780675	0.032229774	-0.073118754	0.057168704	-0.06279696	-0.073906876	0.046067674	-0.0080658225	-0.035668455	0.1257628	0.030657494	-0.0053468165
DB01178	-0.048616007	-0.08186392	0.101504155	0.043973055	0.010217409	0.012577604	0.002263814	0.08276971	0.036554128	0.0047369474	-0.07079321	0.15682915	0.0011464076	0.07443665	-0.02855027	0.013010564	-0.0018028002	0.00013815658	0.064508185	-0.02902626	0.097183175	0.07444931	-0.010217894	0.04589262	-0.011659547	-0.061986726	0.06704307	-0.022214994	0.046807814	0.05483437	-0.061179467	-0.07730005	0.04640583	0.068812735	0.015356789	0.036965553	0.084154114	-0.0062039774	0.070161924	-0.046246506	0.0003179398	0.101241246	0.0296559	0.03196019	-0.08142724	0.068331756	-0.061809022	0.010880184	0.030868793	0.024014622	-0.11019686	0.06726367	-0.025564406	-0.06604202	-0.08538601	0.13060297	-0.035179965	-0.07139018	0.07854989	-0.08002647	0.110390894	0.11374336	-0.023298714	-0.08929806	-0.0057863104	-0.0651997	-0.06170718	0.06802034	0.073816635	-0.11653484	0.07576392	0.03221346	-0.088779576	0.08035293	0.11737069	-0.015646998	0.088026434	0.020348266	-0.081117734	-0.014062982	-0.052092545	-0.01922702	-0.0865191	-0.007997729	0.023426939	-0.110961854	0.030614253	-0.077021755	0.072990164	0.061866134	-0.07533044	0.057758447	-0.07646249	-0.09943132	0.038896915	-0.034548394	0.0072074975	0.12131702	-0.018881861	0.04817327
DB01179	-0.010343434	-0.080439374	0.10851376	-0.03344117	0.0036259976	0.04090506	0.032670856	0.053183198	0.08201961	0.062588155	-0.05440622	0.14244898	0.017252147	0.060324237	-0.0608783	0.0623141	-0.019648217	-0.011672552	0.06502979	-0.106818564	0.067089014	0.09660189	0.047804758	0.019943811	0.01929737	-0.062213685	0.046446778	0.02750177	-0.005173183	0.07284088	-0.027259344	-0.08877266	0.02987698	0.07740675	-0.0030346834	0.0062600486	0.105734915	-0.00858769	0.059312955	-0.081918314	0.010582974	0.11384544	0.0876205	-0.031663932	-0.0822564	0.049117282	-0.07446578	-0.030819733	0.01034924	-0.01479614	-0.11046691	0.10889264	-0.038025588	-0.03372	-0.019510262	0.13283566	0.03099962	-0.12882456	0.03756131	-0.09578011	0.11241222	0.111216374	-0.025411477	-0.062475637	0.01247943	-0.07694777	0.0052527166	0.063830025	0.06723436	-0.10955107	0.09326007	0.022938035	-0.11491086	0.07665914	0.10252134	-0.005535786	0.09901196	0.021780802	-0.09557931	0.008156801	-0.059926268	-0.04039669	-0.051864162	-0.006872275	-0.041781455	-0.107887805	0.030137602	-0.020103712	0.04460624	0.065434985	-0.07120864	0.076890215	-0.06780891	-0.078299716	0.03091299	-0.0026188218	-0.039485384	0.1334319	-0.030498812	0.037891567
DB01176	-0.014623735	-0.06982191	0.11240068	-0.0031424281	0.005078743	0.024425577	0.02318653	0.07472551	0.06545944	0.022055514	-0.0584414	0.13857357	0.025642741	0.053564847	0.009843357	0.0685643	-0.015490345	-0.031596556	0.07794341	-0.029028878	0.07617698	0.088800974	0.03068388	0.0541913	-0.029798046	-0.08024798	0.050905526	-0.0038568303	-0.012994095	0.050265092	-0.05099328	-0.07128992	0.03188294	0.0049753767	0.00052728597	0.042968396	0.07718536	0.0022222537	0.073716454	-0.047624882	0.055059984	0.12831259	0.082458325	0.0287013	-0.086699	0.08570226	-0.01737654	-0.024713354	0.029641276	-0.026624095	-0.11021722	0.11987527	-0.037216026	-0.060288094	-0.07319067	0.13843414	-0.0060166004	-0.11908321	0.046316087	-0.08446941	0.114300296	0.094897166	-0.017356608	-0.04958251	-0.002305044	-0.07030659	-0.048845522	0.068891965	0.06257495	-0.09238448	0.084811404	0.04265726	-0.089097425	0.042461123	0.110625304	-0.033112686	0.09129592	0.017945873	-0.06190857	-0.0011855967	-0.09153112	-0.00076392957	-0.039508663	-0.044994354	0.002964403	-0.10726954	0.054759253	-0.06564556	0.066563144	0.07001343	-0.08096722	0.08386035	-0.06396799	-0.056413352	0.017621554	-0.06882677	-0.045419425	0.13142718	-0.016053652	0.04315987
DB01177	-0.029026497	-0.07535831	0.108617954	-0.0017460854	-0.0012893847	0.02479774	0.012697419	0.068892315	0.05523901	0.034524385	-0.014043584	0.13760272	-0.025402704	0.055699676	-0.03258682	0.07148001	0.0062852083	-0.034980994	0.062030915	-0.07945848	0.06908872	0.105807394	0.0064957626	0.018317826	0.0040541207	-0.099047944	0.06143291	-0.002368571	0.0058451546	0.05390226	-0.015212245	-0.08801304	0.025459936	0.07482405	-0.0050890897	0.041560285	0.0992482	-0.023331435	0.06995336	-0.071713775	0.03303829	0.113647304	0.08280544	-0.014673722	-0.08061875	0.06588591	-0.058049574	0.009128538	0.025412014	0.043977205	-0.08930883	0.104526244	-0.046441264	-0.077406175	-0.027749412	0.1511061	0.051485617	-0.13223943	-0.008502031	-0.057531755	0.10587796	0.09590791	-0.02102705	-0.066491514	0.022843968	-0.06389378	-0.04054512	0.08535206	0.0531999	-0.09323637	0.08226107	0.044938803	-0.11235793	0.06882839	0.09979044	-0.031527217	0.10080092	0.043545827	-0.08628722	0.0025911517	-0.09556245	-0.00610203	-0.0468129	-0.06430444	0.0017725468	-0.10320374	0.02818929	-0.05278411	0.056427836	0.029433057	-0.06922127	0.08596535	-0.050369333	-0.0806507	0.01502548	-0.055244897	-0.04862153	0.1355879	-0.014408163	-0.011020508
DB01174	-0.042444505	-0.057836756	0.12284603	-0.006939726	0.06063383	0.051777966	0.03697869	0.035263676	0.03926228	0.072012104	-0.030028995	0.13825107	-0.011696327	0.07870137	-0.04322223	0.10035554	-0.041100956	-0.0192483	0.08971334	-0.09763771	0.11239344	0.08125077	0.063084796	0.0055661984	-0.017393695	-0.08950803	0.06742841	-0.03792501	0.036847405	0.049147002	-0.053577706	-0.09660947	0.036163487	0.09706486	0.00017041073	-0.00056149706	0.13565563	0.0017755695	0.057913475	-0.068838686	0.0057987785	0.11887397	0.08275453	0.038539845	-0.09772727	0.055549208	-0.037565786	-0.04844172	-0.008529162	-0.022710621	-0.12994981	0.09056865	-0.07724472	-0.06055277	-0.016858052	0.16541068	0.039554134	-0.14864185	0.003851215	-0.08208447	0.10621345	0.10175979	-0.02524551	-0.080602534	0.0005127238	-0.09452898	0.011942603	0.10612442	0.0939804	-0.10762447	0.095761776	-0.013456509	-0.12238591	0.0614001	0.07582838	-0.026220046	0.10101501	0.03913608	-0.10128886	0.028858751	-0.112715915	-0.060289543	-0.021214314	-0.042393304	-0.052330032	-0.108435154	0.077134944	-0.05403363	0.01986516	0.08761792	-0.06750449	0.073568344	-0.05846478	-0.068944596	0.009955076	-0.037860885	-0.017118262	0.13701911	0.024242701	-0.0056344233
DB01175	-0.04601454	-0.04947188	0.11817798	-0.024418874	0.02880934	0.07343573	0.014927371	0.07269272	0.04520039	0.052094158	-0.04643462	0.14184888	0.010473967	0.07702857	-0.05357955	0.061660122	0.020426735	0.016835578	0.05378079	-0.10850294	0.09991227	0.086025685	0.035446644	0.048861682	0.029506557	-0.07717381	0.048505124	-0.020319875	-0.0089163035	0.08482043	-0.039482262	-0.10595581	0.08723944	0.08184932	0.010982424	0.014497132	0.14443538	-0.043945305	0.086644426	-0.040672157	0.033577777	0.094254516	0.073792875	0.04301463	-0.08430561	0.06746781	-0.044350334	-0.029942203	0.018762447	0.037860934	-0.12331295	0.10005983	-0.07086523	-0.0500493	-0.089697555	0.15740767	0.030626485	-0.14269973	0.049551364	-0.078503445	0.1115109	0.12753057	-0.047821887	-0.05193223	0.016075592	-0.07596249	0.0019340484	0.064710744	0.042838145	-0.10434723	0.0827286	-0.016718656	-0.111262724	0.07622151	0.080721475	-0.0406279	0.086412735	0.0476138	-0.10178214	-0.0035742447	-0.105046496	-0.024789928	-0.059823923	-0.087170064	-0.0053175264	-0.11401895	0.06882789	-0.051880263	0.008614182	0.034383047	-0.049393468	0.05679261	-0.051939033	-0.06902492	0.025120705	-0.022916008	-0.029295154	0.15340666	0.0035384195	-0.012393184
DB01172	-0.03665082	-0.090000436	0.11525104	0.012110636	0.0122592	0.032147106	0.028546363	0.048016716	0.04780859	0.018456269	-0.054628145	0.13686544	0.017983574	0.06453243	-0.032418847	0.06623528	-0.032994017	-0.0028410098	0.047608543	-0.06654366	0.07912957	0.077988215	-0.0030025826	0.046448052	0.0027478533	-0.07574156	-0.0034054471	0.03163063	-0.024796784	0.063519515	-0.04584327	-0.039406363	0.05842448	0.08741401	0.00977221	0.047262806	0.10068583	-0.008461894	0.079484515	-0.042853117	0.037114628	0.12087702	0.027332649	0.027385283	-0.08814517	0.099233426	-0.078862466	-0.021905638	0.036513563	0.03787992	-0.10331413	0.100604445	-0.030032832	-0.069547266	-0.066214375	0.14160442	-0.02418197	-0.11483784	0.05299902	-0.08156493	0.10202741	0.095391765	-0.03225766	-0.07921391	0.00071760756	-0.068841234	-0.040318422	0.07119133	0.08182391	-0.11330343	0.0888664	0.018132318	-0.13311979	0.04867459	0.092595644	-0.014235422	0.11002177	0.046621762	-0.04627201	0.0035005754	-0.076547414	-0.01901957	-0.054209426	-0.017735444	0.004753085	-0.11092019	0.03492871	-0.061083883	0.074945286	0.014466424	-0.065304175	0.058036994	-0.06227088	-0.06374124	0.046852935	-0.024137303	-0.010986332	0.13771835	-0.019837439	0.052565098
DB01173	-0.04253126	-0.06515354	0.13414021	-0.012784474	0.054626245	0.06195061	0.02814242	0.05785174	0.080571756	0.03296812	-0.06670314	0.13673015	0.014909491	0.061094802	-0.0690115	0.068220176	-0.063193336	0.0086374795	0.06326019	-0.06410877	0.10285878	0.09135379	0.044342678	-0.012603999	0.008282068	-0.07642461	0.055839248	-0.02455411	-0.03039951	0.07848908	-0.04652935	-0.09646101	0.03177302	0.06332865	0.011185683	0.033304922	0.11705418	-0.04934742	0.082132295	-0.057272114	-0.0044206074	0.115819454	0.09331791	0.033333868	-0.0918092	0.060651183	-0.04051162	-0.041838836	0.038338214	-0.024590693	-0.12587991	0.102649614	-0.033416692	-0.06725764	-0.0093376	0.1444157	-0.012255364	-0.1433457	-0.016935654	-0.07598659	0.06333117	0.107434206	-0.034955688	-0.06141763	0.034472905	-0.06630355	0.026210096	0.06707809	0.06038279	-0.103748165	0.09022331	-0.027500212	-0.09167463	0.02806152	0.084410384	-0.043550145	0.07204917	0.029533733	-0.08294538	0.014066327	-0.109219186	-0.044128165	-0.0584214	-0.062587835	-0.04668929	-0.085810855	0.08682932	-0.05529139	0.05195614	0.055778366	-0.08473835	0.076288596	-0.0719454	-0.016094098	0.026413117	-0.010178269	-0.018466908	0.11371356	-0.03220728	0.0027146246
DB01170	0.0069620023	-0.052319065	0.117852055	0.012501067	0.010615237	0.046928808	0.024007311	0.054404598	0.06579325	0.028195806	-0.048627604	0.13943562	-0.012968133	0.073018044	-0.04543776	0.06487686	-0.0043462184	0.0020009344	0.062808	-0.046562057	0.07078709	0.08738565	0.04850879	0.03485117	-0.010695916	-0.110961005	0.047886778	0.035749596	-0.021651383	0.061744347	-0.024914471	-0.029131705	0.039697427	0.025100157	-0.002615299	0.03585863	0.11621529	-0.015716735	0.07254703	-0.04432447	0.008784579	0.10776914	0.019489372	-0.034709968	-0.03699785	0.029589532	-0.056981057	-0.023624646	0.0045266952	-0.03466112	-0.11469801	0.09425202	-0.049388126	-0.05167136	-0.02808102	0.13187137	-0.016707256	-0.12512584	0.0056530097	-0.084246896	0.11385044	0.08948314	-0.05392713	-0.03467868	0.009158895	-0.05781813	0.016650213	0.072212376	0.03880567	-0.092111655	0.091674864	0.02694435	-0.10666312	0.04924585	0.09860114	-0.02707146	0.084009446	0.048415687	-0.09677465	-0.011123359	-0.06028738	-0.00048369332	-0.06492144	-0.045050684	-0.025824247	-0.11918566	0.052265085	-0.04079388	0.068192706	0.078910656	-0.060435906	0.059246648	-0.071882814	-0.019448686	0.0015092631	-0.041789502	-0.03359355	0.14270325	-0.035920847	-0.010982152
DB01171	-0.06417573	-0.037699737	0.11355392	0.0063219266	0.022265546	0.011962261	0.02036821	0.058837295	0.079491965	-0.0016702499	-0.06387658	0.14220989	-0.017168123	0.06606323	-0.058344785	0.062428292	-0.031089773	-0.0123616345	0.058166448	-0.065109566	0.06838908	0.08487273	0.0224066	0.015311926	0.011472679	-0.10787614	0.073075205	-0.020783883	-0.01320964	0.06705267	-0.059442185	-0.105876684	0.039113775	0.045295194	0.03648682	0.0026579704	0.11821042	-0.007427614	0.06643774	-0.035181083	0.019614317	0.10066619	0.08994663	0.018704472	-0.09294089	0.08358844	-0.068432	0.02467779	0.042179316	0.037110433	-0.11955291	0.11171157	-0.05853616	-0.06518288	-0.02075778	0.14630085	0.0033733533	-0.12602155	0.033408552	-0.07992882	0.10162744	0.08884392	-0.012537437	-0.07652748	0.026458308	-0.090171255	-0.011773346	0.054827277	0.04137317	-0.10105959	0.09022152	0.026051627	-0.09603163	0.032384142	0.09278035	-0.026379408	0.095589474	0.053444423	-0.09340597	-0.004768164	-0.08759134	-0.01821655	-0.044963866	-0.059452057	-0.024136016	-0.107377954	0.065921076	-0.015615707	0.00046740193	0.06707587	-0.04892271	0.062427554	-0.07375585	-0.12032965	0.0127296	-0.06437274	-0.0057823188	0.16570665	-0.035952147	0.037185334
DB01489	-0.023940912	-0.080459796	0.079431266	0.021118743	0.032614607	-0.005962063	0.023734532	0.028854601	0.047531642	0.016080163	-0.07581933	0.12366075	0.018659584	0.06119749	-0.0514111	0.00035593368	0.008374845	-0.039389536	0.03457736	-0.042218767	0.063141584	0.015159018	-0.010619769	0.061245076	-0.043590233	-0.05089956	-0.005567311	0.033183634	-0.013228796	0.06774732	-0.03665486	-0.0068298546	0.0355432	0.020737473	-0.031253595	0.027717773	0.07256635	-0.03046237	0.08172901	-0.02433184	0.025492884	0.059194736	0.00428882	0.013329428	-0.06318512	0.081193395	-0.03287422	0.022037173	0.001174858	-0.019302346	-0.03254379	0.039298102	-0.062141623	-0.04802672	-0.05098698	0.09144937	-0.021104673	-0.07439307	0.08731438	-0.07816462	0.08834607	0.09557927	-0.020102717	-0.028650487	0.025113845	-0.065507226	-0.028948678	0.06587739	0.009522942	-0.05627022	0.01637848	-0.015716009	-0.0643549	0.09580561	0.06039034	-0.018402055	0.07114515	-0.03832483	-0.029283442	0.024210855	-0.02419145	0.0024474596	-0.0039881347	0.017570468	-0.01741376	-0.08197057	0.009166077	-0.057704367	0.07432343	0.020351475	-0.0415162	0.021006815	-0.06063273	-0.089741744	0.060758017	-0.0030127272	-0.05213643	0.10914032	-0.0024042919	0.0069414107
DB01484	0.0111190425	-0.06582642	0.090579726	-0.05659145	0.02477047	0.019097557	0.014400851	0.053210475	0.016239136	0.012805286	-0.032158785	0.097979926	0.02082233	0.055127367	-0.0031645151	0.055055987	0.020477047	-0.056213494	-0.034699194	-0.019917764	4.29356e-05	0.07850915	-0.005459694	0.042775735	-0.016452044	-0.051005326	-0.004885306	-0.023832707	-0.001973969	-0.018363116	-0.016795147	-0.08179211	0.070977345	0.007161372	0.024173584	0.002521358	0.07084404	-0.08910306	0.064261585	-0.028458964	0.068896145	0.060744666	0.057911392	0.014199661	-0.090867475	0.070689484	-0.053674035	-0.03923742	0.042710308	0.046367016	-0.024411453	0.02666164	-0.05583108	-0.024547443	-0.050686408	0.061065987	-0.0128700705	-0.07320326	0.017007176	0.021772882	0.10583798	0.04591832	-0.03395382	-0.05305773	0.00086187	-0.07572398	-0.03949542	0.044368505	0.053736866	-0.073192626	0.037156977	-0.013071307	-0.039410725	0.07822061	0.0834428	0.04990446	0.07076696	-0.0069485703	-0.10191356	0.036857728	-0.016834894	0.0015294991	-0.0028590965	0.0009442859	-0.030698253	-0.06021481	0.028480364	-0.06524088	0.0043901284	0.025225334	-0.06793975	0.037096202	0.026957387	-0.06767734	0.058432393	-0.018265795	-0.029123632	0.04755128	-0.02226862	-0.0032738298
DB01483	0.004751587	-0.090108566	0.09514349	0.005322529	0.0077988803	0.02557487	-0.018298065	0.03670468	0.033962276	-0.0038530354	-0.06290077	0.10952366	0.013230022	0.06714911	0.0057476936	0.00033789978	-0.0069742994	0.016796647	0.0514715	-0.0508821	0.09081668	0.068746805	-0.022119591	0.033812705	-0.0133448	-0.029392827	0.05097527	-0.016621005	0.0135297375	0.03259723	-0.03797579	-0.10526456	0.03887242	0.009126123	-0.032486875	-0.00041726627	0.08327969	-0.050041743	-0.042276956	-0.05273901	-0.016173558	0.067285754	0.007083906	-0.044340894	-0.076676495	0.027456954	-0.081139505	-0.039893765	0.042959586	-0.009888634	-0.08627906	0.08280762	-0.05725626	-0.016260881	-0.021277638	0.15632074	-0.032998092	-0.13937697	0.056099027	-0.061339922	0.05121731	0.077746846	0.0070795882	-0.044495918	-0.018069115	-0.07003106	-0.023995597	0.063558705	0.052448176	-0.09146767	0.052449167	-0.0020735464	-0.047392696	0.059714373	0.09471612	0.008638088	0.0887389	-0.007868873	-0.052560918	0.019352907	-0.0926358	-0.032352164	-0.05010686	-0.07240753	-0.050243113	-0.11531611	0.037279163	-0.06675634	0.07477282	0.0848512	-0.0066007897	0.0363953	-0.064791694	-0.0039744712	0.0408718	-0.050751533	-0.039414834	0.10018217	0.024491826	0.047810294
DB00741	0.0051096603	-0.061762158	0.15404703	-0.024756566	0.064656	0.07341752	0.039895955	0.06287158	0.061502874	0.09321322	-0.050185695	0.11447265	-0.058897108	0.07628565	-0.045405027	0.08396423	-0.035462946	-0.015275351	0.07267609	-0.097100705	0.09952736	0.097807646	0.085829794	-0.021845426	-0.010733414	-0.10369457	0.06969342	-0.029252619	-0.0025245333	0.030711042	-0.061705098	-0.093339555	0.03590236	0.030096058	0.033065517	-0.047556665	0.12783733	-0.04083176	0.080196805	-0.07515083	0.013305972	0.105521366	0.07998897	-0.054227244	-0.090358414	0.040577717	-0.091496766	-0.036742985	0.0021346672	-0.022695975	-0.14402224	0.11943184	-0.089909784	-0.061445378	-0.032937262	0.17213517	0.043019824	-0.16875406	-0.013328673	-0.077104	0.107742414	0.101757206	-0.04343659	-0.043625243	0.024120308	-0.09591198	0.017192397	0.06867857	0.0414119	-0.10484729	0.082189485	-0.043978356	-0.12801977	0.037002232	0.085532755	-0.041992344	0.1271553	0.033942644	-0.10380146	0.014162956	-0.110561006	-0.022665368	-0.05371714	-0.0463432	-0.04137889	-0.09694088	0.063871905	-0.051193308	0.005413576	0.054119408	-0.07050948	0.064628325	-0.07002582	-0.08897235	0.0060538137	-0.066170216	-0.023344465	0.15224314	-0.026546761	-0.04888411
DB01002	-0.022193896	-0.038225286	0.11370977	0.02257293	0.03440494	0.02881826	0.008557478	0.05658759	0.082439765	0.01875266	-0.05062397	0.12252584	-0.0106194485	0.047522977	-0.068040304	0.053593	0.0069637904	0.013667371	0.05890711	-0.051444426	0.08346184	0.08316593	0.0017203761	0.037422374	0.020648869	-0.07580198	0.055262566	-0.02768877	-0.026812917	0.053842485	-0.044545367	-0.09520469	0.09163457	0.03424926	0.013903002	0.01512297	0.118475504	-0.0019400553	0.093106374	-0.057843935	0.03789746	0.108336814	0.07948837	0.021838233	-0.07851301	0.07112224	-0.07448557	-0.0465012	0.047542762	-0.01702417	-0.098317385	0.0981819	-0.057217	-0.044866238	-0.07705649	0.15260556	-0.015904572	-0.07992628	0.09543892	-0.06975482	0.11326198	0.10567904	-0.06686914	-0.06357615	0.009728309	-0.090226196	0.027951576	0.068509124	0.027439957	-0.09944065	0.097802736	0.007979978	-0.10840306	0.05674396	0.09693586	-0.0029133307	0.0871635	0.046049178	-0.08470185	-0.006827397	-0.08781536	-0.00870068	-0.0728538	-0.06355332	0.0012603848	-0.12267062	0.03280146	-0.056524854	0.07565524	0.07144943	-0.06477362	0.06769506	-0.057818647	-0.009363844	0.030240066	-0.0029709938	-0.024268122	0.14218466	-0.018069578	0.05622866
DB00578	-0.05944313	-0.08921108	0.10826576	-0.028048834	0.013193183	0.022916868	-0.0053313794	0.05895849	0.051461633	0.01954371	-0.08110319	0.14206766	0.024437781	0.05583882	-0.024710586	0.058906525	-0.0014679547	0.0074488665	0.055422556	-0.09424779	0.06866594	0.08761143	-0.010154428	0.057622872	0.0334207	-0.072764896	0.046771802	0.039353862	-0.019741394	0.06871043	-0.035826843	-0.06756713	0.0661513	0.0657629	0.022558529	0.054888032	0.119781666	-0.042479664	0.0698115	-0.05280109	0.023890255	0.12005916	0.086491704	0.033834323	-0.08472317	0.109317645	-0.05603476	-0.020119961	0.038275354	0.015958933	-0.1019213	0.096248776	-0.03682712	-0.057177547	-0.08428899	0.1603349	-0.012070358	-0.10976354	0.01875466	-0.09012647	0.088633254	0.091663204	-0.044355616	-0.059844412	0.007335387	-0.071867265	-0.040071722	0.06112799	0.0706307	-0.10875079	0.095526636	0.034822173	-0.103217304	0.064119756	0.08457659	-0.029804155	0.09425199	0.040845655	-0.08471363	-0.021843724	-0.070953704	0.0057472372	-0.07219264	-0.035985727	-0.0054840436	-0.10161565	0.019051721	-0.06137141	0.06767545	0.06797749	-0.054360714	0.060275022	-0.07330003	-0.09391195	0.018108156	0.027275067	-0.052146222	0.12309755	-0.017406289	0.010973979
DB01000	-0.009595869	-0.08522665	0.07943401	0.02443342	-0.032585956	0.008944876	0.0127175925	0.04614518	0.084692314	0.031247042	-0.07288747	0.12347928	0.023225816	0.054983933	-0.026257271	0.05726106	-0.013341939	-0.01780508	0.020930544	-0.044659313	0.0816291	0.04085949	-0.001359218	0.052669507	0.034960687	-0.08470516	0.059792954	0.010319748	-0.0112649985	0.06990838	-0.04373735	-0.046238016	0.07063792	0.022014825	0.015455206	0.009819959	0.07064929	-0.038812496	0.070333414	-0.05955972	0.027782897	0.10638943	0.03293368	0.029026184	-0.020314878	0.0776314	-0.039086487	-0.046069216	0.035351682	-0.014942646	-0.0803402	0.09666874	-0.01766117	-0.061805245	-0.087609865	0.12760772	-0.02234401	-0.095034465	0.02956831	-0.079811394	0.10933447	0.10553367	-0.0022345427	-0.06481226	-0.030742409	-0.07046893	-0.04600485	0.057106514	0.04495365	-0.09764954	0.07877648	0.00085458066	-0.09886907	0.0662484	0.08430807	-0.0048070922	0.09984851	0.02814216	-0.07232904	-0.016742159	-0.09446218	-0.017447636	-0.061646335	-0.050881952	-0.033692867	-0.116116464	0.04008817	-0.046874285	0.07841684	0.08071493	-0.055319805	0.07955795	-0.07737351	-0.016004203	0.03336211	0.002792229	-0.07145485	0.13454805	0.015066094	0.04905616
DB01001	0.010136166	-0.03731247	0.16521226	1.8639374e-05	0.03571723	0.060282063	0.03313281	0.054354932	0.07349181	0.020909088	-0.058539584	0.13475074	-0.007627375	0.055439547	-0.03239259	0.064982094	-0.042613447	-0.00014547037	0.07867707	-0.06746263	0.07936677	0.097522624	0.09723208	-0.021814046	-0.0080653075	-0.086116254	0.08170827	-0.017949214	-0.024838172	0.04682565	-0.044467244	-0.08424507	0.034232643	0.03228691	0.028804382	-0.025781067	0.11340828	-0.041834056	0.06956664	-0.069136985	0.01985169	0.096595846	0.06942755	-0.023466263	-0.093130745	0.030932033	-0.055814072	-0.03854681	0.027376093	-0.0026947288	-0.12043966	0.10765891	-0.06602088	-0.08105609	-0.0087605	0.15329304	0.037519857	-0.16621828	0.008146388	-0.09469847	0.09072096	0.09267387	-0.05082781	-0.05533278	0.016692419	-0.09018096	-0.014985796	0.067823805	0.06098909	-0.10355889	0.08052331	-0.03712536	-0.092759624	0.012885457	0.08246415	-0.06353024	0.10828861	-0.0047037667	-0.11168947	0.01905489	-0.10766464	-0.0011032011	-0.07116931	-0.067502856	-0.032817356	-0.081497006	0.1050067	-0.059894085	0.00061027333	0.022613341	-0.08060849	0.04421739	-0.05953396	-0.082061686	0.01992928	-0.057341482	0.001926025	0.13217698	-0.03138814	-0.006260289
DB01006	0.008500235	-0.028947374	0.10926736	0.01846151	0.0025683814	0.034716785	0.033592217	0.06212002	0.06589787	0.04451623	-0.061562993	0.12688753	0.005214207	0.073183835	-0.00606268	0.07928215	-0.052498743	0.011218307	0.08490124	-0.09360667	0.0979823	0.09964683	0.04442986	0.0027993566	0.0040189233	-0.081697956	0.06631076	-0.04729343	-0.02575389	0.06388426	-0.03750668	-0.08979438	0.07997194	0.01759195	0.026522715	0.0015491904	0.10323961	-0.040584564	0.07119889	-0.024439938	-0.0004884341	0.11111603	0.028206255	0.04278242	-0.08724334	0.0148133645	-0.07770028	-0.042002417	0.050675515	0.025116514	-0.09785966	0.11843942	-0.04241531	-0.05365289	-0.003419799	0.14617866	0.002161895	-0.12589927	0.04492125	-0.08524281	0.088422984	0.09866602	-0.03092682	-0.06816563	0.031766687	-0.08381424	0.017424336	0.06670682	0.06935144	-0.06949029	0.072018385	0.037263375	-0.115134425	0.049465556	0.078616515	-0.0082375305	0.13431738	0.036432896	-0.10085822	0.005227414	-0.081800215	-0.022643529	-0.02203004	-0.037781566	-0.053459503	-0.09579862	0.069610074	-0.016849322	0.034585148	0.077417344	-0.067990236	0.06161559	-0.0741942	-0.034471788	0.0024679378	-0.065795965	-0.014186134	0.13683774	0.010003553	0.052451093
DB01007	-0.038419	-0.06603236	0.13647315	0.009182569	0.04234218	0.036001578	0.02600247	0.036715664	0.06810875	0.01648892	-0.05633914	0.13181514	-0.042969897	0.06939141	0.011994634	0.07062638	-0.024403356	0.00025844283	0.06277272	-0.069666624	0.06876436	0.06598216	0.02049283	0.0208897	0.004538989	-0.09125852	0.053352024	0.013811702	-0.020398969	0.07307042	-0.060420774	-0.086559005	0.032727733	0.07999309	-0.006690363	0.022855852	0.121366575	-0.038363937	0.06726755	-0.047263842	0.048556056	0.11451144	0.02496426	-0.048198808	-0.0940717	0.054802056	-0.072918594	-0.04217118	0.002923053	-0.028995525	-0.12610883	0.101223074	-0.07034962	-0.065366544	-0.062475596	0.1483918	0.012171165	-0.1254217	0.008426611	-0.08649651	0.11258775	0.09061445	-0.0068794396	-0.05451871	0.0203594	-0.08940596	-0.020338902	0.062283747	0.086500354	-0.095744	0.08458343	-0.019407334	-0.120287344	0.041578494	0.07483612	-0.019095097	0.10476938	0.062618434	-0.088668525	-0.018540056	-0.095809266	-0.0008729518	-0.036375526	-0.06923582	-0.04701401	-0.095585786	0.043156955	-0.059047833	0.011323141	0.034258936	-0.0641768	0.0439664	-0.07159693	-0.08044028	0.0072174068	-0.06459794	-0.022017078	0.1413452	-0.0013268295	0.044754457
DB01004	0.018074878	-0.02335857	0.09614466	0.0036707823	0.027096115	0.0357861	0.03103909	0.04332159	0.04481268	0.07182034	-0.06564964	0.1357752	0.009165041	0.06027034	0.0041206763	0.029265568	-0.0076755593	0.0040999185	0.072644696	-0.09223125	0.09796652	0.11322248	0.04124895	-0.0012186792	0.0006395682	-0.09402452	0.058293935	0.0155950235	-0.016478777	0.08673493	0.017818978	-0.08178107	0.029060181	0.073268734	0.009499939	-0.0013699534	0.09445377	0.0008146238	0.07024433	-0.050761342	0.01414663	0.10431312	0.055177316	0.042164907	-0.09543804	0.06667489	-0.032748636	-0.0620454	0.04035764	-0.032885198	-0.14160095	0.13175982	-0.052215766	-0.07333635	-0.056220483	0.15377216	0.036422826	-0.12384003	-0.015821407	-0.08399199	0.10351315	0.1125108	-0.020806525	-0.035682246	0.029985094	-0.073201746	-0.04704064	0.005178151	0.024032412	-0.09781815	0.08792566	-0.0016000296	-0.1012784	0.0584734	0.07387086	-0.039669544	0.076259375	0.03551351	-0.09069844	-0.0049729045	-0.08617586	-0.013800913	-0.05148014	-0.06935088	-0.055470638	-0.1098003	0.046416305	-0.065670334	-0.00076656323	0.07712187	-0.090994455	0.07205859	-0.07516842	-0.041121196	-0.0034056725	-0.0158155	-0.026966779	0.1387595	-0.011920939	0.052408732
DB01005	0.009074991	-0.040977303	0.11970204	0.019687042	0.04325434	0.034015294	0.04974638	0.038311742	0.077510454	0.044616155	-0.06345592	0.14112638	0.00730417	0.0766116	-0.049896818	0.06536062	-0.0001657065	0.015548097	0.06406365	-0.061393756	0.09623483	0.08953615	0.055648856	0.038475655	0.0010029371	-0.057832126	0.0485024	0.03164774	-0.026014367	0.075530365	-0.023652788	-0.09918446	0.043044336	0.09128068	0.00031902175	0.0065006316	0.1114744	0.0061456123	0.09134151	-0.061473496	0.008005655	0.09806054	0.07944092	0.02410515	-0.08472889	0.055177066	-0.0036579415	-0.056396987	0.032948874	0.004442434	-0.11088744	0.105866686	-0.074958846	-0.07181328	-0.040443994	0.14466628	-0.0055718943	-0.117117465	-0.005110247	-0.078936026	0.10048481	0.11094458	-0.047045533	-0.070642844	0.022875486	-0.07249629	-0.033090226	0.0020052423	0.056009896	-0.11067732	0.09196088	0.00483171	-0.12151945	0.06674429	0.09867842	-0.038160786	0.05426958	0.0070907925	-0.09565527	-0.0046786894	-0.1047447	-0.056531493	-0.05965696	-0.0044473885	-0.029502839	-0.10526676	0.041184854	-0.030844934	0.019514013	0.0835713	-0.064996615	0.073658116	-0.06641255	-0.07184306	0.0021204904	-0.0046107057	0.014601343	0.14941157	0.022240601	0.0384199
DB00571	-0.010831026	-0.054843545	0.119177364	-0.031633884	0.04893277	0.056315567	0.03390692	0.06462753	0.064596884	0.057658613	-0.041566126	0.1354803	0.007046898	0.06451369	-0.06999497	0.096879125	0.0021653431	-0.020717898	0.060994104	-0.12723678	0.10936716	0.09636536	0.060547918	0.0029034242	-0.006302636	-0.07472303	0.056366693	-0.03474208	-0.011987279	0.055126995	-0.058839228	-0.08980245	0.05924569	0.09265365	-0.0016346317	0.00209136	0.12365001	-0.043181263	0.07355824	-0.08856581	0.016151914	0.12239636	0.087272555	0.017164197	-0.09942536	0.05006893	-0.050186	-0.051330294	-0.0022895304	0.008583094	-0.13166907	0.12263191	-0.06561699	-0.058956504	-0.02649402	0.1601185	0.023446191	-0.16314639	-0.022256581	-0.08534968	0.09810311	0.10519653	-0.034688804	-0.056685533	0.025520038	-0.08488006	-0.015876533	0.07225877	0.08311746	-0.10510979	0.08096287	-0.015207553	-0.120807916	0.028875627	0.081272915	-0.039532617	0.086995035	0.0034676958	-0.12625104	0.007077842	-0.09832311	-0.025236595	-0.060380235	-0.086837664	-0.06287828	-0.10216901	0.09166027	-0.062954344	0.0018380609	0.06660086	-0.079956315	0.06136592	-0.061078295	-0.06556502	0.0008634181	-0.05353997	-0.021175588	0.15648893	-0.0030106427	-0.0067768088
DB00570	0.01926142	-0.07167937	0.115309775	0.0004310183	0.032046672	0.033318803	-0.0034526577	0.057742845	0.08553667	0.033926234	-0.055742133	0.12708655	0.017284378	0.037270024	-0.01136133	0.07104904	-0.04735335	0.010874287	0.055357296	-0.09368663	0.08334422	0.08906503	0.007286842	0.05569548	0.004013694	-0.08476121	0.05005668	-0.017597033	-0.011197973	0.050334323	-0.045056112	-0.069801696	0.03810898	0.08629073	-0.0063123563	0.036750544	0.12591316	-0.035180252	0.060877595	-0.07679082	0.051901057	0.12236707	0.08025154	0.01930968	-0.08117609	0.08471463	-0.09606851	-0.025185492	0.04766208	-0.025743023	-0.11304729	0.09978093	-0.05586547	-0.057919286	-0.0817671	0.1496915	0.037554443	-0.13900988	0.00516891	-0.08463651	0.11701992	0.082613304	-0.023082837	-0.04602924	-0.0022094208	-0.07203304	0.030260833	0.073757306	0.035281137	-0.11413527	0.09846892	0.027167104	-0.12193468	0.05881767	0.115709305	-0.015821034	0.12115343	0.042218767	-0.08416716	0.01826605	-0.1006947	-0.001653981	-0.07344329	-0.07738129	-0.004224073	-0.11737063	0.06477952	-0.061858516	0.04480166	0.07470989	-0.07267787	0.06622698	-0.06558852	-0.043291066	0.040186316	-0.030446177	-0.0635459	0.1472902	-0.014462251	0.02502076
DB00573	0.009652679	-0.034451023	0.12961835	0.007072761	0.039702207	0.0737778	0.013170371	0.05885306	0.09403206	0.056378793	-0.04623308	0.14232716	0.017044926	0.05097201	-0.060089514	0.056105476	-0.013904499	-0.04764152	0.065938845	-0.11142356	0.10275925	0.079776265	0.03341489	0.013826311	0.010430102	-0.06446417	0.05231093	0.037126873	-0.011966974	0.062142804	-0.035849854	-0.09139233	0.04420656	0.031975996	-0.022811592	0.00097486516	0.119989045	-0.0415634	0.082721554	-0.040838335	-0.0016923001	0.10367776	0.080081426	-0.03900038	-0.07505206	0.059290502	-0.057768583	-0.04041938	0.049047235	-0.008346657	-0.14635625	0.102839656	-0.06662949	-0.06254715	-0.035279505	0.1609157	0.028522925	-0.13221407	0.0029359742	-0.08596007	0.10601138	0.08643839	-0.06037756	-0.05322765	0.0016678738	-0.07364566	0.00011013006	0.016850166	0.092412315	-0.1040236	0.101875976	-0.004906792	-0.09226681	0.06681875	0.0836328	-0.012185739	0.09401874	0.021191118	-0.07112769	0.0040458823	-0.08966108	-0.05824942	-0.04333794	-0.036257997	-0.055573925	-0.11454135	0.03851454	-0.044113684	0.015010779	0.017855497	-0.07342817	0.071841635	-0.06026463	-0.07175151	0.011302116	-0.009532955	-0.010285695	0.14050499	0.00031235	-0.012442191
DB00572	0.015872076	-0.080639005	0.13502276	0.0032901736	0.040310834	0.05110448	0.015525632	0.057473276	0.05128789	0.024843553	-0.06459706	0.15041476	0.008204406	0.057361923	-0.038651064	0.08887717	-0.026540803	-0.021103654	0.07576382	-0.08337666	0.087755516	0.09131324	0.08574125	0.001994041	-0.038962375	-0.06498955	0.042147093	-0.011507533	0.0044848826	0.046431154	-0.03184203	-0.09173344	0.027926868	0.020746054	-0.009393905	0.045706246	0.121124744	-0.00055914256	0.070297755	-0.07803046	0.03332681	0.094933815	0.07906913	0.011739005	-0.10459205	0.0525752	-0.04026438	-0.045561787	0.044914845	0.04355974	-0.13636507	0.10881131	-0.080612995	-0.071115226	-0.060065515	0.15657724	0.017568856	-0.14009778	-0.01781335	-0.06666946	0.107559934	0.088936135	-0.031895503	-0.046716373	0.027353281	-0.07685133	-0.017775929	0.07394827	0.089152336	-0.105735786	0.10794073	-0.03345935	-0.12916963	0.054686382	0.07418543	-0.030536871	0.11911077	0.02412686	-0.09902341	-0.00019083684	-0.06567775	-0.02623579	-0.05809489	-0.04197918	-0.032956384	-0.111223586	0.060300615	-0.059314657	0.06418179	0.023481697	-0.073792405	0.07941518	-0.06358541	-0.07509603	0.010685956	-0.016594347	-0.020029968	0.12641396	-0.0048704906	0.024713036
DB00575	-0.013565195	-0.064731814	0.13933688	0.000761242	0.0507238	0.062310416	0.022238685	0.07153791	0.04249281	0.039648812	-0.03437267	0.122714944	0.000688653	0.07508161	-0.035972856	0.09643494	-0.014737831	0.005466032	0.07209538	-0.094733514	0.107466504	0.09266574	0.061572935	-0.013245513	0.011485647	-0.081147775	0.05005674	0.0055568838	0.036351718	0.049597394	-0.05194543	-0.09531321	0.06339868	0.08360666	0.014642795	0.024869727	0.1299894	-0.026634715	0.09082699	-0.08964402	0.015954746	0.11114205	0.07758326	0.02326014	-0.09266432	0.07891524	-0.06146297	-0.055343397	0.012602012	0.030946268	-0.14032932	0.10018466	-0.07770053	-0.06633404	-0.026493652	0.16290252	0.029781152	-0.14152652	0.0070620943	-0.07183904	0.079534985	0.12249849	-0.03744144	-0.07618159	0.004944218	-0.08801829	-0.03410831	0.066974506	0.044810865	-0.092639625	0.10246022	-0.03277557	-0.12542176	0.029233564	0.0841298	-0.032011244	0.08640318	0.037770048	-0.09658089	-0.017879354	-0.098523565	-0.018098375	-0.045730602	-0.08405877	-0.050533183	-0.0957249	0.09850378	-0.0605701	0.023749612	0.046023656	-0.077403255	0.06777877	-0.044539295	-0.07672072	0.002738406	-0.02191177	-0.018215578	0.15834269	-0.021620598	-0.03914906
DB00574	0.018357294	-0.0393407	0.10277409	0.014729141	0.017737629	0.03496062	0.015350061	0.059781294	0.05021907	0.011197719	-0.047280602	0.14195305	0.025801163	0.06751848	-0.0004804274	0.039832145	-0.026230294	0.006996832	0.03636751	-0.04568562	0.085375	0.036855247	0.008199158	0.043991897	-0.007840722	-0.08663712	0.027985325	0.01570746	-0.021075359	0.06486852	-0.050332975	-0.024238236	0.030812392	0.07464675	-0.030412065	0.0022830018	0.115672804	-0.05193283	0.07648823	-0.044052694	0.012833069	0.113447465	0.018049147	0.051833197	-0.09005092	0.05496957	-0.07551511	-0.035520405	0.031442586	-0.034748554	-0.08767738	0.104106	-0.0036340521	-0.053131282	-0.051043097	0.13990858	-0.05022975	-0.089462794	0.05794613	-0.07756109	0.09807944	0.092691064	-0.02242206	-0.028300615	0.04046794	-0.04860242	-0.020509439	0.060931526	0.08711028	-0.087990284	0.08212362	0.027775599	-0.08349066	0.039653525	0.08146351	-0.004083476	0.094956994	0.027640697	-0.044059858	-0.004759281	-0.09567116	-0.016545257	-0.036808692	-0.06700079	0.0034944343	-0.079706356	0.034210913	-0.02119311	0.07279298	0.023980668	-0.05335034	0.07595639	-0.059233423	-0.060912006	0.016130028	-0.01956951	-0.023500023	0.08866874	-0.030942453	0.05727204
DB00577	0.01752352	-0.06526451	0.117836125	-0.005634512	0.029248644	0.057880435	0.023827028	0.048512958	0.09117314	0.05259266	-0.04008026	0.13343252	0.013991574	0.043063577	-0.029952392	0.06903447	0.0032452568	0.021961216	0.059660923	-0.0982173	0.079973064	0.0948047	0.04820226	0.030677421	-0.0025860968	-0.08858479	0.05204732	-0.031211603	-0.015361686	0.07832624	-0.03812807	-0.017640349	0.038341038	0.08283868	-0.009429663	0.030787095	0.11734438	-0.03277822	0.07308683	-0.06145216	0.037620023	0.12887986	0.07479539	0.018697072	-0.094936445	0.053155318	-0.054241136	-0.017300008	0.011446754	-0.041091636	-0.12287466	0.0956155	-0.052016966	-0.060235366	-0.031296626	0.1443524	0.03456261	-0.1361916	0.013017797	-0.073964976	0.10268724	0.100483194	-0.035765097	-0.03438246	0.017134115	-0.064034164	0.015001419	0.06612907	0.04871056	-0.097459316	0.09356591	-0.038027454	-0.121544465	0.055477872	0.0811612	-0.025419736	0.07818173	0.038597755	-0.09293336	0.0017798394	-0.10187293	-0.0023796791	-0.043849714	-0.060287684	-0.043403026	-0.1080841	0.095639706	-0.045898937	0.019233387	0.0430307	-0.07728885	0.054029863	-0.06179367	-0.031205803	0.0065174615	-0.015871752	-0.044547785	0.15433523	-0.0040016975	0.037199553
DB00576	-0.048333976	-0.045047123	0.10236973	0.0014715401	0.044454634	0.010550093	0.042737365	0.044823665	0.07964283	-0.010580851	-0.05106916	0.12402501	0.0043892963	0.05675506	-0.056739803	0.061425287	-0.052652963	-0.00090424437	0.064149156	-0.06302594	0.067425385	0.077692784	0.018088557	0.029137658	-0.010330941	-0.09329813	0.070026346	0.0054299617	-0.04008993	0.06760591	-0.03178632	-0.08436835	0.031000804	0.066473424	-0.027180685	0.014966474	0.10854093	-0.017725065	0.07035165	-0.074300714	-0.00817406	0.11932448	0.04116103	-0.028469928	-0.09106256	0.06852305	-0.057154614	-0.04944439	0.0029987104	0.03823136	-0.091215074	0.11882398	-0.042487055	-0.044419095	-0.058304053	0.13174063	-0.029276641	-0.09363605	0.059983708	-0.08349339	0.10599907	0.088304326	-0.015530053	-0.06810068	-0.009345589	-0.078597575	-0.03283047	0.08397144	0.037860572	-0.09700619	0.0917944	0.01928598	-0.10527119	0.05336572	0.10625674	-0.015757473	0.043459903	-0.0066411127	-0.07355844	0.0034366825	-0.06731323	-0.021840984	-0.03591498	-0.0057171388	0.0026564258	-0.115429685	0.031213915	-0.06321919	0.060346	0.055940952	-0.068486676	0.068166204	-0.078699216	-0.09059836	-0.0014878432	-0.049358837	0.0012528916	0.12425993	0.0032524862	0.049461383
DB00751	-0.013126733	-0.07523348	0.1099822	0.0045881835	0.010265511	0.04777894	0.015902327	0.051996183	0.07347587	0.03437811	-0.048428982	0.11940972	0.02483235	0.06640651	-0.057984523	0.07444763	-0.055796176	-0.019229738	0.06426396	-0.07609496	0.09781297	0.08579417	0.0056745447	0.04495891	0.009877227	-0.07077674	0.05738005	0.0010879075	0.001049843	0.07720329	-0.047333978	-0.084849276	0.06284399	0.035866067	0.0050678994	-0.0065310076	0.12451993	-0.012161683	0.058893695	-0.06659207	0.02034922	0.11116962	0.049130995	0.0005739697	-0.084493056	0.07664052	-0.068408	-0.034293946	0.0182015	-0.029894378	-0.1207361	0.110549025	-0.053721577	-0.07655575	-0.08156783	0.13654459	-0.02047238	-0.12729487	0.060107924	-0.08761162	0.09308071	0.09467246	-0.03524129	-0.054893926	0.029702319	-0.059261236	-0.000887654	0.093177155	0.07014178	-0.109770834	0.09397483	0.024928078	-0.095533326	0.063811	0.0801239	-0.0039940407	0.105824836	0.035772394	-0.082425	0.016443098	-0.08721267	-0.023437385	-0.05791455	-0.08091547	-0.030327505	-0.118449435	0.044097677	-0.03498921	0.06292952	0.058000743	-0.07118511	0.08834108	-0.064002834	-0.076692745	0.034664113	-0.036404565	-0.047732558	0.13408716	-0.014756075	0.02125772
DB00750	0.02763391	-0.002852024	0.10708391	0.016264202	0.024316266	0.032853276	0.062049367	0.039979912	0.056259207	0.0724802	-0.030582083	0.14114803	0.017042916	0.06512883	-0.008317312	0.06711439	-0.043850977	-0.010829672	0.059162296	-0.11033139	0.08015396	0.092554316	0.06332647	-0.014475798	-0.033287942	-0.07335473	0.052150354	-0.051803	-0.036263827	0.051697895	-0.032792185	-0.07368119	0.040423173	0.06936384	0.00051119446	-0.0024387534	0.10144467	-0.062180135	0.071622394	-0.046125762	0.006019085	0.07870268	0.076797426	0.018610034	-0.07550321	0.030606788	-0.053299163	-0.041722395	0.039018113	-0.0150126945	-0.09495737	0.09679587	-0.05014587	-0.048469692	-0.042993203	0.139331	0.031478435	-0.12618206	0.054315597	-0.08709583	0.10391285	0.10386456	-0.04667066	-0.04436659	-0.029451335	-0.04945565	0.03165433	0.06994963	0.067068465	-0.08686511	0.074767634	0.0038125836	-0.08205488	0.04377576	0.08876825	-0.039414145	0.10943625	-0.015162397	-0.087145284	0.032323234	-0.09258157	-0.035269763	-0.03746113	-0.0055057593	-0.02518012	-0.09869364	0.069514476	-0.059617985	0.05668984	0.07521774	-0.062387276	0.07541678	-0.05961528	-0.02211003	0.0065308567	-0.06744956	0.005427226	0.12876062	0.0475925	0.042085618
DB00753	0.0018484517	-0.055085942	0.11926378	0.026517168	0.03383898	0.03995442	0.020608656	0.054522302	0.046955038	0.046486452	-0.035776295	0.14370234	0.014654441	0.07711357	-0.061519545	0.07590875	-0.047230925	0.016943242	0.08317127	-0.078502856	0.099855654	0.094137736	0.04063943	0.043516506	-0.016194033	-0.06954121	0.07228351	-0.02282114	-0.0014705334	0.07093893	-0.045786977	-0.10148844	0.06534195	0.057058513	-0.012226575	0.005576683	0.11247951	-0.0036838627	0.031793542	-0.056782693	0.016827313	0.09462664	0.091202945	0.047069162	-0.09732606	0.03971444	-0.06720522	-0.04627792	0.050849747	-0.017579159	-0.12887871	0.103438996	-0.058181286	-0.068968825	-0.0027072849	0.14522496	-0.0214631	-0.11598956	-0.018137844	-0.090433545	0.057026394	0.10547581	-0.0006624904	-0.054530956	0.015200058	-0.07884408	-0.0010609155	0.10502814	0.052135713	-0.08402508	0.09074843	0.029649265	-0.08870951	0.054653212	0.07590954	-0.022240628	0.079563156	-0.003059044	-0.09764923	-0.0015927549	-0.103352584	-0.044439644	-0.03144065	-0.017571922	-0.028648237	-0.086381845	0.06386192	-0.020461593	0.068939984	0.05730473	-0.038148828	0.06474467	-0.06435749	-0.012398062	0.0075829825	-0.029352173	-0.02522778	0.13984141	0.014998004	0.058321293
DB00752	-0.0394324	-0.06467955	0.114711456	-0.029065458	0.06072812	0.05002437	0.037040867	0.039591238	0.04149649	0.051893286	-0.05986968	0.12931421	0.014165978	0.056660634	-0.047847513	0.08269963	-0.016403366	0.02304301	0.0623255	-0.10553287	0.09775843	0.087859035	0.010355556	0.008820149	0.00014233484	-0.08276092	0.04973621	0.032432936	-0.026338315	0.08128146	-0.040216442	-0.09002821	0.03772254	0.08483602	-0.015129739	0.005903976	0.121691726	-0.016211756	0.07555464	-0.056813974	-0.007133947	0.10787693	0.02563377	0.032021206	-0.09891333	0.07382693	-0.054193135	-0.061473798	-0.01972027	-0.032766055	-0.110466614	0.10472039	-0.057989955	-0.07946038	-0.041888833	0.14878349	-0.027738504	-0.14243503	0.03981721	-0.07019061	0.0414815	0.09809147	-0.026137179	-0.07096053	0.030547425	-0.08406537	0.029381694	0.07605443	0.047431417	-0.085696205	0.082826346	-0.0062988577	-0.103753015	0.039427623	0.08076941	-0.0023743291	0.08268806	0.040029585	-0.077602625	-0.032843538	-0.08143986	-0.024802601	-0.051493596	-0.064046174	-0.054367397	-0.04712653	0.03591201	-0.061273765	0.0024587216	0.085961245	-0.06467947	0.012175396	-0.061282158	-0.036108192	-0.011204458	0.0077735996	-0.018929949	0.14641467	0.009878135	0.047931068
DB00755	-0.020000242	-0.03371584	0.12817475	-0.010598517	0.042488646	0.04747117	0.011546595	0.07174489	0.06607178	0.057037633	-0.0532136	0.131012	-0.0028957147	0.0771625	-0.028836368	0.07246956	-0.020503888	-0.01831174	0.08210855	-0.10251688	0.12180894	0.09921333	0.05477798	-0.007329772	0.03404908	-0.07646138	0.060981575	-0.041616388	0.0010162538	0.05977125	-0.055736937	-0.12533829	0.040646933	0.07746393	0.029802922	0.003102954	0.123903856	-0.021605501	0.07856163	-0.09428696	0.00909976	0.113607414	0.094804	0.0004894439	-0.08262626	0.038991664	-0.042823594	-0.06358799	0.009009038	0.032655433	-0.14383239	0.10443035	-0.06581366	-0.06607009	-0.020571996	0.15779199	0.036632713	-0.14679806	0.02887255	-0.094770096	0.09646855	0.114047825	-0.032064904	-0.06046479	0.02344526	-0.09546534	0.03731675	0.08105247	0.048128046	-0.11736312	0.09837241	0.0034972169	-0.12968446	0.0440587	0.07960711	-0.03989921	0.07944948	0.04795731	-0.08870422	0.01078792	-0.13516545	-0.029557766	-0.05807452	-0.06074372	-0.012361992	-0.11861235	0.07078012	-0.04562279	-0.0053856014	0.097612366	-0.07520563	0.07242776	-0.065172546	-0.088104665	0.014072093	-0.044684395	-0.0028507186	0.1425904	0.021717524	-0.0064806323
DB00754	-0.05933719	-0.07452028	0.098276265	0.012638367	0.036832005	0.027390976	0.025804535	0.06773414	0.08107614	0.013862824	-0.07429381	0.13372552	-0.012951296	0.059692502	-0.046507508	0.07874538	0.00954229	0.0025951844	0.05669107	-0.0372762	0.105966136	0.081928656	-0.0032995865	0.049858138	-0.007141826	-0.09617247	0.03889147	0.02349377	-0.02728008	0.070529886	-0.026155956	-0.018600877	0.046192806	0.07217525	-0.0048864717	0.031744074	0.10384228	-0.027978642	0.07479951	-0.05316603	-0.005104614	0.112490475	0.06521836	-0.04308306	-0.09930629	0.0516566	-0.05461591	0.01408254	0.048782367	-0.03260848	-0.10704383	0.11145948	-0.043967593	-0.074325584	-0.07803001	0.13780554	-0.025747648	-0.08747588	0.055948332	-0.08225999	0.11488937	0.10152617	-0.044416852	-0.04828884	0.020116683	-0.062322646	-0.036835283	0.013601175	0.07881587	-0.095939614	0.09680899	0.021009075	-0.0962643	0.06733272	0.105269544	0.012571394	0.07730764	0.007161978	-0.07532325	-0.010634376	-0.068911985	-0.032397673	-0.05049933	-0.06371273	-0.05248045	-0.12169367	0.027543962	-0.056824684	0.06984283	0.0752902	-0.012343226	0.08938669	-0.05982423	-0.07172034	0.003140239	-0.0012534712	0.023638036	0.1334322	0.005798079	-0.009473795
DB00209	-0.044223465	-0.047612865	0.12728538	0.008605956	0.034811392	0.06220447	0.018920178	0.053161606	0.06797837	0.061373584	-0.047746524	0.12116013	0.004682225	0.071668915	-0.042325046	0.06228728	0.013836203	-0.0005053624	0.04938887	-0.1086854	0.09574892	0.10320356	0.0047762888	0.028183848	0.044739716	-0.07879451	0.05264004	0.0059965546	-0.010586722	0.06148018	-0.011970008	-0.06753354	0.032862257	0.0871266	0.010387997	0.019391678	0.1149505	-0.040171962	0.088907175	-0.060695875	0.021211915	0.10826942	0.02028403	0.00033918652	-0.073581494	0.03215579	-0.09027281	-0.0034755366	0.018923264	-0.006283904	-0.117653936	0.092152745	-0.050911643	-0.056469817	-0.058640733	0.1561911	-0.015254244	-0.14360629	0.041332416	-0.07548388	0.08232211	0.09781108	-0.045005444	-0.07138556	-0.013489527	-0.084004775	0.03402031	0.066503435	0.04484184	-0.10300085	0.09805737	0.008307458	-0.08944935	0.06116706	0.092346966	0.0012682914	0.09093869	0.027397076	-0.06580002	0.020342948	-0.08718949	-0.009955756	-0.05833729	-0.08501584	0.00014671253	-0.10296382	0.023777952	-0.065688565	0.05111267	0.02123463	-0.07343554	0.05055798	-0.05894628	-0.049592547	0.03219846	-0.02336856	-0.036749825	0.14375655	-0.033584066	-0.002625537
DB00208	0.015005917	-0.047488175	0.11337695	-0.048841927	0.0640217	0.059793912	0.0386557	0.06314484	0.04283849	0.03756808	-0.007702249	0.09588318	-0.014582552	0.07342526	-0.052163392	0.06807226	-0.061672006	-0.008427491	0.06295056	-0.1047642	0.09414761	0.0952783	0.033074226	0.005985053	0.007747813	-0.0787427	0.06362567	0.029011697	-0.03592719	0.06740153	-0.0426654	-0.06724329	0.06901227	0.092668764	-0.015735932	0.0054949867	0.11048904	-0.02283617	0.081085585	-0.041742258	-0.009584609	0.11971266	0.06585051	-0.042488508	-0.092101805	0.06308573	-0.047804978	-0.039495297	-0.013067482	-0.01654253	-0.13393337	0.113145374	-0.04970299	-0.056212865	-0.03612406	0.14785737	-0.008859446	-0.13595375	0.050537176	-0.100754716	0.09150222	0.1165606	-0.036304664	-0.07325594	0.013792664	-0.0697348	0.015658623	0.074070364	0.08320642	-0.1014907	0.07497321	-0.004085074	-0.10990924	0.057464067	0.08729443	-0.041130293	0.10377548	0.039591514	-0.1040874	0.016948447	-0.102979705	-0.0321809	-0.046105336	-0.04796286	-0.04451227	-0.1065103	0.0827358	-0.0060619717	0.04261862	0.09047493	-0.05419803	0.078021616	-0.06440884	-0.07444663	0.017675834	0.0063125812	-0.023362778	0.13728048	0.038772207	0.04802256
DB00207	-0.038539924	-0.03702534	0.12590554	-0.0053409166	-0.011922711	0.06488358	0.026794393	0.05606243	0.050850738	0.06982595	-0.056629423	0.13147615	-0.040943757	0.0634998	-0.058454763	0.077824935	-0.040010206	-0.023957992	0.069333375	-0.081847325	0.108726025	0.0971642	0.079366885	0.043272	0.02379685	-0.059859764	0.049731493	-0.016727885	-0.027952492	0.06170248	-0.051056623	-0.08622909	0.032701038	0.057778705	0.01391767	-0.008994676	0.10363244	-0.007724934	0.090191625	-0.0535185	0.0076320576	0.11436509	0.08337426	-0.026715526	-0.085760474	0.02413755	-0.06433892	-0.054818947	-0.0062633273	-0.0035188983	-0.14219876	0.10934984	-0.0552415	-0.06864395	-0.022460464	0.15690213	0.027998123	-0.14189589	-0.0028443644	-0.094590865	0.10384224	0.10792949	-0.044921946	-0.07466868	0.017881207	-0.07939668	0.0471631	0.076036364	0.031240944	-0.10898183	0.089509554	0.0076343906	-0.114585906	0.053197846	0.061747096	-0.036892407	0.09075124	0.024376653	-0.09359303	-0.002092041	-0.108903386	-0.034362126	-0.056303512	-0.02207446	-0.05637624	-0.09882281	0.033605862	-0.05444119	0.015945438	0.067053765	-0.072375126	0.08827022	-0.060131762	-0.04887085	0.009248842	-0.020723188	-0.019931765	0.12964569	-0.015483748	-0.006266985
DB00974	-7.079181e-05	-0.057753123	0.11219064	-0.032589454	0.03793607	0.026378281	0.028748	0.059265252	0.07680175	0.049306676	-0.04973765	0.11616636	0.0027663535	0.043641157	-0.059617367	0.061862804	-0.043792292	-0.004898898	0.061382044	-0.08785986	0.08789399	0.074533634	0.03524671	0.02330653	0.0045344857	-0.0770475	0.019246794	-0.01373166	-0.021354014	0.06978886	-0.0364664	-0.06223848	0.06321164	0.08583574	0.013490339	0.006470511	0.11552853	-0.03108373	0.06250054	-0.051652443	0.026556576	0.11885227	0.0693739	0.033729002	-0.08652205	0.07698028	-0.072887674	-0.032199953	0.03834343	0.030715708	-0.12642996	0.09382283	-0.05994919	-0.06043797	-0.067288384	0.14808889	-0.02308266	-0.12121729	0.043183323	-0.07093241	0.11166978	0.09087631	-0.04156872	-0.039688215	0.03139277	-0.07830517	-0.015237821	0.06514016	0.062069237	-0.09487988	0.0874882	0.033511255	-0.08863413	0.062581606	0.093917064	-0.021402286	0.05467326	0.0043676547	-0.06401523	-0.0025862653	-0.09748054	-0.01605108	-0.06709143	-0.019424729	-0.0047226576	-0.11058013	0.037366644	-0.03703646	0.072554305	0.05616365	-0.06913708	0.07612359	-0.062221214	-0.017722558	0.030356713	-0.018815119	-0.010006381	0.14092487	-0.022253437	0.02254874
DB00205	-0.05277843	-0.0642293	0.10345783	-0.007534691	0.053859305	0.01575078	0.005716088	0.04743897	0.04628129	0.06712641	-0.06240218	0.12671775	0.012244998	0.052802794	0.003545932	0.05846054	-0.023337664	-0.052628916	0.05646351	-0.09651683	0.09109958	0.10224352	0.044877373	0.0066453055	0.0014765852	-0.084476985	0.05349877	-0.022434939	-0.020008808	0.06060442	-0.03058037	-0.079015546	0.04777442	0.07549745	0.0033801298	-0.0015291517	0.10711256	-0.0063080555	0.08246327	-0.0604579	0.012160986	0.11753677	0.067359164	0.00079023396	-0.08271725	0.050850037	-0.036648262	-0.05657044	0.046815004	-0.020237116	-0.11391568	0.11096376	-0.060344	-0.07750308	-0.06946992	0.1452689	-0.020244561	-0.13822177	-0.005198248	-0.07816606	0.10269039	0.095848404	-0.03971629	-0.071766555	0.020925596	-0.079697065	0.027139846	0.077858254	0.07417466	-0.087354295	0.09210253	0.028655017	-0.10544696	0.05145888	0.122769505	-0.01823764	0.09191529	0.020555709	-0.08086265	0.014410989	-0.07425709	-0.024065442	-0.07494515	-0.040918063	-0.0017980622	-0.105062716	0.043333836	-0.06250525	0.028269622	0.07084542	-0.07559431	0.043737933	-0.05967683	-0.08676973	0.017455116	-0.0023454442	-0.008910692	0.14581631	0.0024889894	0.061871253
DB00204	-0.041075487	-0.041417643	0.13206467	0.013692653	0.006091099	0.047596186	0.02783032	0.067199394	0.051492233	0.019018272	-0.030254206	0.14309981	0.016258575	0.10088966	-0.047833398	0.09355906	-0.004227385	0.009875976	0.05424379	-0.03590081	0.084284395	0.08519828	0.051615175	0.00835668	0.008538926	-0.06380779	0.05815918	-0.033646178	0.029330026	0.06479161	-0.041884195	-0.08537706	0.042668715	0.01792311	-0.015892984	0.00012571225	0.12256134	-0.03518352	0.064746335	-0.04547056	-0.007077071	0.103345826	0.068528235	0.031107567	-0.0915409	0.07113824	-0.066232875	-0.042837966	0.044076655	-0.012443069	-0.1230407	0.1037113	-0.059084747	-0.040032543	-0.08195904	0.14938718	-0.022295631	-0.12666109	0.006592335	-0.06969235	0.107661605	0.11173109	-0.035683487	-0.0743658	0.0066648796	-0.07384054	-0.038473405	0.09585596	0.091478415	-0.09314	0.08559468	-0.027606964	-0.0892194	0.06641877	0.09139844	0.0055489214	0.07720171	0.027792025	-0.099441946	-0.0216763	-0.07109603	-0.036246195	-0.04553245	-0.039447818	-0.017704258	-0.10865788	0.070452474	-0.061834652	0.038389064	0.042487398	-0.07612941	0.06531813	-0.049587544	-0.07232247	0.011204974	-0.055222467	-0.032457475	0.13420704	-0.018095348	0.008856004
DB00203	-0.005561783	-0.061356574	0.1202519	0.007920012	0.024396012	0.046147373	0.023741178	0.06678961	0.03770418	0.058451306	-0.050720528	0.106076375	0.012304904	0.059455533	0.0062441295	0.0822046	-0.00074038433	0.01054695	0.073840916	-0.09629722	0.098053634	0.09484311	0.007875579	0.03346421	0.009904839	-0.06848488	0.051869616	-0.00416875	-0.018980822	0.067718424	-0.008584337	-0.09655297	0.035019424	0.09213919	0.0373621	0.01929366	0.13830185	-0.023170717	0.08006038	-0.092193805	0.03307816	0.12702967	0.067311265	0.019585656	-0.086960986	0.074691735	-0.06914741	-0.011276415	0.0017229209	0.034308393	-0.14213759	0.10808612	-0.06970507	-0.052708328	-0.021840679	0.15861689	-0.02338634	-0.14481992	0.018993279	-0.07407302	0.10592317	0.11111526	-0.0447786	-0.07614149	-0.007004136	-0.0842764	0.050284978	0.07467709	0.039538298	-0.10308392	0.11004772	0.014434914	-0.11073202	0.06614601	0.08933052	-0.015131149	0.09478843	0.054921307	-0.0843349	0.021870164	-0.12266976	-0.012027679	-0.05793783	-0.089159764	-0.009942879	-0.116259135	0.025567511	-0.05138043	0.029972978	0.08956021	-0.07618854	0.04509771	-0.06245427	-0.07458036	0.01183817	-0.05576073	-0.022865245	0.14366016	-0.0059932126	0.00095825095
DB00202	0.0026920976	-0.038709804	0.10614145	-0.011140896	0.021360846	0.07293047	0.03762522	0.06192755	0.044336855	0.05179104	-0.035528287	0.11499179	-0.042318985	0.05975861	-0.0014644933	0.089273825	-0.04970041	0.029363178	0.07917218	-0.03471802	0.075581156	0.101286136	0.041768283	-0.010036685	-0.009193468	-0.07831691	0.049127813	-0.02163378	0.04128298	0.07163275	-0.03312541	-0.0908228	0.06846852	0.0054564904	-0.012985766	0.028175265	0.1264025	-0.03125897	0.07766056	-0.04852114	0.014304124	0.114410445	0.094174236	-0.024462352	-0.0990358	0.06430645	-0.06264814	-0.044382527	0.050011646	0.010359753	-0.101210184	0.11617788	-0.062191244	-0.060076088	-0.02486783	0.14513245	0.036915734	-0.12606694	0.026047261	-0.059771247	0.10852554	0.108141385	-0.023184089	-0.05509028	0.033489432	-0.06509006	0.020395316	0.06314867	0.058306504	-0.093138345	0.090920955	0.0019536035	-0.07858899	0.054664426	0.078960694	-0.030269807	0.088159926	0.014232701	-0.0684636	-0.00033190486	-0.05547903	-0.03061996	-0.03464485	-0.08433083	-0.050482653	-0.10195765	0.078265406	-0.06814001	0.042961355	0.08165918	-0.05592574	0.06288418	-0.056174986	-0.031273924	-0.0046214443	-0.056376882	-0.018004704	0.12446077	-0.034567572	-0.02007504
DB00201	-0.038626876	-0.055901617	0.15794438	-0.03200289	0.046762727	0.08326749	0.031022113	0.08797202	0.07227511	0.066008516	-0.066802554	0.11818429	0.0124226175	0.06867156	-0.050449874	0.09973409	-0.031481512	-0.009797828	0.09135603	-0.09321883	0.09631785	0.10431203	0.08012449	-0.0049503995	0.011635339	-0.06755099	0.04674553	-0.07662657	0.01224274	0.076614074	-0.06015226	-0.089547165	0.030844733	0.0330325	0.042631432	0.0010103402	0.12856531	0.02299096	0.066391036	-0.093827024	0.021156237	0.11449687	0.078929245	0.005997736	-0.099202216	0.01981631	-0.090242356	-0.031625703	0.06835354	-0.023300502	-0.15014128	0.09638775	-0.086134404	-0.09745354	-0.043221947	0.17185152	0.035645735	-0.1754536	-0.0344642	-0.06911578	0.1046629	0.09319815	-0.009264501	-0.04949837	0.030723255	-0.071611196	-0.038963795	0.05747187	0.047020376	-0.09901571	0.12204235	-0.043981407	-0.09473795	0.052651983	0.06865785	-0.04500815	0.094293475	0.046349306	-0.09189416	0.006348476	-0.12323175	-0.014747345	-0.032203488	-0.015364362	-0.031544305	-0.09777346	0.061073612	-0.0508865	0.0010897883	0.0842139	-0.082255945	0.07329241	-0.09092786	-0.076815516	0.020532085	-0.003263498	-0.01881613	0.11607245	0.030136636	0.021240553
DB00972	-0.045839675	-0.022725107	0.12606739	0.0044873483	0.02962154	0.044457924	0.012538839	0.051612664	0.06451021	0.027909903	-0.050083693	0.123067334	0.0108463215	0.061031286	-0.05225611	0.08017667	-0.016059494	-0.018322734	0.049957767	-0.09868714	0.07368131	0.07962266	0.019416424	0.03306886	0.017982088	-0.07961342	0.05676617	-0.029095547	-0.024968341	0.063356414	-0.041897055	-0.09936548	0.043639593	0.083685294	-0.0070596263	0.022003744	0.116561025	-0.012388675	0.06909759	-0.05390684	0.024445975	0.1216349	0.07405412	-0.042768795	-0.08760905	0.056366272	-0.05894931	-0.0049354634	-0.0063005155	-0.029529277	-0.12739204	0.09736818	-0.0518554	-0.06870405	-0.028123971	0.15734515	0.004771839	-0.14537023	0.013437676	-0.07309796	0.10399611	0.09146864	-0.03666704	-0.08633615	0.013452327	-0.087165885	0.032526758	0.05898056	0.064146355	-0.10301122	0.0914696	-8.9122215e-05	-0.10561724	0.050425824	0.09883576	-0.028021084	0.081783876	0.060592473	-0.0854985	0.008270943	-0.087787904	-0.018530006	-0.047123358	-0.07265386	-0.0038068048	-0.07804641	0.07331244	-0.06036851	0.06519755	0.05837655	-0.072590925	0.056127965	-0.05633914	-0.023123309	0.014547396	-0.027110243	-0.0077415006	0.1466921	-0.015248239	0.0111584645
DB04216	0.0029997686	-0.12134503	0.09385831	-0.04151972	0.020988917	0.0014834176	-0.028572889	0.045963824	0.04226409	0.008510046	-0.025790904	0.07535572	0.024040485	0.016590737	0.0023666425	0.07897252	-0.02301746	-0.056774598	0.04490554	-0.10157324	0.07488637	0.021661326	-0.02171229	0.045909595	0.03465646	-0.050988097	-0.008794837	0.015748464	0.04506908	0.031954743	-0.013403675	-0.032764416	0.016786478	0.07227794	0.011279156	0.04450095	0.09891329	-0.033005927	0.030870123	-0.06320598	0.015564817	0.11397247	0.09171517	0.027178459	-0.0284675	0.1075268	-0.073056564	-0.043613456	0.022535527	-0.022924881	-0.07194172	0.07077002	-0.04565175	-0.02593719	-0.018693533	0.13220997	-0.01566658	-0.13497072	-0.002874772	-0.08196294	0.10311473	0.04435064	-0.015761562	-0.07071942	0.008890688	-0.060266327	0.011511192	0.085176945	0.050660398	-0.10754309	0.091272466	0.008357289	-0.054984607	0.0739074	0.07730392	-0.0066120215	0.10941036	0.04824479	-0.05713294	0.028932674	-0.050314	-0.008979593	-0.03618377	-0.04440304	-0.017646722	-0.045445494	0.030918535	-0.07946482	0.033053536	0.088759355	-0.088293605	0.03510907	-0.050501205	-0.0124659315	0.04258868	-0.010381879	-0.046189778	0.12522364	0.021579623	0.06313497
DB00683	-0.02126472	-0.04255063	0.111238405	-0.0006856967	0.030657701	0.04649556	0.015006304	0.048402328	0.043621298	0.037208643	-0.020474011	0.13214152	0.022757879	0.05810179	-0.030604389	0.10054808	-0.032983746	0.014951558	0.08316562	-0.08452664	0.08852693	0.106825635	0.027001984	0.026719185	-0.018192032	-0.09036152	0.059306018	-0.008947034	-0.0043351073	0.057148807	-0.011956408	-0.0832457	0.036367014	0.066892564	-0.030655166	0.046918448	0.108980894	-0.034543164	0.016152434	-0.08543513	0.025470387	0.11285737	0.06415829	-0.02130967	-0.08645803	0.04731971	-0.065774895	-0.0388717	0.004753303	-0.031035377	-0.14565466	0.10132248	-0.07273199	-0.073541455	-0.054177746	0.15112385	0.012982654	-0.1320332	0.01960871	-0.08270196	0.097412795	0.11524407	-0.012377005	-0.053594097	0.030617656	-0.07942304	0.028357655	0.09209895	0.054878797	-0.09223379	0.09627411	-0.0049998956	-0.10147002	0.04938635	0.07120063	-0.032121837	0.10703385	0.028077526	-0.09969452	-0.0050403974	-0.09851192	-0.011121975	-0.03260123	-0.071696706	-0.034570992	-0.10466056	0.0940888	-0.06710942	0.038020026	0.06716383	-0.082368895	0.07478102	-0.08145399	-0.02634059	0.024336226	-0.015438221	-0.020787524	0.1456092	-0.0025143418	0.040877473
DB00682	-0.006510637	-0.038498558	0.12481383	-0.033386573	0.04484469	0.055797923	0.03720495	0.05562522	0.053921983	0.035037655	-0.024624677	0.13950722	-0.0123058595	0.07569947	-0.05721485	0.06340033	-0.023407817	-0.005501223	0.04504402	-0.10564138	0.096518844	0.074829586	0.07376898	-0.010450389	0.0047273505	-0.07953397	0.05621112	0.004643675	-0.040531747	0.046876058	-0.05256474	-0.10244234	0.053615876	0.1010792	-0.0064258445	0.0071953237	0.12727731	-0.024342557	0.08399341	-0.087338224	-0.0022617253	0.121000215	0.05947542	-0.03560322	-0.08735305	0.05350613	-0.088805825	-0.009809142	-0.010858954	-0.01282771	-0.12769736	0.105691224	-0.07430026	-0.062384296	-0.009239854	0.15296274	0.03925114	-0.14301111	0.0050770417	-0.086907074	0.1083263	0.1135188	-0.059494462	-0.08541127	-0.015761372	-0.08586965	0.018832738	0.06068477	0.052893326	-0.1046196	0.09040714	-0.005554428	-0.11728594	0.034190565	0.10208365	-0.04626928	0.06285211	0.045326803	-0.096516766	0.023886716	-0.102616146	-0.028832536	-0.040461306	-0.014331166	-0.026525497	-0.089276515	0.035235453	-0.053939953	0.014450634	0.07536314	-0.064007804	0.038506053	-0.055966713	-0.068341404	0.016111813	-0.017620629	0.005172929	0.1356585	0.011199676	0.014510762
DB00681	-0.0062527694	-0.03237903	0.12661974	0.004992024	0.016613511	0.06484416	0.034008753	0.06948561	0.08233272	0.037971605	-0.04384728	0.12961909	0.02200729	0.05556823	-0.042089	0.039801553	-0.013412032	0.0070221126	0.060323343	-0.052370787	0.07898373	0.09436336	0.032230366	0.04856904	0.009896582	-0.077132255	0.032807335	0.013827238	-0.010128878	0.05660816	-0.033899978	-0.07127387	0.033181638	0.014963699	0.0048820046	0.039710157	0.10092286	-0.0019008394	0.08428005	-0.0778719	0.027145647	0.10445139	0.08330517	-0.040558442	-0.09343575	0.07674193	-0.028762192	-0.040103823	0.021869946	3.343448e-07	-0.12156051	0.10963021	-0.045677967	-0.07217923	-0.062208537	0.1434856	0.009736249	-0.1363027	0.013488917	-0.082593836	0.11039359	0.08271644	-0.04557701	-0.046079896	-0.004321363	-0.089003265	-0.029778099	0.06873995	0.05825988	-0.09899188	0.08832664	0.011339023	-0.105017886	0.0739431	0.09296219	-0.04371879	0.08042298	0.024175078	-0.089526385	-0.011889111	-0.0639371	0.0022912174	-0.057966106	-0.06897682	-0.027997114	-0.109459385	0.05470172	-0.054260578	0.008568743	0.028569162	-0.06683584	0.093829334	-0.07028789	-0.055654246	0.03153991	0.00828648	-0.03705647	0.13215417	-0.010407101	0.02151436
DB00680	-0.041943885	-0.03151722	0.106958196	0.028492225	0.027184522	0.03254253	0.019635245	0.05592387	0.054592993	0.039445505	-0.06582597	0.11446958	0.017813727	0.072324045	-0.058854494	0.034230515	-0.046379868	-0.006887164	0.07263899	-0.045827847	0.095320605	0.10220334	0.03858169	0.055149194	0.018876856	-0.06071774	0.052559808	-0.024570014	-0.03115217	0.06114999	-0.05440143	-0.04469791	0.0478281	0.0606874	-0.00015459664	-0.0042973487	0.120764524	0.0060342615	0.060256016	-0.07576977	-0.005054804	0.12173081	0.046287403	-0.014529599	-0.077871576	0.06608238	-0.016858777	-0.045125324	0.038368788	-0.0067870715	-0.08223385	0.12205629	-0.05460544	-0.06559855	-0.07116971	0.1488904	-0.041200235	-0.0920559	0.037020996	-0.08524931	0.1016496	0.109179	-0.025590181	-0.060693704	0.0014760052	-0.07677071	-0.043092534	0.036999166	0.058481354	-0.1111439	0.08995751	0.03603549	-0.09060723	0.060978178	0.09759539	-0.008597838	0.065215304	-0.009825704	-0.08874192	-0.026110578	-0.07618282	-0.02764053	-0.06074681	-0.022210635	0.0036668335	-0.113485344	0.032075226	-0.0071751755	0.072378986	0.08345419	-0.068608835	0.08445046	-0.075069256	-0.07975091	0.0076082023	-0.021908756	-0.025700003	0.117692865	0.003411193	0.05701297
DB00687	0.02017136	-0.049306724	0.11326793	-0.015619538	0.03690843	0.05631613	0.011961274	0.05289086	0.05622729	0.049445156	-0.024973314	0.13573502	-0.009672329	0.068006605	-0.05426257	0.077111244	0.0020665657	-0.01624664	0.06414186	-0.07968094	0.07949546	0.1009124	0.052488342	0.029742878	-0.02900562	-0.070119746	0.05324906	0.029342476	-0.014711363	0.035849135	-0.043614425	-0.10617223	0.07970461	0.06481754	-0.009436839	0.060197506	0.12820259	-0.03265776	0.07855243	-0.059461933	0.007447179	0.101737455	0.046928953	0.03228712	-0.076477796	0.052502852	-0.047502074	-0.06152021	0.054970525	0.039778877	-0.10366201	0.087451465	-0.05870896	-0.07196548	-0.013828285	0.14240754	-0.009417294	-0.13146603	0.0015670748	-0.05982179	0.09428599	0.10315405	-0.05106932	-0.040535193	-0.017069787	-0.088484704	0.015244376	0.06221319	0.08224742	-0.09343339	0.08990371	-0.016675394	-0.08818491	0.050703898	0.08312103	0.0008485782	0.09269906	0.008487802	-0.09715211	-0.008702747	-0.07100247	-0.028980054	-0.057116665	-0.05895896	-0.019698625	-0.12319474	0.05901173	-0.05823247	0.08326016	0.04061273	-0.07273014	0.062329363	-0.057708412	-0.06899805	0.025715284	-0.0045192502	-0.02002579	0.09746393	-0.00088677066	-0.013485361
DB00686	-0.042158872	-0.07478202	0.110118255	0.04108738	0.02576737	0.065373376	0.027127221	0.06702601	0.08567557	0.043889422	-0.05770924	0.14036064	0.0071061887	0.052196916	-0.07163192	0.04486042	0.004289002	-0.0053939866	0.042018343	-0.04153495	0.08032042	0.08325356	0.024858369	-0.0030044739	0.033045854	-0.06283072	-0.00015450642	-0.013713399	-0.045241028	0.05981598	-0.022151247	-0.0265733	0.043154337	0.024466839	0.021495871	0.010057891	0.11872717	-0.03755911	0.08469989	-0.036246497	-0.009112864	0.095454656	0.030700514	0.03708329	-0.08927687	0.0673412	-0.065749414	-0.036841992	0.057733502	-0.02840336	-0.08197769	0.09732176	-0.048089143	-0.04170604	-0.07418167	0.14647895	0.034383003	-0.12393059	0.008603048	-0.08303873	0.09262635	0.0925107	-0.08628238	-0.028629255	-0.017630331	-0.07530254	-0.015733795	0.05650489	0.10473213	-0.07389304	0.07776659	0.022079624	-0.04990933	0.03142367	0.052091446	0.012314504	0.08303339	0.009245234	-0.0710739	0.03250892	-0.10902128	-0.040886693	-0.051516924	-0.06403112	-0.0012945263	-0.08599921	0.03616888	-0.04731756	-0.0047486788	0.056086097	-0.03860934	0.08745744	-0.055495184	-0.0104931835	0.024542276	-0.0345708	-0.028955147	0.13235869	0.028208902	0.0379548
DB00685	-0.014597334	-0.06164533	0.11772499	0.01617777	-0.00072939973	0.038306903	0.021271009	0.052585877	0.05303302	0.038900398	-0.057423986	0.13627876	0.024921231	0.053957716	-0.05767759	0.07869136	-0.029852048	-0.00039290544	0.039792657	-0.05384836	0.07679196	0.09431541	0.0046989145	0.056200147	-0.015295774	-0.07759064	-0.0026055463	0.041424952	-0.024647914	0.06305713	-0.038195036	-0.081274	0.032459415	0.07151247	-0.008545192	0.0578152	0.11459578	-0.043050468	0.07347855	-0.05154691	0.07687489	0.114603855	0.089235544	-0.00059714064	-0.09517864	0.06216843	-0.06203735	0.03478491	0.026366847	-0.027863093	-0.0958129	0.10322318	-0.052265618	-0.06695648	-0.032915235	0.1378485	-0.019661203	-0.14619698	-0.010909382	-0.07298823	0.116483845	0.09439545	0.0010530462	-0.033886008	0.0033407072	-0.06697436	-0.038886923	0.06961553	0.041786447	-0.10000687	0.08354133	0.01810694	-0.08706289	0.06802635	0.10476453	-0.001003436	0.10840306	0.0240921	-0.094619706	0.017985528	-0.06409539	0.0042357706	-0.053042293	-0.06934439	0.006226196	-0.11632941	0.06340411	-0.06883003	0.010225337	0.032997184	-0.07192406	0.07430727	-0.07685692	-0.06654693	0.038545072	0.005543951	-0.031826608	0.13603908	-0.024979591	-0.0065247174
DB00684	0.0097838435	-0.057150777	0.12437625	-0.0058118515	0.014264765	0.06422481	0.028259516	0.070560105	0.07269751	0.05036304	-0.06034679	0.14969613	-0.044961136	0.05913742	-0.03464414	0.07774872	-0.01834109	0.0039334875	0.0704046	-0.09046326	0.09398254	0.10366941	0.052960943	-0.01548358	0.0083084935	-0.09490541	0.067351624	-0.015563444	-0.025762634	0.0645422	-0.03487831	-0.07801956	0.035097793	0.07484763	0.010450234	-0.0019543492	0.12134618	-0.002444272	0.084401004	-0.051920567	0.01827816	0.112741485	0.091431506	-0.0044515505	-0.10562019	0.045916516	-0.036968876	-0.022786653	0.04914263	0.027247263	-0.15142237	0.11100705	-0.06659915	-0.06048346	-0.020740332	0.15932415	0.008914121	-0.14074187	-0.0031725965	-0.08851629	0.11512443	0.0851437	-0.03971475	-0.041929793	0.02305178	-0.06832635	-0.014472019	0.054297443	0.025347551	-0.105425596	0.102593035	-0.00023849995	-0.12800698	0.048052445	0.11032222	-0.05111493	0.10787457	0.044650916	-0.08481812	0.0037629025	-0.090838976	-0.013807541	-0.051348623	-0.053422175	-0.06180629	-0.121806	0.057875916	-0.06607723	0.008906376	0.08152516	-0.068468116	0.08376169	-0.06605244	-0.052908216	0.011050678	-0.017864332	-0.024481758	0.14155668	-0.018232154	-0.022260644
DB00689	-0.04168992	-0.07983086	0.11794437	0.008219289	-0.013777208	0.015674077	0.020648448	0.040772207	0.074090905	0.014718259	-0.03349564	0.14196728	-0.009766014	0.040977374	-0.05969327	0.042908445	0.016604096	-0.005080099	0.02402972	-0.07599654	0.058083564	0.06895074	-0.0035499097	0.048361845	0.014021446	-0.07442576	0.06776378	-0.008530501	-0.021331375	0.047097202	-0.035759747	-0.08506184	0.08483177	0.08328014	0.02068944	0.048674427	0.119553186	-0.012738633	0.01589755	-0.051654577	0.0074101705	0.082135476	0.074540876	0.025657337	-0.05225999	0.097444735	-0.055449978	0.01136777	0.04864262	-0.016667565	-0.0849743	0.09873021	-0.025308069	-0.06189523	-0.091340154	0.133242	-0.03191403	-0.078638375	0.052907832	-0.080345586	0.11386299	0.11041609	-0.016943289	-0.06709308	-0.015314491	-0.05323415	-0.03932023	0.061032195	0.05615505	-0.11949308	0.07905129	0.02011435	-0.12349982	0.07794502	0.10727272	-0.010534044	0.1031182	-0.0014874662	-0.051657658	0.0139718335	-0.07711377	-0.015618019	-0.058381885	-0.033564147	-0.011678588	-0.113396764	0.021083761	-0.05540177	0.073602736	0.05254382	-0.073683135	0.08264327	-0.04234186	-0.079017684	0.040269934	-0.0014514824	-0.036382157	0.14249572	0.0069337715	0.049064733
DB00688	0.008663808	-0.04162081	0.12298176	0.0067371614	0.046099596	0.036084484	0.035533555	0.059749823	0.069499634	0.034465995	-0.054957516	0.11956433	0.0034853474	0.046763264	-0.034528337	0.07956252	-0.021625616	0.007347526	0.060890812	-0.091009066	0.0926592	0.08807796	0.009183536	0.015140313	0.032242347	-0.08482775	0.054795332	-0.01629165	-0.01735434	0.046306938	-0.05535813	-0.091377504	0.03804226	0.088014245	0.03399641	0.02600417	0.11423302	-0.021438407	0.073598385	-0.067096524	0.024929184	0.11638284	0.08071005	0.021021403	-0.08575638	0.08715866	-0.09198137	-0.030607566	-0.009396951	-0.025330823	-0.12042359	0.10300511	-0.07788887	-0.07373022	-0.07630895	0.15673085	0.01580924	-0.14139713	0.020511223	-0.075960904	0.097026736	0.08198953	-0.04118781	-0.080948144	0.01006651	-0.08475229	0.029549418	0.08678794	0.039597206	-0.108784415	0.09969268	0.0016809596	-0.104779236	0.04435937	0.08743071	-0.03680189	0.11015653	0.04609157	-0.081280515	0.02779963	-0.10764677	-0.0070104403	-0.06128344	-0.09099693	-0.010015083	-0.09903668	0.08244207	-0.045020245	0.024482751	0.07318794	-0.063340746	0.060246672	-0.07319864	-0.06371041	0.026129024	-0.024638575	-0.018813986	0.14651148	-0.012111405	0.020917352
DB00373	0.022182222	-0.07950364	0.14359039	0.0107354205	0.022803625	0.078842714	0.029435664	0.056003664	0.051694416	0.0752727	-0.035042778	0.15276045	-0.0066508236	0.07352029	-0.05422099	0.07022304	-0.02294693	-0.017779188	0.07619628	-0.10169149	0.11021196	0.08698475	0.08723101	-0.030216219	0.024308925	-0.0865096	0.049836706	-0.015075065	-0.010984762	0.07047101	-0.052902937	-0.08954095	0.043060023	0.08489197	-0.00032451714	-0.0055467896	0.12889649	-0.010907212	0.0825648	-0.042385478	0.022617212	0.09372902	0.067843705	-0.033331126	-0.09766758	0.062160924	-0.062829494	0.019664899	0.033990756	0.0055806627	-0.13059364	0.104584955	-0.06686836	-0.06075581	-0.02814155	0.16042921	0.03839375	-0.14793213	0.012374027	-0.06984381	0.113116615	0.090218216	0.0010721666	-0.059377618	0.0028688116	-0.08365633	0.021946037	0.0695153	0.049618002	-0.096367	0.09174843	-0.01610078	-0.10455001	0.015548971	0.0825001	-0.018628879	0.11442262	0.054407045	-0.1044548	0.009631115	-0.113890134	-0.03564845	-0.037961937	-0.04627017	-0.052425142	-0.09245564	0.03746368	-0.046530377	0.013803603	0.056721237	-0.07021266	0.0741613	-0.07445557	-0.06454606	0.0086011	-0.059361625	-0.0024660104	0.15386021	-0.0073690857	-0.017424012
DB00372	-0.042845175	-0.08495823	0.10006088	-0.027478963	0.022955358	0.031310543	0.029831367	0.067731015	0.05425462	0.0538218	-0.07060679	0.101432234	0.018384391	0.055377495	-0.04002669	0.06992778	0.0005332725	-0.040456932	0.05927384	-0.062733725	0.0980491	0.091688655	0.02336317	0.03266245	-0.0073457854	-0.07219213	0.022993438	0.03059492	-0.012271222	0.06503096	-0.05081991	-0.09384416	0.079421066	0.08887687	0.0023594904	0.047641613	0.111619525	-0.06634992	0.09240022	-0.05244483	0.028951505	0.1042091	0.06881365	0.0077633187	-0.089810565	0.11133542	-0.050579548	-0.051795248	0.050476868	-0.021603001	-0.104899995	0.09380643	-0.05923671	-0.058375817	-0.07815538	0.15437455	-0.029635463	-0.10175768	0.054409042	-0.05455282	0.10385831	0.09219083	-0.051343963	-0.045141138	0.011706677	-0.07653354	-0.022614889	0.078347124	0.08864498	-0.10163575	0.08147086	0.00320452	-0.0846233	0.058750857	0.11181851	-0.0055778353	0.07914187	0.0021746517	-0.090180576	0.00654657	-0.0849347	-0.01340224	-0.0510431	-0.05643666	-0.0009071708	-0.11523059	0.038524028	-0.054622002	0.091665685	0.08460534	-0.05968216	0.050085716	-0.020761197	-0.08072792	0.0071551567	-0.064988755	-0.031745806	0.11987272	-0.004949908	0.05797883
DB00371	-0.02876762	-0.05978193	0.109488524	0.014685087	0.048777845	0.06209474	0.013751857	0.044697102	0.086499386	0.042939045	-0.061447073	0.1435511	0.0131454775	0.06261089	-0.03125227	0.073287524	-0.03144453	0.003020973	0.063111655	-0.08456956	0.100870356	0.07981322	0.034704007	0.0052049924	-0.008351581	-0.073532656	0.025846418	0.033539478	-0.019724736	0.06652701	-0.030047484	-0.10821895	0.03411795	0.058566947	-0.0003573316	0.0005995268	0.11155454	0.0013802657	0.076764815	-0.050920982	0.05145839	0.10880707	0.07161202	-0.03722253	-0.10557563	0.030877229	-0.07646527	-0.034551777	0.03497529	0.0027221208	-0.12896626	0.10830124	-0.06482985	-0.06560658	-0.057294436	0.15625253	-0.005179382	-0.13593318	0.047239196	-0.079031534	0.07288773	0.112599425	-0.04152262	-0.05652378	0.020310353	-0.08173765	0.011972055	0.045683447	0.061974227	-0.102912486	0.08425014	-0.0007630214	-0.10147537	0.05802086	0.07162881	-0.02855446	0.07878521	0.02184255	-0.06225156	-0.003389022	-0.1048297	-0.014959696	-0.038241465	-0.08531077	-0.037557367	-0.09669152	0.037908718	-0.00884836	0.038366307	0.08156637	-0.072346866	0.081740834	-0.06320456	-0.07648971	0.020418065	-0.024463259	-0.029195752	0.14269695	0.014355208	0.044067446
DB00370	-0.045542996	-0.028042175	0.11808131	0.014016222	0.034151126	0.070436575	0.023824649	0.033978738	0.0532904	0.028958328	-0.058012277	0.13104524	0.028662296	0.06491739	-0.033112727	0.08275133	-0.033230986	0.015398411	0.097173445	-0.10412491	0.09619042	0.095331535	0.017980803	0.0037190607	0.047010824	-0.08239741	0.05926118	0.0086106965	-0.018823523	0.081273995	-0.041738696	-0.08495224	0.034708872	0.07060456	0.006316117	0.035537668	0.117030926	-0.016768795	0.08714022	-0.11639114	0.026397413	0.10577616	0.0801023	0.029306576	-0.08677848	0.039814573	-0.07407145	-0.04276207	0.015646115	-0.037360784	-0.14226058	0.12474446	-0.050980657	-0.0791671	-0.06538847	0.16928151	0.03153824	-0.15397097	-0.02768817	-0.090883814	0.10095429	0.119987756	0.01816773	-0.050081357	0.030063804	-0.079551615	0.017495451	0.07167433	0.0699867	-0.08731773	0.090510085	-0.013100948	-0.11018916	0.04598804	0.06416565	-0.021405788	0.07658883	0.057025824	-0.09589417	0.004181666	-0.11416852	-0.027055202	-0.04867694	-0.08032696	-0.027425004	-0.10297933	0.035319366	-0.064351045	0.020989517	0.06361816	-0.07245647	0.08975321	-0.072819546	-0.041384056	0.017643638	-0.014822989	0.005404984	0.1363347	-0.020909112	-0.016017219
DB00377	-0.04479216	-0.027130902	0.11946956	-0.011808336	0.026000869	0.04244289	0.024885528	0.03381896	0.05706568	0.06472015	-0.021936743	0.08970229	0.015984751	0.07574614	-0.06503974	0.07237632	-0.011190997	-0.034630038	0.0670958	-0.09216511	0.0889788	0.10832545	0.017812926	0.025976678	0.056519732	-0.07755733	0.04176636	-0.011923175	-0.037566308	0.09340715	-0.039563708	-0.09139066	0.05885482	0.08570591	-0.0015786835	-0.010549582	0.10541911	-0.033083644	0.08702155	-0.055628303	0.008210883	0.11592301	0.07437001	0.0064950185	-0.08692353	0.060135126	-0.0509922	-0.024989212	0.037387192	-0.03194886	-0.11939169	0.11020251	-0.06028924	-0.063558996	-0.011428656	0.15184376	0.012198171	-0.12511513	0.050169777	-0.084451884	0.09850979	0.08788511	-0.049745984	-0.054773368	0.029702187	-0.06772108	0.03728658	0.07663584	0.07640955	-0.09795486	0.07908153	0.032306224	-0.103143804	0.059473887	0.08972212	-0.0015240347	0.08276668	0.016999505	-0.07820727	-0.002134674	-0.090484306	-0.027481351	-0.065165915	-0.06659627	-0.013157831	-0.11077881	0.04498828	-0.05991549	0.04331446	0.07281574	-0.0780715	0.08818903	-0.07239021	-0.0320712	0.02044538	-0.055850133	0.008826529	0.14128484	-0.0074174963	-0.008956907
DB00376	0.007221462	-0.054284986	0.11348229	0.0078970175	0.044815253	0.068187594	0.029050587	0.06034602	0.06768219	0.032494772	-0.07011956	0.1508614	0.0052565928	0.06560527	-0.051264767	0.057846256	0.009614514	-0.05502785	0.06653435	-0.09769698	0.10410152	0.089895114	0.022902714	0.00031864783	-0.007419544	-0.07157657	0.019151429	0.026037373	-0.0036114077	0.07381894	-0.04326997	-0.084970094	0.043859694	0.055907745	-0.00039975427	0.04735799	0.11649959	-0.047661323	0.07916848	-0.058125746	0.013153637	0.113820195	0.08061436	-0.0042725233	-0.07822441	0.051683243	-0.060993664	-0.044285636	0.05256666	-0.01604319	-0.11420729	0.088501304	-0.051098816	-0.06947285	-0.036051914	0.15347467	0.036467563	-0.13899527	0.012716652	-0.06928544	0.07648187	0.10150904	-0.03414031	-0.039534103	0.014015392	-0.07432654	-0.029950785	0.021012679	0.07398064	-0.10839389	0.087457575	-0.010987032	-0.11733427	0.07216426	0.07852457	-0.026341107	0.0939525	0.026907768	-0.10243484	0.0065155	-0.08583736	-0.01607992	-0.057067886	-0.0912479	-0.035777334	-0.11407254	0.056068726	-0.02478096	0.010229237	0.05861679	-0.057528697	0.079844415	-0.063334905	-0.03965347	0.025187016	-0.04497476	-0.010828148	0.15371735	-0.011657833	0.040057667
DB00375	-0.043867975	-0.04830225	0.13637313	-0.01806376	0.031477638	0.054777764	0.03167998	0.054913886	0.06472575	0.03966792	-0.06392375	0.123970814	0.017195955	0.0742551	-0.055291306	0.07390184	-0.0076233493	0.00641108	0.05755294	-0.09533227	0.0900818	0.09213696	0.045842964	-4.550803e-05	0.0038527474	-0.07127652	0.05299041	0.017980311	-0.021900626	0.075498335	-0.035132486	-0.015553221	0.024349537	0.087898456	0.0132969245	0.030340264	0.11547248	-0.05447747	0.08676379	-0.050908476	0.0067164153	0.122791186	0.042407695	0.009549191	-0.104209386	0.07215185	-0.043409344	-0.031419396	0.044825133	-0.01902851	-0.12822837	0.100711316	-0.052173037	-0.072111554	-0.067343086	0.1451522	-0.019814938	-0.13136928	0.0030217636	-0.0833734	0.115074895	0.107667156	-0.035765816	-0.049076602	0.012384875	-0.07395187	0.02929743	0.053062223	0.08218762	-0.114228226	0.07878919	-0.014722025	-0.08926089	0.044770285	0.08104005	-0.021316465	0.09336084	0.038296096	-0.07727113	0.0012198505	-0.07414931	-0.024748228	-0.06734428	-0.015895247	-0.04287347	-0.110777706	0.03354814	-0.05305646	0.025819303	0.052343484	-0.071962744	0.078369595	-0.042217277	-0.05635216	0.0053728796	-0.013948875	-0.030464008	0.119227484	-0.014436091	0.031159703
DB00374	-0.058510013	-0.028570255	0.12810649	0.011593945	0.010910455	0.063902	0.026850693	0.06817651	0.08987601	0.021537116	-0.05890073	0.13618815	-0.047236525	0.06716476	-0.07098158	0.08192502	-0.007950574	0.006884964	0.044462055	-0.08956687	0.07421853	0.09433875	0.019669916	0.009829566	0.02423485	-0.0752794	0.06388748	-0.005896693	-0.0118458625	0.06125048	-0.036259655	-0.09411809	0.06775861	0.01968396	-0.010536824	0.01575284	0.11965792	-0.018052852	0.05872934	-0.039214987	0.0041058124	0.127254	0.058804672	0.025433667	-0.092071414	0.0708936	-0.06358118	-0.021650445	0.00054742384	-0.021960652	-0.12563193	0.114047244	-0.042343426	-0.07195517	-0.06807274	0.14244428	-0.016317567	-0.13401778	0.035955973	-0.07903154	0.11261349	0.10371776	-0.035014704	-0.06347631	0.0075372923	-0.0736847	-0.029071013	0.01569349	0.061305918	-0.11345649	0.09365718	0.0033908405	-0.092523515	0.06972182	0.08240926	-0.045543298	0.0830532	0.039595842	-0.092745796	0.0036690333	-0.0832283	-0.025842113	-0.0691316	-0.056166206	-0.0021229922	-0.10236571	0.030154342	-0.06354848	0.009142775	0.0414725	-0.07673535	0.07394566	-0.071109466	-0.08486854	0.020249624	-0.051090553	-0.029217606	0.14243704	-0.017353814	0.0007985288
DB00379	-0.047723953	-0.017312244	0.11516515	0.002657225	0.04582254	0.042178147	0.021712545	0.056723136	0.046274737	0.06496057	-0.04762207	0.1350078	0.01027447	0.06860824	-0.050748374	0.08112635	-0.011623008	-0.037544504	0.06741149	-0.08344076	0.08108897	0.10013704	0.043511607	0.02398882	-0.01247621	-0.08256395	0.05929407	0.035210893	-0.021298306	0.084049165	-0.059525713	-0.083045095	0.03721817	0.08545404	-0.0046660453	0.00086936983	0.12738915	-0.03747393	0.07538781	-0.040245008	0.018090619	0.1120195	0.08134841	0.022478756	-0.089239314	0.04150629	-0.04819154	-0.031466234	0.023633588	0.035766296	-0.14076918	0.10315075	-0.07458402	-0.06393351	-0.055093214	0.15062006	-0.028401546	-0.13294253	-0.0015538153	-0.067209475	0.10476562	0.11495504	-0.029201051	-0.05682033	0.017304933	-0.09174513	-0.016080301	0.036345087	0.102900624	-0.08379976	0.08654906	0.007407192	-0.11126599	0.0484386	0.09534012	-0.014585739	0.0858418	-0.013093289	-0.099451914	-0.015566851	-0.09199665	-0.014040302	-0.047749326	-0.077683024	-0.059557315	-0.1040501	0.061434492	-0.05521931	0.022137804	0.07078571	-0.07726887	0.039402008	-0.033778198	-0.083170794	-0.011704767	-0.05755844	-0.021974359	0.12516946	-0.033517096	-0.013053034
DB00378	-0.03312006	-0.043885306	0.10459328	0.018585589	0.020295283	0.023103941	0.017942697	0.03976788	0.07001065	0.027912032	-0.04931156	0.13277224	0.011040681	0.08571766	-0.035245102	0.034649134	-0.018522885	0.0051107686	0.03151371	-0.030360445	0.07274345	0.08613198	0.042108104	0.041647222	0.010209834	-0.061583348	0.048100717	-0.010879916	-0.016344663	0.0117975855	-0.041132875	-0.09327533	0.07100384	0.06734088	-0.007911068	0.010431908	0.1023892	-0.07770892	0.08309556	-0.034788847	0.01537718	0.08677018	0.0448622	0.034888823	-0.07398583	0.08253383	-0.04905328	-0.027126698	0.06344858	-0.021382276	-0.08188452	0.10730144	-0.04009616	-0.055751476	-0.08412701	0.12697034	-0.03202178	-0.045372095	0.072782055	-0.061960816	0.06830091	0.11430908	-0.033956014	-0.060130954	-0.0029793747	-0.07949329	-0.022653962	0.050349124	0.11120801	-0.1039327	0.08652121	0.017197013	-0.07171198	0.053854354	0.09226084	0.012570732	0.08337465	-0.014395387	-0.07860337	-0.019025188	-0.07093286	-0.02860524	-0.029261518	-0.0043039448	-0.062946424	-0.10782194	0.06828551	-0.061985366	0.08183793	0.024733353	-0.07596125	0.090387255	0.0045031286	-0.08546755	0.017901283	-0.055155292	-0.033079643	0.12724178	0.015955206	0.013312791
DB06237	-0.07023594	-0.09907466	0.036431868	-0.006362706	0.03330297	-0.005151266	-0.01458853	0.038655955	0.037529197	-0.014172715	-0.06260791	0.11552416	0.00928477	0.046599686	-0.044379205	0.06321789	0.029741671	-0.06606357	0.026085744	-0.098385885	0.060774338	0.086495005	-0.034767915	0.06313461	0.018506778	-0.07003441	0.05585381	-0.034266	-0.0068396605	0.04373468	-0.045753784	-0.008276042	0.021145716	0.06316749	-0.009988906	0.00670324	0.08390371	-0.04058714	0.07114105	-0.015090899	0.073812015	0.0969757	0.014379738	0.02993149	-0.029227078	0.07803105	-0.05270207	0.040150832	-0.0012647074	0.06412819	-0.07752712	0.10550444	-0.05769367	-0.077450484	-0.07536227	0.14198276	-0.008519573	-0.12736626	-0.008936131	-0.086657226	0.085503295	0.07161754	-0.008773535	-0.03165836	0.024511531	-0.07215187	0.038873356	0.06316959	0.017204182	-0.081532896	0.07620521	-0.044235002	-0.060911078	0.080261685	0.08588404	-0.034000173	0.07998122	0.011000942	-0.07202519	0.026581276	-0.0308659	0.029004388	-0.030365689	-0.002164104	-0.013399426	-0.09917333	-0.01023877	-0.0256631	0.04558026	0.038561154	-0.07903869	0.04578931	-0.052435778	-0.011571086	0.04968407	-0.07039554	-0.06948589	0.12975559	-0.006594269	-0.01095029
DB04854	-0.05872081	-0.08243595	0.09644151	-0.005792106	0.0140024545	0.050728768	0.016259663	0.059687268	0.04121839	0.035817914	-0.030812828	0.12715724	-0.043269016	0.06709129	-0.058177657	0.062266193	0.018699687	-0.059825975	0.0100156125	-0.09620207	0.06911691	0.10024095	-0.02544119	0.04355997	-0.015584105	-0.07177511	0.0669155	-0.0091028735	0.046455342	0.053414974	-0.019152444	-0.0629881	0.040600434	0.05087028	-0.043502826	0.0018223522	0.11332288	-0.043650325	0.080177434	-0.034326814	0.0710367	0.07690718	0.0015920328	0.004647216	-0.034667637	0.08357621	-0.025562655	0.0021163672	0.025338663	0.00046376383	-0.117297634	0.103736326	-0.058821328	-0.07742696	-0.06711211	0.14155942	0.039385192	-0.12555115	0.040692646	-0.093003444	0.096863076	0.093516424	-0.0070231743	-0.034953628	0.031268954	-0.08303039	0.035735175	0.054508857	0.040507343	-0.081380196	0.09032212	-0.017380305	-0.06864175	0.09716579	0.07858023	0.003366761	0.090625525	-0.016940413	-0.07624696	0.017671516	-0.015680816	-0.005312085	-0.02735844	-0.035881396	-0.05709907	-0.09216686	0.015841188	-0.029436225	0.0062163346	0.09718809	-0.07872318	0.06770602	-0.05430369	-0.0793675	0.038945287	-0.059091613	-0.045359444	0.09793142	0.021480143	-0.025224082
DB04855	-0.042303193	-0.08895137	0.09137492	0.007303568	0.035286445	0.013222617	-0.021602144	0.044998556	0.045417417	0.036123488	-0.0644654	0.107313365	0.039884325	0.04332374	-0.07279058	0.052652843	-0.018716186	-0.012544379	0.05356558	-0.10332847	0.070514165	0.08292809	-0.03482543	0.044664867	-0.0010533786	0.00027711166	0.052111242	0.015241514	0.010185059	0.03804257	-0.052222382	-0.06711188	0.02944924	0.03997605	-0.03055731	0.01385637	0.119955644	-0.037556496	0.09165008	-0.037078004	0.05142677	0.14124443	0.05524397	0.036315277	-0.06782317	0.08458407	-0.073875375	-0.029396925	0.006966774	-0.016757837	-0.09546628	0.0980882	-0.058383062	-0.08258676	-0.030656317	0.15749195	-0.0009060092	-0.13504943	0.0053864834	-0.08305754	0.106889	0.093901575	-0.019734818	-0.041292068	0.021640293	-0.07345789	0.03908947	0.0714592	0.024338285	-0.10833934	0.0941296	-0.0038742702	-0.07200431	0.09078121	0.07084168	-0.016970571	0.1138262	-0.014332098	-0.0802033	0.029393865	-0.05905738	-0.005885902	-0.036410525	-0.008787901	-0.0162915	-0.123699285	0.031098548	-0.057474505	0.016648907	0.10085009	-0.0759698	0.030007971	-0.05293314	-0.056655128	0.051052876	-0.085665554	-0.07405848	0.1544895	-0.008655569	-0.011056875
DB04858	-0.05017605	-0.037687555	0.100536846	0.013742275	0.031093575	0.020548517	0.016678438	0.07212281	0.041964736	-0.027250398	-0.067427	0.09198436	-0.0009615881	0.061422072	-0.026631655	0.06468172	0.02495926	-0.048987065	0.03657145	-0.08101201	0.048876453	0.005826765	-0.00943376	0.042093255	-0.02803028	-0.041689407	-0.0020793364	0.024507027	-0.01682172	0.028945077	-0.05112841	-0.08366919	0.04315784	0.04371462	-0.020199204	0.024833001	0.078680895	-0.034288067	0.08322919	-0.012398232	0.018972058	0.06602508	0.057271525	0.03025361	-0.055492483	0.069818124	-0.04537335	-0.03849628	0.019830156	0.033265505	-0.044416428	0.0607848	-0.040157724	-0.06754267	0.0010651881	0.11975414	-0.016432945	-0.07506269	0.05433256	-0.078938484	0.09318444	0.105751656	-0.021603446	-0.04457975	0.054745466	-0.07488682	-0.049617067	0.042361487	0.032719623	-0.07942713	0.044034462	-0.016149698	-0.06506232	0.05835504	0.06445331	-0.015407402	0.050415378	-0.015706873	-0.03760023	0.0027060867	-0.047039226	-0.0020575398	0.008197963	0.002849204	-0.058584463	-0.04644005	-0.0074527916	0.0060259765	0.07923938	0.078516915	-0.03808096	0.0013714869	0.007058535	-0.06932245	0.03741766	-0.011488149	-0.01766131	0.09431515	-0.02704179	0.03462478
DB05239	-0.045142367	-0.0569311	0.060241744	0.030886114	0.055034414	0.012756208	0.0137655875	0.04785369	0.017795814	0.062489077	-0.011367346	0.05505172	-0.040038947	0.066356905	-0.07620751	0.08732124	0.015115173	-0.052976392	0.0059369337	-0.08393407	0.08366498	0.030585239	0.022630617	0.005464576	-0.031061023	-0.07023995	0.052009854	0.021922138	-0.01267317	0.054126225	-0.073479354	-0.021448378	0.08505462	0.08155506	-0.009801971	-0.006121363	0.11016621	-0.026587527	0.09249474	0.02658036	0.05720348	0.1073328	0.0006259213	0.035267964	-0.083355114	0.08155359	-0.00614255	-0.046296112	-0.013898736	-0.038740315	-0.05366494	0.025595063	-0.065983616	-0.059729673	-0.056926478	0.1360833	-0.027715288	-0.13241775	0.018662967	-0.06487274	0.09912914	0.10102411	-0.06036588	-0.024372434	-0.0013069138	-0.0728293	0.035581894	0.022607347	0.0145548405	-0.05605221	0.06303612	-0.054025784	-0.04374365	0.06263839	0.08021832	-0.004623873	0.07218518	0.00045838335	-0.061217476	0.023781136	-0.08184422	0.004773954	-0.0050677485	-0.028164366	-0.018362343	-0.04367523	0.05243949	-0.060232673	0.006756804	0.093287304	-0.034565885	-0.017396603	-0.0032264427	-0.0135435015	0.014705415	-0.055815328	-0.017633747	0.11862264	0.025767438	0.052759245
