Drug	feature0	feature1	feature2	feature3	feature4	feature5	feature6	feature7	feature8	feature9	feature10	feature11	feature12	feature13	feature14	feature15	feature16	feature17	feature18	feature19	feature20	feature21	feature22	feature23	feature24	feature25	feature26	feature27	feature28	feature29	feature30	feature31	feature32	feature33	feature34	feature35	feature36	feature37	feature38	feature39	feature40	feature41	feature42	feature43	feature44	feature45	feature46	feature47	feature48	feature49
DB00742	0.07492469	0.07052033	0.063574314	-0.0062816823	-0.10392574	-0.036446486	-0.19607453	-0.15246604	-0.13008492	-0.03190895	0.14445275	-0.1229845	0.17384537	-0.05074416	-0.21631755	0.014241606	-0.18145311	-0.17404547	0.10856755	-0.11512078	0.11532372	-0.07751919	-0.03781907	-0.11277476	-0.073802225	0.17193194	0.21428406	0.022513838	0.21091026	-0.0751139	0.054183308	0.27250805	-0.014921142	-0.0007192363	-0.120068416	0.13106786	-0.040209483	0.028451426	-0.14297822	0.04207043	-0.06524554	-0.00041175133	-0.018364014	-0.17561193	-0.02725375	-0.06360053	0.07285807	-0.029377595	-0.15816872	0.12557611
DB05107	0.121414244	0.04913545	0.083039634	-0.07790646	-0.07887254	0.07184319	-0.17409644	-0.04036172	-0.11233284	-0.041833844	0.10987974	-0.022140928	0.15644842	-0.056545272	-0.14132185	0.052068725	-0.036030468	-0.16947356	0.0143965315	-0.05331415	0.053244323	-0.15941359	-0.08285812	-0.0845867	-0.039367277	0.12743577	0.14355606	0.12540042	0.19120868	-0.11681929	0.13375191	0.1346434	-0.06272089	-0.0039812364	-0.03363038	0.0632495	-0.07680156	-0.01510288	-0.0629211	-0.019574828	0.00061724265	0.117712215	-0.06722663	-0.07982097	-0.056540146	-0.094961494	0.008143593	-0.16580713	0.030012975	0.12715359
DB00743	0.08728507	0.050482865	0.08419728	0.04654254	-0.13599837	-0.0657903	-0.16952708	-0.13050565	-0.14178598	-0.040646426	0.06305779	-0.12643628	0.15826386	-0.06635284	-0.20621902	0.0047152545	-0.14867081	-0.069985986	0.15504748	-0.0581494	0.119652964	-0.075578675	-0.03845698	-0.12972997	-0.11005229	-0.004004549	0.16581179	-0.0404947	0.17358862	-0.0797895	0.047958326	0.14538741	-0.043770216	-4.935288e-05	-0.12490697	0.13174269	0.062337857	0.03699577	-0.14777528	0.00457633	-0.10586642	0.0039364435	0.032748476	-0.05757792	-0.03141416	-0.030786937	0.0944222	-0.054001827	-0.09891171	0.17467973
DB05101	0.03842881	0.075515136	0.03042244	-0.015375106	-0.018992862	0.054281186	-0.069449924	-0.0962665	-0.1591666	-0.022311326	0.026166104	-0.010946533	0.093422145	-0.0481365	-0.086581625	0.062444795	0.009429596	-0.07346012	-0.029835915	-0.04595168	-0.056148294	-0.0793397	-0.031665124	-0.024221223	-0.09520902	0.026632762	0.09153467	0.12384269	0.10791567	-0.021644626	0.017313596	0.12884524	-0.11525783	-0.12739094	-0.10581292	0.03398881	0.07089179	0.013159124	-0.07491606	0.011821703	-0.040128853	0.03413474	-0.028103933	-0.07989097	-0.04845796	-0.023492763	0.018690376	-0.12313019	-0.000368512	0.11455096
DB05100	0.11390879	0.020846946	0.07098626	-0.07499797	-0.07558971	0.03996524	-0.06890892	-0.05174766	-0.06581261	-0.062286045	0.08864944	-0.0023042317	0.14675301	-0.026053872	-0.14970523	0.016182397	-0.025800657	-0.16998634	0.04400603	-0.050493594	0.083321996	-0.12831561	-0.08685346	-0.028670648	-0.052346397	0.14066233	0.17641252	0.09722655	0.19940019	-0.12522821	0.10920925	0.20498048	-0.06165861	-0.0247597	-0.06430146	0.06293816	-0.07351358	-0.026656883	-0.07550763	-0.0170609	-0.008832989	0.109028526	-0.08177095	-0.15257238	-0.043210655	-0.12437934	0.029368188	-0.19816363	-0.045858894	0.124718025
DB09161	0.08362163	0.030722136	0.047505144	-0.027447741	-0.08425024	0.06242994	-0.094543956	-0.13089104	-0.050582692	0.009612525	0.040442977	-0.011189228	0.09356898	-0.10244197	-0.15103136	-0.032160606	-0.012971865	-0.07562091	0.08195761	-0.03164087	0.070692725	-0.07164482	-0.08642477	-0.06511462	-0.021605019	0.017315555	0.091978356	0.14461303	0.14827622	-0.06358917	0.07586996	0.24731643	-0.09328282	0.028821666	-0.06801406	0.102952905	-0.06201585	0.0013159179	-0.11641875	-0.023371316	-0.0968385	0.06489015	-0.08413827	-0.08554089	-0.047963932	-0.06276383	0.040907204	-0.07043243	-0.12189452	0.12638347
DB09162	0.023848485	0.05924476	0.053854685	0.025225354	-0.07703437	0.024177175	-0.047667563	-0.12062909	-0.14789376	-0.026867485	-0.023814423	-0.056629285	0.047678318	-0.048447303	-0.108154505	-0.039470978	0.0125605725	-0.08265474	0.02243924	-0.069486775	-0.034612607	-0.063267626	0.006958031	-0.063332595	-0.014875112	0.036542423	0.07585803	0.08108978	0.11090663	0.013775226	0.039653722	0.17071748	-0.13016753	0.010878524	-0.14680423	0.050877064	0.0842905	0.055051573	-0.14227906	0.043564115	-0.058358107	0.074242905	-0.01803266	-0.04630588	-0.03249445	-0.02263541	0.05429964	-0.0806472	-0.019204872	0.0937127
DB05109	0.04609276	0.02404904	0.0021706745	-0.044441666	-0.083512224	0.022057524	-0.1860016	-0.15259929	-0.115644515	-0.044788383	0.09171532	-0.14366947	0.19423793	-0.09033398	-0.20180978	0.104719654	-0.049016304	-0.16924964	0.002831472	-0.067376316	0.15501678	-0.053553406	-0.12346543	-0.07045588	-0.15646894	0.18418702	0.14359605	0.012256896	0.21180499	-0.08495092	0.06425373	0.17137155	-0.030074183	-0.10007986	-0.041198365	0.15910773	0.040967528	0.021712668	-0.14653423	0.010638712	-0.011796065	0.011547923	-0.060707465	-0.18705453	-0.031688027	-0.15393177	0.02753602	-0.18056363	-0.11227381	0.14017442
DB01319	0.08210743	0.01733262	0.03099422	-0.023008524	-0.10772538	0.020592028	-0.18159364	-0.114800595	-0.117692575	-0.05933799	0.13032377	-0.1599488	0.1871222	-0.046608955	-0.20410539	0.022436721	-0.054048438	-0.07806046	0.035869256	-0.08661951	0.14050196	-0.11299301	-0.050691642	-0.080246024	-0.10891644	0.037534457	0.19499652	0.016335959	0.2087588	-0.10015453	0.0941231	0.16908166	-0.04602206	-0.052890107	-0.10876924	0.15624577	0.025539506	0.005171528	-0.12967663	-0.006997845	-0.06905297	0.054440986	-0.0564329	-0.18836978	-0.024095971	-0.09880785	0.07745765	-0.14853781	-0.031076128	0.12704447
DB01178	0.18010277	0.032580342	0.055809986	0.053304397	-0.075081065	-0.014539016	-0.12685302	-0.08679462	-0.14050813	-0.05323664	0.10932411	0.0018448081	0.17382771	-0.031664938	-0.19972691	0.008473599	-0.06855696	-0.16296817	0.06128045	-0.111182444	0.12845638	-0.11955868	-0.072149426	-0.12222472	-0.100198455	0.13218522	0.18493874	-0.038716517	0.21130955	-0.13096541	0.034828223	0.20123252	0.0032885494	-0.119620524	-0.12166229	0.10111411	-0.032140672	0.061250545	-0.112614974	0.01649891	-0.0032843947	0.06328656	0.009355335	-0.061247922	0.0050311275	-0.06363228	0.050452724	-0.0606666	-0.12953867	0.051495343
DB01179	0.12723881	0.011161173	0.075515725	-0.0013057516	-0.08820121	-0.02238659	-0.20969078	-0.13414288	-0.14747863	-0.07548106	0.140565	-0.15377566	0.21430022	-0.041308798	-0.18433963	0.106947854	-0.12410818	-0.15879354	0.03284217	-0.085055105	0.1436857	-0.105458036	-0.05934576	-0.11226237	-0.099456295	0.18974502	0.2087751	-0.0016910882	0.21322286	-0.07369542	0.06111207	0.1891246	-0.012592593	0.008799032	-0.13527691	0.14060268	0.05606694	0.0072661527	-0.13891162	0.057693075	-0.094176725	0.049341578	-0.03116141	-0.17546898	-0.0061247665	-0.09919652	0.05574506	-0.17858735	-0.13612683	0.14221826
DB01176	0.07634142	0.04292742	0.10618296	-0.0022094361	-0.062149834	-0.032183085	-0.14931239	-0.10474616	-0.14302841	-0.06287348	0.097775705	-0.074677825	0.22778028	-0.09040701	-0.19415617	0.09846601	-0.15099175	-0.08806699	0.08493345	-0.044734307	0.13421579	-0.121382326	-0.043020386	-0.12275036	-0.08359721	0.106960274	0.18828698	-0.011626363	0.21278687	-0.10905585	0.03359991	0.085366145	-0.00032985792	-0.08029398	-0.12487203	0.13973355	-0.042467486	0.009495028	-0.1647404	0.049664047	-0.058377583	-0.0049372106	-0.019996945	-0.1800603	-0.0109417755	-0.104563445	0.10396352	-0.11128506	-0.13640197	0.13590045
DB01177	0.09399271	0.037021138	0.097447164	-0.019109366	-0.09602303	-0.016664589	-0.19260761	-0.12892006	-0.15264851	-0.063069806	0.14405718	-0.14713031	0.2038024	-0.04206964	-0.20480885	0.081565544	-0.12617096	-0.17018463	0.04688816	-0.101279125	0.14700413	-0.097018465	-0.023122923	-0.090020485	-0.115389675	0.1662357	0.21830411	0.007383179	0.20058994	-0.07271602	-0.025451247	0.21880297	-0.037020348	-0.10550603	-0.12553415	0.15022936	0.024565874	0.03192369	-0.14801738	0.032682948	-0.075723045	0.02686168	-0.030374134	-0.17765056	0.013502371	-0.11175761	0.07457367	-0.12357165	-0.14094484	0.12953398
DB01174	0.07369787	0.009187041	0.0448097	0.0059769796	-0.09533753	-0.04271665	-0.20471033	-0.14715911	-0.192288	-0.0139280595	0.14739193	-0.18257874	0.20155002	-0.049963098	-0.24034764	0.10625843	-0.16695207	-0.09421177	0.057841334	-0.078470334	0.12615746	-0.084302224	-0.04790772	-0.11474614	-0.11708735	0.18761627	0.20555162	-0.043302603	0.18069889	-0.062061492	0.05717975	0.2318001	-0.014415586	-0.033285342	-0.124109685	0.168752	0.053398065	0.0048384797	-0.18972668	0.0022242144	-0.095500834	0.009140145	-0.018401423	-0.19342154	-0.024084136	-0.06831343	0.08342915	-0.116085455	-0.13826916	0.14873682
DB01175	0.07166788	0.029975072	0.08251352	0.02947861	-0.09718122	-0.042567953	-0.19464763	-0.12280689	-0.16540404	-0.027707696	0.15491386	-0.1534636	0.17329112	-0.05240423	-0.24672905	0.076655224	-0.1621756	-0.0862524	0.061603975	-0.12682196	0.12728317	-0.08235274	-0.029888853	-0.11435393	-0.13057356	0.18441068	0.22599491	-0.024846496	0.21184398	-0.052615076	0.047671434	0.19934209	-0.033272207	-0.0934809	-0.13260789	0.16391735	0.045339372	0.012492845	-0.16549538	0.009060593	-0.13614556	0.010688925	0.0024564536	-0.18200533	-0.01069608	-0.051983017	0.0921479	-0.14636467	-0.14587136	0.17466977
DB01172	0.11156476	-0.008364407	0.062213	-0.003554881	-0.08777131	-0.04135729	-0.18786238	-0.14682592	-0.16886584	-0.037741877	0.07830446	-0.12162422	0.14922135	-0.04513613	-0.18605657	0.11140056	-0.07081239	-0.11889517	0.027318094	-0.10157115	0.14159533	-0.10911895	-0.052953333	-0.11812875	-0.14804938	0.14753425	0.18313104	-0.022278452	0.23325315	-0.09820377	0.081991054	0.113029584	-0.034380876	-0.11961886	-0.11018532	0.1612981	0.005594451	0.008029551	-0.15264441	0.003649503	0.009500008	0.038355917	-0.015754677	-0.16256696	0.010678569	-0.08900587	0.07695154	-0.16953099	-0.13662693	0.12935598
DB01173	0.089118764	0.017114142	0.047272705	0.004215354	-0.10234956	-0.06558777	-0.20421365	-0.11594407	-0.16528824	-0.066544674	0.15277173	-0.15646595	0.19912109	-0.047582034	-0.22910567	0.086391814	-0.16562523	-0.116054565	0.041708913	-0.08572657	0.12255183	-0.10789687	-0.03467322	-0.113151856	-0.120480195	0.17414854	0.19666138	-0.056109	0.18702903	-0.04845317	0.06460679	0.1769323	-0.01805387	-0.07750326	-0.12868586	0.14263561	0.031341393	0.01818284	-0.14800958	0.02863157	-0.12783723	0.011755392	-0.0047877487	-0.1720738	-0.0035516974	-0.07378134	0.08347072	-0.1041161	-0.14059414	0.13000678
DB01170	0.07550431	0.007709563	0.07310206	-0.0050816704	-0.09142605	0.0352134	-0.16958658	-0.1278914	-0.1594893	-0.05327596	0.116092205	-0.13627027	0.20352763	-0.0555494	-0.20419699	0.013142994	-0.1327561	-0.11346689	0.03876683	-0.118536085	0.1320357	-0.09255731	-0.0649552	-0.08831821	-0.11894357	0.05497963	0.1825726	-0.01554231	0.19457074	-0.05843078	0.057286665	0.15661664	0.007552282	-0.097173944	-0.10880917	0.14734668	0.038279727	0.011369962	-0.14145498	0.031591516	-0.09691671	-0.007241049	-0.01097439	-0.14815769	0.02035342	-0.101045765	0.0930046	-0.058018792	-0.1288436	0.13698784
DB01171	0.058058973	0.0047224183	0.014213897	-0.024672123	-0.0971054	-0.028722247	-0.20071249	-0.14266759	-0.14912255	-0.09605439	0.12139666	-0.14693154	0.216184	-0.06494044	-0.21134645	0.0786684	-0.13964936	-0.17210753	0.013000181	-0.107769	0.14234667	-0.05460985	-0.07383541	-0.12103669	-0.117972255	0.16165383	0.20653757	-0.013749674	0.21497023	-0.06991107	0.05869914	0.22864175	-0.0044215526	-0.10198741	-0.100241534	0.15993135	-0.03944279	0.038080666	-0.16702878	0.03248787	-0.015989695	0.035475865	-0.022930657	-0.17948087	-0.009322006	-0.093796626	0.09848083	-0.06121929	-0.16162303	0.1553801
DB01489	0.06361938	0.04842611	0.0644134	-0.029714257	-0.07966493	0.010092735	-0.19282259	-0.12584412	-0.12842846	-0.04469232	0.08554009	-0.018198475	0.12346354	-0.06834323	-0.1217778	-0.023408785	-0.04395226	-0.081411734	0.01822934	-0.048799172	0.12566504	-0.10672171	-0.0812189	-0.059725564	-0.07068362	0.100510284	0.13249049	0.06842885	0.19524918	-0.10820136	0.13888656	0.16210274	-0.0721234	0.00025086827	-0.121314794	0.037806753	-0.083798416	-0.034911264	-0.10135981	0.00261062	-0.0002618467	0.0816433	-0.038314637	-0.052515946	-0.03823161	-0.084292956	0.028129712	-0.1144411	0.033830408	0.040134463
DB01484	0.08080247	0.023541695	0.09332548	-0.014111739	-0.047303215	-0.0380518	-0.15643744	-0.07653492	-0.062334556	-0.055388108	0.10792045	-0.010222618	0.10947333	-0.09072495	-0.10361203	-0.023169981	-0.025828581	-0.081067085	0.07176467	-0.033495497	0.07951673	-0.13739188	-0.067680046	-0.12026856	-0.017041607	0.054872572	0.16849181	0.076012	0.13391024	-0.111125246	0.1593537	0.2164743	-0.08274788	0.0021937112	-0.0612396	0.07925675	-0.064444855	-0.0534395	-0.051228784	-0.0037946366	0.0024600434	0.083649985	-0.07700631	-0.049033523	-0.073964275	-0.10609123	0.020695925	-0.06193782	0.04454901	0.144558
DB01483	0.12390973	0.013189664	0.07310125	-0.009058235	-0.1231205	-0.047750905	-0.1939202	-0.06145615	-0.19014941	-0.04528312	0.14114031	-0.13155185	0.178032	-0.055531945	-0.14208156	0.15573187	-0.03029528	-0.07276414	0.026503844	-0.05814034	0.043685246	-0.11339516	-0.021099264	-0.109713785	-0.17323147	0.17002256	0.17342821	-0.065388724	0.19535866	-0.113965295	0.030284705	0.08691789	0.00625972	-0.05619375	-0.07673868	0.051921237	0.0609044	0.061623204	-0.12104252	-0.03442746	-0.10238974	0.044815082	-0.04240235	-0.14978065	-0.050261084	-0.030657811	0.0043473598	-0.16732223	-0.12978593	0.08231635
DB00741	0.055760268	0.025379505	0.079866864	0.02094837	-0.06666628	-0.022087134	-0.23737873	-0.13348284	-0.17219055	-0.04791882	0.16636711	-0.17147097	0.15547521	-0.071674585	-0.24769373	0.089096546	-0.1456286	-0.13297142	0.14646313	-0.11598961	0.117554605	-0.08014502	-0.10428784	-0.119893014	-0.107480854	0.21004228	0.24850771	-0.068055555	0.17796372	-0.0578417	0.091516994	0.2566851	-0.021738835	-0.028043441	-0.1404425	0.20732461	0.044176918	0.019528098	-0.2115705	0.01522897	-0.14915815	-0.0046929363	-0.048749775	-0.21166527	-0.033671144	-0.07261205	0.06800743	-0.07349913	-0.21086287	0.15612645
DB01002	0.08760114	0.024226349	0.07507466	0.0026637893	-0.096394986	-0.004795814	-0.19684464	-0.13052382	-0.13032599	-0.057052426	0.14190203	-0.14562851	0.20579119	-0.055319466	-0.18361436	0.019661322	-0.07276398	-0.115543425	0.021925624	-0.058977425	0.14300601	-0.08477211	-0.066170946	-0.11413157	-0.11741151	0.07809428	0.17391415	-0.018546348	0.20085502	-0.08036266	0.04005943	0.15607905	-0.035392303	-0.08862362	-0.10158749	0.15984958	0.0022845548	0.012609871	-0.15563685	0.04519927	-0.046196174	0.019099956	-0.0010998045	-0.14702448	0.022694744	-0.07925922	0.062496718	-0.10132886	-0.13309257	0.13616835
DB00578	0.12368439	0.024450766	0.051178977	-0.010810802	-0.0781592	-0.0067253467	-0.1701167	-0.10145461	-0.16496664	-0.060772277	0.12579647	-0.13054208	0.21354535	-0.054955848	-0.21027373	0.10850163	-0.14319684	-0.14662948	0.04793302	-0.100637645	0.14358196	-0.11131989	-0.046982117	-0.12523086	-0.12206331	0.17242947	0.18306999	-0.04413433	0.21944554	-0.1468825	0.05210192	0.13338724	0.008848314	-0.03638647	-0.10712937	0.0990877	0.04691742	0.012089271	-0.13989289	0.048053436	0.029736474	0.03703016	0.0053611984	-0.1760497	0.004636257	-0.079850584	0.06447031	-0.084388636	-0.137484	0.13261898
DB01000	0.12440097	0.013551343	0.113858916	-0.008710207	-0.08210919	-0.028069519	-0.19086502	-0.13063161	-0.14607723	-0.06924026	0.1514913	-0.13618024	0.21603239	-0.053127326	-0.18368565	0.06889583	-0.08743782	-0.11931796	0.04523921	-0.046897456	0.14371985	-0.106029555	-0.05770575	-0.11689913	-0.11775014	0.18540816	0.20913854	-0.040622525	0.21161166	-0.09609718	0.028836126	0.1396628	0.0037666084	-0.014743341	-0.09739062	0.1358185	0.025121132	0.015351042	-0.16522294	0.014296273	0.01565767	0.048233744	0.008546608	-0.17398667	0.008013553	-0.085555986	0.060965784	-0.10209454	-0.11125815	0.13395976
DB01001	0.06469371	0.03537873	0.08840242	0.0180517	-0.09062191	-0.034177255	-0.18162242	-0.1216806	-0.16031554	-0.035706874	0.13852845	-0.17821804	0.13520934	-0.0756958	-0.25252897	0.08836609	-0.15670773	-0.08463055	0.17544235	-0.14019938	0.11493528	-0.06392066	-0.070329316	-0.13312118	-0.10210326	0.10887255	0.2234986	-0.0728758	0.1712994	-0.04462874	0.07010652	0.25583425	-0.059856158	-0.03481268	-0.13936299	0.21229275	0.047904342	0.0059659146	-0.14278951	0.013518758	-0.13782416	0.025666896	-0.025176855	-0.19587737	8.175359e-05	-0.048984192	0.070865855	-0.045671184	-0.17457913	0.13891295
DB01006	0.07640167	-0.0031067487	0.087078005	-0.04742697	-0.10051984	-0.034530602	-0.17196819	-0.12409869	-0.16324437	-0.02233359	0.14682505	-0.14041898	0.23146713	-0.06327409	-0.22130439	0.009790063	-0.14984806	-0.075676076	0.079224035	-0.110091485	0.10951991	-0.060068477	-0.071348295	-0.10615649	-0.14065683	0.17460504	0.19708622	-0.008449411	0.20363346	-0.07852194	0.03120373	0.19079266	-0.022599904	0.017901396	-0.124211624	0.1700943	0.05838689	0.03587913	-0.17725633	0.034591068	-0.04268538	-0.011049954	-0.010360053	-0.18718177	0.016305724	-0.08976437	0.07401463	-0.068291314	-0.16480696	0.18040866
DB01007	0.07402078	0.0034877895	0.026701411	0.0039113974	-0.087741934	-0.022289438	-0.19688396	-0.11078845	-0.16696791	-0.005385042	0.14471616	-0.1646925	0.17698674	-0.074524745	-0.23288186	0.07245274	-0.15375434	-0.12553835	0.05829924	-0.12563251	0.14142731	-0.067982964	-0.067549564	-0.09968266	-0.17485099	0.16730459	0.20312099	-0.039056852	0.22816125	-0.08624749	0.07644128	0.22654545	-0.016731726	-0.012856038	-0.12135403	0.18535405	0.05706525	0.019864224	-0.19649251	0.026011609	-0.0010789168	0.038246848	-0.029790059	-0.18913685	-0.0033584973	-0.06973557	0.08846491	-0.09441529	-0.1455892	0.15616496
DB01004	0.1325255	0.01935945	0.057155803	0.03441751	-0.1246268	0.01096423	-0.19207066	-0.12480453	-0.16862805	-0.081851415	0.14626485	-0.1670988	0.19575234	-0.053272232	-0.19509412	0.07573765	-0.16883922	-0.1221969	0.047942556	-0.14072056	0.13158107	-0.11016608	-0.019157594	-0.12640983	-0.10539899	0.19574665	0.23336971	-0.007791411	0.21390967	-0.030059274	0.048352044	0.21958984	-0.04203311	-0.04485656	-0.121433824	0.13056934	0.037787233	-0.0044459975	-0.16071148	0.030333767	-0.086816214	0.058201645	-0.012125589	-0.17985637	-0.0020936765	-0.05819041	0.097161554	-0.07140407	-0.14240415	0.14065988
DB01005	0.104765065	0.049240813	0.10843319	0.026917307	-0.11994557	-0.04040223	-0.1844102	-0.14196937	-0.13673466	-0.050570272	0.1392996	-0.13596436	0.18318653	-0.07650416	-0.20476536	0.020566588	-0.18090819	-0.17343059	0.09417436	-0.11438523	0.085517034	-0.06280618	-0.026806382	-0.11419005	-0.11264773	0.19087955	0.20085531	-0.000112187234	0.15023966	-0.08706758	0.059321098	0.21259077	-0.028056521	0.008167511	-0.13191733	0.14071049	0.00025095674	0.038504988	-0.17312102	0.030264175	-0.09625773	-0.005418556	-0.009908546	-0.1696218	-0.0095695555	-0.06621708	0.085855775	-0.049330294	-0.13647284	0.1402468
DB00571	0.049251065	0.0068897475	0.06795355	-0.013450749	-0.1052369	-0.041155268	-0.21118283	-0.138821	-0.17619	-0.024466602	0.16074648	-0.16910003	0.16127183	-0.055560622	-0.22765332	0.051626522	-0.17861776	-0.14727122	0.06834386	-0.13258816	0.12413086	-0.0765064	-0.060530446	-0.112811536	-0.12504885	0.18481211	0.21355502	-0.04161976	0.19897601	-0.03669244	0.064675145	0.22785382	-0.01877012	-0.006860072	-0.12994975	0.16414492	0.025329541	0.050929073	-0.16740178	0.031803858	-0.13109364	-0.008601858	-0.0010305141	-0.19112119	-0.033447526	-0.06704157	0.06712496	-0.058518425	-0.19410267	0.14808972
DB00570	0.10709978	0.033204455	0.09576824	0.008494234	-0.099451534	0.0031449841	-0.2151819	-0.13475452	-0.15950829	-0.06531096	0.16456766	-0.14261587	0.19826254	-0.056042317	-0.20590572	0.11220405	-0.105157346	-0.152919	0.05472853	-0.08909717	0.14193767	-0.12512335	-0.05706425	-0.12112334	-0.09870503	0.20474325	0.20548655	-0.025884017	0.20456176	-0.05959255	0.05550578	0.13800326	-0.030446885	-0.089189135	-0.12469788	0.15853196	0.03348924	0.02221739	-0.16010053	0.02419145	-0.0062433593	0.046118017	-0.028165612	-0.19827607	-0.0456429	-0.10260128	0.0646309	-0.20055507	-0.14058124	0.16075209
DB00573	0.10940611	0.026181355	0.112624	0.0089989435	-0.12488629	-0.05082793	-0.17675677	-0.124720186	-0.15810941	-0.05216055	0.061462887	-0.15259236	0.21778938	-0.07670117	-0.22223066	0.00372497	-0.15861526	-0.088749744	0.09516869	-0.15686262	0.11565603	-0.10311013	-0.005828455	-0.1282342	-0.16322002	0.16067809	0.21351676	0.01683832	0.20360701	-0.0606737	0.057484582	0.23644732	-0.047390144	0.0021707742	-0.1311677	0.14133999	0.04118849	0.03949996	-0.17093891	0.0020954777	-0.10434529	0.07357165	0.002868509	-0.15015136	-0.026331244	-0.08925036	0.10625027	-0.06319478	-0.13173467	0.1480008
DB00572	0.06725513	0.025809895	0.038421858	0.025533501	-0.09437012	-0.03723644	-0.21053967	-0.11643845	-0.17582853	-0.034862433	0.17350574	-0.1726583	0.18879585	-0.058950685	-0.249317	0.07161909	-0.17726095	-0.12171771	0.08495165	-0.116815664	0.11797175	-0.08742716	-0.030663533	-0.1354796	-0.09907946	0.19045657	0.22917695	-0.019807752	0.18114632	-0.049468078	0.07291678	0.23785017	-0.010923242	-0.07166583	-0.13672327	0.16332301	0.034597997	0.011919666	-0.1593382	0.01299821	-0.119573206	-0.000974137	-0.009569883	-0.17414598	-0.037563045	-0.06225091	0.084571354	-0.05917833	-0.14942929	0.14046751
DB00575	0.069911525	0.024254562	0.085081905	0.001077626	-0.094812155	-0.049591407	-0.19530632	-0.14553304	-0.18191776	-0.026941584	0.1398987	-0.16753606	0.21899126	-0.07970122	-0.22154868	0.08156412	-0.17826131	-0.08785588	0.07897815	-0.11872062	0.12112196	-0.08140943	-0.017307889	-0.12258966	-0.10660495	0.18941885	0.24554011	-0.022425877	0.1657156	-0.029539403	0.04678954	0.25126687	-0.007953476	-0.07026509	-0.15091223	0.15372643	0.056445327	0.010149037	-0.18080862	0.0012824686	-0.11325038	0.025851581	-0.026152246	-0.16956742	-0.04082418	-0.07370607	0.09555447	-0.076713845	-0.16187374	0.14043657
DB00574	0.07002988	0.00968075	0.10854774	0.0030052294	-0.084964834	-0.038718004	-0.17432562	-0.13857374	-0.16369537	-0.060046393	0.14385049	-0.12536252	0.20517737	-0.07214462	-0.18777396	0.07058406	-0.07404787	-0.089104354	0.008636257	-0.1047792	0.12297484	-0.104332745	-0.0473494	-0.111214235	-0.18535994	0.14433773	0.1489061	-0.03998113	0.2170657	-0.09911481	0.057135195	0.06540035	-0.0025829468	-0.009549934	-0.10778409	0.09424153	0.07028186	0.048907503	-0.11120321	0.03910942	-0.020727055	0.015683066	-0.0065516997	-0.15644795	-0.05390176	-0.06856323	0.06271995	-0.08147737	-0.14985514	0.14827545
DB00577	0.10562613	0.018784074	0.06173716	0.022090275	-0.13456038	0.017209172	-0.19802527	-0.11406009	-0.17433788	-0.045650665	0.15337177	-0.15803008	0.20891112	-0.03759504	-0.20969485	0.02695289	-0.17013724	-0.12600777	0.09332297	-0.11612533	0.12101878	-0.090285674	-0.050521933	-0.10758841	-0.100729354	0.15978695	0.21822928	-0.04716	0.1779736	-0.07696806	0.07388277	0.23533128	-0.052161295	-0.096542746	-0.118358254	0.13714622	0.039511334	0.015007993	-0.16290098	0.014992004	-0.122188106	0.033732846	-0.035944104	-0.18962331	-0.0083989	-0.08211557	0.09424292	-0.07391041	-0.13966037	0.14415051
DB00576	0.1432405	0.005564742	0.027323075	0.014927641	-0.11728696	-0.03136605	-0.18353814	-0.07778949	-0.14032024	-0.055763442	0.10704881	-0.14002104	0.16950935	-0.05383561	-0.18760818	0.037520606	-0.12171239	-0.16681603	0.032673955	-0.07111444	0.12892184	-0.061983865	-0.02456993	-0.1317863	-0.12779538	0.14951515	0.20303975	-0.03177878	0.20906399	-0.12426126	0.04675018	0.23006037	0.0050607333	-0.047572505	-0.118424736	0.121873915	0.017403819	0.0049151108	-0.12108225	0.057334423	0.020069703	0.0076349527	0.0035175085	-0.16652693	-0.005427748	-0.051863227	0.1007013	-0.07099854	-0.12516034	0.1435337
DB00751	0.110726364	0.019278586	0.1015645	0.011501137	-0.10467079	-0.056115653	-0.19060856	-0.113946766	-0.17005675	-0.05699168	0.11742513	-0.15943857	0.18347824	-0.0657839	-0.20130536	0.10118639	-0.15890533	-0.12220563	0.035986353	-0.06800075	0.12440352	-0.07226487	-0.04010342	-0.10897781	-0.15762332	0.17454886	0.18948744	-0.049923126	0.1989449	-0.07499263	0.053142518	0.121334106	-0.02730598	-0.085121766	-0.13135299	0.15064411	0.06714893	0.023727503	-0.18694063	0.019805577	-0.010151058	0.036241103	0.007881163	-0.17477801	-0.01500359	-0.07694174	0.0681797	-0.09569346	-0.1452639	0.14445642
DB00750	0.10277546	0.03597824	0.046773046	0.023432702	-0.083037905	-0.028377349	-0.16929059	-0.12552314	-0.12736821	-0.071500495	0.12331414	-0.10014319	0.17849462	-0.07630513	-0.26639903	0.008007448	-0.16142195	-0.10958263	0.09215017	-0.116143905	0.12808312	-0.094135694	-0.029427972	-0.14207652	-0.082304314	0.06846239	0.2185563	-0.041951787	0.1603075	-0.087530255	0.0632627	0.24960981	-0.050194215	-0.01385973	-0.13814528	0.14398548	0.049894534	0.02435228	-0.12599418	0.034173135	-0.107999966	-0.0121646	-0.033681583	-0.18259385	-0.017430477	-0.06729296	0.06850912	-0.05928263	-0.13160494	0.14094473
DB00753	0.07712842	0.03908505	0.11296283	-0.0058897734	-0.10304279	-0.062595725	-0.20792815	-0.07581529	-0.18112971	-0.0519788	0.12979299	-0.15439552	0.19848596	-0.10308969	-0.2051415	0.10532864	-0.15751378	-0.10199168	0.04059435	-0.06344148	0.118251845	-0.07671397	-0.0113821775	-0.119252615	-0.11170265	0.1729714	0.19215935	-0.0024357233	0.16898175	-0.058244262	0.04317996	0.14838524	-0.001954455	-0.12136744	-0.14103161	0.13082846	0.037466805	0.013812445	-0.16698506	-0.0120263435	-0.107973225	0.016543413	-0.004234087	-0.16103736	-0.025688348	-0.08197689	0.09369467	-0.084919594	-0.14238639	0.15865624
DB00752	0.06051185	0.015201556	0.08399839	0.013393562	-0.0790475	-0.0339852	-0.20420197	-0.13511185	-0.14474113	-0.024266658	0.09733002	-0.14846973	0.17948005	-0.08651949	-0.1923609	0.093499295	-0.14404032	-0.1559312	0.044249237	-0.06964088	0.1022066	-0.056378793	-0.034141872	-0.11156843	-0.1557477	0.14434126	0.1912531	-0.031022703	0.21018156	-0.09776429	0.05772006	0.1296012	-0.013183294	-0.09496775	-0.11683197	0.1504256	0.055930767	0.0401671	-0.17714302	0.04086518	-0.12754449	0.020464366	0.0268157	-0.19019814	-0.0074152686	-0.07900648	0.12432696	-0.09132108	-0.17621848	0.16436481
DB00755	0.07011983	0.052522793	0.0523715	0.011007596	-0.10502189	-0.03145565	-0.22785126	-0.1473428	-0.1856494	-0.05130496	0.14202057	-0.16710667	0.19731815	-0.040947422	-0.20837897	0.11236705	-0.16104959	-0.12604223	0.053404696	-0.13312118	0.12423159	-0.06688793	-0.043304324	-0.099477656	-0.12359224	0.19099022	0.21000363	-0.014560444	0.21061662	-0.056692503	0.067665406	0.24083503	-0.029462349	-0.030833753	-0.12942271	0.19236484	0.04899354	0.020896843	-0.1992681	0.023899043	-0.10588692	0.02724372	0.019946344	-0.18468744	-0.03973159	-0.06372127	0.06615025	-0.07818895	-0.1703677	0.14962465
DB00754	0.16355087	0.008616412	0.07590744	-0.0156506	-0.10341241	-0.030786695	-0.19209442	-0.113083124	-0.11463438	-0.06812021	0.1193392	-0.12309238	0.14304936	-0.042486764	-0.19309399	-0.00020833057	-0.14009534	-0.07061975	0.040671535	-0.09271106	0.099216506	-0.06124022	-0.044486817	-0.10934046	-0.15911447	0.14494526	0.1928551	-0.022504544	0.19952977	-0.11508824	0.04554912	0.21783923	-0.0013150946	-0.09875158	-0.120980516	0.1559686	0.05672207	0.025288872	-0.16504301	0.06147945	-0.0029597604	0.05217078	-0.0075637177	-0.10861924	-0.00787493	-0.07490041	0.08816826	-0.09947392	-0.13316554	0.13000707
DB00209	0.08758831	0.033252843	0.036645778	0.016719183	-0.13020217	-0.0034099855	-0.20340337	-0.09029862	-0.15156312	-0.04496289	0.099930614	-0.15128651	0.20813595	-0.06510697	-0.20312248	0.094046205	-0.11549917	-0.07601735	0.09688468	-0.11731183	0.1233339	-0.08129265	-0.026387544	-0.117293894	-0.12351285	0.06635726	0.21333939	-0.048119325	0.20809068	-0.12150127	0.06253619	0.21754713	-0.03804971	-0.10596992	-0.12875551	0.15711074	0.052611407	0.0036904048	-0.13346493	0.022336936	-0.11665429	0.0033465214	-0.032889325	-0.1953836	-0.011538507	-0.0772726	0.092438646	-0.14279588	-0.13427414	0.13946761
DB00208	0.07067753	0.019931402	0.09442935	0.0024137688	-0.111500844	-0.026517821	-0.19773433	-0.14260694	-0.19285183	-0.036115795	0.14426121	-0.16029765	0.18136804	-0.059488147	-0.19478649	0.063704	-0.1571116	-0.13081889	0.05585422	-0.111218184	0.08929709	-0.057101987	-0.03632785	-0.102024995	-0.110283315	0.18036711	0.20447323	-0.02214843	0.21140863	-0.0857347	0.06101171	0.20767611	-0.016739653	-0.105956025	-0.12354566	0.15022105	0.07247352	0.013677653	-0.17489335	0.035420842	-0.10802423	0.024128482	-0.02312831	-0.1854266	-0.004267897	-0.10725755	0.06592934	-0.1221991	-0.14021736	0.20018561
DB00207	0.06746953	0.029740714	0.039146207	-0.012603065	-0.10542549	-0.037886288	-0.20563534	-0.12428942	-0.16572662	-0.05543302	0.14800744	-0.1667141	0.17868276	-0.019905742	-0.22613832	0.097035155	-0.17918557	-0.09410813	0.06324629	-0.108675376	0.1180854	-0.08567662	-0.05940786	-0.104309656	-0.12030102	0.16757883	0.2137477	-0.015856516	0.20414238	-0.014515961	0.062171478	0.22521354	-0.020370847	-0.09754911	-0.1270816	0.16202615	0.03189244	0.012264816	-0.15785985	0.026657304	-0.12542936	0.024550693	0.004857288	-0.19901443	-0.016932467	-0.07590572	0.054874763	-0.087556764	-0.15393135	0.13751055
DB00974	0.07840781	0.05112824	0.1119601	-0.0009306839	-0.10111866	-0.031585727	-0.16685615	-0.13164343	-0.12932757	-0.07582192	0.13239554	-0.14056766	0.23605387	-0.077780165	-0.18602465	0.100734085	-0.12071946	-0.095093206	0.051513847	-0.03957731	0.11496088	-0.10038901	-0.046012044	-0.12123369	-0.12655339	0.16078843	0.15265487	-0.035821114	0.21467938	-0.092838414	0.051105298	0.078565985	0.012159958	-0.09073808	-0.13247086	0.14660817	0.05079126	0.049878743	-0.15642357	-0.013683383	-0.10911802	0.021998297	0.06591587	-0.18368146	-0.04068537	-0.06704473	0.0859906	-0.15626204	-0.15326197	0.14669368
DB00205	0.08147494	0.0020205826	0.054754093	0.015157308	-0.09179314	-0.041099686	-0.18302391	-0.13407828	-0.15350989	-0.026226867	0.1348423	-0.16482174	0.18881513	-0.070718944	-0.19626437	0.018835453	-0.111101314	-0.1513968	-0.016897874	-0.067356475	0.12447524	-0.0751536	-0.0495014	-0.12153552	-0.15391004	0.16930497	0.1986404	-0.007348262	0.20893978	-0.111569844	0.046376076	0.17204013	0.0089217955	-0.100358	-0.11449757	0.12102133	0.0076315664	0.016225044	-0.18384367	0.04202528	0.009242267	0.019566871	-0.0070513356	-0.1865381	0.005421927	-0.08256325	0.109661005	-0.10745336	-0.15744458	0.15023328
DB00204	0.08667725	-0.0053657554	0.07212227	0.017738082	-0.124696806	-0.064154334	-0.19654171	-0.12630953	-0.14472099	-0.049934227	0.12658253	-0.14777586	0.16905414	-0.07405273	-0.20668672	0.009022808	-0.15299511	-0.16138718	0.065981895	-0.09610231	0.12104447	-0.111842535	-0.032942697	-0.12935473	-0.12341072	0.15918796	0.20096546	-0.017857693	0.2168982	-0.10393912	0.042942554	0.21344522	-0.022839585	-0.020174336	-0.124595836	0.1432752	0.01118182	0.01880561	-0.10617871	0.014657153	-0.09704731	0.03860887	0.002892252	-0.15520947	-0.01426075	-0.08150624	0.07875297	-0.065935515	-0.13286005	0.13771045
DB00203	0.09658719	0.029133836	0.08192382	-0.0091029145	-0.10537399	-0.050883498	-0.21033254	-0.13569227	-0.18145645	-0.022979327	0.15901953	-0.18105227	0.20161211	-0.049050808	-0.22388595	0.094787136	-0.11721133	-0.16997959	0.05668635	-0.1402961	0.12393361	-0.09262519	-0.04772399	-0.10847627	-0.13175344	0.18192483	0.21537885	-0.030602148	0.21083686	-0.040679898	0.07394997	0.20991686	-0.036428794	-0.01234865	-0.13665263	0.16944465	0.06718612	0.0018747832	-0.17795038	0.0063571353	-0.10814041	0.016004322	-0.01438321	-0.19170366	-0.01123324	-0.11385532	0.08392252	-0.09583488	-0.14671127	0.15120263
DB00202	0.060920693	0.019850798	0.06992445	0.007412661	-0.08820862	-0.05365708	-0.20329009	-0.117345504	-0.12930532	-0.07304254	0.16170214	-0.14619115	0.15214829	-0.034622423	-0.21752264	0.01771411	-0.1653901	-0.06991819	0.061651897	-0.068712346	0.1307744	-0.09538596	-0.053615253	-0.12072441	-0.11643049	0.13050024	0.19821666	-0.0025211852	0.18422559	-0.0676846	0.040816396	0.16785438	-0.026685184	-0.03728148	-0.10689381	0.15908782	0.05848613	0.016163014	-0.14445059	0.0182541	-0.07627921	0.015395667	0.01968953	-0.14139079	-0.03305088	-0.079383075	0.09571826	-0.120511025	-0.12556235	0.13918455
DB00201	0.08088258	-0.015100089	0.029247487	-0.011860065	-0.018587386	-0.044289734	-0.24368747	-0.16838416	-0.21412666	-0.051250286	0.16741306	-0.18749078	0.2281213	-0.024299873	-0.2717379	0.027487896	-0.14912184	-0.09671629	0.11701983	-0.08733279	0.12536415	-0.12790945	-0.026984042	-0.10294984	-0.10130155	0.21088646	0.22205606	-0.10233739	0.20926012	-0.04666949	0.060294423	0.2179373	-0.057771992	-0.08398218	-0.16846943	0.16041131	0.063322894	0.015093377	-0.18981719	-0.04135758	-0.1021506	0.012499275	-0.06917408	-0.16385852	-0.0021041702	-0.054920137	0.047347955	-0.065267965	-0.19297418	0.12597485
DB00972	0.07000123	0.023594372	0.052519575	0.01256375	-0.11298093	-0.053168856	-0.17825913	-0.13716035	-0.17506996	-0.038277633	0.11019107	-0.16487208	0.1818706	-0.0895332	-0.21823378	0.091665894	-0.14677745	-0.13559543	0.027543794	-0.11064875	0.12879069	-0.068775326	-0.05413731	-0.12053494	-0.11273934	0.15738006	0.20281242	0.0038186628	0.20958112	-0.082041934	0.07316703	0.21062274	-0.028984612	-0.07924732	-0.11106302	0.15037172	0.047814112	-0.008218835	-0.18264341	0.028434986	-0.0896768	0.016116997	0.026033662	-0.18892013	0.0048635695	-0.08438662	0.09648684	-0.12185794	-0.12224984	0.14392252
DB04216	0.10852228	0.055456497	0.071336694	-0.061647918	-0.07491255	-0.029734217	-0.20096345	-0.056570657	-0.15144396	-0.03325914	0.13784356	-0.1353562	0.13321507	-0.029238435	-0.12690987	0.11035138	-0.024555994	-0.05759157	0.029049555	-0.04292368	0.11450045	-0.12252143	-0.042495772	-0.06448049	-0.08587682	0.21857591	0.0600922	0.05230419	0.14400558	-0.036453318	0.055349365	0.119808644	-0.017251987	-0.069970325	-0.028826619	0.1333948	0.0046543013	-0.022469306	-0.16952452	-0.05765894	-0.042581864	0.08616913	-0.014827127	-0.2028281	-0.06892994	-0.06880799	0.0081904195	-0.09867068	-0.12105578	0.06880607
DB00683	0.09861206	0.012098551	0.120084316	-0.009159232	-0.114993535	-0.055314343	-0.20629497	-0.06319791	-0.20300671	-0.046873663	0.14981128	-0.16887276	0.22392972	-0.0426118	-0.23761542	0.11909053	-0.16108483	-0.15040241	0.062932126	-0.0861451	0.10767016	-0.09172173	-0.007095961	-0.09263386	-0.17148183	0.20029546	0.21028599	-0.018564356	0.20358127	-0.04806734	0.07421396	0.22336331	-0.03826476	-0.0667159	-0.1252569	0.14993832	0.039967265	-0.0048568267	-0.16475487	-0.0025425162	-0.11462711	0.0486245	0.00029292586	-0.19077289	-0.016621474	-0.062448245	0.08032287	-0.10661454	-0.14314802	0.16925171
DB00682	0.06348677	0.026249714	0.058378045	-0.017103264	-0.10141512	-0.049767915	-0.17933206	-0.13863991	-0.16221303	-0.0064942073	0.16740748	-0.16378887	0.20630413	-0.019520614	-0.21537021	0.0671067	-0.1688071	-0.18483077	0.09387014	-0.142408	0.11331387	-0.065043494	-0.048883706	-0.1307319	-0.108066306	0.18631227	0.22588374	-0.0037835054	0.1872013	-0.060595453	0.08268544	0.24660827	-0.025827002	-0.0040502436	-0.14572088	0.16589053	0.04504161	-0.01535527	-0.17533372	0.036119673	-0.12191753	0.033504054	-0.009610284	-0.18298149	-0.03941097	-0.052103225	0.13053533	-0.09473018	-0.1603266	0.15132554
DB00681	0.089928485	0.029984087	0.08074059	0.002504339	-0.12136933	-0.018183924	-0.19252555	-0.117201656	-0.13530141	-0.064779654	0.13351004	-0.14196897	0.19848178	-0.026062667	-0.21372595	0.0144000035	-0.16835538	-0.085248634	0.07796462	-0.15942158	0.12616618	-0.12661467	-0.05720845	-0.10697661	-0.099855356	0.14151672	0.2303462	-0.0025021937	0.21556741	-0.089770794	0.051556896	0.21908373	-0.042612247	-0.1041325	-0.1002663	0.14702073	0.02854699	-0.025213169	-0.116976716	0.011658654	-0.086575344	0.0433324	-0.0036758147	-0.16590005	-0.007873267	-0.10126867	0.0941205	-0.06580116	-0.12553173	0.115884885
DB00680	0.1331505	0.061586972	0.03683196	0.017237369	-0.09114161	-0.023285575	-0.18430766	-0.09706253	-0.11255732	-0.086416855	0.14324707	-0.12247558	0.1976703	-0.046661943	-0.19087532	-0.005559785	-0.17953004	-0.14042273	0.03436163	-0.109596916	0.13615464	-0.080083035	-0.04006702	-0.12737392	-0.07636074	0.1044686	0.21768387	-0.038695276	0.19859985	-0.10028968	0.03533262	0.19498898	0.030475037	-0.0010374581	-0.112771094	0.095204026	-0.0035174862	0.024339816	-0.12371881	0.033048272	0.035090376	0.03029398	-0.010375256	-0.16780207	-0.0071535055	-0.037224628	0.057689343	-0.0967892	-0.102477565	0.14183925
DB00687	0.12449764	0.022278918	0.07785709	-0.01523027	-0.10659814	-0.0012043967	-0.20605011	-0.10022955	-0.16891916	-0.097524956	0.14681597	-0.14504358	0.19799064	-0.04370409	-0.20566691	0.07403827	-0.15498714	-0.09273034	0.04354627	-0.09526923	0.10741666	-0.114922225	-0.02935619	-0.11569833	-0.10617213	0.1598047	0.19443409	-0.048548907	0.20164841	-0.0992021	0.08213674	0.2186697	-0.038540028	-0.10547719	-0.12538674	0.14255178	0.036579654	0.036905978	-0.12629268	0.02408601	-0.022786086	0.047692727	-0.05794047	-0.17370732	-0.038824786	-0.07946811	0.083667755	-0.084444635	-0.12743248	0.13359074
DB00686	0.09368135	0.017561495	0.081767105	0.023271043	-0.08137119	-0.040656228	-0.17295687	-0.11809373	-0.1509664	-0.060991786	0.13786219	-0.14731385	0.19213802	-0.0172625	-0.20201445	0.005609978	-0.09976207	-0.07224325	0.045500357	-0.09014068	0.1452279	-0.13314013	-0.03149617	-0.09362879	-0.15876435	0.09749545	0.1844203	-0.008693503	0.2094947	-0.07090134	0.06310112	0.11091843	-0.024108361	-0.1291157	-0.10797404	0.11620824	0.03514639	-0.019002788	-0.11018329	0.0009816532	-0.108548366	0.033887703	-0.019821744	-0.112975396	-0.016826203	-0.064872704	0.12313783	-0.13302669	-0.11906855	0.12333357
DB00685	0.12355335	0.0249879	0.06888769	0.01077953	-0.11291411	-0.044282317	-0.19674265	-0.056361843	-0.16393457	-0.08063847	0.14261119	-0.13746293	0.20305246	-0.063798614	-0.23497656	0.02409507	-0.09360096	-0.07502724	0.04528961	-0.1111151	0.13797976	-0.109467596	-0.04857947	-0.06763629	-0.10309521	0.15978304	0.21499237	-0.0144341085	0.2171261	-0.123118855	0.031874258	0.11176349	-0.04318457	-0.12633167	-0.108460546	0.14378236	0.048642233	-0.0017553578	-0.12288734	0.025928386	-0.12240408	0.022969762	-0.0404663	-0.16255628	-0.016721442	-0.06955763	0.07208251	-0.16924351	-0.102581166	0.13496989
DB00684	0.0751196	0.035819467	0.055393554	0.016692137	-0.08762668	-0.017714344	-0.18263921	-0.13730972	-0.15729104	-0.05472165	0.13274987	-0.14868137	0.17050168	-0.010862561	-0.21854015	0.021991324	-0.187297	-0.18561672	0.15580668	-0.13084324	0.13578677	-0.074896105	-0.07948539	-0.12298526	-0.11164321	0.16193165	0.22141829	-0.02265033	0.19992232	-0.03825817	0.08024978	0.25357503	-0.032116827	-0.039859857	-0.13415168	0.16797152	-0.036970966	0.06941197	-0.15971282	0.048583023	-0.14462233	-0.027242696	-0.009392608	-0.19700977	-0.012557311	-0.064541586	0.07226142	-0.036067564	-0.14490755	0.13533519
DB00689	0.13949005	0.0084671285	0.07355267	-0.033084802	-0.10335459	-0.034856424	-0.17212021	-0.111634165	-0.13865273	-0.10698221	0.15620789	-0.10230821	0.19415568	-0.033976242	-0.19546941	0.0027029533	-0.096191086	-0.18264839	0.034251552	-0.08133769	0.13162452	-0.11615011	-0.06383453	-0.11260411	-0.091218874	0.10930048	0.19434513	-0.04460895	0.23389637	-0.123790696	0.054303754	0.13963166	0.0040381583	-0.056111578	-0.08306801	0.11153224	-0.0737946	0.005876597	-0.13433103	0.028374603	0.02839811	0.047023267	-0.01047297	-0.16113423	-0.0069590732	-0.10139273	0.035284102	-0.10668762	-0.11924696	0.11834654
DB00688	0.06990099	0.017801728	0.07184096	0.0049485993	-0.10381889	-0.039059397	-0.18684119	-0.14597985	-0.17773256	-0.04267727	0.14410284	-0.15553063	0.19153264	-0.06742126	-0.22478078	0.109228365	-0.13188137	-0.17146152	0.06474413	-0.09044182	0.13497354	-0.07166894	-0.08678052	-0.114322975	-0.12780534	0.20341781	0.19707301	-0.018549344	0.1934329	-0.06894409	0.05012541	0.17465423	-0.029523395	-0.07818479	-0.10628569	0.16295941	0.062201377	0.019810757	-0.16550723	0.009598952	-0.09875746	0.02833093	-0.015655808	-0.20103851	-0.025877148	-0.07250967	0.07468379	-0.076559015	-0.1401234	0.18469736
DB00373	0.090992846	0.044078324	0.060708873	0.010178542	-0.093393944	-0.040666774	-0.21355371	-0.12724802	-0.1906617	-0.015337683	0.13911909	-0.16465616	0.19203717	-0.062030185	-0.23138584	0.063333206	-0.16631937	-0.16051349	0.12088698	-0.13794364	0.12541457	-0.057438448	-0.08733414	-0.12452534	-0.0859125	0.14296167	0.24411663	-0.038869813	0.19590661	-0.055256553	0.063071966	0.24953191	-0.038715333	-0.031177143	-0.12685506	0.18819158	0.055578493	0.036793012	-0.17772144	0.017842602	-0.12047091	0.04590293	-0.04700593	-0.1794833	-0.022209674	-0.06144391	0.08407606	-0.04796907	-0.19670494	0.14020176
DB00372	0.12512255	0.03779581	0.08243182	-0.023768552	-0.088197075	-0.00174962	-0.18743107	-0.11748365	-0.15627693	-0.09359891	0.15124577	-0.0989368	0.1553869	-0.06538102	-0.17365243	0.04689735	-0.13939393	-0.14662765	0.032336164	-0.09166313	0.14651051	-0.12388718	-0.013169447	-0.12265183	-0.11721406	0.07518111	0.21149418	-0.044231426	0.21441464	-0.08026371	0.030798165	0.14647554	-0.0020539984	0.008925547	-0.12351537	0.10655597	0.01192553	0.038453117	-0.0865232	0.0500876	-0.0053952485	0.032920897	0.015702944	-0.13781731	-0.02475614	-0.08756267	0.054453123	-0.17812788	-0.12126212	0.13264844
DB00371	0.083424695	0.038668476	0.081275985	-0.00431656	-0.11307873	-0.037252218	-0.19328083	-0.15970199	-0.17449334	-0.047952123	0.14471136	-0.13715675	0.19044556	-0.043852177	-0.22148645	0.031494286	-0.14537852	-0.07573831	0.062367637	-0.089632526	0.11727707	-0.08371614	-0.042772412	-0.11277912	-0.12578176	0.15781137	0.19930178	0.01538888	0.20080848	-0.052778207	0.048489127	0.19505018	-0.0058187954	-0.08725004	-0.12576658	0.15561236	0.04941584	0.02533869	-0.18385272	-0.027905498	-0.10826335	0.004495196	0.020585962	-0.17308284	0.01575505	-0.058548816	0.0868878	-0.06915727	-0.14744663	0.13524222
DB00370	0.09308271	0.0050715636	0.06120044	-0.015604574	-0.11183339	-0.03749304	-0.21492776	-0.1320437	-0.18361272	-0.029360164	0.15782328	-0.1612566	0.23359813	-0.02056315	-0.22570476	0.075073056	-0.16925639	-0.12308036	0.049495146	-0.14534953	0.12647687	-0.107693866	-0.099407926	-0.09584716	-0.16819344	0.2197064	0.21642494	-0.019798469	0.1642905	-0.03672936	0.042701244	0.2282411	-0.030993229	-0.101316705	-0.10929802	0.16162027	0.059268728	0.04887968	-0.15455012	0.025426613	-0.12189044	0.042860363	0.010056339	-0.18361942	0.00041531003	-0.070577726	0.08793631	-0.08625198	-0.15304588	0.15535298
DB00377	0.08491561	-0.0002609325	0.05356777	0.013419699	-0.100452594	-0.023213336	-0.19263572	-0.13666815	-0.14045799	-0.06947815	0.100363456	-0.13211851	0.16511822	-0.053277187	-0.20528764	0.10290854	-0.12771146	-0.10371677	0.03833152	-0.048601925	0.10588559	-0.059560183	-0.039338544	-0.10887915	-0.14567149	0.11278458	0.18798518	0.0040128333	0.21653552	-0.09629184	0.05488363	0.15059532	-0.014302446	-0.04372725	-0.114005655	0.15236777	0.04731413	0.024533508	-0.14964494	0.030707208	-0.062802866	0.0049520154	0.041510228	-0.18283778	-0.011063036	-0.07332395	0.061265178	-0.17857923	-0.13236706	0.17829974
DB00376	0.095341496	0.010521064	0.08609973	-0.0016252823	-0.11613887	-0.03888656	-0.18671505	-0.13549182	-0.15983512	-0.038684394	0.13426088	-0.1501625	0.20478757	-0.04378545	-0.21468632	0.058170456	-0.17754315	-0.09290331	0.09326867	-0.0899921	0.10924126	-0.084410354	-0.024644079	-0.11059695	-0.15517202	0.13227776	0.19911471	-0.0046103317	0.17348576	-0.06493057	0.075023875	0.20291534	-0.029178789	-0.11181965	-0.119722664	0.15137511	0.05781891	0.025841624	-0.14697137	0.005160263	-0.1073197	0.04411843	-0.0157284	-0.16831617	-0.026463257	-0.0600118	0.095638	-0.06572934	-0.14199503	0.1498969
DB00375	0.0917813	0.059475534	0.057441235	0.0026127268	-0.12722033	-0.052277092	-0.1841051	-0.12564121	-0.17455056	-0.064391606	0.119397186	-0.1443416	0.15928186	-0.050064612	-0.1871207	0.02115593	-0.15424973	-0.11850703	0.07058228	-0.12475586	0.11876245	-0.060712866	-0.032744937	-0.11506252	-0.15142274	0.10521546	0.1975989	-0.026395062	0.19416259	-0.061472133	0.052572593	0.22221544	-0.046745416	-0.09640448	-0.12882043	0.13589981	0.044540174	0.026693055	-0.13200253	0.040876407	-0.11252447	0.04743424	0.00029663672	-0.17270418	-0.014477057	-0.07280612	0.0795628	-0.058840714	-0.13440214	0.123607576
DB00374	0.0862439	0.033622645	0.04195487	0.009547707	-0.087659635	-0.03167955	-0.2084449	-0.1386244	-0.13965489	-0.08613886	0.10959815	-0.17786731	0.21070251	-0.07634141	-0.20065603	0.09565352	-0.12009142	-0.14162156	0.023342952	-0.09940051	0.15092854	-0.108404264	-0.055351514	-0.12314208	-0.09316355	0.14938049	0.21282978	0.009168275	0.2118432	-0.05384303	0.0279467	0.21710013	-0.037409212	-0.098659724	-0.12743707	0.15045291	0.017306555	0.030360492	-0.15534608	0.03830048	-0.11366105	0.03987554	0.0023408486	-0.20527081	-0.0066389237	-0.112853654	0.096449174	-0.13430688	-0.1401563	0.13613512
DB00379	0.072367474	-0.003575854	0.086351275	-0.0023196335	-0.116957635	-0.053576525	-0.19438078	-0.14298536	-0.13256694	-0.06824832	0.16266447	-0.14887823	0.18361226	-0.0837244	-0.19799133	0.01977088	-0.13531362	-0.14210303	0.057283048	-0.07919691	0.09732923	-0.059693713	-0.03258346	-0.1256122	-0.15271275	0.19097576	0.1811414	-0.023462176	0.22592136	-0.07527896	0.051695097	0.21121344	-0.007852741	-0.04212493	-0.120690465	0.1738944	0.06271674	0.02672985	-0.17065687	0.029365897	-0.09861649	0.004135607	0.026474057	-0.16708273	0.011304839	-0.07056036	0.08631834	-0.05338926	-0.13621777	0.1808364
DB00378	0.12494111	-0.004115863	0.07285759	0.001041867	-0.051408224	-0.060066644	-0.1310956	-0.1365057	-0.13501273	-0.0595346	0.088650085	-0.12469016	0.15686294	-0.08873908	-0.20455779	-0.011594001	-0.13312145	-0.13741289	0.08503107	-0.09816024	0.12121089	-0.09249702	-0.03463924	-0.12682982	-0.13131706	0.1013213	0.18797627	-0.04525938	0.21834219	-0.10351458	0.046731345	0.1706097	0.013035065	-0.009100856	-0.1416298	0.13823296	0.0484148	0.047684778	-0.0928395	0.031170895	0.0009016304	0.04318026	-0.0061371885	-0.13472682	-0.03061332	-0.07944652	0.04133273	-0.08946513	-0.12809516	0.14788546
DB06237	0.06583788	0.015318811	0.04229034	-0.003878381	-0.06818993	0.04631272	-0.23231639	-0.08016741	-0.123440504	-0.051916014	0.09651137	-0.14855984	0.14628285	-0.05839898	-0.19655599	0.04254585	-0.07184264	-0.16752608	0.02171382	-0.08614419	0.08405225	-0.10204329	-0.095392756	-0.06999181	-0.09778247	0.15162218	0.18698424	0.024526546	0.22752553	-0.051765356	0.03723471	0.2241836	-0.05457356	-0.103446335	-0.10150319	0.10765405	-0.06936626	0.005696336	-0.11613351	0.017849501	-0.11012893	0.038540944	-0.02806807	-0.18487334	-0.022419678	-0.08699589	0.048817612	-0.17113201	-0.07395334	0.040646225
DB04854	0.08193562	0.054264907	0.032767296	-0.025372658	-0.10131435	0.058807284	-0.14134677	-0.12502396	-0.11976223	-0.023168555	0.083688445	-0.16113706	0.12091519	-0.08299222	-0.18193194	0.050120723	-0.1086673	-0.08156073	0.049978863	-0.04934173	0.057668407	-0.11482334	-0.051595356	-0.080172986	-0.047451228	0.14452033	0.18410844	0.12962432	0.17756939	-0.076971374	0.041973557	0.2339201	-0.07340689	0.015070636	-0.10821231	0.09233518	0.050075144	0.0043000747	-0.16390784	-0.010607319	-0.049884688	0.07356041	-0.04018175	-0.18316276	-0.044594586	-0.082748085	0.038258668	-0.17689788	-0.108828336	0.12851411
DB04855	0.08929643	0.05648521	0.03259787	-0.040069263	-0.10071386	-0.017362703	-0.20888022	-0.0988451	-0.16535808	-0.040533595	0.06604747	-0.17482936	0.18868949	-0.072453365	-0.20810428	0.08524719	-0.0417636	-0.07802507	0.038762968	-0.054411333	0.12556568	-0.10118917	-0.04216582	-0.05036852	-0.08638526	0.21619828	0.16148818	-0.0034613027	0.19280633	-0.049162123	0.037264183	0.19476977	-0.05611283	-0.099885084	-0.11056182	0.060803317	0.010764901	-0.0030035204	-0.17875679	0.00362744	-0.107002266	0.07250874	-0.05031895	-0.1840373	-0.051281236	-0.08655032	0.041334443	-0.16045034	-0.118077666	0.14272751
DB04858	0.06603096	0.025978629	0.061598394	-0.021781635	-0.07608199	0.06151988	-0.114415936	-0.14079094	-0.0818176	-0.026422625	0.007070696	-0.08829347	0.12748039	-0.09135543	-0.13216528	0.024237819	-0.058976673	-0.1633975	0.016041674	-0.039365508	0.04876323	-0.07930753	-0.06937663	-0.12189544	-0.07591651	0.15433952	0.037866976	0.13640213	0.18309945	-0.0917817	0.06315808	0.17357151	-0.059804928	-0.0877847	-0.0842819	0.06878068	-0.07985528	0.0323422	-0.13474517	-0.008479478	-0.012514973	0.06640763	-0.012184676	-0.18397652	-0.04774586	-0.09963144	0.04863033	-0.19407624	-0.10411359	0.15616111
DB05239	0.043899085	0.07876816	0.07892693	-0.007655274	-0.058257554	0.044394683	-0.1731957	-0.14922303	-0.12114097	0.044206742	0.04654587	-0.109467275	0.16250224	-0.082974575	-0.16091228	-0.009362452	-0.092067294	-0.059889983	0.04728884	-0.028240103	-0.05597791	-0.117939934	-0.010065567	-0.12335119	-0.088590905	0.12528685	0.11561297	0.13131183	0.18913665	-0.053882543	0.08056419	0.189565	-0.08069259	-0.08249455	-0.08569645	0.14826646	0.038873676	-0.0017038003	-0.20337534	-0.040202197	-0.11899837	0.07574078	-0.048049394	-0.14412424	-0.08565995	-0.082426205	0.038963698	-0.08300093	-0.1305668	0.13734002
DB04690	0.16358317	0.023553036	0.05172849	-0.015294913	-0.10806776	0.014602615	-0.1816582	-0.13161933	-0.122434095	-0.061200358	0.109598376	-0.045256227	0.21045642	-0.04423179	-0.18935476	0.05634163	-0.0283358	-0.18895504	0.0625234	-0.077598795	0.12228468	-0.12224898	-0.071732655	-0.118470915	-0.050580893	0.17194572	0.1873816	0.022682378	0.20010917	-0.10810339	0.08151337	0.181643	-0.04309694	-0.0070935134	-0.06699559	0.057950433	-0.016995521	0.039882436	-0.14632046	0.039609563	-0.0060621183	0.07614167	-0.0599513	-0.15992863	-0.055956766	-0.11860785	0.01163435	-0.11133011	-0.12234622	0.13470514
DB02237	0.11087756	0.04925452	0.040900856	-0.09338592	-0.13290152	-0.03271606	-0.14619195	-0.03682576	-0.046484154	-0.038194664	0.077001885	-0.039885644	0.108232275	-0.01692485	-0.102042384	0.016288826	0.016264504	-0.058575988	0.03738659	-0.03488996	-0.0024429653	-0.15926754	-0.07179122	-0.004710013	-0.018849215	0.15202558	0.08087786	0.13786225	0.1874898	-0.087086484	0.13872117	0.13005699	-0.07447922	-0.01717834	-0.021691281	-0.0008253509	0.050548136	-0.009760046	-0.09794274	-0.042581424	-0.03086478	0.14893137	-0.07933037	-0.052071985	-0.0454244	-0.10677598	-0.0055019977	-0.117120445	-0.060853295	0.028167713
DB00199	0.085625224	0.02633162	0.08159729	-0.014805222	-0.094285265	-0.038777072	-0.20871527	-0.1081124	-0.190686	-0.045733035	0.17301725	-0.16691828	0.18432143	-0.06461657	-0.224265	0.11849579	-0.16630277	-0.1506836	0.066370666	-0.14218791	0.13117787	-0.08830232	-0.03570496	-0.12543058	-0.12412833	0.2249788	0.24450937	-0.029856004	0.19599703	-0.056716267	0.071866035	0.22752385	-0.04428353	-0.09579526	-0.1369341	0.15903693	-0.009485971	-0.0122331865	-0.17739838	0.031418677	-0.12226391	0.031187313	0.005964867	-0.21196736	-0.027542215	-0.062017534	0.076571785	-0.12092067	-0.15500669	0.14130576
DB00198	0.100956984	0.028447663	0.06842697	0.025604948	-0.12133911	-0.029734109	-0.18286633	-0.143255	-0.15899701	-0.07491773	0.13455933	-0.14458668	0.23518316	-0.038018953	-0.18752053	0.00936969	-0.15689276	-0.15352735	0.08631225	-0.11848113	0.1298501	-0.11015965	-0.032008756	-0.10975717	-0.14099711	0.20513943	0.20872669	-0.034316394	0.19186138	-0.03994365	0.03908307	0.2005187	-0.031585492	-0.10373193	-0.12098408	0.15025231	0.04977669	0.010079533	-0.15564507	0.03729328	-0.11323665	0.04547166	-0.00666452	-0.19018921	-0.02122604	-0.07854971	0.07004896	-0.08784825	-0.14458746	0.15051574
DB00197	0.06492658	0.018173438	0.06924914	0.0032962682	-0.121989034	-0.042726062	-0.19537848	-0.14198089	-0.17577302	-0.021839578	0.08553327	-0.15950042	0.22138591	-0.07418101	-0.20586124	0.09478685	-0.09081276	-0.16222431	0.012869433	-0.07561353	0.1418232	-0.0741645	-0.02937017	-0.0885294	-0.18733416	0.21140051	0.196385	0.0009858325	0.229317	-0.062013064	0.07434582	0.07702339	-0.009682693	-0.0541324	-0.09949184	0.15411213	0.06755052	-0.00513518	-0.20015205	-0.0024787444	0.0019368619	0.038711358	-0.037998516	-0.18427393	-0.022687478	-0.115171164	0.068836585	-0.15541176	-0.14994556	0.19014849
DB00196	0.066803575	0.010936661	0.035944942	0.0053105108	-0.107217796	-0.048096333	-0.18779133	-0.13671206	-0.17997868	-0.0052024834	0.1367394	-0.18138045	0.17175497	-0.022766693	-0.23558418	0.07802772	-0.16671571	-0.17072248	0.07015432	-0.13637519	0.10741146	-0.07910359	-0.03788208	-0.1290796	-0.1518726	0.17675236	0.22239305	-0.011063231	0.22425541	-0.056890465	0.067277014	0.24363627	-0.02378828	0.010722592	-0.1361096	0.1577435	0.05155193	0.04267099	-0.17266713	0.021436132	-0.112722486	0.021435237	-0.0025166292	-0.18335773	-0.017454568	-0.041664142	0.08790386	-0.07672857	-0.14486687	0.16487406
DB00195	0.06289362	0.0076712854	0.07479641	0.0052301846	-0.08838323	-0.054337237	-0.22899838	-0.067081265	-0.13298348	-0.06431388	0.10893335	-0.14697677	0.18370007	-0.0806205	-0.21808016	0.018619945	-0.18271105	-0.11699526	0.063890666	-0.116992146	0.121598646	-0.074083306	-0.029259678	-0.12998049	-0.1720122	0.15993275	0.21234386	-0.005828969	0.20357797	-0.09947196	0.05907534	0.21562907	-0.026918659	-0.06563106	-0.12331559	0.15949331	0.041696753	0.027659394	-0.14427921	0.012833705	-0.098017104	0.030853232	-0.01523705	-0.18748564	-0.032110102	-0.08164156	0.10231287	-0.07228656	-0.13252182	0.13600665
DB00193	0.081518486	0.0060504973	0.049712565	-0.018385401	-0.121960245	-0.051093962	-0.20794258	-0.15844105	-0.18193872	-0.033621512	0.15152317	-0.1674668	0.19126034	-0.016404869	-0.21409395	0.11886513	-0.15019962	-0.087222286	0.09606278	-0.12784433	0.109885685	-0.0974226	-0.0485555	-0.12119898	-0.13006537	0.17329471	0.22638962	-0.048263673	0.17017464	-0.037566073	0.048159454	0.22825257	-0.037212007	-0.100333154	-0.13029902	0.14912248	0.0347709	0.03866079	-0.1494743	0.020229932	-0.12547256	-0.0027677603	-0.014011476	-0.18335281	-0.026920317	-0.049566347	0.064752445	-0.07868345	-0.14173162	0.1440666
DB00191	0.069130465	0.014213562	0.06451166	0.029041214	-0.11458455	-0.052805416	-0.1786976	-0.13327204	-0.17294759	-0.028491301	0.08942723	-0.14533423	0.22850552	-0.071889296	-0.21120429	0.08895768	-0.15994076	-0.15677227	0.08493697	-0.09017415	0.11094175	-0.07456384	-0.045390524	-0.113787144	-0.115022644	0.16552287	0.18377586	-0.044083443	0.21519038	-0.062455516	0.0773287	0.21391307	-0.034399997	-0.06308234	-0.12619624	0.15337572	0.052736856	0.01994383	-0.17866135	-0.010183754	-0.117883354	-0.0034853593	0.022702271	-0.15520015	-0.030088987	-0.0600893	0.1214201	-0.13391931	-0.1508631	0.1493781
DB00190	0.12855303	0.021053353	0.0707157	0.036120813	-0.10980675	-0.028291767	-0.1545673	-0.15073979	-0.14547235	-0.041612316	0.13080528	-0.14431734	0.21227388	-0.046562858	-0.25711936	0.003335815	-0.15428902	-0.16530377	0.090837024	-0.108859345	0.13130857	-0.10518718	-0.077484004	-0.11642996	-0.061480083	0.15757386	0.20401813	-0.025816284	0.16929382	-0.05390617	0.050476413	0.23185763	-0.0785902	-0.028400658	-0.14225899	0.11016859	0.06923638	0.033208273	-0.10715875	0.028573507	-0.10894408	0.0049166726	-0.010729162	-0.15262729	-0.0047760773	-0.029173689	0.12259531	-0.058791704	-0.13701077	0.1433775
DB09167	0.052220922	0.048441794	0.05696187	-0.03574075	-0.06937794	0.07202029	-0.046063107	-0.11024943	-0.11839947	0.0040739486	0.07625101	-0.031853978	0.09562439	-0.032827925	-0.060036574	-0.016051808	-0.01788353	-0.1716603	0.056957707	-0.044949193	0.023847263	-0.13895117	-0.06196444	-0.11237852	-0.050763976	0.024344565	0.061399683	0.13377836	0.15388553	-0.06296579	0.07760422	0.17736518	-0.056178812	-0.056806147	-0.089363016	0.03601903	-0.08055491	-0.025382295	-0.09972662	-0.027751233	-0.005594164	0.06638429	-0.07019038	-0.063674174	-0.04314344	-0.058955826	0.02392401	-0.08050031	0.0001566183	0.13054983
DB06698	0.09507918	0.037761893	0.095713206	0.02813295	-0.09573498	-0.07352233	-0.14933333	-0.06294864	-0.17272058	-0.06889964	0.09038526	-0.15048759	0.18158506	-0.09416356	-0.22360589	0.07019826	-0.073032714	-0.076887645	0.03154308	-0.073621124	0.12374246	-0.04778291	-0.076183304	-0.11822461	-0.08042224	0.10174002	0.15084958	-0.0004269129	0.21745138	-0.07940773	0.053143077	0.17432168	-0.03598355	-0.044910952	-0.13718477	0.12400101	0.034066904	0.058070313	-0.15742663	0.01324903	-0.121882096	0.042407267	-0.06718774	-0.12244551	-0.04430703	-0.050696723	0.044482145	-0.07155266	-0.10902569	0.12892275
DB06699	0.11813289	0.03727839	0.03845441	-0.025831223	-0.07855265	0.051697254	-0.16902186	-0.112313434	-0.13890198	-0.060723007	0.11182506	-0.09177733	0.16002248	-0.060307447	-0.19518922	0.09794495	-0.069246724	-0.12546508	0.039701868	-0.08234487	0.10666797	-0.12420298	-0.051717017	-0.068402834	-0.073330805	0.096404694	0.19669959	0.0018760544	0.21131863	-0.09507616	0.057180516	0.20897797	-0.05250583	-0.08352661	-0.09348639	0.08211819	-0.05210163	-0.012866985	-0.111674555	0.0051221233	-0.082854696	0.053600814	-0.07924918	-0.1890718	-0.005087799	-0.09197573	0.08953263	-0.07627985	0.016303835	0.12906095
DB03404	0.123387456	0.060023833	0.056760825	-0.07170501	-0.072153375	0.059088558	-0.14790313	-0.043044165	-0.11222491	-0.05220672	0.052317645	-0.033770688	0.13239713	-0.045560528	-0.14200841	0.00812548	-0.015028497	-0.19498424	0.038338445	-0.07190905	0.0075274445	-0.12072967	-0.07009506	-0.006326532	-0.020398958	0.05729934	0.1322623	0.15007888	0.13731185	-0.07693206	0.05187198	0.1697316	-0.09780376	-0.10840228	-0.11742679	0.02398187	0.026536444	0.0071858	-0.08015873	-0.015547	0.0006741581	0.11717211	-0.089193545	-0.16389982	-0.04077173	-0.11182947	0.066031665	-0.12727669	-0.08235355	0.1196377
DB06697	0.08642825	0.030684566	0.06886254	-0.015599525	-0.078570575	-0.0066078957	-0.17252165	-0.14107649	-0.13732873	-0.016535334	0.014870314	-0.14743428	0.13092668	-0.11259641	-0.17735812	0.01673664	-0.13538718	-0.18511637	0.00392767	-0.05653009	0.08490104	-0.04817279	-0.02961225	-0.12971836	-0.07691649	0.1606231	0.14973356	0.0073136985	0.2108681	-0.11342596	0.07042301	0.16845989	-0.04203084	-0.03885187	-0.08952689	0.13961416	0.047235742	0.0020818952	-0.16910362	0.008620093	-0.007528398	0.028194387	-0.038488526	-0.15711357	-0.01217012	-0.08277265	0.039891362	-0.092720635	-0.119004175	0.15007815
DB06694	0.08567113	0.01934012	0.10926086	0.0060330285	-0.08695297	-0.0380359	-0.1790004	-0.06354724	-0.14988156	-0.041921858	0.09277155	-0.16383842	0.16785021	-0.1093895	-0.17555192	0.078642406	-0.1280826	-0.082929686	0.050569914	-0.06942736	0.06441868	-0.11802627	-0.029433597	-0.08695481	-0.14144006	0.11203555	0.15088823	-0.053220704	0.18450885	-0.060543165	0.07754165	0.11502743	-0.04926665	-0.049511347	-0.110924885	0.12994353	0.05985229	0.0110823475	-0.16907734	-0.01659411	-0.11267521	0.061952617	-0.058033537	-0.17341743	-0.028641576	-0.0868771	0.09319425	-0.10764527	-0.023598254	0.13218918
DB06695	0.05426031	0.032767586	0.028284369	-0.018822044	-0.09840322	0.045904253	-0.21616359	-0.12932779	-0.15659659	-0.06955684	0.041974697	-0.14105996	0.18925743	-0.060965426	-0.19510509	0.11065783	-0.047205836	-0.12649536	0.02491553	-0.05531639	0.13255891	-0.09949215	-0.05776249	-0.084094934	-0.09553896	0.18127672	0.17542772	-0.019818034	0.2102769	-0.10566645	0.09468643	0.18784444	-0.060888216	-0.091064654	-0.08956195	0.16881521	0.044948347	-0.01076247	-0.1629913	0.016874662	-0.015069513	0.04154108	-0.058018688	-0.20616138	-0.0106507335	-0.117917374	0.017945956	-0.12280844	-0.12396838	0.14005306
DB06692	0.04350214	0.06589103	0.07484867	0.024077557	-0.10065061	-0.02424042	-0.15574239	-0.13371845	-0.18049538	-0.048149977	0.051107198	-0.12697123	0.22387144	-0.077292174	-0.13543893	0.050363097	-0.06408954	-0.04974592	-0.025937885	-0.06685996	-0.005941434	-0.11365176	-0.036016677	-0.054602154	-0.11975677	0.14020476	0.16284342	-0.039876584	0.18078722	-0.016838102	-0.017665312	0.13455962	-0.11093268	-0.058966927	-0.14161725	0.098641515	0.103747815	0.03221891	-0.15469168	0.0523215	-0.115097106	-0.014955455	0.047389366	-0.081855245	0.010140428	-0.046315905	0.0643936	-0.05683905	-0.120361075	0.10996723
DB06693	0.09962758	0.032173634	0.06539224	-0.032643292	-0.05719682	-0.039627854	-0.18935622	-0.060792938	-0.106421575	-0.018689407	0.08006883	-0.106880434	0.15052691	-0.076751046	-0.11913946	0.018566212	-0.030731844	-0.17946059	-0.024004105	-0.03171946	0.04172318	-0.14539352	-0.07030362	-0.075596325	-0.056167215	0.18501818	0.14292471	0.12742046	0.17875285	-0.11405588	0.07653981	0.11262211	-0.048629194	-0.08780535	-0.09312355	0.107404366	0.0045003365	0.014045695	-0.11674416	-0.014637429	-0.106994174	0.08865363	-0.05413728	-0.15775213	-0.055804234	-0.10213264	0.06372278	-0.098105505	-0.11828685	0.12858239
DB06690	0.044731766	0.061775584	0.05287291	0.0020997506	-0.05521135	0.07503641	-0.08051131	-0.13400905	-0.11050112	-0.024842948	0.053160265	-0.09256505	0.12432417	-0.08798423	-0.15607937	-0.02252551	-0.05991635	-0.06586566	0.071153015	-0.05454529	0.04149372	-0.0683155	-0.0735671	-0.10049608	-0.013327256	-0.017388813	0.13157772	0.14829452	0.11838879	-0.07515874	0.047312364	0.21435139	-0.115639165	0.007945406	-0.13544513	0.10332214	-0.07914454	0.043457694	-0.08739857	0.02157355	-0.07795384	0.04612783	-0.08146876	-0.15967852	-0.07174319	-0.08519812	0.056573622	-0.05598851	-0.0019651167	0.08511741
DB06691	0.08275278	0.014658218	0.037457906	0.015477873	-0.014440263	0.046912488	-0.1882627	-0.14330506	-0.17801744	-0.031879354	0.10671166	-0.1400835	0.18390317	-0.047712643	-0.25846487	0.023398578	-0.057939276	-0.08026161	0.06551059	-0.07058734	0.12713501	-0.104530744	-0.042506866	-0.08482905	-0.025495425	0.058509424	0.22428115	0.012031326	0.19314334	-0.09154655	0.041471265	0.19886512	-0.04601534	-0.07326754	-0.11477494	0.17291367	0.04387152	0.010942945	-0.15334725	-0.0365356	-0.07934528	0.004360253	-0.091946766	-0.15692872	-0.022036545	-0.06098058	0.09000935	-0.17576903	-0.14026554	0.13348067
DB00997	0.050195772	0.019194512	0.059592683	0.016589927	-0.101482615	-0.017499566	-0.20470363	-0.16774285	-0.16584362	-0.029426627	0.13973375	-0.18117668	0.19651896	-0.0781302	-0.21421413	0.107987635	-0.08126457	-0.15316945	0.049722012	-0.060739025	0.14460355	-0.07454593	-0.056150597	-0.11322628	-0.109557405	0.22554117	0.22795515	0.007543423	0.19573532	-0.056111436	0.057549518	0.2368333	-0.01970065	-0.0024916106	-0.1054657	0.17442119	0.03079555	0.0037773368	-0.17326942	0.01875463	-0.011653539	0.0051534735	-0.031100651	-0.17643142	-0.009758774	-0.12442227	0.05229948	-0.05642425	-0.16741613	0.20416242
DB00996	0.0785267	0.0036402456	0.064983234	3.3045653e-06	-0.104774654	-0.044368245	-0.20135	-0.12576562	-0.15392834	-0.047446363	0.15565464	-0.16580215	0.17807162	-0.025593717	-0.23102377	0.02269763	-0.17923394	-0.1783815	0.07357972	-0.12384988	0.11705333	-0.064232185	-0.05326856	-0.12047006	-0.13142465	0.19598697	0.21776263	-0.016353963	0.20914856	-0.041739047	0.056738228	0.25463605	-0.03228889	-0.032637496	-0.1263866	0.1547181	0.035044488	0.020831015	-0.15928386	-0.011138573	-0.127068	0.037175767	0.011679228	-0.1895279	-0.009453418	-0.06034876	0.096918896	-0.061804887	-0.17071283	0.12583347
DB00994	0.057308033	0.01428744	0.040892497	-0.018594274	-0.022484453	0.040977966	-0.21007982	-0.16374059	-0.18996945	-0.040786266	0.22159582	-0.19437657	0.21394978	-0.023023715	-0.27235553	0.0040970407	-0.09832129	-0.11738301	0.10370673	-0.10570473	0.13665324	-0.13190901	-0.10769937	-0.08412621	-0.045644213	0.0602608	0.21931478	-0.08051077	0.16718523	-0.056398872	0.062127594	0.21417965	-0.08133343	-0.09984081	-0.14514698	0.14828238	0.05212226	0.010105763	-0.1837318	-0.027547937	-0.09835355	0.024479112	-0.04954141	-0.15357062	-0.00018253713	-0.03208426	0.04637747	-0.085218914	-0.11913584	0.11800709
DB00993	0.12453978	0.026019089	0.04563987	-0.0053697727	-0.116500884	0.0063712327	-0.21648411	-0.114205554	-0.13479216	-0.04172184	0.14416291	-0.15543365	0.19157359	-0.041025326	-0.24262767	0.05357719	-0.14825828	-0.12561934	0.028809683	-0.14555177	0.12726799	-0.06937837	-0.024597155	-0.113957375	-0.09083517	0.19942091	0.23323773	0.0053050006	0.21661575	-0.10792128	0.08306889	0.23327473	-0.026773999	-0.004828127	-0.12799197	0.16350392	0.041054185	-0.014156388	-0.16185619	0.024050731	-0.087377094	0.027765175	-0.037657693	-0.171926	-0.022445595	-0.07923369	0.04623845	-0.07560578	-0.13037138	0.13805006
DB00992	0.08315364	0.04873745	0.0682897	-0.04926693	-0.115397096	-0.026205309	-0.17374673	-0.1082489	-0.1396497	-0.07101912	0.09177239	-0.044957932	0.19923285	-0.026772058	-0.19264178	0.06050524	-0.077584	-0.0611687	0.062375654	-0.08783558	0.10999901	-0.09711091	-0.033638407	-0.11240179	-0.18190457	0.045123115	0.20105144	-0.03172795	0.19379096	-0.12788497	0.04130441	0.18805747	-0.06164438	-0.11315412	-0.12733373	0.1546483	0.0476898	0.030638328	-0.096400306	0.06401645	-0.094898984	0.048446734	-0.042059038	-0.058400456	-0.024787316	-0.06339717	0.083973765	-0.06586149	-0.13009979	0.1188201
DB00991	0.0800339	0.03543471	0.048050184	0.014544213	-0.1136352	-0.042435	-0.19736916	-0.14669949	-0.12228167	-0.07009701	0.13843445	-0.13721247	0.1794816	-0.032887593	-0.23342049	0.050437365	-0.1711432	-0.1654645	0.09825999	-0.13058542	0.123671114	-0.06622425	-0.03980625	-0.12490256	-0.10250482	0.16839056	0.19269101	-0.01886156	0.16727836	-0.05147694	0.052331638	0.18350725	-0.029989477	-0.012995599	-0.11929307	0.16770397	0.045990884	0.009570643	-0.16712071	-0.005768189	-0.12926687	0.038098674	-0.010605313	-0.1796118	0.00026989612	-0.09628839	0.055248342	-0.049679857	-0.12669176	0.13931106
DB00990	0.031490326	0.0048859706	0.08256094	0.005391467	-0.10917613	-0.03455973	-0.1716777	-0.12698387	-0.1611042	-0.03143122	0.13066562	-0.13723922	0.19967839	-0.04849996	-0.18659239	0.07246386	-0.10694883	-0.17042503	0.07543886	-0.09925836	0.08075572	-0.05928456	-0.018322485	-0.13296509	-0.14149019	0.17063	0.18295044	-0.035333075	0.17878878	-0.07776064	0.05993632	0.2224194	-0.058337998	-0.01141981	-0.14347756	0.13627094	0.07959739	0.07023067	-0.16518858	0.03810342	-0.055771064	-0.008967454	0.022381404	-0.12793925	0.0034478083	-0.10345684	0.074796945	-0.06760847	-0.12869005	0.14616676
DB00999	0.08820346	-0.01160796	0.046325672	-0.023728762	-0.12347329	-0.0422995	-0.24553642	-0.12946148	-0.18443392	-0.04873036	0.16686308	-0.17282045	0.20560558	-0.029218944	-0.22788145	0.058452245	-0.16747643	-0.10267584	0.10474107	-0.10403398	0.13162741	-0.09027125	-0.06325341	-0.097803876	-0.110563636	0.18643881	0.24466304	-0.03946685	0.18250333	-0.041481793	0.04334455	0.22682609	-0.041693475	-0.04969366	-0.13446335	0.15271458	0.06497658	0.010327978	-0.16183469	-0.056862697	-0.11231258	0.0060616983	-0.03262412	-0.17400321	-0.0044030426	-0.06317471	0.11691971	-0.06326448	-0.13762248	0.14314243
DB00998	0.06376215	0.0024429504	0.0589863	0.011169326	-0.11121358	-0.036317237	-0.19024695	-0.1289845	-0.14638002	-0.06850681	0.1551222	-0.15908958	0.16787271	-0.019341469	-0.18949279	0.008789295	-0.16139616	-0.093674645	0.04149626	-0.0998012	0.1201655	-0.102787584	-0.06970412	-0.112326354	-0.14253344	0.06319684	0.20721413	-0.011679847	0.20170625	-0.07244878	0.025242953	0.23117092	-0.023176776	-0.11418643	-0.12567843	0.1390062	0.05336726	0.025844269	-0.13231015	0.010390276	-0.1226383	0.019535355	0.00075214833	-0.1891165	-0.010792008	-0.09789391	0.0958582	-0.05718088	-0.1437381	0.14321291
DB00492	0.10068359	0.05006083	0.07991431	0.021982595	-0.1292821	0.0048900666	-0.1753486	-0.13387065	-0.15443347	-0.030914979	0.18696192	-0.15229097	0.1621353	-0.03192312	-0.19276518	0.018660055	-0.15609169	-0.1569128	0.07679148	-0.13044658	0.13296713	-0.08530448	-0.05139678	-0.09575919	-0.10709934	0.08263109	0.23188184	-0.04308503	0.20191854	-0.036437377	0.06590043	0.25282902	-0.035187688	-0.11585873	-0.12632628	0.14278287	-0.033938248	0.00918526	-0.13793238	0.01951205	-0.12268874	0.03915366	-0.010572726	-0.18006894	-0.01984519	-0.06926642	0.0762371	-0.04945746	-0.13178828	0.1445661
DB00542	0.08265574	0.034372363	0.070598	-0.004557858	-0.11502447	-0.037630904	-0.18286842	-0.13359392	-0.15100794	-0.04268449	0.15741315	-0.15883327	0.2204143	-0.02940514	-0.20312962	0.014445243	-0.17205617	-0.16749234	0.0423125	-0.13745739	0.120346755	-0.111779995	-0.027554255	-0.12226468	-0.11229071	0.17857261	0.24063617	-0.027186556	0.18418892	-0.048043292	0.06427201	0.23685816	-0.041739818	-0.082635865	-0.11854836	0.1467622	0.045317363	0.0061538033	-0.14541532	0.022652002	-0.12075185	0.036712203	-0.014358142	-0.1811408	-0.002680256	-0.05912304	0.10245773	-0.07583471	-0.13509266	0.1294572
DB00493	0.09087252	0.040991023	0.10264179	-0.018926607	-0.11573963	-0.040134404	-0.21392468	-0.11948325	-0.19324805	-0.05710712	0.16377161	-0.16489618	0.236838	-0.022683999	-0.24073337	0.084231	-0.17435491	-0.14827013	0.009951569	-0.10609896	0.12711062	-0.09404384	-0.042714737	-0.07957734	-0.14357542	0.21079344	0.22557156	-0.0012857877	0.21134256	-0.04951861	0.04918977	0.24776347	-0.021047065	-0.10543824	-0.13154954	0.14373949	0.052177142	0.0031284057	-0.17003384	0.018779172	-0.11109572	0.04153926	-0.00058149104	-0.19114552	-0.017227082	-0.028704325	0.051404305	-0.060206193	-0.13635567	0.1324458
DB00543	0.07379908	-0.010990836	0.10298605	-0.015904449	-0.09901044	-0.049987294	-0.21577752	-0.06829282	-0.17434023	-0.06550232	0.1545537	-0.15282635	0.20753808	-0.050909884	-0.18318138	0.14741863	-0.1724657	-0.08233186	0.023320697	-0.082942314	0.14210188	-0.10568056	-0.043751094	-0.08505832	-0.18304893	0.18951274	0.2129145	-0.01330911	0.19278139	-0.022946285	0.042613193	0.1973847	-0.00547795	-0.10445526	-0.11040108	0.12270251	0.055599842	0.043058418	-0.16070873	0.007300861	-0.118054144	0.050383065	0.0030103936	-0.18582924	-0.03473969	-0.094171695	0.058498133	-0.14012195	-0.13149656	0.19020206
DB11124	0.025774721	0.01841073	0.011365289	-0.062111143	-0.030298265	-0.020044748	-0.057026383	-0.07526213	-0.0367929	-0.06373189	-0.023391202	0.0648726	0.03159218	0.05741062	-0.031037705	0.078317985	0.033560086	-0.03891188	0.023811936	-0.04690741	-0.020863408	0.058785364	0.028653147	-0.014767295	0.015371494	0.018868167	0.032023128	0.15972039	0.04983688	-0.014989896	0.01196973	0.02588404	-0.025799688	-0.027446315	-0.023083348	0.07064226	0.016746644	0.075233035	0.05748579	0.072298184	-0.06472709	0.032473788	-0.02055205	0.020688834	0.0036665443	-0.06382434	-0.06164511	-0.017908067	0.019617919	0.041724022
DB01700	0.1400716	0.018480586	0.034826927	-0.052781545	-0.11044221	-0.040555142	-0.111999765	-0.019985087	-0.075079404	-0.06862888	0.097379856	-0.00010325038	0.11979337	0.011349618	-0.11785486	0.010896533	0.008964991	-0.13614708	0.031675864	-0.047738522	0.031117814	-0.13684854	-0.059131585	-0.005065659	-0.022944646	0.138547	0.13116978	0.14405793	0.16987988	-0.07882722	0.077738695	0.2343825	-0.06077817	-0.12905402	-0.042856872	0.0075869747	-0.082925476	-0.01516971	-0.046306167	-0.024599014	-0.029133456	0.109528154	-0.05288077	-0.049289428	-0.04530105	-0.11859037	0.019880451	-0.12407887	0.006302747	0.03182092
DB00490	0.08681608	0.024134248	0.06959653	-0.02071459	-0.11160596	-0.059486274	-0.20204693	-0.12027065	-0.13675974	-0.04844171	0.17306828	-0.15723586	0.21548764	-0.054373946	-0.20385996	0.10575485	-0.15398417	-0.18122567	0.009958442	-0.15190305	0.13350123	-0.090584524	-0.05007546	-0.12602223	-0.11056455	0.18702397	0.22186442	-0.0048917183	0.18114172	-0.07639773	0.073424935	0.24113448	-0.04153865	0.009545621	-0.11543131	0.16559014	0.048655692	-0.007539764	-0.14129214	0.029030835	-0.11481333	0.033427857	-0.040729463	-0.18889372	-0.010249084	-0.060369354	0.07537163	-0.06887521	-0.1363315	0.1559124
DB05245	0.08818298	0.0014252068	0.05237064	0.014684038	-0.10713163	-0.0179523	-0.18811907	-0.12236582	-0.15187143	-0.060922973	0.12700391	-0.14023834	0.15407018	-0.04799513	-0.20446467	0.014421592	-0.15300225	-0.063990295	0.03248349	-0.10725236	0.11717822	-0.08132829	-0.07537036	-0.11246343	-0.113286555	0.068977885	0.21110803	-0.027576033	0.19153772	-0.06980118	0.073978074	0.24506868	-0.04714946	-0.08888497	-0.14213873	0.17193756	0.058451917	-0.0015365212	-0.11728805	0.017979793	-0.08295036	0.022461453	0.003158202	-0.17151462	-0.000689246	-0.057845768	0.08035461	-0.044566043	-0.12357116	0.13100483
DB05246	0.09955731	0.027151069	0.06083692	0.008576145	-0.09640281	-0.033422176	-0.17697142	-0.1306416	-0.13919693	-0.05223129	0.07349784	-0.1504519	0.11451286	-0.061339468	-0.18731447	0.011105293	-0.11388069	-0.15707824	0.027719036	-0.0783219	0.10573559	-0.10979263	-0.04142514	-0.06733148	-0.079580925	0.11435161	0.17105335	-0.065759465	0.20586519	-0.07179452	0.063985325	0.19072016	-0.049721465	-0.08899741	-0.12178801	0.12946118	0.036536146	0.017822089	-0.12506539	-0.013107579	-0.020395746	0.061292246	-0.049959004	-0.17422694	-0.05750053	-0.08435431	0.056432325	-0.08004117	-0.1395662	0.12853704
DB00078	0.08943562	0.04638714	0.07868253	0.07489311	-0.12088421	-0.019152032	-0.13250485	-0.12586609	-0.20246083	-0.042600904	0.06788982	-0.13807572	0.12711352	-0.083158046	-0.16007534	0.18684104	-0.06235193	-0.03432524	-0.027853686	-0.10350323	0.023377925	-0.1293251	-0.004897492	-0.06179506	-0.1784739	0.058248993	0.17665727	-0.08357228	0.22669965	-0.024366708	0.0018508808	-0.007327419	-0.07604331	-0.11390459	-0.10813928	0.08655537	0.1282021	0.028195642	-0.13204004	-0.005615887	-0.11359045	0.043947026	0.09600977	-0.10490117	-0.023862656	-0.07531879	0.11244572	-0.07511629	-0.10494871	0.13680217
DB02261	0.0930988	0.015367329	0.07881022	-0.021996856	-0.07397536	-0.028731383	-0.18309812	-0.075605474	-0.097228706	-0.041360643	0.12438223	-0.13902608	0.12748586	-0.019709412	-0.10046621	0.0029620836	-0.047281053	-0.18980253	0.03432673	-0.047365047	0.04747191	-0.10857721	-0.026423426	-0.051326588	-0.044979353	0.086629994	0.13175023	0.1695026	0.1301518	-0.055842873	0.10281003	0.18772893	-0.05157416	-0.030383682	-0.025593702	0.071521334	-0.0010525567	0.004016777	-0.08719135	-0.004705088	-0.03476949	0.09827247	-0.0600609	-0.10828966	-0.04213885	-0.09459658	0.0041996352	-0.17647018	0.0071528936	0.08326925
DB05804	0.07321102	0.096405305	0.06592096	0.008089313	-0.08723902	-0.02849794	-0.17686303	-0.13959198	-0.16146734	0.0031668404	0.039693188	-0.13407578	0.16415155	-0.086489744	-0.09329637	0.0066367406	0.012430456	-0.15673842	0.064850755	-0.04141957	0.010942517	-0.101757064	-0.01177939	-0.111405954	-0.03690348	0.1761415	0.10386239	0.15913056	0.14430456	-0.0711368	0.086677514	0.2073087	-0.07527376	0.0036254348	0.028482964	0.16328545	-0.07759806	0.011390755	-0.15635319	0.0040998347	-0.0032162312	0.055231497	-0.056534734	-0.16573237	-0.07985034	-0.13962577	0.018877028	-0.18535905	-0.10637103	0.13737248
DB08984	0.119365096	0.073013775	0.038306143	-0.045204513	-0.06518429	0.059207074	-0.1178672	-0.105678126	-0.11292546	-0.041441306	0.045499742	-0.04723878	0.10119808	-0.057814732	-0.16007829	0.0763977	-0.03186749	-0.16999389	0.04334941	-0.11162052	0.103540584	-0.12281351	-0.06489969	-0.11390098	-0.005623579	0.083187185	0.11696147	0.08020502	0.16721992	-0.11563891	0.11171739	0.22058545	-0.04061597	-0.005103128	-0.0782567	0.0806025	-0.07678234	-0.014837895	-0.079956725	0.018059198	0.000446785	0.12350461	-0.11973859	-0.136476	-0.05682944	-0.105557434	0.023173062	-0.0961238	0.026892409	0.13755031
DB08985	0.07157498	0.03492371	0.06971064	-0.018074457	-0.096793525	0.046310104	-0.051037095	-0.12879798	-0.06846381	0.031202683	0.01476956	-0.009882148	0.096862175	-0.05755536	-0.074750505	-0.0041675866	0.011322059	-0.06848589	0.158569	-0.0133228	-0.03473374	-0.11875509	-0.019678816	-0.12469341	-0.060058217	0.013542943	0.07400795	0.15617032	0.18640344	-0.12223449	0.064919285	0.122996226	-0.06252921	0.021153575	-0.122189865	0.06118255	-0.041119806	0.022990609	-0.10482059	-0.017631568	-0.07465878	0.08218985	-0.09016422	-0.042652674	-0.02473277	-0.05550516	0.013231786	-0.06470427	-0.108085595	0.14096247
DB08986	0.036317874	0.07037496	0.07880784	-0.06536656	-0.08872402	0.04613857	-0.06450153	-0.12434138	-0.07545074	-0.00051255024	0.03502825	-0.0043540774	0.050078887	-0.059675742	-0.11299774	-0.0072467607	-0.027215505	-0.12810196	0.13985664	-0.004707517	-0.036996543	-0.12582652	-0.0244701	-0.10035031	-0.07963059	0.017966334	0.053726133	0.15258248	0.12881109	-0.09918603	0.071788125	0.19505891	-0.065261	0.03844292	-0.12798098	0.038623527	0.0427499	-0.011007765	-0.13632227	-0.023761831	-0.07264175	0.08678098	-0.051207043	-0.07207746	-0.02720668	-0.041845392	0.019861069	-0.062253226	-0.10812262	0.1265309
DB08987	0.05782759	0.052470367	0.10256796	-0.031351063	-0.122524485	0.04841353	-0.0419474	-0.13288029	-0.10199486	0.0106948	0.018548103	-0.012736736	0.09066822	-0.063370906	-0.10940009	0.022059754	-0.01708608	-0.07060918	0.12215409	-0.0104000475	-0.0047844807	-0.122686684	-0.01915252	-0.124522135	-0.050450888	-0.0025996286	0.09986244	0.14752325	0.13215338	-0.10059773	0.07499717	0.1704664	-0.0060568936	0.012737056	-0.13344796	0.039149784	0.0036109067	0.0086569	-0.14663856	-0.023525901	-0.09469029	0.064433515	-0.06390433	-0.06288477	-0.051745873	-0.05177397	0.0606611	-0.14994986	-0.07590968	0.13981996
DB08980	0.059121802	0.017739728	0.072492644	-0.04792769	-0.100885786	0.07191121	-0.0556042	-0.13669585	-0.036094237	0.017718412	0.04507061	0.0054778913	0.09437388	-0.04733628	-0.10544141	-0.007909574	-0.022989396	-0.106248945	0.16674803	0.03134441	0.012968486	-0.09015005	-0.040317014	-0.12188558	-0.10353897	-0.02682117	0.09074143	0.07394923	0.17337659	-0.10965533	0.07557405	0.14065951	0.009632322	0.034660764	-0.09787795	0.037867613	0.03724782	0.07258932	-0.10117204	-0.044013496	-0.023870468	0.0336892	-0.062091585	-0.05150718	-0.029240338	-0.09909555	0.02537937	-0.05810866	-0.057617728	0.12123889
DB08981	0.12168756	0.07467761	0.041578908	-0.09914583	-0.0875979	0.037163522	-0.12652344	-0.087776855	-0.10712674	-0.032777485	0.038502455	-0.006545594	0.105923235	-0.045033608	-0.13606109	-0.0020997426	-0.043752607	-0.17681554	0.010720653	-0.02442691	0.13121083	-0.12127085	-0.07542599	-0.08666553	0.007398352	0.03827701	0.06644391	0.13336195	0.19578898	-0.08067792	0.08026735	0.20629331	-0.087412976	0.018857874	-0.074908786	0.033903934	-0.074468456	0.07861107	-0.072096966	-0.008106509	-0.018663226	0.07807836	-0.07824957	-0.1465546	-0.045029253	-0.06816748	0.032647166	-0.17291528	-0.10416252	0.11841728
DB08983	0.08679029	0.071001455	0.04367695	-0.07119402	-0.083672516	0.055802543	-0.08068481	-0.10965729	-0.08015693	0.019887969	0.029841483	-0.017922584	0.10146477	-0.08371209	-0.119807154	0.018820545	0.0050747744	-0.12725598	0.06759107	-0.043996688	0.040484037	-0.16389243	-0.06473552	-0.06520305	-0.0370427	0.046182703	0.1745232	0.03803498	0.16843563	-0.108135924	0.08582205	0.18563434	-0.06950931	0.01655781	-0.10535562	0.031123964	-0.033665698	-0.023519903	-0.082134694	-0.011263183	0.013320953	0.100656375	-0.08169182	-0.07125206	-0.036013715	-0.10198497	0.02110254	-0.08401508	-0.07783466	0.12418902
DB09345	0.020129908	0.0051935557	0.038529668	-0.0071155643	-0.013369817	0.06303122	-0.18134004	-0.1593239	-0.16647582	-0.008017989	0.11289194	-0.16628641	0.20946707	-0.022890015	-0.26780427	-0.044886183	-0.047694728	-0.09131417	0.13918626	-0.08033987	0.13983284	-0.14092873	-0.1106162	-0.022286067	0.08441016	0.04508143	0.19918005	0.11353633	0.14796948	-0.048976675	0.061159663	0.2183086	-0.14482321	-0.10016572	-0.12401001	0.16472958	-0.029664721	0.023260228	-0.17383	-0.046511132	-0.09586559	0.03283787	-0.13844803	-0.14633055	-0.04263673	-0.047769118	0.03304945	-0.16754586	-0.12530686	0.12268053
DB01017	0.08622031	0.03673338	0.04481011	0.00908722	-0.104171	-0.03951601	-0.19669569	-0.1346547	-0.18572576	-0.022885209	0.15973197	-0.16549124	0.22787035	-0.046580344	-0.21141976	0.085813366	-0.1738421	-0.13477153	0.08849769	-0.13312979	0.1261482	-0.11446806	-0.040427897	-0.09977334	-0.12427403	0.19954897	0.22287136	-0.03354911	0.19125074	-0.04034597	0.05926369	0.21513043	-0.040821575	-0.07789701	-0.10598381	0.14860286	0.041311096	-0.011033835	-0.15145664	0.012137786	-0.12698679	0.0470357	-0.01659335	-0.19118008	-0.03762549	-0.10200367	0.090145305	-0.07830873	-0.15007585	0.1336891
DB00072	0.052911088	0.027470037	0.053703938	0.047516327	-0.10627882	-0.031671647	-0.15334585	-0.15264931	-0.20675401	-0.052828286	0.07962313	-0.154765	0.14451821	-0.08013804	-0.16566889	0.15130368	-0.097713634	-0.054819994	-0.019878525	-0.07826019	0.09798523	-0.115834504	-0.015259065	-0.06408217	-0.17831133	0.14199778	0.17934373	-0.04352879	0.21757603	-0.0148497615	0.034485977	0.0016083942	-0.07359568	-0.09608835	-0.114701174	0.09278458	0.11642888	0.01768083	-0.15974143	0.02268182	-0.15276264	0.017057197	0.09891909	-0.11328814	-0.007972758	-0.065051936	0.11129718	-0.08781624	-0.13098285	0.1293503
DB09342	0.07851326	0.049873278	0.07226419	-0.046019148	-0.04939261	0.05472154	-0.045834344	-0.11514927	-0.099026196	-0.031618737	0.036765657	0.00014485384	0.085237555	-0.06833904	-0.10433413	0.068992004	-0.0030925996	-0.09787385	0.08115395	-0.018053766	0.028463585	-0.12809697	-0.08294861	-0.09934009	-0.0011987394	-0.0017624294	0.1591237	0.1732295	0.11912796	-0.12623753	0.03955077	0.11309184	-0.06869752	-0.03364673	-0.08538645	0.008220732	-0.064985245	0.011060497	-0.10056433	0.016917672	-0.0047558825	0.08966267	-0.06944296	-0.121346906	-0.054995723	-0.09744436	0.050436128	-0.18785115	0.0169948	0.116715096
DB00073	0.077736355	0.082392514	0.073570706	0.039257888	-0.14579031	-0.057848137	-0.14179523	-0.14856803	-0.21199985	-0.04726053	0.0594144	-0.13252696	0.20631003	-0.0010038113	-0.16698925	0.100720994	-0.048806183	-0.08741842	-0.027188865	-0.110970244	0.036990263	-0.12737161	-0.016652761	-0.08864422	-0.12646408	0.09137742	0.19096804	-0.08805948	0.21093306	-0.02395003	0.026002381	0.042197946	-0.081760384	-0.12942347	-0.14225392	0.07594757	0.15080005	0.028777843	-0.1376833	0.024347754	-0.14838034	0.03307497	0.0895811	-0.0758161	-0.041106574	-0.05239692	0.1038351	-0.12296946	-0.09981438	0.16269782
DB02665	0.10514309	0.027650122	0.060029563	-0.06696654	-0.10357431	-0.04312255	-0.10090733	-0.06925299	-0.076045014	-0.024451772	0.056447748	-0.10656616	0.09604144	-0.05001222	-0.0895062	0.016002577	-0.014255904	-0.111440286	0.083101265	-0.028293299	0.01782022	-0.10969116	-0.01275404	-0.048616763	0.0011206606	0.05304674	0.07915881	0.19218166	0.1401976	-0.13326506	0.12750842	0.10409179	-0.040040333	-0.10359236	-0.05637595	-0.008694628	0.034407724	0.023715306	-0.08468545	0.005037358	-0.031805232	0.11891034	-0.043317452	-0.041401275	-0.012187505	-0.10002568	0.017575104	-0.06238659	-0.06428816	0.13392295
DB00831	0.058119778	0.013864387	0.08192708	0.0031246021	-0.10561493	-0.038877133	-0.18393101	-0.12600625	-0.16588722	-0.040000115	0.17568731	-0.14501458	0.16769573	-0.044485662	-0.2189398	0.043930817	-0.17497137	-0.14878213	0.05748571	-0.122626215	0.12810954	-0.083819546	-0.03548541	-0.12081951	-0.122786015	0.16626617	0.20844111	-0.010073632	0.17871106	-0.0649964	0.06659838	0.21378286	-0.02158396	-0.007656824	-0.1048848	0.1376779	0.045011044	0.009817783	-0.16011682	0.004004255	-0.10895128	0.015231712	-0.00873257	-0.19155392	-0.02693485	-0.06597647	0.088835634	-0.07451692	-0.1643636	0.16138996
DB00928	0.110432595	0.021635562	0.09474857	-0.0063391384	-0.115614764	-0.039488874	-0.17658938	-0.12845376	-0.15521125	-0.07658174	0.12116882	-0.15277644	0.20432004	-0.02593701	-0.21632318	0.025607947	-0.1647614	-0.112807035	0.058765873	-0.11155187	0.1243823	-0.11990571	-0.049418367	-0.10417215	-0.10763677	0.19279414	0.19346292	-0.024761954	0.22630402	-0.07696885	0.04614641	0.19744399	-0.008226767	-0.06504163	-0.12600955	0.13979046	0.04387988	0.011848193	-0.15855256	0.018726597	0.007312198	0.04136848	0.014869953	-0.17592925	-0.0065453136	-0.08088919	0.06038915	-0.07629654	-0.1344267	0.14664909
DB01011	0.11444004	-0.0020177905	0.06640655	0.008516354	-0.120534986	-0.049791228	-0.19925709	-0.16049051	-0.15005946	-0.025695238	0.09395841	-0.14761424	0.20968932	-0.054656558	-0.18304913	0.012621047	-0.0703574	-0.17209105	0.056893323	-0.083694346	0.13745481	-0.10791466	-0.024705337	-0.121679485	-0.16505247	0.19122447	0.16844285	-0.06435853	0.18014267	-0.07123306	0.049014233	0.17911977	-0.009731844	-0.00021041627	-0.11421783	0.15931988	0.03598661	0.02665229	-0.1739255	0.03308945	0.0072310097	0.007985681	0.020656353	-0.16485411	0.015457977	-0.07893162	0.051780123	-0.15802427	-0.1396622	0.18036301
DB09008	0.106448546	0.046151023	0.033150323	-0.0361689	-0.093936555	0.059122667	-0.17095962	-0.11525252	-0.098407626	-0.056288827	0.06491126	-0.15207325	0.13021897	-0.052589767	-0.17886825	-0.0016431897	-0.017401207	-0.18224537	0.008749729	-0.11793305	0.124994114	-0.15202741	-0.07989327	-0.076314986	-0.019394733	0.13633427	0.1594117	0.012234814	0.20812126	-0.104991786	0.08319472	0.17454548	-0.077332	-0.02171686	-0.046702363	0.09606172	-0.08183837	-0.04255568	-0.08962912	0.019265734	0.028897928	0.116806	-0.06804055	-0.16475928	-0.07740549	-0.053478077	0.035194825	-0.16408673	0.0061479504	0.040218737
DB09009	0.03534937	0.059411593	0.07942638	-0.022040438	-0.11458288	0.069429226	-0.057350487	-0.11541549	-0.1441792	0.005899195	0.038281795	-0.019821197	0.16533983	-0.06504058	-0.20195366	-0.019249504	-0.07958137	-0.079861104	0.17660068	-0.04679875	0.012202855	-0.10321839	-0.011054387	-0.12286708	-0.0055596344	-0.00031913375	0.15896605	0.14113475	0.09899875	-0.06885291	0.063070916	0.21671405	-0.10229593	0.0023351777	-0.13292907	0.061747592	-0.047827415	-0.0042539276	-0.17923425	-0.020969128	-0.111577496	0.052630916	-0.07663755	-0.060258713	-0.053476878	-0.07956331	0.057895016	-0.085573174	-0.07318698	0.14977156
DB09000	0.07719476	0.056458462	0.095058426	-0.008712174	-0.11652081	0.04893085	-0.058163796	-0.13198659	-0.0660557	0.014919372	0.082724676	0.00526767	0.0929544	-0.03710921	-0.1370388	0.015764205	-0.042626828	-0.091595255	0.1866611	-0.009056766	-0.020088669	-0.12005551	-0.0027341265	-0.119484626	-0.087762184	-0.008253592	0.103555635	0.16573344	0.16936092	-0.1330164	0.054641485	0.19686921	-0.055996705	-0.0042246617	-0.13253424	0.028539775	-0.051889423	0.013417475	-0.12046386	-0.03384399	-0.072168745	0.07592222	-0.056940995	-0.0328132	-0.0139734745	-0.077832416	0.06714909	-0.060502402	-0.07864824	0.11950331
DB09001	0.056251112	0.050356828	0.039503843	-0.030818606	-0.037021346	0.07423926	-0.047153912	-0.109557174	-0.07032904	-0.039903164	-0.0031438367	-0.0005258417	0.08531994	-0.061423443	-0.121206656	0.037249744	-0.04381801	-0.071970515	-0.0049028597	-0.06445809	0.026173595	-0.10393967	-0.052582443	-0.08472032	-0.05223763	0.03877712	0.05756701	0.022470938	0.13612948	-0.0771409	0.019236347	0.20106255	-0.039119095	-0.09404939	-0.051080346	0.103765674	-0.07192242	0.04448355	-0.11654675	0.032753665	-0.014426323	0.08485076	-0.055911515	-0.14278826	-0.01589483	-0.072974466	0.046196047	-0.17939124	-0.038138982	0.12290405
DB09007	0.0606419	0.05602109	0.0741268	-0.017561719	-0.12031712	0.063085236	-0.09697357	-0.13666135	-0.087050915	0.022430206	0.05160967	0.00069786713	0.07270074	-0.05658473	-0.10204988	-0.009067945	-0.025521003	-0.13793749	0.13554694	-0.030462282	-0.03293567	-0.11880101	0.012166163	-0.10351284	-0.07461769	0.0009662529	0.13579166	0.21785969	0.1567614	-0.13059084	0.06826595	0.15633824	-0.04842936	0.031685032	-0.09380582	0.02783775	0.0009032913	0.019117845	-0.12466514	-0.016713405	-0.11827792	0.08528894	-0.04771739	-0.037816036	-0.027633425	-0.085244514	0.027929269	-0.10235344	-0.080824904	0.14559707
DB01010	0.118401095	0.019782051	0.11198901	0.010977879	-0.10633636	-0.039638955	-0.17999712	-0.124754384	-0.14459367	-0.049218073	0.09769417	-0.1412267	0.15121165	-0.006942911	-0.19430739	0.08746461	-0.15000756	-0.09849347	0.11474568	-0.07738024	0.11849956	-0.11796595	-0.020791957	-0.12719218	-0.12322797	0.119973406	0.18905373	0.004261325	0.18165971	-0.105822526	0.049414538	0.21676168	-0.038518548	-0.025897767	-0.13685495	0.14087112	0.063996054	0.050504602	-0.13888648	0.023036914	-0.09314182	0.065325454	-0.0090077575	-0.05992504	-0.009691914	-0.09635451	0.0834906	-0.10334178	-0.1254588	0.1384393
DB01764	0.12909268	0.009316441	0.083269194	0.002136528	-0.07794592	-0.004527947	-0.15743493	-0.073379986	-0.14473446	-0.047283925	0.14154716	-0.036712117	0.25315455	-0.04605841	-0.18797453	0.09938213	-0.09959444	-0.18492372	0.072908945	-0.06694897	0.10458842	-0.1214658	-0.075977094	-0.114589274	-0.1013282	0.11636729	0.19497226	-0.027117891	0.217193	-0.09477509	0.07766407	0.16212037	-0.026781248	-0.01828113	-0.12569594	0.115351036	-0.04657597	0.021239595	-0.12108828	0.006211601	0.051281873	0.022340937	-0.0447362	-0.16911507	0.006495457	-0.071103014	0.11524001	-0.10083119	-0.07626674	0.13052736
DB09174	0.08946352	0.019348688	0.07403576	-0.025159338	-0.095583335	-0.043312173	-0.068749	-0.07576162	-0.08461689	-0.019529032	0.07426393	0.0038911398	0.08818881	-0.043412693	-0.11662528	-7.701339e-06	-0.0102267815	-0.18082657	0.07769336	-0.039993204	0.030985331	-0.14140676	-0.03615782	-0.013559777	-0.074027956	-0.003723321	0.16248986	0.17040454	0.15720792	-0.119881384	0.05558062	0.12767674	-0.056518503	-0.025321648	-0.06886084	-0.003211163	-0.062210876	0.0075586434	-0.08525899	0.009134549	0.0044275774	0.10682267	-0.05698508	-0.06475151	-0.022824507	-0.08790022	0.04635657	-0.1821786	-0.0026801662	0.044477377
DB00422	0.07592317	0.017914943	0.04992487	0.0029385611	-0.113912195	-0.008120075	-0.19901611	-0.13841106	-0.15336724	-0.028764447	0.15006101	-0.15356669	0.16350156	-0.01977228	-0.23893961	0.017719068	-0.16974941	-0.14124528	0.09831628	-0.14916427	0.122606605	-0.07555039	-0.078022696	-0.11885768	-0.1264084	0.17651722	0.23248579	-0.024000358	0.20345573	-0.043218393	0.061587956	0.25002378	-0.04273831	-0.021338295	-0.14369124	0.15053123	0.02580031	-0.0023477431	-0.17300595	0.025359787	-0.13244219	0.023090592	0.023803467	-0.18446232	-0.024868345	-0.06695133	0.09928559	-0.041103028	-0.158171	0.16980644
DB00480	0.10440086	0.0111185815	0.09475023	0.004037608	-0.119599655	-0.02559758	-0.20093094	-0.14645317	-0.15344344	-0.06922955	0.11805837	-0.16840918	0.21816784	-0.016760984	-0.2050697	0.0104471315	-0.15852304	-0.13180558	0.062331613	-0.08521456	0.14238733	-0.1073929	-0.040951204	-0.10376214	-0.14884001	0.16916563	0.20441557	-0.007158367	0.21233252	-0.043648046	0.052835613	0.20641494	-0.030115068	-0.08581034	-0.112232104	0.14399418	0.048270434	0.02123698	-0.16942821	0.042812385	-0.11870191	0.05510962	-0.003585318	-0.16679686	-0.02887133	-0.08612332	0.075205326	-0.0882988	-0.1421956	0.12601934
DB01363	0.06584248	0.030689748	0.08311139	0.02791071	-0.10574146	-0.03160872	-0.19185086	-0.115051664	-0.20145826	0.02843401	0.082059026	-0.12762369	0.16313873	-0.06301296	-0.13621685	0.056480445	-0.08759176	-0.0204964	0.06367363	-0.076142296	-0.0228803	-0.08800432	-0.009503119	-0.06371177	-0.13497601	0.15742056	0.145178	-0.026709048	0.14337987	-0.019154223	-0.016883709	0.09452092	-0.094429724	-0.06885547	-0.15518358	0.09016672	0.09280088	0.07467583	-0.18079516	-0.026348183	-0.1382662	0.02332212	0.04556983	-0.13739802	-0.00011228921	-0.062123273	0.0902949	-0.13970365	-0.1364686	0.15698136
DB01362	0.07293485	0.045633394	0.017518908	-0.005772695	-0.075455464	-0.01772165	-0.214255	-0.0885281	-0.12870075	-0.04143173	0.1270132	-0.15942079	0.1932446	-0.058456566	-0.1880274	0.099930376	-0.13180299	-0.17307867	0.048798457	-0.12637196	0.14428912	-0.06359059	-0.08465499	-0.08606089	-0.050118845	0.12379061	0.22352095	0.0049239784	0.20542797	-0.094423346	0.112709925	0.24481015	-0.042339448	-0.08904956	-0.124761075	0.12915935	-0.0040513286	0.00082414295	-0.10731563	0.034916315	-0.057097703	0.030916313	-0.07214713	-0.18113177	-0.025785767	-0.071336254	0.07279032	-0.044374947	-0.1261055	0.049151197
DB08437	0.10830513	0.049644496	0.02036498	-0.1313306	-0.08787206	0.0363745	-0.17445447	0.0009428614	-0.101067334	-0.04403786	0.19692709	-0.14638776	0.10720411	-0.039018005	-0.13850036	0.13461573	0.010501919	-0.042128775	-0.030929709	-0.040246863	0.089526296	-0.13639845	-0.1349107	-0.00015882426	-0.08214078	0.23578417	0.12450297	0.04106535	0.19108757	-0.040320877	0.053532112	0.10946803	-0.04696346	-0.07783184	-0.029211579	0.019091642	-0.052485853	-0.06565207	-0.13165876	-0.014210371	-0.048691247	0.12452263	-0.058751367	-0.11122506	-0.04296499	-0.06613166	0.003876768	-0.21976598	0.008138708	0.08725676
DB01367	0.08109659	0.017410122	0.0843261	0.0099064335	-0.11219008	-0.037187636	-0.18716411	-0.15121214	-0.12141633	-0.056608386	0.09945947	-0.14031163	0.1902115	-0.06265738	-0.19476543	0.022921378	-0.14138724	-0.09355457	0.08142437	-0.058800593	0.12394388	-0.098530985	-0.03769329	-0.11676511	-0.17013906	0.0807387	0.19065763	-0.021792382	0.19695078	-0.06323803	0.051949646	0.13239358	0.0008680873	-0.033605315	-0.12765688	0.1483534	0.034126207	0.02913176	-0.13791336	0.008305715	-0.11474116	0.027928986	-0.0013808943	-0.17815106	-0.023479842	-0.09737082	0.11102328	-0.16094853	-0.15367556	0.13174325
DB01366	0.08025062	0.038209926	0.102530256	0.0042072553	-0.0834583	0.01895526	-0.18885462	-0.12250297	-0.15986605	-0.059064575	0.10868355	-0.043580938	0.18166538	-0.04285933	-0.21560776	0.0758989	-0.07754995	-0.060641065	0.078134954	-0.08776456	0.12442364	-0.06062068	-0.033765778	-0.110888265	-0.1088974	0.0690887	0.19524816	-0.03999484	0.21076494	-0.10815522	0.07733213	0.16487604	-0.038633037	-0.10413634	-0.11790681	0.10910505	0.044262465	0.03800302	-0.1066397	0.036582097	-0.0227105	0.02087119	-0.03337186	-0.035739828	-0.012683816	-0.06570503	0.10749874	-0.06802904	-0.09300262	0.11355522
DB01365	0.11345824	0.017997127	0.10703601	0.048457198	-0.11589802	0.045554765	-0.1776053	-0.096151024	-0.17106432	-0.041118193	0.05984899	-0.05466371	0.17840746	-0.068250135	-0.18144937	0.004306091	-0.10905051	-0.08931593	0.0975877	-0.103661664	0.120447755	-0.09661485	-0.0024453308	-0.12805526	-0.101127714	0.0497295	0.19564362	-0.053263403	0.20657896	-0.12830278	0.0511022	0.09096874	-0.014278004	-0.0155509785	-0.1343658	0.15028165	0.053578205	-0.0020747269	-0.11875593	0.025401771	-0.061462864	0.00941721	-0.047137056	-0.16918145	-0.025796898	-0.052632175	0.115156844	-0.13056225	-0.099096484	0.14015591
DB01364	0.06505893	0.022050608	0.08487616	-0.019665755	-0.09238175	-0.04080233	-0.18092416	-0.10409535	-0.18506555	-0.025351033	0.1395921	-0.151494	0.20732601	-0.045736246	-0.24026677	0.017337698	-0.16040136	-0.08096404	0.10141354	-0.07286014	0.067874044	-0.11073225	-0.014939902	-0.12982963	-0.1302281	0.158444	0.2262832	-0.03462351	0.19953798	-0.0766889	0.034774236	0.19488119	-0.049287826	-0.049525015	-0.12694566	0.14275128	0.05622046	0.023687147	-0.12474327	0.013269018	-0.11348883	0.005571248	-0.008845409	-0.1742311	-0.022922898	-0.06972536	0.12496331	-0.027257755	-0.13704385	0.14184698
DB01012	0.054266494	0.014497498	0.057366543	0.027478792	-0.11148496	-0.05076091	-0.19168058	-0.13924581	-0.11934511	-0.053800296	0.14898728	-0.16026103	0.19255666	-0.06272823	-0.19953562	0.03718867	-0.12550606	-0.08131133	0.057469036	-0.12085536	0.10169409	-0.12416737	-0.02348781	-0.1222755	-0.0998229	0.08262645	0.20126936	-0.044650048	0.20458692	-0.071233466	0.054297727	0.13803746	-0.0322157	-0.031133821	-0.13451333	0.16330765	0.054135807	0.002534056	-0.16310745	0.017952539	-0.12493476	0.00067447755	0.004470473	-0.17354108	0.0015096487	-0.10893368	0.0932991	-0.15951493	-0.13090351	0.13306427
DB01369	0.112916514	0.04118323	0.04864977	-0.042599663	-0.08819625	-0.042507228	-0.20046526	-0.07070877	-0.15096062	-0.062859744	0.14953685	-0.13228637	0.2322732	-0.017331347	-0.19297172	0.12839442	-0.074499995	-0.17998116	0.044884667	-0.11314781	0.12790674	-0.09041413	-0.038859945	-0.09234178	-0.065001644	0.16251817	0.18488573	-0.018505236	0.24948503	-0.10455808	0.063190475	0.11965755	-0.046524383	-0.11195164	-0.10695229	0.14161676	-0.044803377	0.010679636	-0.0827949	0.02597867	0.018827744	0.048821524	-0.04214723	-0.19380061	-0.0015822799	-0.06482064	0.055945087	-0.086698845	-0.11784652	0.112664595
DB08439	0.05437385	0.052162167	0.019140014	-0.055717807	-0.10210091	-0.015193215	-0.18947285	-0.06088417	-0.13234976	0.012610866	0.029231528	-0.062301043	0.17885536	-0.071076885	-0.11924516	0.055895235	-0.035809923	-0.09108727	0.038043313	-0.054588854	0.10753348	-0.13260968	-0.07098952	-0.030950082	-0.06824256	0.18305022	0.12553431	0.1463447	0.19552606	-0.09408344	0.11392546	0.12710813	-0.050177377	-0.109093085	-0.101014525	0.03855938	-0.08320778	-0.0044926247	-0.18912348	-0.03961047	-0.04860387	0.074201524	-0.07365525	-0.15258574	-0.040702634	-0.04321836	0.021134475	-0.10777456	0.029762415	0.1293083
DB00108	0.0755606	0.02442181	0.030899545	0.001087485	-0.07897155	-0.031603664	-0.15044867	-0.11574953	-0.21293218	-0.039328735	0.10096244	-0.12301274	0.2190828	-0.0352023	-0.14746931	0.15884624	-0.07964618	-0.09505373	-0.035677537	-0.061058536	0.06263733	-0.09932344	-0.029745948	-0.057105146	-0.18289588	0.14060387	0.17896783	-0.10092971	0.16523483	-0.01028567	-0.0023538838	0.024757633	-0.05034737	-0.09558206	-0.12417106	0.08461586	0.12461062	0.03305065	-0.12742771	0.051545005	-0.10336357	-0.011830996	0.08073453	-0.115359135	0.033119738	-0.025815748	0.07096782	-0.10519372	-0.120735005	0.13441451
DB01109	0.03945715	0.06784956	0.07130065	0.035370737	-0.10224088	0.0032847226	-0.15034294	-0.1522048	-0.207682	0.029197725	0.032255422	-0.15171762	0.16297632	-0.08443977	-0.19441275	0.032641955	-0.15724193	-0.10896546	0.016014725	-0.116121694	0.07493264	-0.06793946	-0.010057006	-0.12707157	-0.13581733	0.16272923	0.19844215	-0.006694449	0.19122292	0.00044538663	0.012951745	0.2344538	-0.09275933	-0.032603685	-0.1474629	0.1627894	0.044236414	-0.0033471445	-0.17972043	0.028614374	-0.12528637	0.018266512	0.06214075	-0.15728576	-0.032458078	-0.020995831	0.11428439	-0.04556116	-0.16357322	0.11128553
DB01108	0.109777585	0.0075818524	0.082732335	0.00396993	-0.08436406	-0.056103606	-0.19475219	-0.048107136	-0.14405519	-0.0721529	0.14509155	-0.085786425	0.22358671	-0.058296885	-0.16000204	0.10713204	-0.0776177	-0.062669516	0.019067567	-0.06441216	0.14830193	-0.121912986	-0.051616784	-0.11596659	-0.0896048	0.16149911	0.18280804	-0.035492465	0.20883857	-0.10227215	0.028049339	0.09288642	-0.022473471	-0.07133228	-0.11405046	0.1155393	0.03922645	0.054786727	-0.091440424	0.020460961	-0.014070492	0.008461488	0.0044563357	-0.07247887	-0.0043805335	-0.092431374	0.05792961	-0.13016321	-0.12979944	0.1379719
DB01103	0.10373792	0.0069063995	0.083626	0.010143502	-0.1056124	-0.034308586	-0.18505214	-0.14596593	-0.1514381	-0.059740324	0.087015115	-0.14580618	0.22316368	-0.06421408	-0.18998088	0.110568	-0.09178129	-0.12977326	0.061140284	-0.07493786	0.14858654	-0.118894905	-0.07460731	-0.11423592	-0.15943366	0.20455705	0.19913816	-0.008228455	0.22361724	-0.07626727	0.08142076	0.10778943	-0.023002444	-0.008438794	-0.06114904	0.1390932	0.033664238	0.00041294482	-0.1629334	0.013142688	0.005153414	0.013749659	0.0014354439	-0.1991044	-0.0016031285	-0.093616165	0.06634666	-0.077510424	-0.13569438	0.13950376
DB01102	0.10985149	0.031111037	0.09386486	-0.034713354	-0.09369407	-0.054174926	-0.18087721	-0.0664852	-0.14860679	-0.083984464	0.066198446	0.016960658	0.18991931	-0.021713901	-0.18350562	0.10381718	-0.13818666	-0.058293406	0.05727654	-0.09437799	0.107052356	-0.08969271	-0.036380567	-0.04840439	-0.11567949	0.04087452	0.16865695	-0.044893615	0.1953792	-0.103895456	0.028729947	0.05802579	-0.039393757	-0.113962	-0.1186306	0.09701169	0.056802638	0.04051787	-0.15271969	0.02842327	-0.04098687	0.03651893	-0.022233125	-0.054731727	-0.023844257	-0.084875114	0.05357709	-0.09822673	-0.097597346	0.13976394
DB01101	0.09052295	0.016765328	0.09336266	-0.010622195	-0.12503813	-0.025719717	-0.18592897	-0.14641993	-0.11740202	-0.05586701	0.14731061	-0.16429365	0.21350868	-0.032874413	-0.19939114	0.11450068	-0.115725875	-0.15858561	0.037363965	-0.097240135	0.13251098	-0.086544596	-0.044920087	-0.093859896	-0.123649	0.20378509	0.21142259	0.015667178	0.24127549	-0.093592	0.038878255	0.17917891	-0.026874924	-0.106662996	-0.10080238	0.14840336	0.05266489	0.019381102	-0.16120051	0.01819218	-0.082437076	0.019786783	-0.031608798	-0.18033268	-0.007161664	-0.12878744	0.06940833	-0.12371524	-0.14327253	0.18464349
