Drug	feature0	feature1	feature2	feature3	feature4	feature5	feature6	feature7	feature8	feature9	feature10	feature11	feature12	feature13	feature14	feature15	feature16	feature17	feature18	feature19	feature20	feature21	feature22	feature23	feature24	feature25	feature26	feature27	feature28	feature29	feature30	feature31	feature32	feature33	feature34	feature35	feature36	feature37	feature38	feature39	feature40	feature41	feature42	feature43	feature44	feature45	feature46	feature47	feature48	feature49	feature50	feature51	feature52	feature53	feature54	feature55	feature56	feature57	feature58	feature59	feature60	feature61	feature62	feature63	feature64	feature65	feature66	feature67	feature68	feature69	feature70	feature71	feature72	feature73	feature74	feature75	feature76	feature77	feature78	feature79	feature80	feature81	feature82	feature83	feature84	feature85	feature86	feature87	feature88	feature89	feature90	feature91	feature92	feature93	feature94	feature95	feature96	feature97	feature98	feature99
DB00742	0.019839808	0.06984172	0.031313926	-0.06567602	0.036575347	0.09892962	0.0641188	-0.0398882	0.033733442	-0.12360585	-0.08329629	0.040583506	-0.019870276	-0.1243342	0.06678553	0.07571301	-0.05230889	-0.021652855	0.153145	-0.06456907	-0.07522383	0.17764327	-0.07946734	-0.089506954	0.06600072	0.08944313	-0.057911206	-0.027494125	-0.068196855	0.061580066	0.107922375	-0.022683842	0.12611698	-0.08157618	-0.037912853	0.017298099	0.11416455	-0.11153668	-0.051669244	0.003034742	0.056610495	0.04250032	0.10861086	0.00041450583	0.002568569	-0.03729666	0.0011113432	0.0026390143	-0.03835758	-0.0041644126	-0.041027155	0.00986599	-0.062377777	0.049156554	0.02367976	0.09412765	0.12409513	0.050096203	0.031735826	-0.0470232	-0.11368309	-0.023388926	-0.03028488	0.007653985	-0.013749208	0.084340736	-0.008384764	0.13179247	-0.041774347	0.07312901	-0.0030749305	0.032774102	-0.041652933	-0.04349812	0.089078635	0.091784015	-0.019272443	0.08880155	0.020461394	-0.11217885	0.0911898	-0.113090165	-0.076491944	0.056352686	-0.029966183	0.0021499489	-0.03598418	0.12811053	-0.048481725	-0.010672472	-0.078127064	-0.091862656	-0.019580401	0.016031628	-0.040226366	-0.04484439	-0.004843501	0.021889437	-0.02305462	-0.14974937
DB05107	-0.006697459	0.04024004	0.04758789	-0.012043161	0.047342442	0.092864275	-0.009090751	-0.026734738	0.021614857	-0.07627706	-0.0062941164	0.012523027	0.037400622	-0.08145537	-0.018164791	0.04439048	-0.005731616	0.021144973	0.1017227	-0.06511898	-0.028345915	0.105121516	0.0032036486	-0.07944269	0.0714351	0.116458975	0.016458048	-0.051866274	-0.013828646	0.048983816	0.0542993	-0.0036386405	0.096125446	-0.056709386	0.012849659	0.02406137	0.09013337	-0.07555118	-0.05050525	-0.036841087	0.04026053	-0.02687936	0.07209362	0.03528813	-0.039351773	-0.067819424	-0.0028478461	0.04215942	-0.08812437	-0.058687754	-0.014822027	-0.008197464	-0.021339789	0.076899916	0.027240792	0.033053588	0.07181085	0.022684708	0.048625365	-0.06941178	-0.063632645	-0.009114848	0.0033175442	0.040917333	-0.005504811	-0.0004682762	0.049207926	0.08825876	-0.002686075	0.03492045	0.032767512	-0.029658364	-0.053806555	-0.016699346	0.050429277	0.04599993	-0.014965728	0.008921528	0.067925386	-0.08615488	0.06736722	-0.09635113	-0.047528002	-0.017537102	-0.048402343	0.060549118	0.033017457	0.073825896	-0.08657406	0.036766957	-0.0706316	-0.01825116	-0.009097736	0.013305925	0.019669566	-0.051524147	0.0023891614	0.035379063	-0.058468554	-0.0697684
DB00743	-0.0042295894	0.07455152	0.054820947	-0.038241588	0.017147738	0.11973144	0.06431725	-0.018272469	0.018194951	-0.068400376	-0.06721269	0.00042119646	-0.027079822	-0.064236864	0.08543629	0.0138863325	0.0050289007	-0.048236787	0.14559036	-0.029802285	-0.06714327	0.11911899	-0.077744976	-0.08699	0.08986654	0.09896347	-0.03704494	0.029101688	-0.058341775	0.06575	0.063004464	0.00133172	0.06207421	-0.06343604	-0.0147653	0.03369187	0.12405139	-0.07204085	-0.040495172	0.00265607	0.024644604	-0.010414288	0.10214442	-0.00869152	0.0011775354	-0.03503147	-0.021670604	-0.04115271	-0.04461761	-0.028318403	0.022013757	0.030888906	-0.056421835	0.061168	0.043216303	0.055268236	0.119892366	0.055383015	0.0328578	-0.045771997	-0.086661495	-0.04442075	-0.04985454	0.0323617	-0.00070605264	0.06302264	0.08053889	0.12640136	-0.06406821	0.08244804	0.0072351927	0.023673289	-0.064669326	0.034610577	-0.01012662	0.07042675	-0.024914162	0.0842024	0.03240495	-0.10031953	0.046551235	-0.11612485	-0.06715324	0.01714189	-0.023489803	0.0062747803	0.025285315	0.116035424	-0.05598886	0.0012300779	-0.07308852	-0.09132807	-0.0010980164	-0.046545178	-0.05000333	-0.05222819	0.0043623555	-0.004883487	-0.0064104367	-0.12598683
DB05101	-0.0007324519	0.02691896	0.02520472	-0.040519513	0.055620007	0.09313981	0.0033974126	-0.0141040515	-0.0067805443	-0.02557407	-0.059771422	0.016356034	-0.06541926	-0.019259892	0.015203463	0.019040786	-0.033902865	0.0019233675	0.060448397	-0.01230683	-0.0059085125	0.09862813	-0.0305148	-0.04043332	0.050957214	0.08270249	-0.010379478	-0.048196618	-0.0014003549	0.03156981	0.05381048	-0.0069084037	0.07867114	-0.02603494	0.014772771	-0.024748525	0.045666967	-0.022112526	0.00055518525	-0.060062688	0.033196338	0.01990201	0.02553673	0.032236498	-0.009755546	0.01923879	0.06346688	-0.013681615	-0.07025175	-0.012609918	-0.0064258813	0.017265428	-0.029321365	0.060805604	0.0139017515	0.048297055	0.05525925	0.05903648	-0.012017427	-0.016190093	-0.022693107	-0.038418222	0.013482735	0.044624753	-0.019605726	0.010273159	-0.023919938	0.019750915	-9.868038e-05	0.042989783	-0.06366298	0.035112992	-0.026551943	-0.039091676	0.008271381	0.03472016	-0.04487186	0.02823992	0.0065023713	-0.026208408	0.029735792	-0.072032705	-0.01820587	0.024081701	-0.043058094	0.015698586	0.026600985	0.05410638	-0.033919983	0.013577316	-0.040294778	0.0007008354	-0.042110715	0.025928	0.016060093	0.001369781	-0.053428277	0.019219166	-0.029191373	-0.04473595
DB05100	-0.03303802	0.04137682	0.026588922	-0.0065463614	0.058201097	0.0858866	-0.025792954	-0.013510894	0.050130185	-0.10399922	0.04133051	0.035185464	-0.044759814	-0.103535615	-0.016969766	0.06797741	-0.0690557	0.016273534	0.050408747	-0.020765642	-0.023329072	0.1593502	-0.040069632	-0.0645386	0.05003201	0.11017778	0.037428018	-0.049805686	-0.028481456	-0.016965514	0.081437856	0.0037138662	0.07400461	-0.08437001	0.01261897	0.010523913	0.076229215	-0.09272289	-0.057626043	-0.03874599	0.054550476	-0.0119734835	0.039104935	0.05659184	-0.025018962	-0.029935103	0.015587769	0.007090809	-0.09955016	-0.079452015	-0.018482117	0.002301936	-0.004190512	0.08381811	-0.005244389	0.08569708	0.09762323	0.033403173	0.048170853	-0.008087449	-0.03449616	0.004357675	0.007124397	0.004107628	-0.025055306	0.0524999	0.016576933	0.0869587	-0.0030325651	0.060714602	0.008695835	-0.0053181583	-0.04840464	-0.0010517935	0.03355376	0.080520116	-0.011049408	0.013809502	0.043655116	-0.10514766	0.04009291	-0.1197446	-0.041969314	0.051073123	-0.027214255	0.010079382	0.032121934	0.10630351	-0.04816701	0.0002738015	-0.020927219	-0.007340338	-0.066081226	-0.0048319194	0.026141716	-0.04380749	-0.017480101	0.008598676	-0.078160346	-0.0671533
DB09161	-0.007065084	0.033036727	0.014082715	0.025831897	0.039991464	0.08755301	0.00031056465	-0.018687053	0.0027474323	-0.08244213	-0.008594039	0.004214518	-0.042239614	-0.08904445	0.028372573	0.008987779	-0.0064867516	-0.004075694	0.120356336	-0.022544375	-0.02628328	0.108826675	-0.04436441	-0.0478752	0.014855444	0.103225574	-0.0250906	-0.04842221	-0.042273432	-0.013755017	0.055494793	0.017841196	0.09573405	-0.087624796	-0.0382104	0.047385145	0.10697748	-0.049443997	-0.019469336	-0.019776352	0.027323343	-0.043600697	0.061849516	0.055292547	-0.06363645	-0.02404343	0.0058047	0.0025608689	-0.06879192	-0.039629035	-0.06884094	0.0302699	0.0041190567	0.019678567	-0.022128649	0.023168487	0.13843393	-0.012241244	0.008420773	-0.050456095	-0.04051249	0.030135643	-0.026989078	0.02214758	-0.0018160205	0.02316043	-0.014870845	0.0918056	-0.004596716	0.03368593	0.030137777	-0.023064354	-0.0026048366	-0.017105294	0.008208918	0.0780547	0.025825737	0.02395776	0.03333835	-0.03843096	0.05632556	-0.07130026	-0.07992455	0.042017505	-0.00067674345	0.012358164	-0.024425557	0.09878958	-0.028480629	0.010717081	-0.06317162	-0.030590484	-0.018984275	-0.0062290244	-0.023426283	-0.03960535	0.023749225	0.040390372	-0.0121588055	-0.09936808
DB09162	-0.0035982635	0.05311413	-0.00025948486	0.020998064	0.039592005	0.0605437	0.046496276	-0.010768576	0.031833	-0.0035717785	-0.046964183	0.00063451915	-0.05761074	-0.06953262	0.044498105	-0.018280644	0.0033265017	-0.010946687	0.115916125	0.016848624	-0.028499616	0.15660739	-0.04454696	-0.042538136	0.02968026	0.044940785	-0.0066474658	0.00560339	-0.044571806	0.027537838	0.06772547	-0.010552604	0.012250895	-0.05831446	-0.0055721095	0.00459262	0.04318508	-0.017549843	-0.048424874	-0.00773637	0.029755197	0.02578127	0.050487716	0.0442203	-0.030285588	0.009632511	0.058429528	-0.020974418	-0.08140624	-0.031623907	-0.025006557	-0.0005522284	-0.046022348	0.000101259095	-0.028024394	0.04246258	0.10079323	0.026679663	-0.016542468	-0.016634377	-0.03999048	0.010913635	-0.017407686	0.017747726	-0.005793933	0.051790494	-0.052242883	0.03652104	-0.028132368	0.01691535	-0.01287479	-0.0033837305	0.034199823	0.012694206	0.038638424	0.057023853	-0.005813323	0.013978155	-0.0024837498	-0.030800825	0.025629465	-0.032474205	-0.0423733	0.08848295	-0.033664845	0.02290825	-0.022356315	0.06852306	0.005233706	0.007761866	-0.016547555	0.008564366	-0.051842734	0.039348204	-0.010797072	-0.0037660943	-0.01130485	-0.007650108	0.026827198	-0.036240503
DB05109	-0.017719204	0.080483876	-0.011217381	-0.018569173	0.0329793	0.12386128	0.052680634	-0.041342027	0.031120414	-0.082953505	-0.015871003	0.04354025	-0.04468132	-0.06557284	0.0760333	0.08557298	-0.06076468	-0.011164056	0.12396301	-0.060136322	-0.026501836	0.14068024	-0.019575521	-0.068698995	0.08123886	0.09261724	-0.004867588	-0.0532419	-0.0065382514	-0.00044868106	0.09973427	-0.05245061	0.12653604	-0.09175143	0.025371008	1.8371036e-05	0.13207586	-0.10466666	-0.035952255	-0.06484062	0.05479535	0.041211642	0.071582176	0.03658753	0.016904892	-0.018062063	0.0020316332	0.019818187	-0.10236362	0.014400022	-0.06935924	-0.04899386	-0.050292905	0.0837081	0.010791296	0.087863855	0.09494915	0.0054612216	0.040914036	-0.068946175	-0.07503746	-0.036801185	0.00021674822	0.023557806	-0.010121884	0.07739751	0.06420682	0.11200109	-0.02371639	0.0829136	0.014796404	0.030325858	-0.061398245	0.014940949	0.012692411	0.07667184	-0.030170344	0.07856668	0.06567358	-0.10941678	0.041713335	-0.13816185	-0.078149244	0.004545341	-0.056528535	0.06535976	0.044642594	0.12726659	-0.0855514	-0.009529737	-0.07024233	-0.06574543	-0.0077489205	0.007889444	-0.020780707	0.025210056	-0.02406602	0.005346926	-0.016464666	-0.14686882
DB01319	-0.0035090651	0.06894398	0.014633743	0.016224982	0.060679704	0.09116573	0.058049235	-0.019998178	0.031702787	-0.068977684	-0.03565182	0.031278532	0.0065862034	-0.07143213	0.053709153	0.07532706	-0.058490176	-0.0074649854	0.14725743	-0.03795373	-0.027340613	0.17685322	-0.059803005	-0.09452017	0.0679161	0.1184889	-0.030217867	-0.049532432	-0.02203418	0.05251088	0.09226113	-0.019545568	0.10005318	-0.078572914	0.009505441	0.021032711	0.08808304	-0.07925028	-0.03973384	-0.03629658	0.045419082	0.02864684	0.08044499	0.037661072	-0.004944885	-0.03674689	0.013597965	-0.0063033416	-0.0762841	0.0046114507	-0.026306601	-0.039080475	-0.06471667	0.027935695	0.023881052	0.08427182	0.072320685	0.027446683	0.049790338	-0.06294625	-0.11993608	-0.0059550293	-0.023691371	0.022181483	0.0051641483	0.07423204	0.008591993	0.10981273	-0.025486153	0.078708865	0.024661234	0.03551164	-0.07147117	-0.049416013	0.0121167265	0.038919188	-0.007063037	0.10097195	0.03781428	-0.118408605	0.05578873	-0.108717285	-0.014822939	0.01999174	-0.038208835	-0.0015034056	0.037720166	0.11814411	-0.039723378	0.0031501707	-0.07448833	-0.037157748	-0.054283675	-0.0030341512	-0.013919717	0.00952883	-0.053026076	-0.0015145815	-0.011202255	-0.12731032
DB01178	-0.04230356	0.00652148	0.007083079	-0.05377723	0.009831648	0.13932832	0.057730682	-0.03054334	0.024613703	-0.09115483	-0.039170615	-0.013650786	-0.012492275	-0.080996454	0.026262494	0.04227382	-0.055348873	0.005177228	0.087068066	-0.067119434	-0.06261292	0.07204966	-0.047899123	-0.08199131	0.08769106	0.12537667	0.026586367	-0.023424292	-0.023990225	0.06476991	0.098521836	-0.044538226	0.12763111	-0.093817785	0.041370794	0.010183468	0.1343301	-0.12621798	-0.016241878	-0.06521419	0.05175384	0.016723303	0.06515866	-0.03177119	-0.0059876256	-0.013728812	-0.039938565	0.0071593653	-0.09142115	0.006663518	-0.0064521004	-0.019475907	-0.07012747	0.04692599	0.0030252691	0.08379815	0.08071093	-0.011830827	0.04891388	-0.09274107	-0.09485733	-0.035437237	0.0042842105	-0.014880123	-0.021665826	0.08087388	-0.0042075785	0.10630791	-0.05750179	0.09221399	-0.0008078037	0.012218023	-0.07572954	-0.006509492	-0.0059892936	0.08719152	-0.009169281	0.08256718	0.07480596	-0.072353415	0.089346915	-0.12093438	-0.05280544	0.060690336	-0.0543799	0.015003772	0.028033923	0.106574036	-0.057563197	-0.027005956	-0.0921546	-0.040545113	-0.0041709803	-0.03232852	0.015271464	0.01823717	-0.0039326455	0.0006044323	-0.023488872	-0.16575995
DB01179	0.013201404	0.012807323	0.017124796	-0.021577649	0.01677666	0.11323953	0.0640609	-0.022595694	0.018362096	-0.09142495	-0.051321484	0.032981165	-0.028035842	-0.08966251	0.08463747	0.07629154	-0.017417036	-0.012148501	0.11960894	-0.06500908	-0.061270297	0.176384	-0.059574742	-0.10730253	0.08798643	0.091785565	-0.048904996	0.0048468634	-0.05476945	0.0461646	0.11225297	-0.058859393	0.10542139	-0.08270257	-0.026456604	0.019448854	0.131855	-0.070142776	-0.01055599	-0.045175787	0.006332893	0.0071247034	0.06664025	0.03618722	0.013450606	-0.055861916	-0.01196566	0.0035455804	-0.06760295	-0.01155222	-0.03197276	-0.013558364	-0.053429186	0.046426635	0.025176825	0.08685538	0.111613624	0.0015794818	0.06688981	-0.082567	-0.111093506	-0.037942376	-0.017732624	0.023436867	0.00080125243	0.07461858	0.008340171	0.12709066	-0.04181379	0.07860182	0.02835855	0.038260624	-0.06468881	-0.0008188097	0.0226492	0.084120445	-0.0033381316	0.08416883	0.044379134	-0.11801371	0.09484505	-0.12774344	-0.037880544	0.07082534	-0.014599385	0.0053462237	0.0022434732	0.1357712	-0.062249076	-0.00968628	-0.06518685	-0.06813509	-0.026307413	-0.01542658	-0.055677067	-0.035276055	-0.026724393	-0.004385679	-0.016530035	-0.15392837
DB01176	-0.017002692	0.010941027	-0.0052231695	-0.038966183	0.045657624	0.13221055	0.050781436	-0.032431517	0.037130013	-0.09106641	-0.035750724	0.028123565	0.0014834736	-0.09090709	0.09245818	0.085928775	-0.02312438	-0.010378919	0.15484294	-0.080161445	-0.05013786	0.14507495	-0.041103527	-0.08940201	0.046700552	0.121170774	-0.017932316	-0.037213158	-0.054234494	0.044606123	0.09677475	-0.055569366	0.10953705	-0.08515824	-0.017165978	0.0141237695	0.108941026	-0.105290025	-0.003319744	-0.052332804	0.04616405	-0.003842662	0.07386642	0.014776031	0.031297237	-0.010610623	-0.03593729	-0.0009901855	-0.08412152	-0.022576297	-0.02957851	0.024115082	-0.057224393	0.05504675	-0.008232175	0.079131395	0.130716	-0.010972159	0.047960415	-0.10169725	-0.13445386	-0.038381383	-0.02903534	0.006603162	0.003099735	0.068226635	-0.0045760805	0.12683694	-0.060684115	0.08219789	0.02201777	0.030685375	-0.09781729	0.0077617317	0.0066677677	0.071253814	-0.030762011	0.07901622	0.08419189	-0.13062136	0.090162866	-0.110649206	-0.05770621	0.08980745	-0.041627854	0.008193223	-0.021298606	0.10212735	-0.0433652	-0.015629694	-0.04004942	-0.05455733	-0.014845369	0.011081685	-0.03799644	-0.025943488	-0.00047349627	0.0031929314	-0.010447009	-0.12853307
DB01177	-0.01466077	0.05179863	0.010284925	-0.050305523	0.026752932	0.11912657	0.040419668	-0.0046532433	0.020731164	-0.09678649	-0.050679613	-0.0038700616	-0.026452808	-0.10082565	0.09456927	0.0907202	-0.022178918	0.007273091	0.14070341	-0.07453448	-0.040928334	0.14965723	-0.024135027	-0.09488734	0.07425325	0.12045655	-0.036963772	-0.050886896	-0.05169976	0.03533729	0.11527207	-0.066866174	0.11935766	-0.08250309	-0.0020125746	0.014989551	0.121291555	-0.09988033	-0.021069342	-0.04341188	0.03378085	0.0009492391	0.061650757	0.026424559	0.029265191	-0.044387233	-0.026005283	-0.010139719	-0.0860325	-0.022388367	-0.039284162	-0.0032337308	-0.05212939	0.050101172	0.0047074202	0.07999583	0.12147878	0.011845712	0.06106967	-0.09767997	-0.12050635	-0.031044373	-0.0247539	0.008280968	-0.0061677145	0.09314088	0.0664441	0.124740615	-0.043660533	0.05997994	0.018057613	0.035630934	-0.049517337	-0.036168166	0.017816227	0.06137324	-0.026423847	0.06223006	0.06253799	-0.112509295	0.09655406	-0.119639575	-0.057933975	0.078396715	-0.05095521	0.04663337	-0.006232271	0.11610014	-0.05546675	-0.0361	-0.05421484	-0.0333218	-0.020618234	0.041856747	-0.05083564	-0.03778034	-0.012482053	0.0061795805	-0.042477924	-0.1422153
DB01174	0.012058958	0.083453186	0.019063095	-0.033748407	0.024493357	0.12925507	0.08270197	-0.084686935	0.007566076	-0.1046141	-0.08091654	0.034642547	-0.028507637	-0.12691566	0.12067084	0.08124541	-0.041454796	-0.0364572	0.15383154	-0.06774409	-0.052459363	0.18624176	-0.06336697	-0.08085818	0.069212355	0.0965851	-0.09336654	-0.041592855	-0.07186204	-0.011457447	0.13127083	-0.061177246	0.12832992	-0.0911989	-0.0066744424	0.053174093	0.13836221	-0.086406715	0.030931795	-0.037830986	0.043477055	0.040112957	0.102437556	0.005829932	0.016175728	-0.06967088	-0.030230094	0.0004317679	-0.037212323	-0.020760102	-0.037619114	-0.0030132947	-0.06600805	0.049970042	0.04330036	0.08689006	0.13510953	0.055007882	0.037434496	-0.0825179	-0.13275893	-0.05263512	-0.0097762495	0.04682474	0.03706856	0.10155197	0.06764857	0.11058792	-0.04185647	0.111258276	-0.00736936	0.030324807	-0.040123366	-0.014106229	-0.024475569	0.087097906	-0.024904767	0.08026181	0.048265602	-0.119872615	0.0919611	-0.12595826	-0.06526154	0.060847744	-0.04279071	0.0024100766	0.013100227	0.1386875	-0.050902046	0.0036178292	-0.034883484	-0.057311192	-0.035499774	0.015217423	-0.06778546	-0.0171089	-0.031237682	-0.011708617	-0.009865016	-0.16018096
DB01175	-0.02121646	0.075931996	0.035920855	-0.030910684	0.030254612	0.12261102	0.06300182	-0.030227106	-0.024452819	-0.11530151	-0.04097868	0.04275962	-0.037223816	-0.10647731	0.12403709	0.081193864	-0.050319277	-0.01823382	0.14837901	-0.035565596	-0.061530564	0.17669314	-0.07030313	-0.09931939	0.081206106	0.11142646	-0.063961096	-0.036121547	-0.043859217	-0.010112677	0.1027915	-0.026189666	0.124135286	-0.08909965	-0.016875638	0.015823243	0.12545298	-0.10026798	-0.029400337	-0.01923438	0.065619245	0.041650776	0.0985534	0.01697238	0.03858685	-0.07293957	0.0015009606	0.0010174118	-0.04202315	-0.05932276	-0.04689629	0.020021804	-0.07078066	0.04945089	0.036555786	0.08547471	0.09865247	0.018105093	0.023695994	-0.074363895	-0.119710684	-0.0180964	-0.014908249	0.0088512935	-0.018721942	0.10522708	0.0142943915	0.13636376	-0.04538609	0.0949257	-0.007654367	0.038167726	-0.055760104	-0.015397985	0.015963035	0.090285935	-0.027176974	0.10337391	0.036443066	-0.11960566	0.06982552	-0.11918304	-0.09758049	0.04504195	-0.015040027	0.017408669	0.026119348	0.1332404	-0.048889223	-0.010030807	-0.013659973	-0.089407355	-0.008315032	0.008313114	-0.041890778	-0.0059426185	-0.038246475	0.017606344	-0.024729548	-0.13371097
DB01172	-0.019061306	0.04565761	0.010155326	-0.051892336	0.05774256	0.12699169	0.05135238	-0.03952523	0.02360472	-0.10759363	-0.0153492205	0.013957176	-0.0018298608	-0.08727174	0.08331503	0.0823509	-0.06600241	0.0009765663	0.1309306	-0.08248356	-0.055662654	0.1413001	-0.054606505	-0.076636516	0.08165126	0.12326513	-0.011979483	-0.02487311	-0.036126018	0.055194113	0.10859305	-0.0263628	0.10869752	-0.09474635	-0.019292612	0.034608383	0.14651449	-0.109532095	-0.0170448	-0.0697318	0.03382808	-0.012662681	0.09943132	0.010198036	0.03700198	-0.07507512	-0.04006783	0.01480188	-0.039316192	-0.018052517	-0.0065893373	-0.03248795	-0.056597084	0.054932777	0.044242088	0.07744528	0.09216779	0.00756415	0.06924994	-0.09709371	-0.09860542	-0.029175675	0.05051991	0.0015432705	-0.02582672	0.084334634	0.06610776	0.1234727	-0.06059636	0.07295586	0.014372302	0.026735729	-0.061584648	0.014487082	0.010217544	0.073395595	-0.026999367	0.040672436	0.06731603	-0.12110405	0.08606002	-0.12945709	-0.01733648	0.03650972	-0.031787105	0.030853434	0.028149147	0.101426035	-0.055522796	-0.0038413918	-0.07134525	-0.039872095	-0.0025934307	-0.009495696	-0.02851207	0.0153403785	-0.021458209	0.0057343617	-0.029399257	-0.15654118
DB01173	-0.016420037	0.029751875	0.023510944	-0.05931396	0.044957206	0.09531869	0.063642785	-0.08856795	0.02397925	-0.09136345	-0.100142404	0.02217213	0.03896278	-0.1261255	0.120914586	0.08531125	-0.043408375	-0.02633297	0.1427022	-0.0660691	-0.06556908	0.18172729	-0.07026631	-0.11419406	0.06215522	0.111168995	-0.060379107	-0.039040975	-0.09851818	0.05485566	0.112641305	-0.041346837	0.104215115	-0.084662825	-0.03525715	0.009147479	0.11736446	-0.07969711	0.0065857666	-0.039689988	0.03013016	-0.015955612	0.0966514	0.004948387	0.015952796	-0.06268042	-0.0012207996	1.4622929e-05	-0.06497461	-0.02866899	-0.07301318	0.023156548	-0.054225046	0.038176782	0.026883582	0.089784116	0.13271777	0.04787454	0.045412976	-0.09186406	-0.1302369	-0.025032314	-0.034250967	0.025624078	0.016382897	0.08439436	0.05092513	0.12883933	-0.05785166	0.08204123	-0.020168386	0.032692477	-0.0430915	0.0033587753	0.0009683246	0.08450671	-0.012833601	0.08546101	0.037817843	-0.13258648	0.100580804	-0.107008986	-0.068724684	0.07047301	-0.03597495	-0.0101400325	0.023062317	0.14866704	-0.048481908	0.0238702	-0.013422694	-0.07857826	-0.0020896122	0.034484718	-0.06350204	-0.038198892	-0.045429524	-0.00028336572	-0.012538319	-0.14144863
DB01170	-0.024113059	0.02568651	0.0058842152	-0.028159153	0.029059941	0.10800683	0.03404944	-0.012704676	0.0057634674	-0.09406663	-0.054518886	0.034699764	-0.013273235	-0.08292209	0.080198	0.016600324	-0.005957769	-0.011061002	0.13696966	-0.034836248	-0.07063638	0.16556181	-0.051419962	-0.08247598	0.070730664	0.110950164	-0.056501385	0.009628754	-0.05688466	0.051792394	0.099757515	-0.057323758	0.10564579	-0.084339045	-0.024445375	0.02487144	0.13101217	-0.100290835	-0.01576519	-0.04065383	0.031706087	0.014908437	0.08456034	0.018657962	0.027852414	-0.061930608	-0.028126601	-0.004183665	-0.059226483	-0.014600331	0.007149972	0.029832974	-0.06110897	0.054800108	0.01639036	0.07047108	0.0992454	0.002608147	0.03229344	-0.09378775	-0.114023864	-0.04860781	-0.02042392	-0.00673185	-0.009018596	0.07159871	-0.0021010097	0.089836806	-0.056388766	0.08274495	0.012012426	0.03419012	-0.07325177	0.008363442	0.012030384	0.089568086	-0.025714952	0.07781112	0.03832945	-0.10728286	0.061470523	-0.116218396	-0.07085907	0.07714694	-0.06261056	0.018055107	-0.00732675	0.12998922	-0.05235668	-0.009620601	-0.026411267	-0.05564102	-0.04270822	0.0047555706	-0.05239143	-0.05206893	-0.029421195	0.011506546	-0.019110989	-0.12832859
DB01171	-0.03539442	0.056098696	0.0065405574	-0.039660174	0.047151104	0.12896268	0.044425488	-0.009110844	0.025742922	-0.115211464	-0.05530578	0.034344763	-0.03867042	-0.090504825	0.11265945	0.08695915	-0.01797606	-0.026959604	0.1370709	-0.05385082	-0.056927398	0.17556655	-0.045622114	-0.064464726	0.07315635	0.13278152	-0.084631056	-0.056429967	-0.042252142	-0.015822086	0.12518246	-0.078224994	0.12404813	-0.10342995	0.032931004	0.0018110737	0.12842523	-0.108620755	-0.030418491	-0.05336523	0.050678767	-0.00939074	0.09228174	-0.0045119133	0.020016763	-0.061842162	-0.005412558	-0.005209547	-0.09331371	-0.019059887	-0.063955955	0.010649333	-0.06911642	0.0381014	0.028065052	0.08020912	0.1250471	0.01351472	0.055613946	-0.10514621	-0.09448427	-0.051824782	-0.019095544	-0.008979505	-0.01642202	0.111810245	0.062470067	0.12563212	-0.03493151	0.0921022	0.0304149	-0.028279131	-0.062323906	0.00081557524	-0.011546491	0.07751407	-0.046802506	0.08530298	0.04936184	-0.12405899	0.09390193	-0.16636325	-0.06225731	0.058258023	-0.044449013	0.015165741	0.022642257	0.12528457	-0.058108512	0.006235821	-0.017032089	-0.084017314	-0.039446138	-0.028092857	-0.02125461	-0.046567056	-0.03487665	0.021346286	-0.004611659	-0.14051215
DB01489	-0.0057096183	0.04669354	0.01212069	0.024501104	0.025021395	0.121511966	-0.005517913	-0.010781666	0.04524656	-0.03341198	-0.034018025	0.03340863	-0.047375564	-0.10270407	-0.0099493135	0.006115373	-0.057100043	-0.005485601	0.09147047	-0.06269713	-0.05401143	0.12514606	-0.049308773	-0.07269693	0.06126818	0.105993174	0.02353989	-0.0030932352	-0.013937414	-0.008074672	0.032700475	-0.021113584	0.07869538	-0.055704083	-0.016601184	0.031042175	0.08547305	-0.07424222	-0.04005297	-0.050069798	0.039098877	0.012337042	0.08150493	0.0033035595	-0.027420145	-0.02286644	-0.021186683	-0.006886366	-0.08347459	-0.013019146	-0.026732383	-0.04805189	0.0049194763	0.05104363	-0.002913585	0.031946503	0.0983305	0.021688145	0.018814435	-0.07116221	-0.037297167	0.018175866	-0.017465817	0.04611976	-0.037800882	0.050234403	-0.014189756	0.075192094	-0.03804499	0.08369508	-0.00282301	0.033558067	-0.06279331	-0.0018947776	0.014322305	0.09280378	0.026843207	0.039160334	0.038185664	-0.086175375	0.050614998	-0.1058073	-0.005136704	0.057695117	-0.0517871	0.05607305	0.025288532	0.08346265	-0.033878513	0.00060288806	-0.009570707	-0.023835309	-0.04731769	-0.012380198	0.016219478	0.0010618485	0.0033219135	0.010575557	-0.0068453476	-0.11038935
DB01484	-0.00232438	0.02335969	0.06327543	0.029880542	0.057363756	0.073547415	-0.02166068	-0.09155954	0.0066894908	-0.077359706	0.03042482	-0.013829997	0.032286774	-0.09229979	0.003950407	0.071742766	-0.04444974	0.008558499	0.09979238	-0.029935282	-0.032112904	0.17404872	-0.012068756	-0.07193395	0.030917889	0.11036582	0.013161743	0.013702795	0.0066218814	-0.00597454	0.02211111	0.032670442	0.08573107	-0.0113174245	-0.044823308	0.0062846486	0.070017606	-0.048518337	-0.04167226	-0.076019295	0.047853556	-0.010866989	0.06380208	0.035540827	-0.07570754	-0.068740115	-0.0066879	0.05130235	-0.092791855	-0.057452776	-0.008535184	-0.018776556	0.013068591	0.04616684	-0.010902509	0.07527159	0.058816217	0.01885805	0.016664205	-0.019609064	-0.05796058	0.005382911	0.057066835	0.025045678	0.0044515408	0.04060007	0.0100361295	0.0644477	-0.0076704267	0.08218237	0.03133995	0.038599283	-0.048083313	-0.04869162	0.048290752	0.08009158	0.002200983	0.017891794	0.064917386	-0.0380818	0.041113738	-0.060456846	-0.0144411605	0.038439862	-0.058894336	0.05732134	-0.026478766	0.10126437	-0.09322001	-0.0018276992	-0.0023499932	-0.029340185	-0.051803254	-0.028647324	-0.0005710807	-0.040287714	0.025625043	0.011404004	-0.08845305	-0.079415046
DB01483	-0.006158948	0.021921108	0.06873841	-0.014422126	0.07601862	0.123710215	0.052535776	-0.08548381	0.019653913	-0.014139466	-0.09155445	0.038083926	0.03419462	-0.107189424	0.029758774	0.06228074	-0.043680537	0.040120885	0.10184474	-0.07066718	-0.041862734	0.114486456	-0.06511645	-0.09058838	0.049328595	0.13188346	0.027793687	-0.006450439	-0.02553032	0.05973119	0.086755864	-0.030455632	0.0814607	-0.0869022	0.008446887	0.017370474	0.054844245	-0.0211344	-0.013369903	-0.085841045	0.048344225	0.043398913	0.052668903	-0.004992415	-0.007566195	-0.022869026	-0.0061757136	0.064493805	-0.035231277	0.060362976	0.0057708872	0.0039086975	-0.03982187	0.036477942	0.036833584	0.009965602	0.09078652	-0.03267339	0.0069459025	-0.07269129	-0.117133334	-0.03627306	0.0465128	0.021234952	0.007306488	0.013227051	0.07666952	0.08734589	-0.02714658	0.0844594	-0.03461316	0.040048707	-0.0755441	-0.03261145	0.00016768114	0.04509651	0.0031090109	0.12000328	0.03128723	-0.09402547	0.068364695	-0.09380458	-0.065214224	-0.044801798	-0.028199881	0.018449778	-0.028327344	0.09346493	-0.047653336	-0.011303861	-0.081117764	-0.04566865	-0.0023900624	-0.0050365906	-0.0009807172	0.017141877	-0.0018576576	0.00024397881	-0.04433276	-0.13836725
DB00741	0.0018813416	0.09593437	0.037530873	-0.03063936	0.030048616	0.12219587	0.08658989	-0.102771156	0.016790988	-0.122456595	-0.07052059	0.041018836	-0.022570588	-0.13351223	0.14468928	0.023403402	-0.053506773	-0.028643759	0.14550583	-0.058937654	-0.058573708	0.17622125	-0.053072907	-0.08304315	0.05253563	0.104837656	-0.14283888	-0.031226302	-0.07611269	-0.010846229	0.12571107	-0.046204414	0.11591144	-0.088048466	-0.0063268486	0.050759334	0.14835858	-0.073680446	-0.009186132	-0.007972613	0.07526888	0.034761634	0.11596461	0.012997152	0.022373399	-0.08091021	0.015690789	-0.030283866	-0.05865997	-0.06593389	-0.054377396	0.022693159	-0.06518369	0.03684123	0.032574043	0.11327972	0.13356246	0.03531178	0.015640013	-0.09196968	-0.14354214	-0.013090193	-0.03295623	-0.0024942937	0.057974447	0.12741873	0.08977641	0.13537039	-0.027613841	0.07553143	0.011727467	0.044211224	-0.060032103	-0.06063859	0.016689086	0.087768935	-0.033166483	0.0835985	0.038334176	-0.13157067	0.10890078	-0.11804174	-0.08724204	0.069023706	-0.014272831	0.0017577211	-0.023065476	0.16880377	-0.052400995	-0.026991257	-0.0012143945	-0.073721714	-0.037728556	0.01986469	-0.04405739	-0.10088397	-0.037954297	0.015878996	0.010057084	-0.15633221
DB01002	-0.015061401	0.035254564	0.039909646	-0.03343653	0.02899476	0.1378528	0.05667332	-0.010977792	0.01922769	-0.09444629	-0.056136634	0.037074104	0.0331962	-0.05754063	0.08901341	0.08319655	-0.061911542	-0.029418316	0.15309988	-0.061532978	-0.0500965	0.17857838	-0.06367322	-0.08667418	0.09748808	0.11693754	-0.009093612	-0.012714101	-0.0435631	0.05518003	0.07871867	-0.04533788	0.12173822	-0.08890137	-0.027035823	0.009016167	0.1314147	-0.10661453	-0.021135015	-0.035774175	0.045259286	0.045229383	0.08136592	0.010155218	0.0052996827	-0.070694104	-0.01599277	0.0081384815	-0.087755196	-0.010651279	0.014341479	0.01770326	-0.06427619	0.04879705	0.019955374	0.08827773	0.109734274	0.003339082	0.04319678	-0.09435646	-0.13203402	-0.032972254	-0.030868398	0.0034744926	-0.013644431	0.07434784	0.07792824	0.08213373	-0.048855927	0.0990355	-0.008618008	0.026950972	-0.069356985	0.021433176	0.004845673	0.06287844	-0.01466641	0.072881006	0.072464816	-0.10818303	0.053150788	-0.13954103	-0.034104977	0.047771458	-0.031452097	0.06965874	0.03702316	0.08551388	-0.08169577	-0.018478623	-0.07666894	-0.041682854	-0.0048593786	-0.009563776	-0.03575761	0.01050228	-0.0042852205	0.0070989113	-0.04007834	-0.15884456
DB00578	-0.019855356	0.012620062	0.0079360865	-0.040149998	0.058448136	0.13400865	0.01931961	-0.07452071	0.021454047	-0.08425231	-0.033658594	0.02863372	-0.0044026133	-0.06799654	0.06808557	0.095452264	-0.065817125	-0.010955483	0.15282628	-0.08513083	-0.06283211	0.1619558	-0.04593714	-0.097166516	0.08534024	0.11126754	0.007375993	-0.035173655	-0.05135719	0.05183654	0.10368634	-0.04595589	0.10979853	-0.08324071	-0.035586115	0.0043291086	0.12895806	-0.11064091	-0.014922408	-0.05301955	0.041029062	0.030062042	0.061948787	0.008477128	0.03594739	-0.02056557	-0.03900302	0.016566085	-0.03734134	-0.012120033	-0.0125532225	0.006702346	-0.06295926	0.04691644	-1.6642502e-05	0.081420705	0.08939317	0.038407955	0.06694747	-0.105963096	-0.11075975	-0.017213074	-0.019978978	-0.026429618	-0.024065275	0.07334094	0.049525984	0.125333	-0.037007853	0.077978626	-0.007153565	0.03248523	-0.070047736	-0.01678006	0.0020751413	0.061012276	-0.02161089	0.092177585	0.05887211	-0.11661691	0.09620442	-0.16260839	-0.04861841	0.074252754	-0.043105964	0.06931532	0.04203568	0.12213543	-0.06892292	-0.015201002	-0.06916426	-0.040285513	-0.027899142	-0.020088453	-0.032432314	-0.046427295	-0.016677337	0.03689497	-0.028156467	-0.14891383
DB01000	-0.023605976	0.038028676	0.025376841	-0.064333275	0.07067521	0.12909031	0.049077455	-0.079816215	-0.0072109206	-0.08582501	-0.022250766	0.03165956	0.039277446	-0.09714922	0.08090071	0.07895064	-0.007107297	-0.0045821397	0.14124054	-0.08621128	-0.049023807	0.1136942	-0.06347794	-0.086364366	0.054505378	0.11988208	0.016283924	0.0041170903	-0.05134921	0.026287278	0.07855844	-0.030315118	0.124398604	-0.083485745	0.017481688	0.047444247	0.13327421	-0.0964822	-0.023995116	-0.028103143	0.050197575	0.019684501	0.019878758	-0.026511272	0.014399078	-0.031228626	-0.022492742	0.03414252	-0.023175316	-0.010404838	-0.01078454	0.018660266	0.008452487	0.053657692	0.0037994199	0.07925941	0.1017779	-0.0047324374	0.046643533	-0.09188912	-0.11707196	-0.01162472	0.022854183	-0.0045931833	-0.027919825	0.05150161	0.08208644	0.11884624	-0.041484576	0.07373795	0.009364362	0.031195728	-0.033578355	-0.0068774223	-0.009114368	0.034484535	0.013544729	0.070734605	0.07372862	-0.08520499	0.09340235	-0.11875066	-0.0773615	0.028269758	-0.040528122	0.010888876	-0.018669486	0.093297005	-0.04797655	-0.021140749	-0.063016616	-0.049383532	-0.03158901	-0.025460355	-0.034670234	0.0017326359	0.01587754	-0.0006237773	-0.056943566	-0.15628175
DB01001	-0.021633275	0.048516326	0.081678264	-0.039385878	0.06658788	0.069606826	0.051737826	-0.07763967	0.020575076	-0.11159623	-0.07280488	0.0111116115	0.03250083	-0.11327767	0.105962545	0.07873156	-0.027718522	-0.0149020385	0.13337357	-0.033015694	-0.075392745	0.17996474	-0.052972853	-0.08898944	0.07623082	0.07536782	-0.12769282	-0.040513318	-0.053424466	0.035645686	0.11735527	-0.04407697	0.09971291	-0.07795369	-0.033043828	0.051892288	0.14169103	-0.0638956	-0.015863951	-0.03735031	0.056169976	0.03157212	0.12933923	0.008137381	0.010230096	-0.08487022	0.00511983	-0.038284156	-0.07675098	-0.02389748	-0.0056640804	0.0075791674	-0.072203666	0.03585833	0.012355115	0.10924514	0.10844549	-0.0061968835	0.027558535	-0.07625872	-0.14812239	-0.03913307	-0.049802363	0.011705828	0.05872432	0.1272681	0.018255504	0.08334007	-0.0534044	0.062002193	0.02733894	0.04629278	-0.06312427	-0.05041996	0.013223344	0.09557059	-0.037669733	0.088657945	0.029785786	-0.1315361	0.09994418	-0.105785	-0.034521405	0.0868632	-0.041440394	-0.013789024	-0.03800408	0.14768413	-0.038809184	-0.00910972	-0.0024499018	-0.081284374	-0.008533424	0.0040662885	-0.027789805	-0.057840202	-0.043806292	0.009018075	0.039317526	-0.15791897
DB01006	0.018006098	0.036691755	0.035069358	-0.043666136	0.058438048	0.0808757	0.059845556	-0.0056111775	0.008275693	-0.09855076	-0.05064983	0.0330221	-0.037050456	-0.094594866	0.10232977	0.06286992	0.0054743113	-0.028999135	0.14296174	-0.042728487	-0.07318948	0.1813551	-0.043558277	-0.08453826	0.06677206	0.07774618	-0.071368955	-0.047724262	-0.05299147	0.05143167	0.10983596	-0.052225657	0.1316315	-0.07361624	0.012843715	0.018825322	0.107392035	-0.09263464	-0.014489265	-0.022710582	0.04134111	0.03235333	0.074342765	0.006519785	0.0066181347	-0.06428341	-0.02112667	-0.0030293837	-0.053345904	-0.005443031	-0.03812535	0.0059616407	-0.06814065	0.055835832	0.045464247	0.06408431	0.11796196	0.032919798	0.021897458	-0.07777579	-0.099228054	-0.044636734	-0.024914222	0.0029699071	-0.004311367	0.072476536	-0.017249066	0.11020004	-0.029991228	0.103958145	0.0143785905	0.029185956	-0.053623226	-0.0017129445	-0.006542027	0.08467352	-0.01918028	0.08974104	0.035832718	-0.12152451	0.053331457	-0.117542	-0.0039211474	0.07043042	-0.0336241	-0.003124516	-5.754386e-05	0.11247043	-0.039673444	0.012969479	-0.0055917315	-0.09948699	-0.06591179	0.0032080528	-0.047997262	-0.04315367	-0.03034438	-0.0066541224	-0.00902508	-0.14932406
DB01007	-0.004828453	0.0760063	0.020151611	-0.028406063	0.043657105	0.11964686	0.053764712	-0.027100256	-0.008401382	-0.09641873	-0.04162469	0.037884682	-0.03148704	-0.110450834	0.1041908	0.009186426	-0.04795781	-0.035049673	0.15873066	-0.0741869	-0.05640396	0.19244011	-0.056107525	-0.055954684	0.074364804	0.086715356	-0.06273275	-0.051794637	-0.05302023	-0.01686873	0.10979219	-0.044630367	0.11375017	-0.08858221	0.011847617	0.026654264	0.12444697	-0.09866718	-0.0064062495	-0.042254787	0.06093573	0.007245578	0.10242873	0.016782312	0.052858237	-0.0783292	-0.017271122	0.00044898991	-0.027278282	-0.0023594499	-0.066579826	0.026187997	-0.059570704	0.042661563	0.039413445	0.084623635	0.115130365	0.00020220899	0.021293387	-0.10510923	-0.099542454	-0.039019667	-0.012907408	-0.004041489	-0.008944397	0.08168005	0.06840755	0.13327573	-0.053462896	0.070011176	0.030612355	0.007601043	-0.066447064	0.007188159	-0.025942016	0.08847197	-0.03915419	0.080701746	0.062291715	-0.11501258	0.0795464	-0.10900731	-0.068179004	0.058484208	0.023168238	0.022189815	0.025024375	0.12346856	-0.047119424	0.001823349	-0.0643753	-0.07187635	-8.5411244e-05	0.024692751	-0.022196012	-0.041764587	-0.02001005	-0.007816624	-0.0014866391	-0.16216318
DB01004	0.001745721	0.068640634	0.017096633	-0.020245813	0.0083371345	0.12455398	0.07220333	-0.0072257575	-0.015681341	-0.10018659	-0.09599702	0.03860013	-0.02777426	-0.09132342	0.09319248	0.0969872	-0.07199947	-0.027196342	0.14153023	-0.07686208	-0.09391079	0.16630282	-0.0761172	-0.0845495	0.0637721	0.12219021	-0.0456447	-0.02473115	-0.07261819	0.035848152	0.0994103	-0.056012686	0.10481043	-0.09027808	-0.0024056141	0.020007746	0.1382529	-0.09336961	0.00079217344	-0.014710279	0.026119046	0.041857727	0.08192699	0.014245391	0.0075677726	-0.03810312	0.03330319	-0.009570906	-0.005898565	-0.018468687	0.0053047724	0.046215292	-0.062674835	0.044393335	0.0143231135	0.024664158	0.12459418	0.04606584	0.040062156	-0.07733944	-0.1349553	-0.03322474	-0.05786198	0.037585944	-0.020237558	0.053391874	0.07361751	0.0801246	-0.06437391	0.04155953	-0.005156474	0.035055075	-0.08457539	-0.050016172	-0.005294367	0.07340359	0.0076889666	0.08360115	0.047255788	-0.10855819	0.10915696	-0.103092864	-0.06718289	0.06470987	-0.03367363	-0.0047224155	-0.037513677	0.12178588	-0.04348243	-0.02970536	-0.05880999	-0.06499569	-0.060915917	-0.011482505	-0.084762104	-0.009476816	0.0049479227	-0.012261175	-0.012306804	-0.12695706
DB01005	0.025859412	0.0436781	0.017502446	-0.042761005	0.00796159	0.11579556	0.06705404	-0.017575845	0.049356766	-0.11088456	-0.048904356	0.0037831408	0.03736721	-0.09387595	0.09197779	0.016772253	-0.061085813	-0.02154295	0.15073673	-0.054387737	-0.09335441	0.16992357	-0.056305718	-0.09130828	0.056483936	0.10608571	-0.07320757	-0.03050972	-0.062213276	0.0032586567	0.098474175	-0.02246291	0.111119926	-0.085410796	-0.033844512	0.019536559	0.14540921	-0.09827603	-0.016914247	-0.008753261	0.059340373	0.03558161	0.095838144	0.010504039	0.0021474455	-0.08930516	-0.03186223	-0.0056126583	-0.035294376	-0.011868976	-0.013451122	0.019847332	-0.07309712	0.045932308	0.05067942	0.08347773	0.12821163	0.058798753	0.034158017	-0.08617007	-0.12041922	-0.035164874	-0.039545495	0.026526101	-0.0011014357	0.06832508	-0.021199865	0.10508695	-0.038697615	0.09578211	-0.01581309	0.033935614	-0.059105575	0.0015629508	-0.007970328	0.105835654	-0.007963501	0.095315434	0.03992771	-0.111528896	0.0654592	-0.10916806	-0.07065296	0.07184055	-0.034894865	0.0014550538	0.024711886	0.13280484	-0.03593976	0.0052278526	-0.045121573	-0.08576742	-0.02453543	-0.012096135	-0.0671041	-0.05123053	-0.012590786	0.0034429748	-0.012409894	-0.14190216
DB00571	0.016765893	0.083655044	0.035654705	-0.040740475	0.03130536	0.12144821	0.074324444	-0.07918259	0.0041723102	-0.10843926	-0.07464872	0.028502854	-0.018380228	-0.12056584	0.123123854	0.08310861	-0.051779192	-0.016545225	0.17324452	-0.07496827	-0.05982795	0.18116464	-0.06719984	-0.089276545	0.054413624	0.10631932	-0.10852704	-0.04464582	-0.06521674	-0.006045026	0.12934367	-0.049630377	0.12100448	-0.08873285	-0.033606615	0.028348902	0.14473695	-0.09067532	0.011644147	-0.027274467	0.046638533	0.02573784	0.09510169	0.011488573	0.011531666	-0.062353943	-0.014098349	-0.05760077	-0.06569804	-0.06280515	-0.012621028	0.01786526	-0.045451604	0.051777184	0.043978266	0.088129416	0.116576016	0.0539354	0.036733296	-0.0686873	-0.123033404	-0.0023708977	-0.028367436	0.0048424206	0.023257025	0.10524499	0.01870522	0.11469917	-0.032437187	0.08134196	0.00053375564	0.024452133	-0.04455933	-0.04426136	0.015664835	0.0747996	-0.023928761	0.07563636	0.040767137	-0.12892357	0.10188867	-0.11984739	-0.04703508	0.0607339	-0.024733694	0.0018490386	0.015671905	0.14686048	-0.037444014	-0.0053836135	-0.019192988	-0.07615799	-0.021160102	0.016907455	-0.078290716	-0.030951587	-0.06308667	-0.003721272	-0.019454062	-0.14331871
DB00570	0.000621503	0.059164483	0.015077746	-0.039954774	0.06829204	0.13223454	0.056786347	-0.07537021	0.021264423	-0.09845174	-0.052610815	0.031269457	-0.012924843	-0.100341536	0.11584945	0.08716333	-0.062728174	-0.008829931	0.155383	-0.08747962	-0.052350663	0.17117146	-0.05745871	-0.074822366	0.07923475	0.1425664	-0.054560654	-0.050639205	-0.058022354	0.054678578	0.11775914	-0.064632975	0.12678456	-0.08448005	-0.037350256	0.028792497	0.1286906	-0.10125051	-0.034285087	-0.033652715	0.04028899	0.019802354	0.1021407	0.0047051106	0.034797758	-0.059761617	-0.011884673	0.014195371	-0.08187783	-0.0019786088	-0.018257918	-0.013300739	-0.052817028	0.05855398	0.03245013	0.076634355	0.112439305	-0.009894239	0.075934	-0.083230436	-0.13126314	-0.018238397	-0.01647156	0.015344974	-0.0068248278	0.077380545	0.06323888	0.13036087	-0.06670127	0.07870158	0.014951412	0.028358432	-0.060322363	-0.04384467	0.018751742	0.0632867	-0.016338106	0.0797627	0.074404806	-0.11196743	0.09397306	-0.1238773	-0.081512585	0.06320175	-0.059565995	0.034270845	0.005521901	0.15219435	-0.10867916	0.001820326	-0.026121989	-0.051579986	-0.0024593826	0.028458873	-0.027782936	-0.041668724	-0.01753559	0.0040469375	-0.06965212	-0.15640068
DB00573	-0.0036317203	0.05385533	0.03169765	-0.052298952	-0.0038162353	0.12136908	0.07222713	-0.019251514	0.016457252	-0.10915701	-0.0649469	-0.015507428	-0.03439083	-0.11087535	0.10073996	0.08014291	-0.06007606	-0.023315726	0.14496145	-0.05660934	-0.05715879	0.1596426	-0.065775126	-0.10368799	0.088254176	0.084039874	-0.032729037	0.0156658	-0.0556972	0.058276188	0.110191405	0.0011858209	0.045212895	-0.10192278	-0.008038573	0.019857856	0.11494672	-0.09655034	-0.025382508	-0.029180499	0.03921421	0.036227446	0.077397734	-0.0043823137	-0.0068429494	-0.016296437	0.0031966874	0.010705927	-0.031762294	-0.05831506	-0.0060432404	0.01614688	-0.06741776	0.048044313	0.02102611	0.077832855	0.13454208	0.042949565	0.034793645	-0.063363604	-0.104915954	-0.02277471	-0.01990866	-0.010097489	-0.013086706	0.07726202	0.0038508126	0.111424156	-0.030027512	0.081924394	-0.0025611059	0.03678572	-0.05843453	-0.042055845	0.02510907	0.09117564	-0.019924048	0.10075098	0.037238553	-0.12059301	0.0797587	-0.13711528	-0.073980264	0.06365252	-0.03678221	0.011629516	0.031127205	0.15526903	-0.05532889	-0.008690102	-0.021847107	-0.057997715	-0.058073882	0.034210395	-0.0828607	-0.0499985	-0.009436024	0.0018360076	-0.020522418	-0.15069222
DB00572	0.008334247	0.051192828	0.018637521	-0.05353907	0.031615563	0.1065982	0.059699576	-0.07860685	0.022296173	-0.111291975	-0.07369887	0.03208318	-0.01862232	-0.107276924	0.1121309	0.07874904	-0.04831955	-0.007190806	0.13768077	-0.044404957	-0.067659855	0.14399414	-0.05994789	-0.08683206	0.033820916	0.0872243	-0.07418832	0.011217151	-0.08428437	0.024770876	0.12107439	-0.03670908	0.11353494	-0.09114597	-0.03558034	0.01517617	0.13422075	-0.09542995	0.0066604572	-0.031315885	0.025289174	0.03133612	0.08054498	0.0071840473	0.0005073657	-0.07543384	-0.007572796	0.0087214615	-0.072762236	-0.01401839	-0.010849072	0.027904015	-0.06278957	0.04158028	0.024601152	0.09411498	0.12621158	0.036156934	0.041035246	-0.09384704	-0.14596796	-0.014173973	-0.03136265	0.010297211	0.02332075	0.0882285	0.03959156	0.13629402	-0.049224023	0.0728743	-0.0019310267	0.040279567	-0.057450645	-0.056662884	-0.010255976	0.09246716	-0.019168336	0.08008517	0.054563835	-0.1377495	0.09558429	-0.11246605	-0.06718561	0.07523611	-0.0071100406	0.004895333	-0.025356328	0.1307607	-0.030578783	-0.015223326	-0.04117899	-0.07861738	-0.04739108	0.020458052	-0.055163216	-0.040521532	-0.032091655	0.006351063	-0.008357426	-0.15813307
DB00575	0.0053630313	0.068309136	0.051868323	-0.033869915	0.024056662	0.10869041	0.07311486	-0.030953286	0.0012330507	-0.112495795	-0.08603682	0.03711534	-0.029855877	-0.11309522	0.13215114	0.06275557	-0.05840866	-0.021330416	0.14089982	-0.052678406	-0.058255997	0.17423342	-0.07018343	-0.092766106	0.06523971	0.0918007	-0.10648772	-0.029570501	-0.07070405	0.038816847	0.11734695	-0.050139386	0.11197216	-0.09004008	0.007329531	0.014665673	0.13194805	-0.085835285	-0.0012833142	-0.025188202	0.04140254	0.036302593	0.114484325	-0.023880484	0.025366599	-0.04356156	-0.004548091	0.0005964043	-0.029143805	-0.023781344	-0.001546871	0.028810084	-0.06387462	0.054307338	0.031474832	0.07187295	0.11939614	0.04986244	0.0196797	-0.077756815	-0.1406629	-0.032107655	-0.03181068	0.0110895205	0.011383653	0.10367523	0.051829707	0.12779967	-0.05422562	0.06262429	-0.012493933	0.032243773	-0.056385454	-0.037365224	0.004699761	0.084269	-0.023870211	0.09668867	0.03816905	-0.11328358	0.08844317	-0.10511141	-0.06585923	0.07003615	-0.0024827328	-0.0033215913	-0.031081015	0.14500728	-0.05862572	-0.022096802	-0.025376555	-0.08556568	-0.0069815703	0.0070976373	-0.054154184	-0.030360555	-0.037942786	0.003148742	-0.015435636	-0.15078029
DB00574	0.0016751356	-0.0030540302	0.008992283	-0.08042322	0.019405898	0.12301772	0.05432647	-0.0353076	-0.00553832	-0.04643559	-0.058373656	0.0027215444	-0.030888915	-0.08363048	0.07026539	0.08036639	-0.016834384	-0.009232082	0.1422106	-0.05500491	-0.05061625	0.15458736	-0.042188473	-0.0880663	0.06076327	0.11240246	-0.02534319	0.01671838	-0.04556442	0.045376398	0.10262098	-0.041618224	0.11493336	-0.083040744	0.016638972	0.017533626	0.08604562	-0.0869263	0.002554636	-0.06505243	0.024342904	0.040761955	0.082335904	0.0004985321	-0.004335068	-0.042348024	-0.037575893	0.006520437	-0.031131474	0.004857838	-0.0019584321	0.006246426	-0.05480227	0.04492813	0.019252695	0.07879784	0.099637695	0.00985202	0.04842599	-0.099385105	-0.102351494	-0.039392583	-0.02346791	0.009025693	0.0075366385	0.08137726	-0.01025858	0.089068905	-0.058241498	0.07254778	0.0028148824	0.029477738	-0.06619782	0.017430399	-0.0037377318	0.074371785	-0.024202192	0.07033278	0.044077784	-0.119193606	0.044761956	-0.10391389	-0.0809761	0.031775106	-0.033837307	0.033290435	-0.0012279452	0.13166247	-0.05165925	-0.013847365	-0.021842662	-0.08155435	-0.05285818	0.024236735	-0.03132053	-0.03955458	-0.025860652	0.00408818	-0.02695966	-0.14451747
DB00577	-0.009234017	0.067554295	0.020177465	-0.039023668	0.060529895	0.111988306	0.050812237	-0.063352264	-0.010280021	-0.09134857	-0.08721631	0.03393626	-0.0033757202	-0.10941248	0.10531009	0.08595691	-0.060942538	-0.026152618	0.14592604	-0.038449675	-0.06143275	0.15956716	-0.05779471	-0.081709884	0.08202319	0.124470904	-0.07243003	-0.048606303	-0.07254897	0.038374953	0.105286404	-0.028997583	0.10672502	-0.06003469	0.0061255116	0.02201974	0.15201505	-0.08892477	-0.02099177	-0.033537336	0.036903013	0.040946085	0.096378766	0.004200335	0.033506833	-0.0669687	0.013076389	-0.0033680853	-0.039493937	-0.023793425	-0.040089644	0.028020829	-0.056982845	0.05971608	0.019311575	0.079916045	0.12306413	0.045753762	0.041174363	-0.08632796	-0.14524455	-0.02276467	-0.04821615	0.010118689	0.0025074258	0.07643551	0.057125133	0.09545703	-0.06695326	0.06640513	0.001489026	0.030233845	-0.057892967	-0.020182338	0.047978636	0.06333878	-0.024328696	0.087543584	0.05449572	-0.12562193	0.09312115	-0.12027192	-0.039223865	0.055928625	-0.019757036	0.006003216	-0.028761512	0.14239348	-0.05184791	-0.0144505	-0.034323484	-0.05610273	-0.03845694	0.0324631	-0.05491554	-0.010264825	-0.013121992	0.007909041	-0.025272153	-0.14864267
DB00576	-0.026158981	0.02809045	0.026235934	-0.029652994	0.019724526	0.13109934	0.044880122	-0.026737297	0.022700543	-0.098488286	-0.040839903	-0.019424321	0.018438194	-0.08654305	0.07912902	0.092619695	-0.07166945	-0.022175098	0.1489425	-0.045997832	-0.059689473	0.1776316	-0.045687098	-0.0894063	0.08115714	0.11694018	-0.006634756	0.016698277	-0.040257975	0.045094244	0.08946512	-0.0477386	0.11955657	-0.08632489	-0.04295251	0.026355755	0.14323197	-0.10908869	-0.017739832	-0.048829544	0.049869087	0.022708813	0.058048178	-0.010845957	0.0033664005	-0.062403906	-0.032150876	0.008093286	-0.06271132	-0.0008497562	-0.002005638	0.0075654313	-0.026773578	0.04377509	0.024408555	0.07451206	0.122567266	0.021640334	0.06881305	-0.09480595	-0.096497074	-0.029764608	-0.013258778	0.009416763	0.00048107724	0.060375895	0.0021825791	0.102524735	-0.043764375	0.0866363	0.012856146	-0.013001986	-0.079704784	-0.0142713655	-0.02331685	0.07580588	-0.021393824	0.075709336	0.034622744	-0.06700225	0.08574592	-0.12659708	-0.07368493	0.053942077	-0.02530011	0.008589132	0.039131284	0.11119094	-0.04278282	-0.02740757	-0.07079179	-0.07804219	0.012404928	-0.024354057	-0.046792183	-0.060674727	0.0016797982	-0.017312637	-0.04984822	-0.16532066
DB00751	-0.009494217	0.078921184	0.02583599	-0.018268408	0.068476245	0.1326909	0.0548746	-0.007980028	0.01084373	-0.094731316	-0.065271586	0.038554557	-0.032397773	-0.08974092	0.10328192	0.086237945	-0.063645326	-0.02397685	0.14800064	-0.086899206	-0.05643542	0.16686095	-0.059925158	-0.116717346	0.10055593	0.117188394	-0.027377445	-0.04418081	-0.032625034	0.05247078	0.1118354	-0.05387831	0.118276924	-0.093304425	-0.008675739	0.026395192	0.13342597	-0.09517335	-0.011074474	-0.048339155	0.041648988	0.038333043	0.08998402	0.026239261	0.015389463	-0.050267767	-0.02210735	-0.0056362906	-0.053847987	-0.015501091	-0.0037405118	0.017447988	-0.032958902	0.04545948	0.03536876	0.08310237	0.10004516	0.019367017	0.054988496	-0.09699144	-0.11416925	-0.037543252	-0.025246488	0.0063588694	-0.011215967	0.06626023	0.011185097	0.110578634	-0.0350781	0.07978512	-0.022297708	0.042793598	-0.070057385	0.01599945	-0.0070909522	0.06652923	-0.008676475	0.070182905	0.059509706	-0.118155114	0.0814204	-0.11583829	-0.06748929	0.040859733	-0.0114199165	0.014752461	-0.0025897166	0.13657638	-0.048390593	-0.0074234237	-0.07179137	-0.07235399	-0.03091461	0.026435707	-0.029010048	-0.042028923	-0.027012322	0.027917448	-0.016896872	-0.14297226
DB00750	-0.00048413337	0.02740004	0.032606915	-0.04215603	0.02718691	0.100335956	0.04538568	-0.07168387	0.04109884	-0.08078275	-0.06707283	0.0064051542	0.0064338604	-0.11533314	0.0880105	0.026859423	-0.045738395	-0.00017412775	0.15066965	-0.045170285	-0.06660725	0.156817	-0.0412085	-0.08330963	0.06801913	0.08647979	-0.03300977	-0.037175912	-0.079848915	0.056478143	0.08881556	0.018881978	0.095013216	-0.079728186	-0.040010694	0.040822696	0.10089371	-0.076561466	-0.009968929	0.010992359	0.03933735	-0.025342617	0.09362597	-0.007252966	-0.01600517	-0.04353622	-0.035887085	-1.6313745e-05	-0.08454891	-0.0011228157	-0.008068994	0.00039555144	-0.06637575	0.04360047	0.025365002	0.085775375	0.14980437	0.03605309	0.029584896	-0.08426385	-0.1204619	-0.032117147	-0.030923596	0.019692857	0.033406872	0.063211866	-0.02481536	0.115680024	-0.03142407	0.08408839	0.022797346	0.02351851	-0.07769078	-0.028320516	-0.0038877255	0.08676409	-0.0026390813	0.093668595	0.055419482	-0.12862156	0.052890815	-0.095231056	-0.0703818	0.078304686	-0.01701476	-0.012169518	-0.004275026	0.1353688	-0.03527587	-0.0058966596	-0.07030165	-0.07441481	0.019589333	-0.018093167	-0.04840066	-0.05689507	0.023347478	0.0061213467	-0.018738115	-0.14871323
DB00753	0.0013412009	0.046469666	0.013223628	-0.040216215	0.010827158	0.11634487	0.055676755	-0.015465349	0.00012134784	-0.083291605	-0.07585174	0.03223108	-0.032902166	-0.090957165	0.11310447	0.080757245	-0.031023407	-0.01132764	0.13165003	-0.061620135	-0.083892815	0.15589911	-0.058076214	-0.08763005	0.05528756	0.11516114	-0.071566835	0.011545608	-0.08007503	0.045254625	0.113466844	-0.049599264	0.11686331	-0.08450977	-0.022238193	0.04795485	0.103600875	-0.08370531	0.01960231	-0.039920688	0.035583448	-0.008425723	0.0691389	0.01670139	0.021867462	-0.07004764	-0.0290196	-0.004122572	-0.024279056	-0.0152060855	-0.005558346	0.020550983	-0.059629034	0.033208862	0.036467563	0.08941705	0.1005584	0.03727999	0.0020749732	-0.09941258	-0.13648185	-0.029530581	-0.060236935	0.037917897	0.0037247632	0.086304314	0.043903448	0.12662259	-0.039020892	0.08214733	-0.0029534008	0.031953394	-0.014814224	-0.039893597	-0.00822119	0.08804556	-0.010007402	0.09516774	0.03990297	-0.1168595	0.09431	-0.10434951	-0.0115344785	0.05848097	-0.028247464	0.008964671	0.028732182	0.11332282	-0.032881837	-0.0069368384	-0.06996116	-0.08570403	-0.014787281	0.029059961	-0.05312312	0.010756744	-0.05188072	-0.013658278	-0.023050638	-0.1541777
DB00752	-0.007812627	0.06085837	0.028697731	-0.054290306	0.032708455	0.11630491	0.057481512	-0.010172624	-0.007864398	-0.098271474	-0.05155202	-0.024701621	-0.028237242	-0.06347414	0.107907414	0.08012195	-0.06940685	-0.03741576	0.14249352	-0.03884438	-0.050538484	0.18509017	-0.06424433	-0.08301379	0.08586264	0.1265432	-0.055064254	-0.05019738	-0.058794536	0.052651793	0.10379931	-0.04172931	0.10704991	-0.07837326	-0.024520038	0.0400901	0.11888434	-0.09501456	0.0068625724	-0.053156346	0.05069584	0.021831907	0.10655885	0.0031754286	0.015301736	-0.06225655	-0.018048711	-0.011411291	-0.07601249	-0.017398324	0.008313037	0.023914203	-0.062030602	0.028044675	0.013568379	0.07728653	0.11949762	0.043709397	0.016018346	-0.0942287	-0.103553414	-0.037767872	-0.055203646	0.013522893	0.01303011	0.08296578	0.069656834	0.13238652	-0.054425005	0.091770746	-0.019643106	0.025320362	-0.06375897	0.013367396	0.0013794211	0.06643206	-0.010716235	0.088892445	0.036192708	-0.11346147	0.09654699	-0.14617014	-0.07636479	0.049929466	-0.023439871	0.006696662	0.028507145	0.100717716	-0.030096006	-0.002965541	-0.05246285	-0.0839365	0.0075691603	0.035028365	-0.046877824	-0.049510606	-0.03395648	-0.0032219938	0.0033917124	-0.14599095
DB00755	0.014911044	0.071166985	0.03619474	-0.058364287	0.016052257	0.118009955	0.1003335	-0.04288725	0.010501385	-0.10964592	-0.08569139	0.026413517	-0.02234785	-0.109047376	0.1233761	0.08348497	-0.05060965	-0.020015465	0.13955519	-0.05534532	-0.08476121	0.17410998	-0.057466518	-0.0913344	0.0639926	0.074918956	-0.08763519	-0.046176326	-0.07501689	-0.0032822192	0.1251716	-0.06484989	0.11434571	-0.09098949	-0.028392209	0.008846184	0.1281157	-0.08449781	0.027227998	-0.026735356	0.050202876	0.005271975	0.09053694	0.005166257	0.018514015	-0.051404193	-0.005465281	-0.010763979	-0.07544226	-0.04883696	-0.046510544	-0.021738857	-0.057510193	0.056936428	0.028004818	0.09270813	0.13245232	0.043678764	0.032795046	-0.08751464	-0.13839398	-0.04062578	-0.044210624	0.015235979	0.022657724	0.08340484	0.059902582	0.13765052	-0.045217276	0.07689086	0.019805897	0.030941771	-0.047028936	-0.048108686	-0.022109289	0.085823104	-0.036279302	0.10751125	0.027127376	-0.12213193	0.09668277	-0.13909584	-0.07022327	0.055387907	-0.0058756657	0.0030242633	0.0034174956	0.13083209	-0.05116816	-0.00995246	-0.060376998	-0.06877348	0.006088485	0.027083252	-0.08026113	-0.012419358	-0.055252455	-0.009139947	-0.013528001	-0.14273798
DB00754	-0.028047718	0.03496195	0.01990585	-0.022977816	0.059152864	0.12220439	0.050790247	-0.00032658712	-0.0031200494	-0.09231385	-0.03484983	0.0279091	-0.036634833	-0.089084834	0.10104798	0.08441129	-0.06866905	-0.021431003	0.13258275	-0.0342338	-0.053704597	0.08432287	-0.06077314	-0.10526581	0.083347715	0.12744251	-0.030757168	-0.048697095	-0.049795877	0.049075864	0.1076862	0.0017832905	0.095264055	-0.08924547	-0.03250529	0.019350205	0.1354132	-0.104091786	-0.02752833	-0.038778752	0.0440672	0.0340447	0.0903113	0.00944313	-0.0030290931	-0.075194836	-0.041326314	-0.004784819	-0.08475387	-0.00794043	0.011678079	0.024960259	-0.06663684	0.05220892	0.026966752	0.08079417	0.06111809	0.023237748	0.028849864	-0.09168629	-0.118131265	-0.053131104	-0.01676571	-0.008485416	-0.00063232356	0.0730493	-0.002996103	0.081033245	-0.056926187	0.08949327	0.0017791173	0.0370983	-0.06751528	0.005214461	0.000849833	0.06571796	-0.017306138	0.06835302	0.04944548	-0.11176891	0.09772758	-0.106337935	-0.0025323536	0.056325365	-0.02436296	0.05664645	0.03775546	0.12746966	-0.041032225	-0.02869152	-0.07456285	-0.04379149	-0.038669348	-0.007375924	-0.022110136	-0.03585917	-0.00816635	-0.008965052	-0.034304775	-0.1334558
DB00209	-0.03229627	0.06522357	0.074269906	-0.030996962	0.04973511	0.1298245	0.06157362	-0.017844334	-0.0042792894	-0.10121961	-0.037409943	0.036094185	0.022342803	-0.057678517	0.08099473	0.088048264	-0.056396846	-0.027614623	0.13589977	-0.042554684	-0.035105117	0.15688613	-0.05856525	-0.111281335	0.09514202	0.09018803	-0.05038873	-0.042659283	-0.029507332	0.03590208	0.0884388	-0.053511873	0.11017643	-0.087725334	-0.021150779	0.010067578	0.120930314	-0.0972959	-0.030110069	-0.051570553	0.04509447	0.031318024	0.09843228	0.0408237	0.02188594	-0.06762936	0.0017229525	0.00263714	-0.024985278	-0.04788589	-0.008511835	-0.026911028	-0.06406155	0.04953468	0.033142317	0.07488717	0.07973632	0.0532526	0.040916834	-0.070709065	-0.122356296	-0.05197024	-0.051159948	0.010085462	-0.009782022	0.083066605	0.057409324	0.11737464	-0.008386111	0.08505791	0.009683447	0.03477007	-0.065062895	0.004249805	0.07214559	0.09093926	-0.027677856	0.07193922	0.046186242	-0.11881165	0.09288191	-0.13773422	-0.02128017	0.05948861	-0.0488398	0.015359629	0.016838828	0.14583203	-0.07979353	-0.0027030255	-0.06135364	-0.033914596	0.0013604659	0.02542802	-0.040542103	-0.047366977	-0.015938532	0.016424438	-0.030876452	-0.11251968
DB00208	0.007872499	0.08950619	0.0090883095	-0.03475922	0.053907346	0.12329599	0.078696266	-0.020593977	0.008142404	-0.098786965	-0.052063487	0.025565013	-0.03962855	-0.059914816	0.09293262	0.054084126	-0.06100627	-0.03629344	0.15178421	-0.077088706	-0.057265833	0.17932639	-0.06919959	-0.096962795	0.0954146	0.12229177	-0.078731224	-0.03666342	-0.045544438	0.040917963	0.11846	-0.056549072	0.11429647	-0.09429608	-0.03082822	-0.0013887851	0.13373724	-0.0998889	0.0033103912	-0.051943414	0.05303904	-0.0060392516	0.12919693	0.012556618	0.002491571	-0.08576786	-0.009818693	0.023342976	-0.039479565	-0.0077074356	-0.014009733	0.003699299	-0.06458835	0.04907749	0.035734553	0.092329875	0.12351954	0.05702164	0.045227826	-0.07773846	-0.10875003	-0.052287217	-0.023087045	0.012246735	0.014436128	0.09535574	0.05651287	0.120027155	-0.038469378	0.080617204	-0.012557836	0.022877552	-0.07626947	0.01944613	0.0027752947	0.07440044	-0.016570779	0.09043433	0.018619454	-0.1297397	0.1024986	-0.096375786	-0.056316476	0.08251864	-0.048718803	0.028057616	-0.026660012	0.13085392	-0.07280268	-0.022749504	-0.015891006	-0.07753249	-0.017786358	-0.0137051605	-0.10939735	-0.057240803	-0.034756027	0.00066384685	-0.010899343	-0.119715765
DB00207	0.019360319	0.059306167	0.015076948	-0.04055733	0.02337652	0.122828454	0.07075603	-0.045567963	0.018700777	-0.09558359	-0.073542446	0.025672711	-0.021409702	-0.093903445	0.11775743	0.08167235	-0.0603694	-0.041532006	0.17770705	-0.060740113	-0.06772178	0.18151283	-0.07858111	-0.08390212	0.07458905	0.08028079	-0.08284427	-0.04764206	-0.06616894	0.040096194	0.10942287	-0.044375256	0.105348654	-0.06503962	-0.03951897	0.0018228736	0.12004689	-0.07192695	0.0007412281	-0.014261102	0.027057191	0.04136058	0.092797235	0.019227723	0.033996854	-0.021247106	-0.014464794	-0.037952386	-0.047517523	-0.035518732	-0.007559087	0.026323108	-0.059469193	0.044287395	0.014918728	0.07533602	0.12169926	0.018629426	0.04788802	-0.07313746	-0.1331663	-0.04521123	-0.048814267	0.010407552	0.013031261	0.10164558	0.054719076	0.12797062	-0.04277635	0.084417365	0.01346266	0.030265035	-0.060344595	-0.04872539	0.016626341	0.09181496	-0.025242267	0.08102992	0.034891184	-0.12826627	0.10801587	-0.10982319	-0.078155376	0.057735603	-0.020111244	-0.010856727	-0.037447803	0.14304586	-0.04140719	-0.008348485	-0.032342393	-0.101666205	-0.0061370656	0.021580402	-0.079938285	0.01080543	-0.031544473	-0.011767772	-0.005085008	-0.1462224
DB00974	-0.01549786	0.03623026	0.017736498	-0.037422452	0.025576264	0.118737936	0.064707756	-0.04181156	0.035657514	-0.09150617	-0.06761429	0.030800702	0.02377605	-0.07661121	0.08759958	0.079290025	-0.050893944	-0.029258784	0.14809297	-0.07244066	-0.04699328	0.1569905	-0.075348705	-0.088283196	0.054097645	0.12442376	-0.020394268	-0.029718205	-0.060410026	0.06217796	0.0937541	-0.021548636	0.111598305	-0.04939597	-0.02779733	0.039057367	0.1039436	-0.093818724	-0.0086992495	-0.037433915	0.03953264	0.031097127	0.08854318	0.023249025	0.010414118	-0.042905003	-0.014794784	0.00957355	-0.03912081	-0.012246616	-0.03432278	0.012966298	-0.058323223	0.04901958	0.023945935	0.08974914	0.10148033	0.030170899	0.04911572	-0.077229075	-0.11653059	-0.058359727	-0.025075266	0.012386156	0.01772644	0.07018617	0.0030142819	0.13854577	-0.041426342	0.07349188	-0.005923506	0.020391302	-0.02588882	-0.024954595	0.022475539	0.07200131	-0.011564564	0.09392613	0.035486463	-0.11954311	0.07296247	-0.112185985	-0.073429525	0.04464586	-0.036569446	0.008281535	0.021692596	0.13963558	-0.059288338	0.0071727824	-0.06349847	-0.076307386	0.002384677	0.025285821	-0.08214273	-0.039870713	-0.029702738	0.0055184886	-0.08778365	-0.115174994
DB00205	-7.0726965e-06	0.039891638	0.005469013	-0.034929592	0.0077769514	0.13689876	0.05435601	-0.022190832	0.023569558	-0.09125762	-0.043706052	0.008922061	0.037308216	-0.088006765	0.066696055	0.08786558	-0.06616779	-0.03708568	0.1323632	-0.05445285	-0.051357828	0.16747165	-0.051319852	-0.09366506	0.057282515	0.10821545	-0.04442842	0.013410049	-0.07179467	0.029552206	0.117896244	-0.03359259	0.12805365	-0.094921626	-0.035562374	0.01637872	0.14340666	-0.11678198	-0.02419829	-0.03989193	0.040615216	0.034113027	0.085240476	0.022801088	0.035487615	-0.06246392	-0.009962684	-0.00016240007	-0.09111469	-0.013441011	-0.016387632	0.019341165	-0.05203632	0.03833674	0.027324103	0.085492104	0.11682938	0.034558628	0.02205296	-0.090712234	-0.08415526	-0.026049823	-0.023390437	-0.015340423	-0.00044941122	0.08220266	-0.013647852	0.11843194	-0.06223399	0.0993046	0.015216744	0.03137088	-0.07416184	-0.0013223888	0.00041160337	0.08174349	-0.026149053	0.075555936	0.03979083	-0.113238625	0.06577112	-0.116573945	-0.018371733	0.080274075	-0.04985049	0.0024122186	0.03201008	0.10649726	-0.043371487	0.017201856	-0.071663864	-0.05195054	-0.01765731	-0.013162222	-0.043413386	-0.045835674	-0.026913347	0.0012401232	-0.01234143	-0.15994039
DB00204	-0.01832571	0.048784725	0.06167866	-0.04898784	0.025421672	0.12736179	0.06287508	-0.012338983	-0.012761518	-0.08297372	-0.06600867	0.03569329	0.016027346	-0.08460898	0.10613937	0.08540197	-0.062306564	-0.0156100895	0.13455227	-0.0637213	-0.051311295	0.16154395	-0.06001668	-0.08135214	0.06903641	0.122355685	-0.029483356	-0.026844503	-0.030258326	0.034293436	0.10978705	-0.037366465	0.12572284	-0.081761405	-0.030826354	0.03912173	0.095394336	-0.09080355	-0.008320114	-0.048325773	0.045256216	0.012100318	0.077980176	-0.005808695	0.0024474505	-0.0301742	-0.03281921	0.0047233254	-0.05063925	-0.0029980186	-0.031198686	0.02205409	-0.07207319	0.08247703	0.026060909	0.0789217	0.13116036	0.054540195	0.029347103	-0.08521596	-0.11495565	-0.010270495	-0.020375786	0.0056796353	-0.011154365	0.078005895	0.019427117	0.13058738	-0.04888422	0.097699896	0.010073775	0.033687513	-0.0661492	-0.010532623	-0.006908972	0.07046385	-0.0035216138	0.07570711	0.041655704	-0.120499626	0.06036039	-0.14763042	-0.0033086315	0.06523043	-0.045203153	-0.007717152	0.03144816	0.1247213	-0.061427742	-0.010065904	-0.017043037	-0.09253301	-0.011420459	-0.024932204	-0.04587187	0.013055357	-0.023896463	-0.0005583761	-0.010852316	-0.14146791
DB00203	-0.0005458782	0.08116087	0.028828463	-0.031288996	0.036096334	0.1148927	0.058905132	-0.008503305	0.012526887	-0.103953734	-0.057162277	0.03194977	0.028281724	-0.081905	0.11567919	0.06398527	-0.053532064	-0.027926937	0.1487768	-0.06386518	-0.05304704	0.18112266	-0.06951382	-0.093665905	0.089588	0.09463106	-0.07092722	-0.045528024	-0.051521122	0.042005762	0.11468682	-0.049610358	0.121918	-0.08834377	-0.01572717	0.018883051	0.093486965	-0.10150104	-0.015690591	-0.036896043	0.02960772	0.045437787	0.10065902	-0.00071085955	0.03699623	-0.05315676	0.005460553	-0.0028030481	-0.039714597	-0.0025612172	-0.027442738	0.003150267	-0.060047988	0.054405395	0.033353448	0.078609556	0.10934926	0.050892085	0.04033042	-0.08456973	-0.1328178	-0.050260935	-0.02240347	-0.014236087	-0.004383407	0.09500928	0.05310819	0.13797086	-0.028211094	0.08822249	-0.006484898	0.04029715	-0.056406047	0.0030582822	0.0051143467	0.07474338	-0.03096099	0.082474954	0.035038456	-0.12501666	0.061790828	-0.12443921	-0.0072263274	0.061471358	-0.037196625	0.015106088	0.016346505	0.15052532	-0.050952286	-0.004135414	-0.078441925	-0.057024457	0.013108965	0.026381643	-0.031001816	-0.03494662	-0.045765016	0.010184651	-0.015462244	-0.14476712
DB00202	-0.01650861	0.01098243	0.06507226	-0.017880447	0.04520624	0.11482581	0.06369361	-0.074608035	0.01255448	-0.09220497	-0.08266964	0.035346396	0.005394576	-0.09430641	0.115103625	0.07870105	-0.05649351	-0.020580385	0.12822804	-0.07565486	-0.061863665	0.11088346	-0.055185445	-0.10228595	0.05299113	0.11394147	-0.088531375	-0.039216027	-0.060620956	0.044293713	0.10852031	-0.07030921	0.11378569	-0.074674055	-0.01868646	0.04661125	0.093038246	-0.038526542	0.013232547	-0.03329725	0.0265703	0.02920757	0.06855756	0.0025346088	-0.007668754	-0.084016904	-0.01577474	-0.012120149	-0.03529201	-0.009688068	-0.04560537	0.031916615	-0.05048959	0.029836904	0.0031384602	0.08530777	0.109619424	0.024565732	0.036879573	-0.093557134	-0.1170892	-0.02389542	-0.035398714	0.025787551	0.0114329215	0.07900171	-0.017486114	0.0982082	-0.06001364	0.08209953	0.009057771	0.032257248	-0.05687153	-0.00889002	-0.00084589573	0.09183474	-0.019257452	0.081202604	0.040526394	-0.12011732	0.08812833	-0.09716877	-0.07506712	0.06255132	-0.010149168	0.0067568626	-0.042256605	0.1275359	-0.03809307	-0.035640355	-0.052203123	-0.055011354	-0.010962067	0.008457564	-0.04982245	-0.0014680327	-0.006752884	0.0024567451	-0.026808085	-0.15648003
DB00201	0.0064316755	0.0810267	0.03942264	-0.019190455	-0.0113296965	0.12471537	0.08504522	-0.09808582	-0.0068330104	-0.13043839	-0.07209843	0.03701413	-0.031036874	-0.13310863	0.15226668	0.082839414	-0.05597274	-0.028512178	0.11459266	-0.08377815	-0.061173134	0.10822907	-0.059991036	-0.08070418	0.068261005	0.12024924	-0.08881131	-0.039489888	-0.08682411	0.009528939	0.12836337	-0.07718119	0.10768013	-0.08663806	-0.02728486	0.055020705	0.10571295	-0.07793956	-0.00035474973	-0.031101832	0.067143925	0.020159379	0.08364594	0.027610242	0.005647937	-0.09324458	0.010686731	0.0018063925	-0.06696877	-0.06117347	-0.07907718	0.021781767	-0.04028203	0.0031225774	0.034389388	0.10166039	0.11701548	0.02525562	0.04301205	-0.1143503	-0.14679831	-0.023387425	-0.032096956	0.00074732513	0.02160487	0.14100778	0.056325503	0.1341456	-0.036172885	0.06620198	0.009003797	0.04450761	-0.05435111	-0.04956597	-0.017446078	0.05801278	-0.0065619443	0.08698796	0.066813365	-0.1346999	0.10817246	-0.10482288	-0.09187094	0.06314558	-0.029392678	-0.007232531	-0.026258836	0.16700214	-0.035720352	0.014526496	-0.063571	-0.08790503	0.0074968636	0.033569764	-0.09388748	-0.013615223	-0.043284554	-0.025815878	0.039275806	-0.12093051
DB00972	-0.006332619	0.07777523	0.019299153	-0.043358453	0.045974895	0.1277066	0.06320854	-0.010314049	0.009864975	-0.10225299	-0.029017037	0.02605978	-0.022441212	-0.045577366	0.106970385	0.0682965	-0.057841893	-0.022730822	0.1372269	-0.055670496	-0.060097527	0.16812174	-0.05289896	-0.07249208	0.08470291	0.11740995	-0.050786495	-0.04287927	-0.035587713	0.047051687	0.11193241	-0.06509483	0.13072112	-0.09395489	-0.024796607	0.021634452	0.13800815	-0.10110948	-0.009224705	-0.057021037	0.04274028	0.00895196	0.09836546	0.027407259	0.04093879	-0.073477015	-0.002213153	-0.0032449365	-0.06509158	-0.033584867	-0.051630784	0.01994107	-0.06223352	0.06797213	0.045441676	0.08376788	0.11269553	0.03675512	0.039006267	-0.09315937	-0.11630636	-0.034734264	-0.007000318	0.012728056	0.009028843	0.10161712	0.07520598	0.1254911	-0.038347214	0.08121233	-0.008352043	0.03699042	-0.048678197	0.018227307	0.0020607966	0.06495925	-0.050300088	0.077051274	0.030493395	-0.10407886	0.08525289	-0.15208882	-0.032001417	0.05968288	-0.04581416	0.01578898	0.0283621	0.13879408	-0.071619816	5.2411342e-05	-0.023388963	-0.07613758	-0.0046609845	0.037585802	-0.04832633	-0.0030745901	-0.032931436	0.0046160817	-0.014221344	-0.13026336
DB04216	0.0066646556	0.059826087	0.023552828	-0.019345857	0.06349457	0.13916168	0.038428318	-0.089786604	0.054516807	-0.092116036	-0.032206655	0.05152367	0.034437627	-0.11683125	0.047649037	0.07039924	-0.062063467	0.023312863	0.08770432	-0.1073334	-0.029955763	0.14813556	-0.060967743	-0.084507525	0.101585984	0.1306125	0.0077896044	-0.039313506	0.0028359084	0.032050565	0.11142666	-0.06389804	0.10304347	-0.031933025	0.006509794	-0.0034856633	0.08725628	-0.029811576	-0.012428889	-0.042988848	0.052629046	0.048589963	0.076435424	0.01873829	-0.0007453045	-0.055698503	0.032476917	0.05449808	-0.10631767	-0.042854723	-0.05399245	0.010180149	0.013341937	0.07620305	0.025055768	0.08256766	0.07915754	0.016980682	0.029729027	-0.09431536	-0.075857885	-0.013477359	-0.0063146334	0.019218316	-0.00917609	0.054273665	0.087657966	0.086038426	-0.014555212	0.07829139	-0.030678945	-0.038961824	-0.0052950718	-0.05724066	0.013712365	0.042220775	-0.007510407	0.01638374	0.04686092	-0.07976651	0.08860298	-0.10948645	-0.038721606	0.0261516	-0.05847935	0.014933618	0.018519785	0.12348975	-0.07025225	-0.003165984	-0.07049923	-0.053028844	-0.024803134	0.030907737	-0.023733616	0.030559992	-0.038519137	-0.018312087	-0.034257017	-0.10681633
DB00683	0.003574125	0.068588875	0.06464439	-0.06440357	0.04164488	0.118697286	0.057157718	-0.07495207	-0.0057942416	-0.10140071	-0.089693755	0.041639376	-0.036330964	-0.102480754	0.10336905	0.07778631	-0.068491265	-0.014598494	0.14435372	-0.044041783	-0.064083666	0.1699382	-0.053658877	-0.07326179	0.06485843	0.122923	-0.086097136	-0.013453882	-0.06843264	-0.019449119	0.11960414	-0.071880914	0.119711384	-0.08607669	-0.023990013	0.037252657	0.12604353	-0.08377405	0.032265414	-0.030449321	0.031305056	0.02680706	0.08167273	0.014067449	0.022114687	-0.07030903	0.01807018	0.017472032	-0.046746198	-0.025512751	-0.022650069	0.030688932	-0.053169474	0.06292783	0.03827759	0.07609708	0.10740121	0.04602397	0.02086425	-0.0982469	-0.14733723	-0.039905287	-0.02253029	0.024533743	0.02584486	0.09125293	0.064771116	0.13664348	-0.045820206	0.08387891	0.00057208876	0.041014634	-0.06819479	-0.01381018	-0.00018135842	0.06592516	-0.03408354	0.08545798	0.061469045	-0.12783957	0.092077345	-0.12445134	-0.06803193	0.036676582	-0.026989931	0.032761794	0.0300899	0.13608982	-0.04989804	-0.00450693	-0.07034684	-0.09610002	-0.058505476	0.017049113	-0.07879663	0.014083045	-0.040437143	-0.0064343656	-0.02085572	-0.13555494
DB00682	-0.00258917	0.07707387	0.038111635	-0.04422132	0.011744317	0.123820886	0.07193685	-0.03292727	0.018935235	-0.1141891	-0.059909437	0.033869117	-0.0364772	-0.09534367	0.10455187	0.04545796	-0.056456055	-0.026585909	0.1327321	-0.038890082	-0.04068029	0.17468192	-0.05016787	-0.061388396	0.0826616	0.093991764	-0.0920188	-0.040204328	-0.058269877	-0.005842508	0.11552338	-0.035518434	0.11425175	-0.08805339	-0.030637646	0.016164294	0.12117316	-0.096508	-0.0083362665	-0.0238288	0.052542634	0.012849687	0.098654695	0.013371017	0.026606267	-0.07209629	0.0024973284	-0.03207456	-0.043743793	-0.047854815	-0.033492193	0.009746207	-0.07323351	0.04518517	0.038049176	0.08232078	0.1171204	0.037718937	0.03689333	-0.05635008	-0.13755529	-0.039153878	-0.027168239	0.0018226547	0.027295258	0.07936527	0.06651145	0.13569354	-0.044391196	0.09867233	0.014824342	0.024214625	-0.050440848	-0.021525335	0.033480205	0.080935955	-0.037052833	0.06833615	0.030326536	-0.1159037	0.09860927	-0.14322999	-0.05731848	0.05077816	-0.032410175	0.01514606	0.008508969	0.15069672	-0.060596697	0.014249638	-0.008898418	-0.07082365	0.026863916	0.01822803	-0.093406215	-0.04984874	-0.049820673	0.010092897	-0.011690114	-0.1412289
DB00681	-0.009588202	0.05235434	0.024624204	-0.039712127	0.013062019	0.09923612	0.04150601	-0.015513901	0.0061628073	-0.09539893	-0.05264719	0.013171678	-0.008536018	-0.09036727	0.07012945	0.06049032	-0.071092576	-0.031166622	0.13025934	-0.045611348	-0.057249613	0.15004024	-0.056925848	-0.10218542	0.04668108	0.07461011	-0.048002	-0.054209396	-0.044446662	0.051777106	0.092357405	-0.03041848	0.097400576	-0.08832845	-0.019263897	0.035532244	0.14819135	-0.099278755	-0.061352186	-0.03631589	0.038438983	0.037076928	0.072881445	0.029421069	0.017986745	-0.051535357	-0.00061406917	-0.011692749	-0.02019918	-0.03666842	-0.04890269	0.014124904	-0.07287985	0.053303003	0.023173755	0.08136194	0.07421517	0.041907534	0.047595106	-0.05524686	-0.14748125	-0.012243608	-0.038712773	-0.0035187597	-0.0084171835	0.07937086	-0.013168881	0.117942944	-0.038029693	0.06521025	0.028691761	0.034986995	-0.08095587	-0.03654805	0.028723529	0.081541784	-0.027736712	0.086817145	0.03404606	-0.13605972	0.08445622	-0.12801398	-0.07103894	0.080668435	-0.0059993397	0.006284315	-0.002712816	0.14042549	-0.07651617	-0.020862417	-0.061815385	-0.07731546	-0.044072926	-0.011617262	-0.049586203	-0.03890366	-0.03251808	0.030547151	-0.019844878	-0.15569605
DB00680	-0.0070975423	0.02953586	0.020976761	-0.043462433	-0.0019446607	0.12923037	0.06489977	-0.023906305	0.04600502	-0.09199663	-0.061459783	-0.028062345	-0.029254423	-0.060195234	0.040555142	0.08883663	-0.06221975	-0.031082982	0.13297667	-0.087000765	-0.05925774	0.120999984	-0.062335055	-0.09071854	0.07605909	0.12805165	0.014259839	0.021249786	-0.057778414	0.027755156	0.077939674	-0.012847645	0.12219794	-0.091015175	-0.051854495	0.009192568	0.12576285	-0.10414467	-0.024117865	-0.023278017	0.040401824	0.030216653	0.069370195	-0.017947719	0.0004428022	-0.01753582	-0.023620801	0.0042069443	-0.08771576	-0.018612972	0.005224621	0.021956433	-0.05800863	0.03992806	0.013121212	0.082309894	0.10075327	0.0013409649	0.047775857	-0.10044327	-0.10504028	-0.041456856	0.0055007376	-0.0028267354	-0.031494323	0.06960056	-0.014977237	0.1047167	-0.051005013	0.09089612	0.013611805	0.027922478	-0.07466997	0.019375574	0.00018603099	0.0810687	-0.0011162638	0.0886449	0.03763736	-0.11424175	0.08191541	-0.12525077	-0.021429095	0.08361411	-0.04466586	0.0011141693	0.025916973	0.11536276	-0.04521204	-0.017083893	-0.066843316	-0.050047345	-0.04570091	0.024650149	-0.051765643	-0.05298291	-0.0021918844	0.03385349	-0.018667514	-0.14631194
DB00687	-0.015605969	0.03900437	0.05947444	-0.050626	0.054780576	0.11673641	0.060943685	-0.09442124	0.0032947026	-0.10140991	-0.099869266	0.019564923	-0.030923394	-0.101324394	0.09078359	0.07500256	-0.058348816	-0.017408645	0.12337541	-0.053126127	-0.066359594	0.17036848	-0.054711767	-0.10807985	0.054544672	0.108446985	-0.041824397	0.025007633	-0.06559021	0.06447492	0.117174394	-0.0048482344	0.12337594	-0.09237778	-0.03138756	0.030719237	0.11437991	-0.09474316	-0.005554775	-0.028551487	0.028122555	-0.0070822947	0.087831095	-0.0059629064	0.016665677	-0.057107598	-0.011187241	0.010148874	-0.026580067	-0.00049742893	0.010341242	0.02349303	-0.06822002	0.029102067	0.044886507	0.078136496	0.12937723	0.0065866243	0.026029069	-0.09493987	-0.12248519	-0.040445305	-0.028114617	0.018473972	0.009024529	0.06835775	-0.014673315	0.121412694	-0.06654192	0.09641474	-0.0062522925	0.029807448	-0.058217075	0.0018447895	0.026128374	0.08707423	-0.024263209	0.09780424	0.03779684	-0.13186517	0.07430311	-0.09810096	-0.069836006	0.0704945	-0.05316064	0.005561767	-0.00437947	0.12816888	-0.0546809	0.00044772797	-0.053639933	-0.046334337	-0.0036550052	0.030140381	-0.05584907	-0.05250402	-0.023954242	0.013376333	-0.06121798	-0.116958305
DB00686	-0.038145937	-0.010365742	0.035616506	-0.070957005	0.012716215	0.12559614	0.057380304	-0.078755125	-0.0038416674	-0.08184957	-0.041614395	-0.01967856	0.030119587	-0.10438927	0.092298366	0.102663025	-0.012040902	0.0075768437	0.14444348	-0.063968495	0.013230098	0.14913255	-0.078986704	-0.08575202	0.07233134	0.11611786	-0.022083933	-0.03408003	-0.04586687	0.05227944	0.10124129	0.020117845	0.08882117	-0.06599759	0.0115982685	0.00039989478	0.10342426	-0.074999146	-0.005064903	0.0017780602	0.035817713	0.017985769	0.106834196	-0.012547056	-0.01298962	-0.061566893	-0.00868264	0.0021515526	-0.026706176	-0.019208955	0.036258284	0.014138921	-0.05681944	0.036867913	0.06204887	0.09031779	0.089060836	0.02686924	0.044889987	-0.04246219	-0.12279108	-0.04611775	-0.06573985	0.012715921	0.023880702	0.06353561	-0.011658647	0.089468494	-0.03492305	0.07475328	0.007241167	0.032922402	-0.06327576	-0.05020617	0.011348831	0.0660272	-0.01794513	0.080179945	0.038304597	-0.1101802	0.08637283	-0.096655615	-0.07909623	0.007065313	-0.025641166	-0.0012851447	0.03545868	0.12917802	-0.050210293	0.041378066	-0.06674459	-0.06519616	-0.010049038	0.023457106	-0.0356584	-0.062409952	-0.004914606	-0.0026785391	-0.024597252	-0.14492162
DB00685	-0.012612661	0.04132446	0.027714822	-0.02646554	0.07044273	0.13294436	0.060512498	-0.072149575	-0.0047712782	-0.08656923	-0.04700936	0.053692356	0.033955745	-0.07584075	0.09108052	0.08434561	-0.051451024	-0.0027410123	0.13805714	-0.046973653	-0.053991657	0.14383711	-0.056966234	-0.10578977	0.09513563	0.11744746	-0.015112691	-0.05066571	-0.034928698	0.031091945	0.10124138	-0.04968672	0.11212812	-0.103329584	0.015557051	0.061900113	0.11387386	-0.04697533	-0.025992464	-0.038923953	0.04077204	0.00047019927	0.08402406	0.023000987	0.040469207	-0.046189338	-0.012850067	0.0069985483	-0.09542456	-0.012107251	-0.046114556	0.015162524	-0.06825689	0.08893046	0.013027569	0.08946965	0.075959705	-0.01981032	0.043126933	-0.08173649	-0.1306664	-0.021852873	-0.02699584	-0.015547063	-0.013602488	0.0739689	0.06494224	0.11652916	-0.036976293	0.08427146	0.035716787	0.038613845	-0.07568308	-0.058535367	0.027987253	0.06802713	-0.026601473	0.09458499	0.08987472	-0.12764263	0.07056359	-0.11103012	-0.03714962	0.056415807	-0.048664078	0.005883768	0.034484353	0.14191213	-0.047500398	-0.0094624385	-0.016565038	-0.053628337	-0.035388757	0.0343128	-0.0063321767	-0.043376934	-0.008656394	0.0018899684	-0.08409418	-0.15689057
DB00684	-0.008261135	0.07021542	0.01797928	-0.024201497	0.0001043306	0.11810558	0.06565968	-0.0064827856	0.021347187	-0.120198876	-0.058343552	0.032608435	-0.02893482	-0.09726019	0.09495967	0.081208274	-0.050901823	-0.036417123	0.1490595	-0.03562275	-0.07315367	0.17689428	-0.063217364	-0.11321597	0.05271405	0.0740819	-0.060012136	-0.05736333	-0.059353508	0.0015238432	0.12033597	-0.009977818	0.12317486	-0.089939095	-0.027039262	0.033990018	0.12096529	-0.076210134	-0.04129292	-0.014227634	0.04806389	0.031034054	0.090682924	0.034365986	0.013474544	-0.07058469	0.009406641	0.00013946707	-0.06147641	-0.043631904	-0.044534426	0.02987006	-0.049266778	0.07228792	0.00084371143	0.08937796	0.118096665	0.038197216	0.03666459	-0.07546433	-0.13274479	-0.03811632	-0.056688696	-0.019581655	-0.012485946	0.08979915	0.05071316	0.12858488	-0.055992793	0.07940384	0.031494156	0.038419202	-0.071011886	-0.04824709	0.011135336	0.09985362	-0.033299178	0.08078535	0.03719879	-0.12700665	0.103501186	-0.11683959	-0.029616721	0.0737927	0.00732895	-0.0076927627	0.024244333	0.13601062	-0.06737715	-0.020093042	-0.04876042	-0.07746838	-0.023560204	0.023657925	-0.061793525	-0.055696424	-0.029487144	0.0004523435	-0.028687624	-0.14319375
DB00689	-0.029796379	0.00497834	0.016781015	-0.025914464	0.05110332	0.11947571	0.053836066	-0.031189771	0.02422831	-0.09478778	-0.010137588	0.03303224	0.028594824	-0.09540381	0.06969614	0.08693218	-0.0045094434	-0.0016178709	0.11463065	-0.09382923	-0.056660667	0.14526978	-0.048898913	-0.10671082	0.08740493	0.12766111	0.018196844	0.0023690849	-0.030520117	0.051651526	0.08550471	-0.012550501	0.12155209	-0.099831365	0.0039489637	0.04901742	0.12939344	-0.110722005	-0.039817225	-0.037332796	0.048870683	-0.0027243397	0.06773835	-0.0008196734	0.006259934	-0.018674197	-0.033010896	0.024035838	-0.07095144	-0.012288028	-0.029163426	0.017027427	-0.019102728	0.06506771	0.020595698	0.084071666	0.10010573	0.00833513	0.0587001	-0.08983861	-0.09441315	-0.02686997	0.034227766	-0.01949948	-0.024700213	0.07541262	0.008927876	0.13512318	-0.04132849	0.08144714	0.017083019	0.032070465	-0.05399516	0.009470158	0.027182296	0.08062597	-0.029383417	0.08266759	0.076629005	-0.112872906	0.07702314	-0.13270564	-0.039377514	0.023294998	-0.032360017	0.0159885	0.007755026	0.13501006	-0.10055726	-0.023113217	-0.07997243	-0.036899216	-0.036885317	0.0011183928	-0.03560159	-0.049148865	0.003629285	0.057373162	-0.05232855	-0.1450986
DB00688	-0.0050996635	0.07633393	0.057896305	-0.033953264	0.023809593	0.12581508	0.062051762	-0.02031135	0.0058034398	-0.110694826	-0.054773867	0.036915798	0.02202008	-0.0934181	0.11297132	0.08030948	-0.0601908	-0.014203334	0.1258974	-0.057091467	-0.05540112	0.16760445	-0.05032639	-0.088102914	0.09764286	0.12163913	-0.105034806	-0.03863419	-0.029113078	0.0029877163	0.12553053	-0.05570544	0.11873187	-0.07962517	-0.008719979	0.0057950024	0.13358305	-0.080251396	-0.021277476	-0.038721293	0.044660095	0.039718404	0.1169633	0.010728305	0.03129327	-0.052158803	0.009399941	0.0035064118	-0.036149703	-0.016029205	-0.017713942	0.016525427	-0.0582556	0.047672067	0.036686167	0.09123131	0.08624802	-0.010735223	0.04704716	-0.08911421	-0.1330594	-0.04604136	-0.029724874	0.025165388	0.017026043	0.09092145	0.05782393	0.13119492	-0.028652275	0.07551268	-0.014297923	0.00016954693	-0.058091488	-0.006752467	0.01975542	0.051227935	-0.026800016	0.076464705	0.031946667	-0.1192631	0.08430987	-0.120194405	-0.030775784	0.042155918	0.003337372	0.012665577	0.018017042	0.1409946	-0.06966801	0.0010575597	-0.04097363	-0.08242601	0.0028609615	0.03236031	-0.042571858	-0.02663344	-0.048038136	0.0073183514	-0.015989339	-0.13720511
DB00373	-0.01642533	0.08045374	0.037615348	-0.016259288	0.037441425	0.08820432	0.08796734	-0.08210945	0.02666658	-0.118150115	-0.06881805	0.044237822	-0.030712781	-0.11150966	0.11913378	0.059806835	-0.04595134	-0.02224489	0.14584261	-0.08084384	-0.05326722	0.16974793	-0.059747737	-0.08774931	0.034864396	0.12461901	-0.08673136	-0.036549762	-0.07564714	0.042112682	0.1320681	-0.03086259	0.1294467	-0.08953981	0.0053080595	0.029659308	0.12906438	-0.07757492	-0.013639059	-0.002046816	0.04110723	0.02932432	0.103077576	0.008104891	0.012493914	-0.077058256	0.004770456	-0.0186595	-0.087110795	-0.040654838	-0.034947693	0.008964476	-0.07170261	0.047135644	0.03536276	0.09824064	0.1324784	0.0097071715	0.025209757	-0.07322506	-0.12258555	-0.01939686	-0.03352149	0.011891309	0.03348814	0.098979436	0.06797475	0.1358938	-0.04095133	0.07063987	0.022594435	0.051775664	-0.06254636	-0.04718276	0.012476038	0.08304889	-0.015730202	0.09032242	0.031599294	-0.11839865	0.07906861	-0.12211956	-0.023340859	0.045002904	-0.048501313	-0.0031699296	-0.04463093	0.15051803	-0.054394167	-0.0072684847	-0.015533483	-0.051715206	0.0024883724	-0.009132304	-0.042239487	-0.042471834	-0.035101056	0.0067876745	-0.007695714	-0.15139014
DB00372	-0.04373909	0.01566169	0.04365545	-0.02796032	0.05884577	0.13185097	0.05543851	-0.08333704	0.012570677	-0.08695537	-0.065878965	-0.032261748	0.015653007	-0.08976316	0.081148185	0.080904454	-0.06573752	-0.006455613	0.12885526	-0.06541974	-0.05939003	0.08210685	-0.06347012	-0.108224794	0.07744264	0.12242031	0.001953133	0.020228846	-0.063076064	0.050547507	0.101318315	0.0033469545	0.11097576	-0.09004445	-0.039965913	0.016643286	0.11070247	-0.10097807	-0.024831792	-0.0354267	0.047454584	0.012813883	0.07319835	0.0008865299	0.010299747	-0.063796826	-0.02627723	0.02299445	-0.09153276	-0.0009828397	0.01149131	0.024913227	-0.06697869	0.042428643	0.021726906	0.022604374	0.13849671	0.029931452	0.05354976	-0.08799647	-0.11705784	-0.015825806	-0.016856514	0.007164633	-0.017870553	0.07118797	0.007617034	0.12870657	-0.055241518	0.0943315	-0.011448691	-0.0395542	-0.05684707	0.00012665032	0.015427783	0.08708492	-0.0060454104	0.07870817	0.037570857	-0.10955856	0.086376816	-0.116316795	-0.08213618	0.0388204	-0.020245379	-0.0002650168	-0.048160356	0.122015685	-0.066244215	-0.009930963	-0.01613589	-0.052776538	-0.03474477	0.0144672375	-0.045410354	-0.027288679	0.0009260244	0.0076132864	-0.04678587	-0.13832298
DB00371	0.024343261	0.03454346	0.025159085	-0.03715172	0.019079773	0.12034798	0.06392361	-0.012388745	0.0116443	-0.07841091	-0.06996095	0.02930076	-0.02826961	-0.098986275	0.10910015	0.08335718	-0.057896413	-0.016835492	0.14809778	-0.0698065	-0.061570223	0.14557913	-0.055516586	-0.08932759	0.061312005	0.08059296	-0.08185883	-0.008734053	-0.05974905	0.031451046	0.11232438	-0.013253152	0.10290281	-0.073614925	-0.014334807	0.009939479	0.13468204	-0.0959643	-0.016655507	-0.030262103	0.03974638	0.030601358	0.085666336	0.008957418	-0.008873798	-0.05513995	0.015150288	0.003980235	-0.079694785	-0.051419873	0.004091738	0.008475545	-0.056957513	0.04695578	0.0460111	0.07355542	0.12341645	0.044279993	0.035792712	-0.08652882	-0.13006923	-0.022790337	-0.03998228	0.027380958	-0.0027996502	0.0698677	0.057701744	0.116722174	-0.04265053	0.093814015	0.0018708344	0.024985885	-0.05501874	-0.049932502	-0.017434085	0.063677795	-0.008863511	0.086155914	0.024789143	-0.11236394	0.087786146	-0.12403858	-0.026326107	0.03405209	-0.033864845	0.004990086	-0.019844318	0.11413424	-0.0482425	0.042066857	-0.07811086	-0.0706161	-0.001065435	0.024915311	-0.040477395	0.009364367	-0.031729624	-0.0012285613	-0.014000636	-0.1501632
DB00370	0.010535632	0.07456366	0.07666801	-0.057088494	0.04283457	0.096101776	0.07692228	-0.05660695	-0.0007677503	-0.086144656	-0.042720415	0.047561914	0.035471343	-0.08336294	0.12241171	0.09633149	-0.064065926	-0.017425004	0.15915196	-0.054557346	-0.06500602	0.16006973	-0.05963962	-0.084234744	0.053632084	0.08569345	-0.1043987	-0.054455902	-0.057578895	-0.018374836	0.121531874	-0.043506794	0.10345254	-0.09212301	-0.019670183	0.012897434	0.12597603	-0.074647725	0.028442817	-0.043194033	0.06800799	0.0014725627	0.07419543	0.011063492	0.024101363	-0.07125534	0.013836708	-0.0028725378	-0.021642525	-0.069934465	-0.05467699	0.015422968	-0.063439004	0.038873408	0.036900416	0.08048194	0.12831737	0.034000486	0.039933015	-0.08060674	-0.14635547	-0.03732083	-0.033729307	-0.0017448628	0.013687894	0.09327232	0.07504886	0.1298588	-0.03811206	0.07915597	-0.007828891	0.042907212	-0.06262989	-0.05123655	-0.009841822	0.083876036	-0.022412004	0.09587217	0.03352938	-0.1367083	0.11176778	-0.113114625	-0.07935935	0.04784181	-0.05336385	0.0065739434	0.026050681	0.14885186	-0.029701896	-0.010919363	-0.03386514	-0.07551183	0.005561522	0.030039322	-0.03422377	0.01663058	-0.061347894	-0.0005523071	-0.052734263	-0.13282426
DB00377	-0.011377297	0.08196022	0.014732512	-0.04276222	0.010794718	0.12471065	0.054539945	-0.0237521	-0.008744548	-0.09663887	-0.07203116	0.030377032	-0.020487124	-0.073529206	0.079680495	0.09578791	-0.060371745	-0.049975663	0.13129477	-0.0654158	-0.059617613	0.16737586	-0.05718548	-0.09936749	0.10497122	0.12843615	-0.08240315	-0.03913249	-0.045596235	-0.010302934	0.09496217	-0.019559044	0.1190174	-0.07938674	-0.02099689	0.0055576004	0.1416388	-0.092386305	-0.02059281	-0.01035727	0.048220042	0.042912845	0.09052401	0.008142129	0.02162514	-0.033116832	-0.009170157	-0.0052129924	-0.026836047	-0.05485333	-0.0061746724	0.02176298	-0.060015272	0.04761557	0.024351029	0.08497052	0.058704622	0.04982337	0.043817103	-0.08437589	-0.11155245	-0.064704366	-0.049568698	0.007275708	-0.014994586	0.08010393	0.062598616	0.09013594	-0.041341037	0.07162076	0.0061227754	0.030166429	-0.05523223	-0.00037143775	0.005484415	0.07685454	-0.013691928	0.08392285	0.03964143	-0.11054659	0.04077459	-0.13132212	-0.054294284	0.062039968	-0.036782883	0.045042574	0.028065652	0.11682787	-0.07362838	-0.018106438	-0.048377823	-0.054335475	-0.010604525	0.010475151	-0.09285711	-0.045079783	-0.024572173	-0.005312522	-0.035961676	-0.11793965
DB00376	-0.023721352	0.028077152	0.04440536	-0.06031007	0.039561503	0.11970715	0.07489105	-0.08323384	0.023833156	-0.086012125	-0.07557313	0.036682412	0.02660078	-0.09177838	0.088009484	0.07324925	-0.047475897	-0.0010345998	0.1292298	-0.043733444	-0.064911254	0.16152917	-0.067283124	-0.10269534	0.048736475	0.105272226	-0.028980741	-0.037956305	-0.08449745	0.0028692316	0.12307621	-0.0052012205	0.13064198	-0.08719967	-0.026136475	0.03285806	0.13099192	-0.09662634	-0.011134353	-0.021121738	0.049394235	0.024234908	0.08201631	0.008396231	0.0030978052	-0.06939691	0.018942943	0.0029651648	-0.0314825	-0.008821517	-0.0060298312	0.013457391	-0.061956707	0.052526157	0.031897362	0.076591246	0.13633186	0.052389212	0.031390704	-0.05321928	-0.12632225	-0.035320524	-0.012852935	0.012313077	0.0011455846	0.08185952	0.004862859	0.12027541	-0.059193403	0.077166505	0.0016619592	0.032808155	-0.06578033	-0.043362446	0.01881147	0.083205074	0.0015189425	0.103114925	0.030308748	-0.114152275	0.09391129	-0.13351715	-0.083723664	0.06598786	-0.047909483	0.014674557	0.018927982	0.1525785	-0.052410837	0.011972683	-0.06731716	-0.03922366	-0.02297911	0.027661875	-0.044864144	-0.043586228	-0.022633223	0.0024968628	-0.083760895	-0.13439862
DB00375	-0.011634549	0.0412445	0.02839843	-0.046039794	0.016897256	0.11180817	0.051984	-0.061194725	0.034773037	-0.09242437	-0.068756	0.01317603	-0.024089646	-0.10722064	0.08375865	0.035752345	-0.03760091	-0.038100254	0.12793311	-0.03897924	-0.060865484	0.15132435	-0.069531016	-0.08273967	0.07514757	0.07762398	-0.067830406	-0.04708006	-0.042183932	0.040493086	0.089504585	0.02390636	0.09034225	-0.086365044	-0.030529002	0.015677568	0.13237888	-0.0820544	-0.02594421	-0.024434451	0.03321382	0.045818564	0.11404638	0.014598316	0.02380655	-0.015845604	0.02397919	0.004550481	-0.018394986	-0.024453456	-0.008228689	0.02686848	-0.06146112	0.04952537	0.02584938	0.07582367	0.13379171	0.01882766	0.059606705	-0.072137944	-0.1351647	-0.035059284	-0.067140296	-0.013180098	-0.003325725	0.079138346	-0.008522639	0.11750732	-0.049431525	0.08389225	0.025908377	0.027760264	-0.060543194	-0.03048339	0.0229853	0.08634284	-0.027021868	0.084083974	0.028196914	-0.12245737	0.081954606	-0.114151955	-0.07653141	0.069000356	-0.037214804	-0.007973404	0.0038880925	0.13311467	-0.042655192	-0.014764676	-0.02738344	-0.06325962	-0.004437655	0.03231871	-0.043150466	-0.04994882	-0.020559901	0.0043853875	-0.012533829	-0.15353957
DB00374	-0.011157196	0.046641175	0.06793624	-0.049355976	0.059832394	0.105950475	0.0692284	-0.009304881	0.01922225	-0.095000006	-0.06395282	0.036340054	0.0015594551	-0.08812211	0.112160966	0.08595151	-0.047804262	-0.017490145	0.14611642	-0.03936849	-0.053722017	0.16237254	-0.07714543	-0.11219283	0.087313615	0.12164599	-0.02083905	-0.045584977	-0.037805196	0.042689607	0.099068336	-0.04406033	0.11321669	-0.10653362	-0.03474926	0.022063674	0.13968205	-0.092653766	-0.015454121	-0.023595732	0.047452483	-0.021140695	0.08942979	0.02787013	0.02856523	-0.04620982	-0.0034513706	-0.00095745793	-0.031547543	-0.024441248	-0.04594171	0.027451973	-0.06073974	0.07410487	0.020693136	0.07441595	0.12930007	-0.003783043	0.04313643	-0.08244187	-0.12225543	-0.0026637884	-0.032698315	-0.0040132618	0.005292792	0.09057142	0.04105377	0.12529147	-0.038122725	0.07560977	0.0055019604	0.017356746	-0.06439264	0.0060611153	0.017036155	0.09389347	-0.021419622	0.08657775	0.031460404	-0.12087199	0.07895051	-0.11363685	-0.066578545	0.06922903	-0.03430929	0.0077646524	0.03630488	0.1442113	-0.07555964	0.0009068663	-0.021246074	-0.056849346	-0.0031766593	-0.0014813478	-0.036506288	-0.044996347	-0.029896505	0.023754697	-0.01755811	-0.1545913
DB00379	0.0015216871	0.078353494	0.01967077	-0.023001393	0.010814143	0.11634175	0.06952687	-0.011783	0.0011867267	-0.09137083	-0.059313178	-0.014190698	0.035177186	-0.087037995	0.111511186	0.08052437	-0.049462974	-0.025718505	0.1370214	-0.03256057	-0.07059807	0.17283043	-0.06604226	-0.08670076	0.066836186	0.09396295	-0.07097217	0.014034446	-0.06044558	0.048106316	0.11303829	-0.034197874	0.11617034	-0.08262767	-0.044749416	0.014398446	0.13225849	-0.0917211	0.0041099386	-0.0475585	0.050653078	0.035725344	0.097083844	0.02118944	0.024085503	-0.024028119	-0.017791988	0.0023939526	-0.057841618	-0.010732604	-0.0077826492	0.03526272	-0.057350375	0.036909536	0.033126555	0.09126496	0.12515359	0.04920475	0.014741385	-0.07959531	-0.09463331	-0.003463935	-0.039977532	0.02875231	0.028660493	0.08934262	-0.0037637348	0.1427588	-0.042798366	0.08121806	-0.011299714	0.031209508	-0.05560782	-0.013436459	0.0028762072	0.078747205	-0.01368463	0.09097047	0.03203807	-0.12354213	0.09315758	-0.12617287	-0.028156597	0.06326904	-0.046095654	-0.0071069757	0.018622609	0.13836025	-0.032240134	-0.006229275	-0.03208759	-0.07678451	-0.015578199	-0.0106740445	-0.05908083	-0.027660798	-0.055099797	0.0028142352	-0.0075358003	-0.14190131
DB00378	-0.009059191	0.0053443518	0.025678318	-0.046208683	0.035816997	0.1142848	0.057249192	-0.05853387	0.0118568335	-0.063452184	-0.062318604	-0.009105167	0.030129999	-0.10252098	0.050697833	0.07221669	-0.058936328	-0.0054241875	0.11824143	-0.03029673	-0.06654324	0.09848736	-0.060595267	-0.108634196	0.024478601	0.09513587	-0.0031321137	0.033609144	-0.059077017	0.049041476	0.08281899	0.009580409	0.11861675	-0.089046486	-0.044733085	0.024409456	0.12105657	-0.09803151	-0.026753528	-0.043484304	0.038049273	0.021652661	0.079725705	-0.026219867	-0.023687571	-0.06697942	-0.049963377	0.010787165	-0.031756334	0.0022902722	-0.013777502	0.028638316	-0.04941178	0.063657776	0.019159881	0.07600763	0.09565853	0.019977283	0.047560543	-0.07790898	-0.04512924	0.0029221056	-0.027659286	0.022803107	-0.0020606322	0.07676408	0.009859588	0.08686688	-0.054975636	0.10586963	0.011655897	0.020525223	-0.053371415	-0.00030299474	-0.013820471	0.08395808	-0.0077148695	0.09825759	0.040275287	-0.030952198	0.007533975	-0.12216614	-0.005248377	0.024683287	-0.04493263	0.008798143	0.020708624	0.12459758	-0.059910733	-0.0054721734	-0.07566027	-0.06687621	-0.0072821416	-0.04386763	-0.027241312	-0.025469765	0.014572522	0.0013670401	-0.016372496	-0.14237729
DB06237	-0.016864484	0.05664248	0.0054416135	0.016031014	0.054518986	0.14009334	-0.040987477	-0.019088214	0.018778155	-0.09685645	-0.02980218	0.04705301	-0.05017253	-0.0907326	0.012488497	0.00416762	-0.064464614	0.012323311	0.13977128	-0.072385944	0.03061421	0.15832101	-0.032560606	-0.08694771	0.09007721	0.10371098	0.026792292	-0.06397629	0.021375503	-0.0041005253	0.07943765	0.035121307	0.071408644	-0.081453964	-0.041384056	-0.0014545504	0.1095238	-0.04180287	-0.037876297	-0.05973218	0.066278376	0.057924647	0.059938725	0.09299923	-0.01839102	-0.007054597	0.026363784	-0.012859439	-0.09459947	-0.03376813	-0.082288794	0.020750634	-0.05005477	0.056681372	0.012673935	0.08055125	0.087406255	0.00590137	0.04487805	-0.04571716	-0.07178837	0.005482325	0.011289468	0.027688637	-0.011926146	0.060988702	0.0774465	0.09629569	-0.021336336	0.07909592	-0.007926392	0.044142693	-0.051309172	-0.015889898	0.015647735	0.045910705	0.0036121886	0.027003648	0.008713501	-0.100081675	0.09135052	-0.13588865	-0.039345115	0.03577156	-0.0568851	0.040695272	0.05171592	0.09959578	-0.040914774	0.0036135726	-0.07016604	-0.01746516	-0.034397658	0.021093652	0.034801554	0.0066441214	-0.04148568	0.012498319	0.0009623222	-0.13024813
DB04854	0.0025102939	0.076299295	0.05326686	0.03327013	0.06571129	0.12745488	0.043962877	-0.011532795	0.025668817	-0.08154514	-0.027225839	0.044025626	-0.046761602	-0.08217631	0.095742606	0.0172727	-0.05880584	-0.03613524	0.12082246	-0.03246268	-0.054482643	0.17054315	-0.05994011	-0.078839265	0.065463796	0.10516673	-0.053568233	-0.041563183	-0.02619445	-0.015952503	0.079180345	-0.01085018	0.10104186	-0.08585667	-0.022052873	0.020039737	0.09303487	-0.09338433	-0.057010815	-0.04297141	0.041593537	0.044578284	0.06063418	0.070841946	-0.0065060575	0.019191874	0.017054787	-0.013582246	-0.09310188	-0.007019574	-0.045558706	0.015404394	-0.030278007	0.05262281	-0.0011535166	0.087114245	0.11541717	0.04429092	0.02711571	-0.068081446	-0.079365514	0.015573751	-0.0143555235	0.03764385	-0.01892805	0.07638491	0.07883239	0.10407266	-0.038329396	0.08083482	-0.013991587	0.03189636	-0.060576655	0.0020130957	0.06823181	0.06881254	0.005422665	0.07763028	0.040429965	-0.10955408	0.09178375	-0.11662244	-0.06739125	0.065106	-0.06955242	0.010998292	0.0472659	0.09913237	-0.044693775	-0.003706168	-0.05243744	-0.041461267	-0.01147021	-0.011291705	-0.03336338	0.019751804	-0.031290907	0.0418771	-0.02320421	-0.14667295
DB04855	0.012247466	0.028387481	0.015558463	-0.017127411	0.052748866	0.15243755	0.040354643	-0.08966656	0.028715936	-0.0771984	-0.061019145	0.055220477	-0.04954516	-0.10415829	0.1159898	0.081821226	-0.058772266	0.0065533705	0.14415523	-0.05057568	-0.034498572	0.15131015	-0.048044533	-0.095491424	0.08507927	0.12078703	-0.013169168	-0.04061025	0.0020521148	-0.006804889	0.07947143	-0.054278616	0.12106484	-0.043277256	-0.04024438	0.006038079	0.10294349	-0.055243477	-0.024562528	-0.08773394	0.051479883	0.048166223	0.02721916	0.057877447	0.0024809819	-0.019264247	0.024933845	-0.00092244777	-0.07970444	-0.066789575	-0.07144286	-0.0014172961	-0.029941082	0.057836	0.021825023	0.09417827	0.118288144	0.040770013	0.03122689	-0.08817067	-0.1259143	-0.014571011	-0.017177219	0.04275617	0.0050255535	0.05971201	0.0702686	0.1391828	-0.010592209	0.0848672	-0.046745528	0.03939732	-0.057809416	0.0032509672	0.017398752	0.048702538	-0.014497379	0.07863698	0.020734327	-0.090003	0.0797803	-0.14661233	-0.06639054	0.029095875	-0.026622908	0.008595629	0.032676417	0.11164338	-0.062838204	6.9779926e-05	-0.03365228	-0.077253915	-0.034155283	0.023346167	-0.027688209	0.028361963	-0.039647765	-0.0033650822	-0.033381753	-0.14075674
DB04858	0.0063981535	0.06054928	0.025517778	-0.0030412339	0.058094762	0.078281924	0.024369406	-0.005229028	0.018660521	-0.08305946	-0.008272987	0.037824973	-0.048937798	-0.07143976	0.008194286	0.06475354	-0.05061279	-0.012409623	0.109635256	-0.06239992	-0.046114508	0.15079667	-0.031779066	-0.05946748	0.07667311	0.1149734	0.017835312	-0.03572351	-0.022931086	0.042281583	0.06328491	-0.02501408	0.10081766	-0.036642626	-0.026722899	0.0371541	0.058758616	-0.0935096	-0.03176731	-0.0790176	0.04627449	-0.008018889	0.03912381	0.015531905	-0.024799952	-0.010498429	-0.027781785	-0.017394073	-0.08100821	-0.007815575	-0.041713715	-0.010125052	-0.056815833	0.04482882	0.016502194	0.08238515	0.0912482	0.06943511	0.019650884	-0.080472074	-0.023841012	0.011208972	0.042437047	0.036320817	4.775473e-05	0.022889128	-0.012596535	0.096797965	-0.029711932	0.07526076	-0.018400008	-0.03671507	0.02382622	-0.016552886	0.010363402	0.09022715	0.02493908	0.034111835	0.028278941	-0.029408477	0.092848495	-0.10998963	-0.06177612	0.03729772	-0.046739873	0.00222346	0.03755947	0.07270257	-0.04319018	0.014308484	-0.06418437	-0.036570597	-0.02225473	-0.008068118	-0.0055631837	-0.04162933	-0.020039435	0.006074764	-0.013293944	-0.11582258
DB05239	-0.00029026926	0.07911142	0.02652671	0.028410109	0.02462403	0.12198375	0.023753697	-0.0026480132	-0.0046019424	-0.045946244	-0.06899236	0.041778214	0.030377166	-0.07332373	0.084904015	-0.0091678295	-0.01582567	-0.01003214	0.16618921	-0.055468842	-0.03230211	0.18505846	-0.059745003	-0.049988624	0.10694326	0.12228653	-0.07131513	-0.046523005	-0.021652322	0.058190048	0.017267443	-0.0028951354	0.10826876	-0.029259678	-0.030925645	0.009868499	0.071812265	-0.056449246	-0.02529104	-0.032288063	0.04841734	0.012910061	0.09993427	0.031938788	-0.01894712	-0.024047002	0.004994464	0.0003683346	-0.024608595	-0.0329083	-0.035751157	0.023249676	-0.06856702	0.06720874	0.019496433	0.08759099	0.07136794	0.0633556	-0.013110933	-0.07165068	-0.08097868	0.0007642179	-0.01115071	0.04381578	0.023955043	0.04276384	0.08025808	0.08539172	-0.05061026	0.08778918	-0.061950188	0.021174429	-0.00676048	0.020892302	0.014103904	0.050771724	-0.0030725086	0.058139037	0.022526527	-0.029185599	0.08629778	-0.10349788	-0.07073276	0.0072260387	-0.040877797	0.0053244736	-0.011120152	0.07528806	-0.039336875	0.015155144	-0.0024620295	-0.03689596	0.003617046	-0.056483183	-0.036414437	0.026536824	-0.034702495	-0.004243124	4.699058e-05	-0.075189725
