Drug	feature0	feature1	feature2	feature3	feature4	feature5	feature6	feature7	feature8	feature9	feature10	feature11	feature12	feature13	feature14	feature15	feature16	feature17	feature18	feature19	feature20	feature21	feature22	feature23	feature24	feature25	feature26	feature27	feature28	feature29	feature30	feature31	feature32	feature33	feature34	feature35	feature36	feature37	feature38	feature39	feature40	feature41	feature42	feature43	feature44	feature45	feature46	feature47	feature48	feature49
DB00742	-0.112292565	0.09038829	0.24759698	-0.07513285	-0.060289543	-0.106887385	-0.06411761	-0.20532006	0.107400686	-0.08238175	0.1663109	-0.09491246	-0.090272225	-0.11026978	-0.14635342	-0.036168978	0.15139076	-0.020472063	-0.009925444	-0.079281844	0.07174855	0.09191956	0.1946285	-0.08427288	-0.009654058	-0.1060304	-0.14073245	0.03943122	0.12064981	0.10774475	0.20242664	0.06933885	0.006322729	-0.07120466	-0.20481886	-0.011978302	0.12639149	0.046115313	0.023194177	-0.07170059	-0.07476196	-0.20703596	0.21180218	0.0800748	-0.13618428	0.107913606	0.10993018	-0.011278552	-0.121125065	-0.078641936
DB05107	-0.050454717	0.11196867	0.121736005	-0.010064286	-0.20612003	-0.09481021	-0.085798636	-0.1378408	0.037340406	-0.045848135	0.11264564	0.0293313	-0.025565397	-0.034605045	-0.06124868	-0.020738982	0.18123999	0.11100848	-0.026966337	0.035244536	0.13697818	-0.019523153	0.16928981	-0.06285193	0.038549483	-0.071167424	-0.104151	-0.0064124675	0.088973224	0.053651243	0.116681635	0.043160327	0.117553286	-0.011522977	-0.0963272	0.0066837734	0.050357495	-0.014923977	-0.021409879	0.051079333	-0.09941862	-0.17906167	0.20239535	0.059303045	-0.1418793	0.040348265	0.0052536405	-0.033303116	-0.13140024	-0.07793228
DB00743	-0.09143233	0.07464393	0.19546483	-0.08189724	-0.039285447	-0.14917886	-0.21991201	-0.16189776	0.014807048	-0.03975716	0.13894191	-0.0876836	-0.06461582	-0.11024573	-0.15188065	-0.082000844	0.1724359	0.0024554408	0.015761452	-0.0884892	0.08955418	0.10527094	0.17991532	-0.011712141	-0.03876657	-0.049394652	-0.111251555	0.07983041	0.108514115	0.073400885	0.18940726	0.11168731	0.047021024	-0.08629675	-0.10652524	-0.036566537	0.11575271	0.018663406	0.06192422	-0.08906209	-0.07447295	-0.17275627	0.15363598	-0.05927703	-0.13754897	0.12080224	0.1294802	0.055226255	-0.070846535	-0.10759739
DB05101	-0.042516146	0.03231419	0.10618313	-0.0270489	-0.031432908	-0.03882919	-0.08196297	-0.07698054	0.10648926	-0.04195781	0.040876225	-0.08021225	-0.046020888	-0.020896237	-0.1315996	-0.107179694	0.086573556	0.013288352	-0.119837366	0.050460134	-0.0040341723	0.004963676	0.14054064	-0.008789031	0.052373376	0.03213827	-0.09773872	0.025166437	0.0506477	0.039005555	0.078455776	0.07124207	0.03655415	-0.03571979	-0.04173426	-0.057138328	-0.012333119	0.039037034	-0.032169145	0.021782793	-0.012618516	-0.14869629	0.09269523	0.011534636	-0.10751555	0.11253557	0.08169329	-0.014780318	-0.09412578	-0.0053372234
DB05100	-0.06635274	0.12105737	0.017526569	0.009029973	-0.17817637	-0.08946463	-0.115253255	-0.16112971	0.014916743	-0.12852275	0.11045618	0.02303306	-0.003985959	-0.08001257	-0.11760635	-0.064526945	0.16291709	0.08762918	-0.0354772	0.015834415	0.120854646	0.006378799	0.19366963	-0.053335384	0.06808695	-0.033793196	-0.12470454	0.044155926	0.053563908	0.059139725	0.14770655	0.06285859	0.113454215	-0.11481789	-0.079422556	-0.02127526	0.08011539	0.013685318	-0.029337674	0.04433615	-0.08547069	-0.17368886	0.13264881	0.034645166	-0.15584545	0.034078043	0.015279335	-0.063184075	-0.11306382	-0.11144331
DB09161	-0.10374009	0.09274038	0.03272089	-0.05778935	-0.07958531	-0.03800913	-0.094290964	-0.116628416	0.063686915	-0.0655993	0.14110316	-0.05759453	0.059688505	-0.10882174	-0.14277118	-0.041439414	0.12593037	0.029462686	-0.052285776	-0.10216987	-0.011045879	-0.010290044	0.1098732	-0.038827408	-0.0043833875	-0.06852445	-0.083902344	0.062159136	0.08181243	-0.0035979378	0.10386634	0.06344428	0.06614206	-0.08446909	-0.10127004	-0.048878856	0.04772816	0.047301836	-0.030014688	-0.04264932	-0.04094853	-0.18314797	0.115691595	-0.03086807	-0.1264392	0.062334236	0.05944367	-0.018844925	0.017241485	-0.06413637
DB09162	-0.1178372	0.0490286	0.13822035	-0.015116596	-0.06511131	-0.065135695	-0.07603925	-0.05949553	0.035318527	-0.037652716	0.12634559	-0.055737507	-0.051807385	-0.11588407	-0.12079162	-0.034267608	0.08983551	-0.02225657	-0.0646353	-0.016624404	-0.04204694	0.021448232	0.117001355	0.044281416	0.022546124	0.0031421585	-0.11216578	0.054269932	-0.042696454	0.031179426	0.12795003	0.062480852	0.04090721	-0.011502691	-0.062463865	-0.0020960262	0.019190505	0.060172006	-0.0005226411	-0.018375315	-0.0023639211	-0.13580607	0.07651087	-0.034599658	-0.1216898	0.12531435	0.028116072	-0.044287164	-0.050573766	0.008654506
DB05109	-0.0031019433	0.10789859	0.23065436	-0.08022558	-0.06444135	-0.11793407	-0.059123106	-0.18690741	0.023710178	-0.08579331	0.0759582	0.043448742	-0.071947865	-0.0588148	-0.16525838	-0.013929531	0.18011379	0.02777109	-0.07586165	-0.086052865	0.14729428	0.023523308	0.17610005	-0.08789924	0.040514596	-0.045218166	-0.15014613	0.046179194	0.12539399	0.09479369	0.13436505	0.06088857	0.028155679	-0.078764245	-0.16992159	-0.0398771	0.13843809	-0.08971622	-0.041963354	0.010791865	-0.098016806	-0.15237917	0.15861768	-0.009416807	-0.20787473	0.042613234	0.12035327	-0.05089478	-0.12949829	-0.14306277
DB01319	-0.055030033	0.08987301	0.20885669	-0.059133902	-0.054714616	-0.104516245	-0.08191755	-0.16709484	0.11786451	-0.104892835	0.1099185	0.00507644	-0.070519544	-0.08912674	-0.15989394	-0.050597884	0.2082301	0.050087173	-0.0144405225	-0.088394515	0.04485037	0.015341808	0.21526696	-0.079936095	0.0023332485	-0.0645356	-0.12420271	0.040465593	0.14264508	0.09702459	0.18270192	0.07199501	0.07834928	-0.10185324	-0.1388848	-0.0012527064	0.14119872	-0.028255157	-0.0135186715	-0.0248417	-0.097670265	-0.18411674	0.2434381	0.090444446	-0.14772849	0.07039931	0.02899711	-0.0507431	-0.108422525	-0.11286077
DB01178	-0.11243898	0.08839339	0.20517643	0.010896785	-0.08870776	-0.1216316	-0.10489383	-0.1446384	0.0013732956	-0.09896336	0.11271839	-0.060482353	-0.06822702	-0.100208566	-0.13448891	-0.044471104	0.1751009	0.029608909	-0.033788502	-0.078441754	0.11968983	0.063888624	0.18220328	-0.057674848	-0.017620929	-0.101915196	-0.12233642	0.018303026	0.13170967	0.099459805	0.21215901	0.0772471	0.047120247	-0.099166766	-0.08520228	-0.010157527	0.13712811	0.041460093	-0.02329723	-0.014000755	-0.12683293	-0.19378427	0.17135198	-0.04948432	-0.11913868	0.073789574	0.12343131	0.03659209	-0.12831485	-0.14180943
DB01179	-0.10435386	0.07833256	0.23034468	-0.07323063	-0.07060592	-0.1181762	-0.096884355	-0.19589572	0.07625408	-0.05026218	0.13179079	-0.047399927	-0.060058657	-0.08779219	-0.16962	-0.038046706	0.15774803	0.007959261	-0.0045972313	-0.047325823	0.10703631	0.064453974	0.21451735	-0.09913569	0.00983331	-0.0799905	-0.15666166	0.02111448	0.13523544	0.10676634	0.20519806	0.051137038	0.04493273	0.0011223691	-0.19871153	-0.016329601	0.13846572	0.025282465	-0.011816479	-0.055045806	-0.09554367	-0.1730946	0.27212313	-0.050796777	-0.18650275	0.09101676	0.11769453	-0.013641931	-0.029534483	-0.1128754
DB01176	-0.11219458	0.10184188	0.24793223	-0.03327903	-0.08813042	-0.1261505	-0.1104316	-0.20177089	0.026645916	-0.059371803	0.16122764	-0.05930634	-0.0661972	-0.08869825	-0.15749675	-0.06453265	0.13467728	0.00835807	-0.01235525	-0.066134974	0.113714285	0.036592446	0.1490808	-0.053963367	0.01216246	-0.06400933	-0.120453306	0.07033379	0.13931872	0.059425857	0.2096849	0.06370464	0.012308317	-0.09094189	-0.18696716	-0.018724335	0.12194601	0.03604084	-0.009885687	-0.0526124	-0.10228435	-0.19319546	0.1757938	0.049060974	-0.10358319	0.09639026	0.13121095	0.054160133	-0.06996181	-0.14533696
DB01177	-0.060807273	0.093614236	0.22311711	-0.018762771	-0.041742787	-0.14369197	-0.09580536	-0.17841356	0.05244003	-0.08142784	0.10918975	-0.06032205	-0.06383092	-0.07939327	-0.15929443	-0.020910382	0.17064132	-0.00039123045	-0.028646015	-0.052240785	0.108543135	0.04167825	0.18458459	-0.071887456	0.013809722	-0.10183153	-0.15213475	0.023948217	0.11791622	0.12491868	0.21137738	0.06699151	0.051799074	-0.06859408	-0.20699604	0.0011398785	0.1334062	0.02419194	0.001484933	0.024999993	-0.07984388	-0.1890429	0.25536337	-0.03136224	-0.12658072	0.07504968	0.018670917	-0.019386958	-0.12501703	-0.15270302
DB01174	-0.09146647	0.07506431	0.26680946	-0.07111951	-0.089239255	-0.1299668	-0.08105829	-0.23738854	0.05476837	-0.06434123	0.13751724	-0.07469309	-0.106211394	-0.10449718	-0.16138566	-0.038876455	0.17597783	-0.012793499	-0.017420437	-0.09366175	0.13694468	0.052312944	0.18611787	-0.07333846	-0.050171204	-0.098424606	-0.15615915	0.07659688	0.14421254	0.15426658	0.2044939	0.0670405	-0.0052514593	0.0034564203	-0.21086091	-0.02248127	0.122998215	0.02514292	0.023524377	-0.06867503	-0.06748789	-0.24662237	0.26330048	0.06999511	-0.17070524	0.08692637	0.100050025	-0.03499439	-0.009097066	-0.111384526
DB01175	-0.10706077	0.059526667	0.26001024	-0.08366229	-0.047719076	-0.101553135	-0.099175915	-0.1852264	0.09309223	-0.042084616	0.12659901	-0.039250515	-0.07642497	-0.09496944	-0.15332738	-0.06672854	0.14130853	-0.019332565	0.012418446	-0.098759785	0.0404652	0.09275964	0.19985814	-0.08280613	0.018250844	-0.09483757	-0.10987288	0.032565273	0.16224521	0.16312063	0.21475394	0.09086472	0.024990534	-0.01674948	-0.21330276	-0.022293625	0.14490369	0.0010118736	0.01716378	-0.06147964	-0.08290291	-0.24129592	0.2363944	0.089490846	-0.26077318	0.09087941	0.028780524	0.011223696	-0.001774793	-0.12753774
DB01172	-0.09444629	0.09179373	0.24261509	0.0029537443	-0.054990206	-0.15024775	-0.097439274	-0.17489724	0.013857547	-0.045668196	0.12578969	-0.0864709	-0.039107785	-0.06571562	-0.1609443	-0.05260401	0.16252679	0.02233906	-0.0056086346	-0.084871165	0.14925744	0.04496378	0.20367342	-0.099809535	0.023870442	-0.088920645	-0.12838042	0.025420312	0.1799195	0.09381985	0.17557693	0.08066655	0.018781358	-0.017595813	-0.15856546	0.00551635	0.116995335	0.0047385385	0.016326725	-0.0053663505	-0.11886026	-0.17817463	0.24177857	-0.0528382	-0.20211029	0.094759606	0.13360237	0.027933203	-0.09572434	-0.14088555
DB01173	-0.08216343	0.07008901	0.27171686	-0.05364177	-0.040218685	-0.09620434	-0.09776788	-0.2278486	0.03920525	-0.039611124	0.12625436	-0.0782444	-0.08697235	-0.08180101	-0.1587169	-0.035968345	0.17048326	-0.011223427	0.024797518	-0.10546813	0.12188022	0.05718912	0.20276815	-0.07810877	-0.0465934	-0.08517126	-0.14914514	0.073117316	0.14905065	0.124777555	0.21224265	0.07553906	-0.00832465	-0.07589482	-0.18834929	-0.044065427	0.10938119	0.018436728	0.016040033	-0.075267635	-0.08997112	-0.18782648	0.25012276	0.08248652	-0.16304275	0.06258846	0.10757253	-0.0026973179	-0.08093516	-0.10006167
DB01170	-0.08100983	0.07113485	0.24722427	-0.05549282	-0.02457441	-0.13452077	-0.07338773	-0.2021871	0.021339115	-0.06157296	0.11180529	-0.07129226	-0.07100811	-0.10561036	-0.14941676	-0.046681624	0.15565468	0.004670111	0.0368013	-0.07574602	0.1347746	0.022072133	0.16947958	-0.03564104	-0.029424662	-0.08114396	-0.1230395	0.09038493	0.13071859	0.09505567	0.20034422	0.0730224	0.015781155	-0.059910394	-0.17068818	-0.034516837	0.13825426	-0.0072870944	0.01971552	-0.05376193	-0.07450147	-0.17242269	0.24461223	-0.01869122	-0.12784281	0.07109781	0.092526786	-0.00840478	-0.023445258	-0.15111007
DB01171	-0.106102854	0.04997357	0.2436699	-0.009747889	-0.08246631	-0.1278031	-0.09753172	-0.19176045	0.0058164652	-0.13679957	0.1506328	-0.08238294	-0.07406488	-0.10700438	-0.13872194	-0.04667261	0.16535704	-0.0014006565	-0.015239092	-0.070245884	0.13437933	0.04259145	0.16141872	-0.08901949	-0.039195165	-0.060333773	-0.13715556	0.06879622	0.13626109	0.122087315	0.16733572	0.07636928	0.020172067	-0.06990222	-0.19944736	-0.015868515	0.119023584	-0.03836872	0.013852967	-0.07999361	-0.11528961	-0.15217479	0.23118265	0.003708419	-0.20624466	0.086675435	0.010343793	-0.010022303	0.0032983716	-0.1363549
DB01489	-0.06365928	0.09807381	0.1176541	0.006373127	-0.12028709	-0.123133026	-0.053244576	-0.16768841	0.032945663	-0.13808854	0.08760557	-0.07270228	-0.0622077	-0.13274167	-0.13764215	-0.05309324	0.14716075	0.06374058	-0.054517277	0.011322614	0.08896025	0.0149010485	0.15366518	-0.07718584	-0.014177931	-0.07010974	-0.11068147	0.06588098	0.054548584	0.06760226	0.14512658	0.056398623	0.045128968	-0.09607907	-0.10340045	-0.00977236	0.08692589	0.030603245	-0.026396146	0.021346787	-0.077162765	-0.16140898	0.17008965	-0.021776937	-0.14217333	0.07127626	0.018067691	-0.04426899	0.0041486965	-0.09429513
DB01484	-0.07021771	0.08499448	0.11806195	0.04086979	-0.16791633	-0.11926609	-0.10573114	-0.19098619	0.025243374	-0.16025524	0.076774485	0.0456408	-0.062234163	-0.091187604	-0.12371129	-0.0689726	0.16334215	0.11691388	-0.045292772	-0.002221099	0.13463801	-0.06714337	0.08841494	-0.09847729	0.020000393	-0.10012543	-0.09702263	0.05630765	0.082526855	0.025178308	0.14362384	0.07753046	0.091923244	-0.10391632	-0.056657404	0.014962215	0.045747668	0.00937161	-0.14718229	0.031820804	-0.09551972	-0.09618802	0.19058757	0.08539642	-0.116997354	0.04425275	0.0011110205	0.029648885	-0.12654465	-0.033907056
DB01483	-0.1376126	0.088653564	0.22029626	-0.023310576	-0.13844249	-0.09042624	-0.11284181	-0.1632885	0.12556027	-0.0046991566	0.113895796	-0.079031415	0.05073018	-0.06663632	-0.1316659	-0.055905133	0.14138557	0.037467	0.0037017176	-0.1014627	0.1090196	0.051821053	0.18330021	0.060217608	-0.018513205	0.016837556	-0.15035847	0.07514491	0.10342264	-0.003925709	0.1747294	-0.015789285	-0.018220877	0.00017931173	-0.1788769	0.007106506	0.025310356	0.028597109	-0.015572486	-0.066583335	-0.056356076	-0.097055	0.26538682	0.085680015	-0.13128522	0.10002886	0.12443316	0.05450062	-0.1012034	-0.076249115
DB00741	-0.111998215	0.06835429	0.29520655	-0.047569044	-0.024538325	-0.08315997	-0.09339376	-0.21765895	0.15896346	-0.027356813	0.14144732	-0.06244261	-0.08229479	-0.11018359	-0.18548264	0.01966002	0.17671819	-0.03945693	-0.007272135	-0.10058962	0.08122228	0.039210334	0.16714904	-0.08846834	-0.031128746	-0.084932625	-0.18283564	0.12590821	0.20377655	0.14695346	0.21062037	0.108516715	0.010775101	-0.07486773	-0.21654172	-0.012851896	0.11477974	0.042751502	0.05899745	-0.09040912	-0.058676798	-0.27270925	0.28915623	0.10696056	-0.26203975	0.103472196	0.029332764	-0.058434144	-0.0069903196	-0.12777509
DB01002	-0.08041846	0.08069256	0.20577593	-0.041473866	-0.04158566	-0.1236923	-0.09097157	-0.14869533	0.04317639	-0.06205946	0.10214922	0.022489425	-0.07271945	-0.088141724	-0.16262652	-0.069239	0.15507764	0.001463228	0.0004387938	-0.06163602	0.15275091	0.038448684	0.17858066	-0.08123033	0.011453191	-0.101746745	-0.11939348	0.048314966	0.14164989	0.09457427	0.21365307	0.08286075	0.045303453	-0.101636834	-0.18689346	-0.02021471	0.11711695	-0.0012849161	0.028138664	-0.06853207	-0.11457176	-0.1567503	0.21438415	-0.033798523	-0.12701243	0.08157159	0.10419947	-0.015675157	0.016630739	-0.12656009
DB00578	-0.062288836	0.1023128	0.24570268	0.0070728185	-0.056027595	-0.120653585	-0.12146674	-0.18774332	0.028723136	-0.04965643	0.11011304	-0.09579282	-0.0538673	-0.01718075	-0.15798949	-0.053256243	0.18269941	0.027740771	-0.031513657	-0.045574155	0.15436004	0.07541744	0.19197698	-0.08142753	0.037601747	-0.0670049	-0.13639711	0.010162235	0.13278148	0.090079136	0.19129282	0.085400894	0.02503471	-0.10723471	-0.1688713	-0.028184071	0.12474115	0.03314575	0.025453564	0.02706815	-0.09235822	-0.18227275	0.2595385	-0.048862796	-0.12710075	0.0988522	0.052313417	0.02592045	-0.019313391	-0.14364967
DB01000	-0.08545891	0.06279027	0.25129828	-0.028934859	-0.097038895	-0.122401945	-0.12720405	-0.16652265	0.06665617	-0.062267095	0.120520495	-0.08898726	-0.052394833	-0.08563156	-0.16614175	-0.056349713	0.17099188	0.021541078	-0.020036044	-0.06626779	0.12143482	0.0254592	0.17876777	0.0614681	-0.03757593	-0.0740011	-0.15275483	0.07655787	0.13987327	0.09006335	0.1846672	0.04892601	0.036941335	-0.057104286	-0.19353399	0.00013472291	0.15137224	0.0455216	0.004982806	-0.08099767	-0.1323789	-0.1770367	0.20501862	-0.033246942	-0.11244763	0.08386142	0.116938815	0.015036526	-0.08433248	-0.15385221
DB01001	-0.105008505	0.078105524	0.29753646	-0.044971064	-0.06264451	-0.07302447	-0.07447714	-0.20693791	0.14367574	-0.026212513	0.14867127	-0.07296929	-0.10339266	-0.14263722	-0.16008025	0.009828525	0.1672009	-0.014939898	0.02677208	-0.10380002	0.10091301	0.10243551	0.17925987	-0.08052694	-0.05580227	-0.091829546	-0.10754174	0.104325324	0.1670153	0.124637455	0.21453452	0.12067984	0.026217405	-0.06293089	-0.20282002	-0.024784915	0.11889335	0.03812114	0.033174135	-0.0846912	-0.03666009	-0.22974415	0.2664181	0.08716152	-0.14453961	0.10325227	0.052850105	-0.008460346	-0.082913764	-0.10623269
DB01006	-0.11620709	0.06788272	0.21706977	-0.078962155	-0.027010225	-0.0953731	-0.11580774	-0.18787946	0.038224954	-0.040535457	0.12562431	-0.10723275	-0.06447539	-0.08598	-0.13846529	-0.039739862	0.16976573	-0.026440922	-0.012575314	-0.06991126	0.06386909	0.0982214	0.18036376	-0.0820739	0.018357316	-0.10699062	-0.15596291	-0.008922479	0.13304852	0.092931695	0.23285948	0.05059942	0.02461812	-0.0034286948	-0.22722714	-0.029851923	0.14765978	0.01905626	0.025124513	-0.08158091	-0.07767504	-0.24428968	0.26730037	0.055120714	-0.20059967	0.08207659	0.039913617	0.024883803	0.019209523	-0.13986848
DB01007	-0.093720004	0.084887415	0.2609843	-0.024911745	-0.037147403	-0.10248854	-0.0989084	-0.2263415	0.020693148	-0.033052437	0.1166546	-0.0779702	-0.07529434	-0.079904675	-0.1538521	-0.010221442	0.1562383	0.0052715163	-0.028278189	-0.056011338	0.14746606	0.054816544	0.19457152	-0.06356668	-0.04379866	-0.09154915	-0.14260793	0.07890243	0.1837979	0.12797898	0.2191789	0.10384283	-0.0119323	-0.042639434	-0.20540003	0.013032359	0.13462795	-0.019483296	0.029714338	-0.04136995	-0.08773621	-0.17463724	0.2398879	0.08771338	-0.24674743	0.09542801	0.004915076	-0.012262658	-0.08633629	-0.13356799
DB01004	-0.09169897	0.063142024	0.24162938	-0.055083208	-0.0596532	-0.09701531	-0.08557251	-0.21135041	0.05206385	-0.023652256	0.14522342	-0.093049474	-0.065386094	-0.085351266	-0.1649617	-0.063065	0.16564485	0.0057176133	-0.009977293	-0.096627735	0.10367079	0.06540348	0.19951949	-0.08393844	0.016530558	-0.0008504011	-0.16593313	0.046692807	0.13019298	0.13090937	0.21113451	0.065496475	0.045855753	-0.082178235	-0.20759901	-0.0077413665	0.1515333	0.031963293	0.03194586	-0.05639622	-0.10206283	-0.20953006	0.2720514	0.07293102	-0.15901138	0.101458825	0.09820476	-0.02024517	-0.13202827	-0.13038921
DB01005	-0.107644044	0.077333264	0.23101737	-0.051722106	-0.028542683	-0.103290625	-0.11982995	-0.21475878	0.026207153	-0.03808574	0.1915884	-0.09150812	-0.069700286	-0.12721334	-0.14470719	-0.06431664	0.17094706	-0.021705022	0.011814159	-0.07599474	0.11680154	0.08735613	0.21347526	-0.10064009	-0.026481159	-0.064112246	-0.1388253	0.04344694	0.1133163	0.09678146	0.20099516	0.06990891	0.023579925	-0.0039404836	-0.16298346	-0.053346675	0.1346922	0.053076856	0.012081672	-0.06637884	-0.060207613	-0.24179105	0.25507614	0.00947909	-0.14053167	0.082701206	0.11486958	-0.004180801	0.014015531	-0.10873796
DB00571	-0.10976376	0.056396887	0.2876107	-0.07703232	-0.06467816	-0.10373154	-0.11003583	-0.22375342	0.07953181	-0.059396565	0.16247916	-0.09578139	-0.08846397	-0.10466108	-0.1507945	-0.027407538	0.14869101	-0.021905951	0.01135006	-0.09619376	0.12818912	0.087785214	0.17478155	-0.09997736	-0.039103102	-0.08324702	-0.14546806	0.06612163	0.18785053	0.11500949	0.20339666	0.08689304	-0.010173084	-0.0071786135	-0.21007805	-0.02512885	0.11217184	0.037842706	0.043489587	-0.07579174	-0.049935896	-0.2087378	0.24360076	0.07882996	-0.18805873	0.07316724	0.1134877	-0.011063919	0.0056629926	-0.11828929
DB00570	-0.09086229	0.054901596	0.27034855	-0.027424715	-0.05772041	-0.1027321	-0.104986556	-0.21186009	0.09973283	-0.08013145	0.14498648	-0.0790899	-0.03239297	-0.101660974	-0.16375463	-0.039544515	0.16943203	0.03322251	-0.02082591	-0.11289199	0.15111649	0.06638929	0.19619441	-0.080572985	0.029404895	-0.08679436	-0.1367325	0.066944435	0.13427515	0.11031913	0.22146851	0.039301082	0.031890072	-0.09548986	-0.19989961	0.012507843	0.11514697	0.015683882	-0.017860271	-0.039451182	-0.09042966	-0.17048647	0.28292528	0.071729824	-0.1962656	0.10778068	0.087317474	0.020171018	-0.120266795	-0.11953509
DB00573	-0.11683773	0.08120326	0.23893471	-0.06298351	-0.09837641	-0.13855429	-0.09396041	-0.18545379	0.04243673	-0.020450896	0.20705628	-0.09965468	-0.082148865	-0.11288969	-0.13947341	-0.06925586	0.1508734	0.001830683	0.014306419	-0.058073785	0.10754309	0.085843384	0.21783027	-0.056581486	-0.009403846	-0.08277837	-0.13348758	0.05806971	0.088847876	0.10412723	0.2040467	0.15023197	0.05788935	-0.0009481523	-0.15936844	-0.0035549789	0.13149044	0.059339523	0.005384187	-0.07637596	-0.07176131	-0.20835082	0.25658467	-0.025821848	-0.16027758	0.10062595	0.12260931	0.035442192	-0.07959626	-0.11086845
DB00572	-0.11586887	0.06751178	0.29721487	-0.07361353	-0.085786626	-0.076486625	-0.08798841	-0.23213963	0.0958904	-0.061856374	0.15394291	-0.07886832	-0.11257553	-0.12082886	-0.17203505	0.010009102	0.15723544	-0.023841294	0.013598166	-0.12541637	0.09313709	0.0729968	0.19968021	-0.08745717	-0.05590916	-0.108891524	-0.13088547	0.08507925	0.15088625	0.15898374	0.21098499	0.1180927	0.007912576	-0.064565994	-0.1941503	-0.01246589	0.13281968	0.04368576	0.04022622	-0.079867795	-0.058434628	-0.2058528	0.26491007	0.08499119	-0.15459184	0.07428871	0.06995189	0.0046999827	-0.12252013	-0.13671668
DB00575	-0.111887604	0.04542344	0.30120024	-0.06330668	-0.08707445	-0.09217383	-0.101593494	-0.23730576	0.09534286	-0.0428097	0.14449807	-0.055713955	-0.09083243	-0.12230329	-0.17764921	-0.033672776	0.17668924	-0.014671905	-0.005458528	-0.09095544	0.105259396	0.06423354	0.20578995	-0.103558585	-0.028667806	-0.10136118	-0.117055915	0.05541851	0.1485107	0.1545831	0.2089786	0.11224029	0.023362018	0.0091433	-0.20940429	-0.03842165	0.1448033	0.05075296	0.048138585	-0.06853066	-0.06244207	-0.20253894	0.2745929	0.07230492	-0.15764967	0.090493806	0.11616699	-0.005326126	-0.015304431	-0.1300707
DB00574	-0.086472556	0.0643277	0.21155292	-0.056647073	-0.06316285	-0.10484728	-0.08615689	-0.15997899	0.041962788	-0.029088609	0.10285881	-0.089074925	-0.069894604	-0.08876809	-0.15058775	-0.06515407	0.1725954	0.018993404	0.029579382	-0.07329484	0.13990924	0.06489089	0.16388172	-0.059058525	0.0068184873	-0.08093807	-0.13573535	0.064470224	0.14901346	0.102556825	0.13899745	0.054385547	-0.0065369355	-0.083109096	-0.111542575	-0.011003853	0.099532604	-0.0027818717	0.02183142	-0.067622565	-0.10828385	-0.18095012	0.26222193	-0.053550422	-0.113922626	0.09485291	0.13248672	0.054234583	-0.009944807	-0.11322574
DB00577	-0.08738382	0.06269676	0.2582975	0.0041221688	-0.027073398	-0.105284385	-0.11342636	-0.21572195	0.13882877	-0.10233712	0.13345438	-0.07538036	-0.07965243	-0.0887028	-0.15573078	-0.05997185	0.19165638	0.0006633847	-0.00052673975	-0.10311918	0.12716788	0.08863533	0.22645709	-0.07663955	-0.012907175	-0.035125986	-0.120441124	0.03847287	0.14296715	0.12253912	0.21354015	0.057548646	0.010510657	-0.025626127	-0.20024592	-0.003243777	0.109361485	0.047102623	0.03368402	-0.06646874	-0.0968996	-0.19751242	0.22203551	0.09157622	-0.23949464	0.11330312	0.07625807	0.0065268576	-0.13392083	-0.1061891
DB00576	-0.099226266	0.10084452	0.26447287	-0.050612826	-0.065027714	-0.10163091	-0.118811674	-0.17940485	0.008661472	0.0026924885	0.12230726	-0.08274429	-0.0853577	-0.08747987	-0.13002749	-0.089662775	0.18718147	0.023982847	0.011862765	-0.10182914	0.13923565	0.058536876	0.18189977	-0.06693928	-0.0018902413	-0.07102633	-0.13467981	0.039359868	0.110786945	0.088712275	0.18026541	0.07657301	0.011132704	-0.084272414	-0.17392807	0.012955029	0.11481273	0.078179054	-0.00086777494	-0.04506813	-0.088180214	-0.16678369	0.24853274	-0.06673986	-0.11940525	0.085251145	0.095855646	0.027730472	0.006000149	-0.11704729
DB00751	-0.0952895	0.064985506	0.246867	-0.036777236	-0.046375897	-0.12109025	-0.107885584	-0.18415962	0.082814544	-0.025694767	0.13808315	0.01696187	-0.09317345	-0.090242736	-0.1712764	-0.0695226	0.16290307	0.007063525	0.023935089	-0.07299654	0.12348389	0.04831872	0.19168332	-0.08689451	-0.002914452	-0.07961509	-0.13317291	0.07061431	0.12940527	0.11369485	0.17203738	0.051253356	-0.014093303	-0.059630215	-0.1920933	-0.004573164	0.13482866	0.02923138	0.009586954	-0.032509826	-0.076819636	-0.18660176	0.25784943	-0.0019426065	-0.14840081	0.08858267	0.09872054	0.017382985	-0.13215123	-0.13581237
DB00750	-0.11724159	0.08538141	0.22984281	-0.05493933	-0.033537086	-0.10986541	-0.10007752	-0.2011843	0.07424343	-0.04736346	0.14536773	-0.07927738	-0.08947145	-0.109779224	-0.14276893	-0.06823646	0.17417897	-0.02824309	-0.003317662	-0.10105481	0.115866125	0.06478881	0.19451353	-0.074052	-0.04332717	-0.09851689	-0.146298	0.08571408	0.1277703	0.051307186	0.21850052	0.11942775	-0.015154964	-0.09266416	-0.095542796	-0.016565757	0.11026559	0.05222557	0.027198728	-0.0875959	-0.067631386	-0.2111785	0.25895432	0.052668065	-0.16735487	0.08729427	0.12668584	-0.024324885	-0.043142095	-0.10769602
DB00753	-0.14189614	0.059124555	0.22610083	-0.09578012	-0.07748306	-0.08814236	-0.10359912	-0.22405717	0.028619388	-0.051995136	0.13745748	-0.08761766	-0.084268756	-0.10044087	-0.16483308	-0.047666356	0.16599464	-0.0440267	0.0033460334	-0.06281555	0.10635854	0.058514394	0.20234405	-0.06855923	-0.048789613	-0.09774891	-0.14721338	0.052636594	0.09982975	0.105579	0.247847	0.099645086	0.022036314	0.0029523247	-0.15373728	-0.040386263	0.13497363	0.0241809	0.014264352	-0.07753994	-0.06438237	-0.18237673	0.27465373	0.06952911	-0.14730668	0.09140259	0.1367419	0.031291984	-0.12631634	-0.118462145
DB00752	-0.09355263	0.079247095	0.22943142	-0.068454415	-0.07799252	-0.10327699	-0.106187664	-0.18043305	0.02204012	-0.061995205	0.13021815	-0.08591696	-0.07309829	-0.095077865	-0.158434	-0.06887506	0.17122945	-0.014947094	0.019575436	-0.072419085	0.14376378	0.070988	0.17393555	-0.070635326	-0.02807308	-0.08615293	-0.13743474	0.087564535	0.13693193	0.09296267	0.14900632	0.09062005	0.0015784171	-0.012109425	-0.19368836	-0.037616346	0.11099384	0.010606257	0.019260839	-0.07739293	-0.07803485	-0.18933839	0.26866686	-0.009671411	-0.13706918	0.09366432	0.11878706	0.04645627	0.0023215674	-0.13938941
DB00755	-0.09917682	0.06928508	0.28502232	-0.05364765	-0.038949396	-0.115717955	-0.080024734	-0.1813117	0.12489101	-0.04920927	0.15950479	-0.09018869	-0.08521123	-0.091579564	-0.17289329	-0.027186608	0.17396006	-0.025842581	-0.016509224	-0.09293892	0.13609506	0.082965955	0.18375076	-0.10666821	-0.022906527	-0.072424755	-0.16097784	0.06463204	0.19355243	0.15512292	0.2149295	0.039410137	-0.007267652	-0.03228112	-0.2142454	-0.009473273	0.15624504	0.020401724	0.023310097	-0.07989598	-0.071333066	-0.22940156	0.29924557	0.08883802	-0.19837748	0.0865464	0.111267254	-0.014548772	0.01918222	-0.11437941
DB00754	-0.07415705	0.095123865	0.2293361	0.0141759645	-0.05900191	-0.14260986	-0.089497715	-0.17164695	0.024367541	-0.03675898	0.13611172	-0.067143634	-0.06296432	-0.06783997	-0.15238254	-0.056263916	0.17209299	0.030144311	0.025504503	-0.07025486	0.05261114	0.05594204	0.18349901	-0.0502446	-0.0023335256	-0.073461935	-0.14049901	0.045040723	0.1011404	0.08029218	0.20442852	0.09055899	0.019237522	-0.05101633	-0.13041861	-0.04029685	0.15236513	0.033261187	0.0005515944	-0.08167514	-0.10408398	-0.18451984	0.20973554	-0.06510782	-0.1271232	0.09345281	0.11055416	0.04274078	-0.03777515	-0.1260489
DB00209	-0.089816615	0.08555686	0.23179147	0.008312526	-0.056314465	-0.13201347	-0.09386478	-0.17026676	0.13747711	-0.017748848	0.1214242	-0.036173172	-0.08807367	-0.087423794	-0.1634184	-0.057920106	0.19230805	0.009329878	-0.011421192	-0.08249982	0.13721743	0.06621887	0.21712847	-0.082443975	0.010743431	-0.09208706	-0.11159637	0.050222807	0.12752593	0.12686735	0.19920033	0.09137115	0.049557038	-0.088169165	-0.19888636	-0.0031143448	0.13335052	-0.0012471325	0.02552948	-0.034773003	-0.13804245	-0.20369118	0.24643922	0.082485944	-0.14322497	0.09242365	0.05945991	-0.021502	-0.08681613	-0.06370762
DB00208	-0.09602938	0.07527438	0.24423297	-0.07985145	-0.06264364	-0.11797393	-0.10306275	-0.22745454	0.001355337	-0.07883904	0.19167937	0.052689463	-0.10044251	-0.11345828	-0.15725908	-0.07331522	0.15860528	0.01555788	-0.012013259	-0.07599203	0.12291755	0.07207152	0.21244372	-0.07823088	-0.013243405	-0.08567473	-0.14218038	0.04934103	0.1780521	0.13232613	0.16784143	0.09011005	0.016842742	0.015240027	-0.20166312	-0.0011256901	0.123787835	-0.013698365	0.028877433	-0.032657176	-0.079438135	-0.18296696	0.27609298	0.082171164	-0.16018307	0.0844517	0.0826397	0.0014595668	-0.038969077	-0.1031081
DB00207	-0.08450746	0.07970553	0.26475218	-0.05540701	-0.07334566	-0.13565025	-0.08671402	-0.21208327	0.12753415	-0.04946857	0.15199625	-0.105916284	-0.085014865	-0.100246206	-0.16564795	0.009031085	0.12990825	-0.023764709	0.021086723	-0.09206321	0.12044841	0.09062934	0.23910904	-0.087215856	-0.031412072	-0.09383143	-0.14651807	0.049573045	0.16259153	0.15798001	0.20490816	0.054411955	0.025406558	-0.0174453	-0.2148327	-0.025277624	0.13187136	0.023049993	0.05030685	-0.08236315	-0.059073348	-0.24109332	0.24593107	0.078481376	-0.20176898	0.084341094	0.12894501	-0.021456366	0.010187338	-0.112969786
DB00974	-0.084891774	0.10205031	0.24124989	-0.02211869	-0.03391978	-0.16984384	-0.124116145	-0.21547759	0.11838919	-0.01803909	0.16722232	-0.10132575	-0.08036298	-0.09419859	-0.14939381	-0.014879225	0.18532631	0.018793903	0.03453096	-0.119788595	0.13700728	0.061328143	0.15030968	-0.056583993	-0.012855382	-0.0986814	-0.12550099	0.06925805	0.12282197	0.08193638	0.17426291	0.065419964	0.0017705386	-0.056007795	-0.18657441	-0.03369591	0.117924124	0.025405154	0.036329113	-0.06652067	-0.09785658	-0.1742671	0.21989423	0.03852978	-0.09799279	0.08416259	0.1068656	0.029396022	-0.061062	-0.07667119
DB00205	-0.1157478	0.07225553	0.23525047	0.002004642	-0.062634215	-0.095703065	-0.10706368	-0.20660797	-0.004637885	-0.023061574	0.11808607	-0.07002333	-0.11013394	-0.098154515	-0.16870135	-0.030815188	0.16455044	0.005264442	-0.031095937	-0.103432454	0.12457602	0.0556526	0.16527504	-0.0823564	-0.016540913	-0.08263007	-0.14699906	0.07262099	0.13997945	0.1044321	0.16640888	0.061190918	0.03734322	-0.0882659	-0.16748305	-0.02285713	0.1055221	0.024287527	0.006735107	-0.0022797445	-0.10792922	-0.18399382	0.21068299	-0.015500236	-0.1458952	0.09410949	0.097961016	0.03238951	-0.0030520868	-0.14318028
DB00204	-0.104208276	0.07105296	0.24740963	-0.058036204	-0.08434889	-0.14269693	-0.09644027	-0.17533831	0.034575284	-0.09734812	0.1191957	-0.026211778	-0.08312679	-0.07487446	-0.17095543	-0.08450906	0.18426898	0.019322915	0.007539442	-0.08507439	0.10352862	0.037115138	0.19447893	-0.07173303	-0.0054039685	-0.07664966	-0.13789733	0.06301061	0.19402611	0.15300809	0.20585234	0.09312216	0.029235132	-0.05334962	-0.19533017	0.001976905	0.13344209	0.015843522	-0.03632225	-0.07266987	-0.100947395	-0.2167022	0.22714102	0.012489141	-0.11201803	0.065494604	0.013810651	0.031534143	0.00042822747	-0.11847316
DB00203	-0.084840626	0.08847349	0.25925156	-0.05781819	-0.055722445	-0.099769354	-0.105022416	-0.2327859	0.13841818	-0.048403677	0.14500378	-0.024002783	-0.08242758	-0.09638703	-0.18015672	-0.051324267	0.1837941	0.006148692	-0.025082937	-0.09636951	0.13354412	0.092213534	0.22919022	-0.08950944	0.019312272	-0.09229583	-0.13486825	0.01770034	0.14225143	0.15619445	0.20857996	0.051051	0.0018661235	0.010456428	-0.20708427	0.023905654	0.13376014	0.024403062	0.014696858	0.025352202	-0.093886495	-0.25064376	0.28153765	0.0805798	-0.18057354	0.092064	0.11129614	-0.016848499	0.00016869302	-0.14463495
DB00202	-0.09608568	0.07446149	0.25658756	-0.049002912	-0.0550763	-0.12737903	-0.0961851	-0.18631597	0.06485124	-0.045178555	0.13323206	-0.055283684	-0.063324586	-0.08327768	-0.14489627	-0.048817147	0.16875818	-0.030454526	-0.00256313	-0.090295695	0.052530915	0.038995557	0.18219163	-0.06639433	-0.018643089	-0.10389747	-0.13879877	0.066637546	0.12797163	0.09961603	0.20033662	0.07698923	0.0047279065	-0.07902285	-0.19233926	-0.062343545	0.13344164	0.029539978	0.011732516	-0.07532741	-0.07041461	-0.1653976	0.24929523	0.09320804	-0.14033394	0.047261853	0.12531681	0.0104029365	-0.11895847	-0.058843173
DB00201	-0.09698016	0.09867881	0.3148396	-0.061160125	-0.06666431	-0.053204488	-0.092245035	-0.2096529	0.10447158	-0.04236397	0.12429389	-0.052168425	-0.09519524	-0.101823986	-0.16187233	0.008257052	0.1784533	-0.046400577	-0.022450889	-0.12653165	0.09931403	0.03748428	0.23013781	-0.04749638	-0.057161648	-0.10321401	-0.14565152	0.11990285	0.19757508	0.1343595	0.17492342	0.13132766	-0.043448962	-0.09594143	-0.18861072	0.02675798	0.081682555	0.044081576	0.010240431	-0.068467095	-0.056921076	-0.28567576	0.2431565	0.07974324	-0.19619529	0.0791265	0.026617706	-0.008783987	-0.042651847	-0.13065061
DB00972	-0.097171895	0.07057361	0.2661984	-0.07713763	-0.040299386	-0.116277896	-0.08986572	-0.23257488	0.011693888	-0.056847904	0.1110919	0.020686205	-0.09267969	-0.1015586	-0.18043953	-0.05266533	0.16943333	0.03138334	0.0033186525	-0.08272323	0.13334753	0.05252185	0.17394947	-0.06569565	0.015548721	-0.06667426	-0.12784404	0.06383339	0.13240439	0.13311474	0.18737122	0.06905297	0.028935168	-0.005049955	-0.19981761	-0.0040446217	0.11125944	-0.017018186	0.028123772	-0.04087004	-0.099927075	-0.16781397	0.22838081	0.051678173	-0.14307441	0.11486115	0.09036034	0.03224323	-0.082951486	-0.1258541
DB04216	-0.029081672	0.041309908	0.2408042	-0.047309734	-0.08933653	-0.04585855	-0.08264863	-0.20903735	0.12507676	-0.068869986	0.10409964	-0.029558487	0.012463128	-0.08487442	-0.15688331	0.018994525	0.13429324	0.06773344	-0.0065761586	0.015735876	0.12460098	-0.081728846	0.12085934	-0.07385482	0.0033032526	-0.007268052	-0.16682398	0.014660648	0.08936172	0.041599844	0.1053727	-0.01264926	0.06527899	0.013936479	-0.16336933	-0.028585423	0.05466797	0.028410789	-0.0100864405	0.033054907	-0.0675886	-0.16650254	0.24828383	0.09257348	-0.1367148	0.065590754	0.14548633	0.00011923711	-0.060024086	-0.07369641
DB00683	-0.117642164	0.05913582	0.25245523	-0.088930294	-0.08372015	-0.12318969	-0.116965726	-0.22118513	0.13389708	-0.031341273	0.16086689	-0.07007159	-0.08252248	-0.09546447	-0.15495326	-0.05785947	0.13613673	0.0022214865	-0.028688824	-0.08849249	0.12431276	0.06233452	0.23712128	-0.09444962	0.017643867	-0.090972826	-0.15043068	0.06751586	0.20469196	0.14621924	0.23098113	0.08439138	-0.0008803721	0.0094884075	-0.20274426	-0.002657555	0.1392291	0.03241462	0.019406674	-0.06762675	-0.06530373	-0.21244907	0.29345772	0.08812456	-0.16270661	0.093582496	0.008856841	0.015717201	-0.12416726	-0.06801389
DB00682	-0.095227405	0.07212196	0.26423606	-0.07111582	-0.057326723	-0.10102016	-0.102156654	-0.22768149	0.10976937	-0.088249356	0.17764154	-0.06557253	-0.09251597	-0.10632882	-0.17019145	-0.04214452	0.17817709	-0.0032167006	0.0066218325	-0.091992706	0.11574225	0.09368826	0.19077173	-0.107323006	-0.00042065978	-0.111022845	-0.12985356	0.06558585	0.1964546	0.1690369	0.2215569	0.0764439	0.033399627	0.027275551	-0.21938603	-0.026357917	0.122001894	0.027502505	0.04854016	-0.08183278	-0.07012562	-0.22724451	0.26380074	0.052332588	-0.20795739	0.08794861	0.0716111	0.014412641	0.011021429	-0.08862149
DB00681	-0.0774781	0.08579754	0.22748095	-0.060904097	-0.07065219	-0.13808514	-0.083564036	-0.18264183	0.11289396	-0.015452499	0.14208016	-0.08761271	-0.095709614	-0.08690173	-0.14808862	-0.0359747	0.18802579	0.024178596	0.012990262	-0.072988994	0.095672585	0.079834774	0.22272879	-0.09441096	-0.00282175	-0.07512483	-0.11678915	0.042770736	0.14046212	0.117630295	0.2239243	0.057271775	0.06481407	-0.015526513	-0.20339386	-0.009969681	0.15766199	0.014551906	-0.0032936148	-0.07902446	-0.13803981	-0.1859947	0.2509476	-0.030210529	-0.13730864	0.10903819	0.03587701	0.0070394026	0.013423184	-0.10621701
DB00680	-0.07944326	0.11049694	0.24111748	0.007930146	-0.09098621	-0.108343944	-0.1150719	-0.17483051	0.011905851	-0.08565266	0.12167507	-0.09004313	-0.09491179	-0.09395824	-0.16155043	-0.05516842	0.18869583	0.011076526	0.0046179937	-0.09627792	0.12266644	0.06271047	0.16851625	-0.057225883	0.006157471	-0.06382765	-0.16124156	0.08980024	0.13636062	0.10365419	0.21017967	0.06359404	0.01584546	-0.08621473	-0.14225037	-0.025483493	0.10952785	0.07193172	-0.0039725956	-0.071839474	-0.10509324	-0.22893003	0.19233729	-0.050251495	-0.123414904	0.07687466	0.12046266	0.025489016	0.013248202	-0.16476278
DB00687	-0.075461216	0.095207416	0.26158676	0.008830139	-0.06942072	-0.14547321	-0.12499933	-0.21207203	0.10940969	-0.122763604	0.13337927	-0.026712349	-0.08095456	-0.096606	-0.15384275	-0.035995375	0.19298263	0.007955858	-0.013139842	-0.096036956	0.13907018	0.067444205	0.20700026	-0.091235764	-0.033456527	-0.095870785	-0.15417616	0.06145757	0.119946435	0.11016743	0.2414691	0.07441696	0.008188957	-0.08233375	-0.17374226	-0.034665063	0.124635845	0.03600201	-0.01839455	-0.05000216	-0.09455961	-0.20402476	0.25077468	0.07550171	-0.13908872	0.079383716	0.062462687	0.0019079497	-0.104642615	-0.08144811
DB00686	-0.066690244	0.09723192	0.24690075	-0.007263521	-0.04656293	-0.10451017	-0.07170115	-0.18203057	0.13997221	-0.010057907	0.12700784	-0.075263314	-0.058930628	-0.07996523	-0.1502977	-0.05599348	0.18893154	0.016971782	0.017148836	-0.08210655	0.13331528	0.04845065	0.2018605	-0.063127585	0.022830915	-0.049715698	-0.12241374	0.07007722	0.12903027	0.11037711	0.22500804	0.08013338	0.058022548	-0.06653475	-0.14484705	-0.03983663	0.121113166	0.030528087	0.026224561	-0.06702535	-0.13842866	-0.1889768	0.15694706	-0.017983314	-0.11514404	0.04706278	0.11736927	0.031610124	-0.121713154	-0.07443044
DB00685	-0.09036478	0.07671943	0.24575107	-0.0066867936	-0.052889116	-0.11080642	-0.103452325	-0.18108477	0.14568707	-0.020749155	0.10470624	-0.07163901	-0.064815395	-0.08749929	-0.1670835	-0.06021494	0.21097946	0.012234805	-0.028032875	-0.07746892	0.124913216	0.07072463	0.24796692	-0.079451345	0.026763141	-0.09471331	-0.12569521	0.04131797	0.10766345	0.13500836	0.23825474	0.062006317	0.027466848	-0.10856713	-0.13976578	0.014448884	0.15486851	-0.0033234763	-0.009828594	-0.047496833	-0.14592811	-0.18356068	0.21504997	0.069333464	-0.17658082	0.100690186	0.0012307317	0.016018365	-0.05530882	-0.13811591
DB00684	-0.121874124	0.08048155	0.27647468	-0.07483876	-0.048181254	-0.107992515	-0.093871415	-0.17635837	0.14383234	-0.07296084	0.15512282	-0.10875583	-0.09281685	-0.10043197	-0.14252067	0.015455995	0.19316183	-0.043161344	0.015245316	-0.10159719	0.04208788	0.11371567	0.17566743	-0.07832465	-0.02998853	-0.098456055	-0.14050803	0.0758364	0.16269101	0.11155431	0.21480364	0.062026065	0.028455906	-0.055427596	-0.21544531	-0.024802646	0.12030182	0.015546352	0.036415398	-0.08663076	-0.07820816	-0.22245649	0.2516524	-0.014905877	-0.2071958	0.08539456	0.06519612	-0.010660859	0.002026291	-0.1250646
DB00689	-0.056634877	0.110632285	0.21440361	-0.008117982	-0.09148976	-0.13397877	-0.13738203	-0.18349223	0.03400068	-0.056011986	0.12216986	-0.07232242	-0.058182497	-0.013353431	-0.1528	-0.03644302	0.1834933	0.035957396	-0.036417644	-0.08884034	0.13698235	0.02556523	0.18534435	-0.08623369	-0.0036380142	-0.07910454	-0.12289478	0.018726233	0.14096767	0.0988834	0.17755623	0.038155697	0.056285616	-0.10213693	-0.19205649	0.000304232	0.15847015	0.034311336	-0.01964119	-0.059833225	-0.15028098	-0.18000491	0.26108176	-0.041960582	-0.101413116	0.06308848	0.012264127	-0.0009390444	-0.11373165	-0.15260744
DB00688	-0.08305723	0.07367964	0.24956988	-0.00700648	-0.038627002	-0.12173171	-0.09196605	-0.20295367	0.112315014	-0.031754315	0.11858898	0.011306251	-0.08355772	-0.08494474	-0.16057809	-0.021591665	0.1783628	0.0026571164	-0.009144419	-0.10324864	0.13968556	0.072152324	0.17231707	-0.07627798	-0.006485363	-0.07945817	-0.13808346	0.038424242	0.18986589	0.12830429	0.20486717	0.074803084	0.032636795	-0.06315578	-0.21635953	-0.0004921906	0.116605684	-0.0032841556	0.031555098	-0.032728903	-0.110564165	-0.24309766	0.260502	0.015503015	-0.2065735	0.09606089	0.083014965	-0.0055433414	-0.016535755	-0.138956
DB00373	-0.10880847	0.05981624	0.25637817	-0.03379012	-0.04471364	-0.09767872	-0.107240126	-0.22262925	0.11665856	-0.056565367	0.15503985	-0.08026595	-0.088167496	-0.1237733	-0.15925808	0.004764773	0.15801127	-0.02557056	-0.015711641	-0.08519359	0.11316712	0.11292697	0.18929528	-0.08488509	-0.0501138	-0.09240788	-0.1276735	0.080600545	0.179961	0.1600336	0.23731713	0.050519273	0.034073032	-0.058861367	-0.21177222	-4.3350272e-05	0.12446138	0.059240926	0.04771356	-0.09632082	-0.03700727	-0.23441568	0.27279237	0.10120514	-0.22751077	0.0921447	0.03814528	-0.012623805	-0.13045684	-0.113702685
DB00372	-0.11862467	0.092285134	0.22798118	-0.058441326	-0.05554007	-0.17551012	-0.10545079	-0.18489015	0.027723815	-0.08053174	0.1294123	-0.07267581	-0.05315141	-0.09605607	-0.15997572	-0.06863131	0.1832055	0.008531729	0.006408538	-0.06117652	0.09870119	0.054933652	0.19188343	-0.06577587	-0.025716871	-0.094267756	-0.14383616	0.058774877	0.1264681	0.0886836	0.19778098	0.059659094	0.023798184	-0.09780914	-0.14945863	-0.051762983	0.12142752	0.012306258	-0.015356003	-0.07255804	-0.13578482	-0.19114801	0.2764282	0.07195342	-0.09896215	0.08721536	0.09918388	0.02395298	-0.13080125	-0.11902466
DB00371	-0.08766434	0.08172972	0.2460232	-0.074406266	-0.06504987	-0.113229364	-0.089418426	-0.16767915	0.07833937	-0.034246907	0.1449325	-0.09632776	-0.07794901	-0.101981	-0.15591852	-0.040703792	0.13993895	-0.017590284	0.032863613	-0.08358692	0.12921871	0.079237886	0.19895513	-0.0979234	-0.0332287	-0.027792104	-0.10965868	0.03468768	0.15289484	0.09543316	0.21028614	0.08664652	0.018043749	-0.019880507	-0.19231819	-0.038493376	0.13288769	0.034105744	0.0379762	-0.07965352	-0.089184366	-0.18860167	0.254898	0.06506783	-0.15460347	0.100421004	0.122622125	-0.0033426909	-0.08949888	-0.116417624
DB00370	-0.105691046	0.054435942	0.2661939	-0.103506014	-0.07510611	-0.12900971	-0.08126044	-0.19737914	0.15467793	-0.04169665	0.15397939	-0.10047607	-0.07300491	-0.08352419	-0.14807382	-0.038833782	0.18485925	-0.020918844	-0.007623886	-0.083786495	0.09890606	0.08600746	0.21159618	-0.10581659	0.01013989	-0.11241986	-0.14385322	0.07463349	0.19560762	0.1420901	0.22655004	0.02721784	0.0054618507	0.0028113476	-0.21320747	0.009950884	0.1639624	0.019803615	0.0078111696	-0.07570257	-0.07389485	-0.18710619	0.29661322	0.082025506	-0.22803012	0.06679947	0.031911332	-0.00566172	-0.11523863	-0.115684316
DB00377	-0.06269025	0.0897599	0.23141007	-0.08766487	-0.061296955	-0.1559991	-0.10592967	-0.20571695	0.07830956	-0.07633712	0.1470866	-0.042582594	-0.070229776	-0.09271861	-0.13873309	-0.042163625	0.15654482	-0.023688069	0.0040025506	-0.060622137	0.122227184	0.06545316	0.2050608	-0.099992976	-0.026014267	-0.04950203	-0.14500362	0.058891363	0.13303043	0.11812026	0.19830288	0.100028925	0.0286981	-0.103133164	-0.18405245	-0.0062685423	0.12883347	-0.0053237863	0.045938905	-0.07336358	-0.06693665	-0.18505007	0.17067172	-0.03429429	-0.15108818	0.0969674	0.059094477	-0.022193115	-0.08607462	-0.10937469
DB00376	-0.09955947	0.06644807	0.24856646	-0.08474492	-0.061356008	-0.07798432	-0.09904599	-0.16007096	0.12805694	-0.008984177	0.16988301	-0.113498434	-0.07532814	-0.09706392	-0.13794893	-0.04489319	0.17529045	0.0004748475	0.014089152	-0.051942654	0.13225847	0.08666849	0.19552921	-0.080051236	-0.040284436	-0.095714964	-0.15775678	0.06980232	0.1446963	0.106985405	0.21826927	0.12539573	0.03650849	0.007660346	-0.14968127	-0.051970415	0.1409428	0.040374503	0.023482773	-0.049631413	-0.07276474	-0.21398605	0.26582488	0.023190351	-0.22011666	0.07905561	0.09742774	-0.0005420301	-0.10295885	-0.13104396
DB00375	-0.06910261	0.049281888	0.24115084	-0.0018686525	-0.029186575	-0.12847887	-0.0842686	-0.19011225	0.110343784	-0.045643467	0.14621216	-0.08604021	-0.070772395	-0.095441796	-0.13974114	-0.06383006	0.17123297	-0.003506599	0.023179965	-0.06960582	0.1183633	0.078996964	0.17511943	-0.071204424	-0.011320373	-0.08927451	-0.1338886	0.06304505	0.12481732	0.14083359	0.21031342	0.11661119	-0.0030927863	-0.03255544	-0.15880953	-0.045164175	0.119905695	0.03789244	0.027765024	-0.072752856	-0.06635243	-0.1892113	0.22745202	-0.039393056	-0.1661571	0.10660315	0.099905424	-0.009082976	-0.07538979	-0.085464515
DB00374	-0.09213	0.059157386	0.25569072	-0.013476964	-0.047980838	-0.09715451	-0.07701289	-0.18115416	0.0974518	-0.051225077	0.09714962	-0.060407396	-0.08825624	-0.10849804	-0.17619926	-0.033732124	0.1529929	0.0007148376	-0.012184588	-0.050979197	0.11501237	0.05101488	0.17527662	-0.07855025	-0.011716916	-0.020322809	-0.11831584	0.06108121	0.13635631	0.1250709	0.22157651	0.06977695	0.04946058	-0.040790193	-0.1864379	-0.022867126	0.14457557	0.021852193	-0.00273362	-0.075155385	-0.08604226	-0.16350178	0.22340861	-0.006739813	-0.14389643	0.08366345	0.1175317	-0.005444398	-0.13784897	-0.1532914
DB00379	-0.10266275	0.06778712	0.25221178	-0.00829879	-0.049989417	-0.128453	-0.1034538	-0.22144729	0.021939544	-0.12981151	0.15987027	-0.07276492	-0.08938339	-0.10068153	-0.15058571	-0.04843874	0.15787086	-0.0083671585	0.023767171	-0.09795759	0.13733374	0.084865876	0.16376314	-0.067034334	-0.036798786	-0.10393019	-0.14384478	0.050938897	0.14997986	0.09042181	0.19205102	0.07055429	0.010183241	-0.043147556	-0.19809596	-0.03400293	0.10925368	0.03323257	0.0347933	-0.07282612	-0.063570544	-0.22010593	0.24474725	0.03077979	-0.13629957	0.09760306	0.10116946	0.032741394	-0.022002833	-0.07861318
DB00378	-0.115995966	0.080366075	0.22773203	-0.027555183	-0.060909957	-0.16465203	-0.10728242	-0.163299	0.02327748	-0.05199157	0.1379524	-0.058923047	-0.07077928	-0.08804471	-0.13102826	-0.06499807	0.18298072	0.0067401687	-0.007984931	-0.08036719	0.071188666	0.028624184	0.15915108	-0.03551546	-0.033296134	-0.07658694	-0.13552651	0.06625202	0.09671549	0.10167356	0.17114319	0.092385285	0.0044643367	-0.112641774	-0.19828449	0.02817448	0.11436976	0.03625057	-0.04657795	-0.09048806	-0.08587911	-0.19150259	0.18043679	-0.046355285	-0.0830512	0.08551901	0.12103203	0.048849814	-0.03402877	-0.07612734
DB06237	-0.050905064	0.054406032	0.16632287	-0.060105026	-0.08081637	-0.07943357	-0.06300319	-0.1470564	0.05758962	-0.14299734	0.08701744	-0.0028091623	-0.07584332	-0.07208257	-0.15300485	-0.038799744	0.14487824	0.027666822	-0.042796787	0.005468073	0.020705922	-0.029229224	0.18356133	-0.038026135	0.040374864	0.0010495383	-0.13179083	0.03169525	0.13149713	0.12200944	0.16104822	0.056556836	0.04211531	-0.10963304	-0.20530725	-0.009047504	0.13909604	0.0058372705	-0.00460727	0.019701462	-0.071028195	-0.15872839	0.159358	0.058423173	-0.25411656	0.060968526	0.008597757	-0.036383823	-0.10355547	-0.14148262
DB04854	-0.06843109	0.08339028	0.15866159	-0.061554775	-0.099771425	-0.08448223	-0.09015833	-0.17934795	0.10343626	-0.092028394	0.10222399	-0.080624685	-0.087444656	-0.09115721	-0.17307675	-0.036829088	0.11971206	0.03922214	-0.0408324	-0.0055414275	0.021850778	0.020945283	0.1578185	0.07178925	0.025310982	0.01027007	-0.14632533	0.042754993	0.07370152	0.116076574	0.1661304	0.08731126	0.100894496	-0.10787684	-0.1484149	-0.073323414	0.11649114	0.032242484	-0.01959702	-0.045515183	-0.09404417	-0.18305127	0.17321335	0.04399801	-0.206441	0.09293772	0.060674462	-0.03589093	-0.062460136	-0.1044327
DB04855	-0.08314101	0.04729498	0.24000458	-0.08347923	-0.100344755	-0.09137809	-0.09891611	-0.22851303	0.14242925	-0.13071133	0.08657997	-0.08903672	-0.09434002	-0.09798744	-0.17258051	-0.059351794	0.15851277	0.033870984	-0.0738533	-0.056716327	0.038652223	0.044882223	0.20741394	0.021861713	0.034496024	0.022152148	-0.12776028	0.06283957	0.11762132	0.16326469	0.17898984	0.008597886	0.018262273	-0.033620384	-0.21138567	-0.0038700805	0.13081515	0.025451522	-0.019151496	-0.02429189	-0.061294224	-0.1723804	0.26663014	0.087670855	-0.18427603	0.087424554	0.120564	-0.017803311	-0.11573201	-0.06499247
DB04858	-0.09263468	0.097790614	0.061498936	-0.06722846	-0.098735645	-0.12883294	-0.092293575	-0.12944058	0.034452915	-0.070808	0.09277767	-0.0654532	-0.06866522	-0.110221185	-0.14134659	-0.08224465	0.15925042	0.046456646	-0.03221764	-0.025405688	0.098201506	-0.007698307	0.121175416	-0.0005908825	0.001406637	-0.07828367	-0.10696548	0.022991324	0.07587803	0.057849206	0.081811	0.07146224	0.019802896	-0.06383413	-0.09305058	-0.053253915	0.094695956	0.003927728	-0.084472686	0.030491037	-0.06614362	-0.15973295	0.15381077	-0.04635815	-0.15477192	0.082799815	0.102107935	-0.017411686	-0.05102983	-0.029103642
DB05239	-0.0977788	0.032649264	0.1587573	-0.07462062	-0.06859198	-0.056943223	-0.13314737	-0.18473513	0.11977763	-0.03900654	0.13464724	-0.06947172	-0.07946278	-0.11014382	-0.16894692	-0.07688489	0.14787921	0.04157765	0.0063722497	-0.09864798	0.028296705	0.023943674	0.14569403	0.038213614	-0.028611606	0.0380553	-0.09856793	0.06258437	0.08614229	0.020971209	0.079146825	0.08599287	0.062412452	-0.03658328	-0.17076905	-0.013497435	0.064423114	0.012700645	0.026204245	-0.029513419	-0.0026745102	-0.18667321	0.19240054	-0.031658124	-0.17398198	0.12046414	0.13472989	-0.010711707	0.013412709	-0.0755621
DB04690	-0.08633144	0.10409149	0.17676295	0.0024346197	-0.109105214	-0.08623734	-0.13382772	-0.17976208	0.034868985	-0.047791876	0.13927153	-0.08763136	-0.021770943	-0.06932963	-0.15197791	-0.051067937	0.18481602	0.04193544	-0.0359739	-0.102107614	0.14464025	0.03775174	0.16252185	-0.07217804	-0.019922018	-0.0071153436	-0.17368434	0.02713566	0.110062525	0.06064331	0.1595143	0.032932837	0.08087437	-0.09947947	-0.11662877	0.011424531	0.10835826	0.016356325	-0.017458353	0.014699515	-0.124337964	-0.1805208	0.21589987	-0.038438328	-0.1504383	0.08813116	0.1408592	-0.014580661	-0.033079226	-0.09418547
DB02237	-0.0076745953	0.06528432	0.120756105	-0.056708943	-0.14965346	-0.051256087	-0.08180463	-0.13187699	0.0743234	-0.1340433	0.105465144	0.031394295	-0.006667152	-0.011530328	-0.102970466	-0.008955636	0.12758839	0.12360841	-0.028431108	0.020703878	0.048054427	-0.06273502	0.16814175	-0.0027682893	0.03986688	0.035108138	-0.10960746	0.061098374	0.054262165	-0.001149288	0.11408412	0.013650928	0.08931826	-0.005815631	-0.08325024	-0.0222138	0.0085003665	-0.009135477	-0.09893754	0.029946305	-0.06532413	-0.11624141	0.19660695	-0.053193517	-0.22798459	0.043123662	0.020041995	-0.03318351	-0.063368	-0.014511858
DB00199	-0.10450948	0.064623006	0.28682584	-0.06410277	-0.100404814	-0.07822442	-0.10769075	-0.23861271	0.14048293	-0.045877602	0.13760322	-0.0808669	-0.09760477	-0.10309867	-0.16826732	-0.010436449	0.19496039	-0.03235337	-0.00599241	-0.102001004	0.1304915	0.048253857	0.16965409	-0.09082484	-0.027773554	-0.07961961	-0.13702208	0.09696525	0.16635078	0.16373508	0.2142566	0.04997374	-0.0018134891	-0.049368076	-0.19726142	-0.012789119	0.14082314	0.037336707	0.04490643	-0.06339528	-0.076391384	-0.24786352	0.2844798	0.085318856	-0.23104112	0.08019465	0.09727378	0.00097050634	-0.009301547	-0.1393726
DB00198	-0.05560389	0.054907843	0.2551708	-0.063200384	-0.05131152	-0.11262503	-0.11054481	-0.17915432	0.1294382	-0.041590758	0.11213936	-0.08804462	-0.096406005	-0.0867891	-0.16720635	-0.065404765	0.18210861	0.016074477	-0.002489178	-0.0827851	0.121544726	0.08388374	0.24293414	-0.06826033	-0.0339409	-0.019056423	-0.12570068	0.076142885	0.1425728	0.1399162	0.1983268	0.053129792	0.041338373	-0.08522591	-0.19515637	-0.00024367077	0.11685914	0.048554473	0.009760034	-0.0833263	-0.09994146	-0.18806939	0.26134124	-0.015037644	-0.13771413	0.105787076	0.1051119	-0.017141623	-0.12722494	-0.13029698
DB00197	-0.0796213	0.060339723	0.25453746	-0.08371261	-0.06685834	-0.10026463	-0.10924718	-0.21279433	0.038139805	-0.10146399	0.093870886	0.07255755	-0.09284779	-0.09351936	-0.1792756	-0.07279173	0.17702408	0.031909097	-0.005768231	-0.08197509	0.14536683	0.047622766	0.1991301	-0.076443925	0.048260253	-0.03716153	-0.12162748	0.0450497	0.13953018	0.12716292	0.15389724	0.06027756	0.01015055	-0.026142433	-0.20239161	0.034404114	0.14794551	-0.024353292	0.007628198	0.0020895996	-0.113599226	-0.17935456	0.27963266	-0.025699295	-0.15479064	0.11131853	0.123367295	0.04453473	-0.031221071	-0.13779837
DB00196	-0.11368871	0.0610962	0.2729341	-0.06579058	-0.04061688	-0.10297323	-0.0963728	-0.22824852	0.026966732	-0.068663895	0.19746624	-0.09834552	-0.10214464	-0.12094345	-0.14971039	-0.04114207	0.16530927	-0.0113824485	0.009708379	-0.09822185	0.12799253	0.10718717	0.21065047	-0.090495415	-0.045298904	-0.09947116	-0.121543095	0.0567599	0.18076968	0.13548364	0.2091995	0.111635625	0.028598873	0.0018389809	-0.19746843	-0.032705538	0.13697979	0.025888303	0.04884616	-0.063488774	-0.065943606	-0.19693452	0.26595387	0.07342533	-0.20211272	0.08780454	0.043308858	0.0007827126	-0.006490403	-0.12102585
DB00195	-0.11899954	0.056734372	0.23052676	-0.07608664	-0.06856894	-0.12647025	-0.090872414	-0.21521594	0.03895217	-0.05656436	0.14258593	-0.088334866	-0.09205599	-0.11564916	-0.15267636	-0.041577592	0.18017714	0.0013244475	0.013806609	-0.045320332	0.13166097	0.08375114	0.19014415	-0.09844731	-0.015850415	-0.09182343	-0.14669473	0.0149410665	0.15457451	0.11092833	0.22216547	0.08373352	0.03370289	-0.0016228347	-0.19935285	0.015265238	0.12750547	0.025861576	0.022820879	-0.07700415	-0.053110354	-0.17576043	0.27618352	0.07148437	-0.17858948	0.07564863	0.12023106	0.009871984	-0.096128225	-0.112242445
DB00193	-0.09360651	0.06715026	0.27862158	-0.09352632	-0.07191929	-0.08785602	-0.090552844	-0.16351555	0.13567849	-0.046100806	0.12419236	-0.10038211	-0.10148912	-0.12258884	-0.16448556	-0.024501853	0.1854291	-0.04937818	0.004333335	-0.08889666	0.12774897	0.08234081	0.22542647	-0.1041823	-0.017523823	-0.084819585	-0.14443213	0.055805873	0.16380355	0.1258817	0.20705943	0.07026942	-0.018188482	0.011397209	-0.20829417	-0.048731416	0.09954134	0.021113206	0.034454554	-0.06693676	-0.07472511	-0.23238355	0.25056928	0.0806634	-0.1664151	0.064231046	0.10355606	-0.000728467	-0.107199565	-0.101088226
DB00191	-0.103073835	0.06384156	0.27432677	-0.054455087	-0.04348355	-0.1048228	-0.12468685	-0.22250846	0.051122405	-0.027326856	0.12600645	-0.06261483	-0.08640687	-0.10894651	-0.15869327	-0.05302336	0.18093228	0.005601164	0.0076416046	-0.09406957	0.12834387	0.08532924	0.19263881	-0.07230677	-0.029417196	-0.06813603	-0.12698105	0.057426088	0.1351261	0.13148935	0.18329625	0.097130455	0.0017723466	-0.004947257	-0.1621838	-0.011897412	0.09341288	0.019344958	0.020450134	-0.05991004	-0.06763472	-0.19055153	0.26135755	-0.04523504	-0.16618067	0.09081622	0.0965803	0.034592845	-0.049663913	-0.086690076
DB00190	-0.13170569	0.08228028	0.21891396	0.0054150466	-0.02507895	-0.08932538	-0.106582075	-0.19609168	0.0458111	-0.069305114	0.114525236	-0.10732422	-0.0520472	-0.09745098	-0.14986068	-0.03904424	0.14252761	-0.018525863	-0.0044978	-0.0361853	0.02959017	0.10073476	0.20956506	-0.06926444	0.01641145	-0.095954806	-0.06888241	0.025722036	0.08820856	0.08912486	0.2196931	0.1105123	0.006726142	0.0068539614	-0.19265342	-0.036410056	0.123435326	0.04840218	0.014826394	-0.07172419	-0.07286957	-0.19110435	0.27118182	-0.043281298	-0.2155365	0.10896873	0.11316326	-0.010681305	-0.121826425	-0.13226524
DB09167	-0.0767743	0.094642065	0.11479833	-0.038449664	-0.07734761	-0.12633626	-0.07509268	-0.122475736	0.014831601	-0.1329972	0.10556306	0.01868536	-0.041985862	-0.07886076	-0.030408395	-0.08052992	0.13118064	0.07707934	-0.018633224	-0.049622405	0.031648558	-0.0591983	0.12550779	0.03521826	0.009033224	0.019735046	-0.1096825	0.0509481	-0.0079030655	-0.038827233	0.12999724	0.065131515	0.0868136	-0.05188529	-0.10855402	-0.08622237	0.075956196	0.036569256	-0.10065158	-0.019117687	-0.10653075	-0.16037075	0.14670318	-0.042694725	-0.109960474	0.065321416	0.0010849506	-0.04508169	-0.04866035	-0.059868086
DB06698	-0.08885062	0.0800661	0.2001187	-0.007612121	-0.059975553	-0.05166689	-0.1354932	-0.20531215	0.052743055	-0.04863539	0.1410366	-0.039581306	-0.040643178	-0.09331155	-0.13467273	-0.0836376	0.17825805	0.008485483	-0.017496655	-0.07184275	0.11409796	0.048640355	0.17073616	0.031430077	-0.015149986	0.003499564	-0.1503377	0.05929825	0.115655236	0.084710725	0.21355851	0.05612257	0.018841308	-0.035440683	-0.16839482	-0.015352066	0.10582616	0.023595953	-0.033106156	-0.088656664	-0.054391794	-0.1837164	0.17325777	-0.014896585	-0.16310287	0.09274621	0.04737986	-0.022369795	-0.01456773	-0.11888896
DB06699	-0.05953147	0.084670536	0.21945418	-0.053890027	-0.070703134	-0.09569658	-0.052871507	-0.19478628	0.14550474	-0.048744284	0.11479807	0.017449794	-0.057398785	-0.08011568	-0.16215046	-0.036836546	0.17586201	0.06390738	-0.030522529	-0.116738014	0.12526827	-0.00064871996	0.19096082	-0.06772553	0.0840114	0.023281742	-0.10407635	0.05214	0.13361	0.10085391	0.21054877	0.055072576	0.06946733	-0.099339224	-0.17294736	-0.031889062	0.13060331	-0.008018658	-0.028265225	0.038840648	-0.100750774	-0.15851112	0.21315491	0.10402392	-0.14766951	0.07243327	0.0066418387	-0.013289975	0.003998275	-0.116783485
DB03404	-0.07515188	0.058844015	0.05635994	0.032563724	-0.088876575	-0.057764202	-0.09145209	-0.1306935	0.03527598	-0.048187762	0.12731174	-0.068330295	-0.032179262	-0.028822377	-0.04742234	-0.048942354	0.13570628	0.07242392	-0.06853625	0.028717179	0.004524722	-0.007245866	0.13419451	-0.06624946	0.04342499	-0.01919106	-0.13735874	0.051914316	0.03009139	0.04931037	0.1621539	0.083142005	0.07865505	-0.10264819	-0.106732085	0.015222448	0.039412215	0.007337453	-0.055515528	0.00875781	-0.090091474	-0.16944048	0.21630284	-0.037533842	-0.17015901	0.077495076	0.059886932	-0.022561548	-0.06541649	-0.006493929
DB06697	-0.124308474	0.079248555	0.20084852	-0.06035043	-0.06861121	-0.09571025	-0.1176704	-0.17571515	0.0066554463	-0.07072371	0.1271336	-0.058353618	-0.08244505	-0.091342226	-0.15227112	-0.054270126	0.1430812	0.019354999	-0.03849958	-0.08581539	0.10733538	0.046935037	0.14731455	-0.025086122	0.0023155943	-0.08981159	-0.09567773	0.050322816	0.052763566	0.08163752	0.15415265	0.09703786	0.008257074	-0.08721963	-0.15109523	-0.038403757	0.11234568	0.002579566	-0.0030663144	-0.015606293	-0.065967344	-0.19981684	0.19780472	-0.06778745	-0.17530757	0.090798594	0.12689945	0.0038819076	0.0028921126	-0.13809308
DB06694	-0.09830802	0.062741555	0.21403381	-0.050020207	-0.08189946	-0.11751115	-0.10015799	-0.2043652	0.14800256	-0.056592215	0.112113565	-0.042776056	-0.094410434	-0.08969442	-0.15966083	-0.08788363	0.15004769	0.042034585	-0.02705461	-0.0953004	0.014298022	0.0361259	0.16204014	0.07327699	0.026400289	-0.05742748	-0.12567155	0.09486168	0.10955611	0.0241173	0.1960818	0.07188782	0.030186126	-0.086434685	-0.1851006	-0.026422212	0.115595154	0.034269877	-0.013212075	-0.04173992	-0.080102995	-0.14586368	0.23469888	0.07593391	-0.12084199	0.080074586	0.098981425	0.023999758	-0.13621531	-0.032454483
DB06695	-0.053996183	0.08953776	0.23990785	-0.05358707	-0.083086945	-0.0977789	-0.08307824	-0.20657286	0.10762673	-0.15135454	0.09215099	0.045057446	-0.0747592	-0.092501596	-0.16947345	-0.042430814	0.1429899	0.016461072	-0.03033138	-0.118992426	0.13751143	0.019073073	0.17664102	-0.056983873	0.09025196	-0.07641219	-0.14757143	0.037988	0.13678974	0.11093437	0.17782159	0.0706404	0.028982881	-0.0975823	-0.21818191	0.011345394	0.12083364	-0.029682055	0.010661216	0.030201565	-0.06474618	-0.18285497	0.25605756	-0.016609278	-0.22479485	0.09390783	0.0069902246	-0.023707537	0.0052974727	-0.13806406
DB06692	-0.10663232	0.03887993	0.24307457	-0.059093013	-0.0104569	-0.08979866	-0.06330905	-0.13282175	0.091003545	-0.031096771	0.10685527	-0.124961644	-0.091445476	-0.05144257	-0.13552186	-0.07986685	0.10043486	-0.024991384	0.0025672913	-0.10143302	0.004698202	0.036842085	0.17103621	0.033777293	0.026398044	-0.0077251126	-0.09849602	0.050285786	0.09330557	0.10042823	0.18281743	0.05466715	0.019127738	-0.051664103	-0.14217943	-0.013565423	0.07739936	0.033004064	0.0024166342	-0.061804295	-0.033454616	-0.1440385	0.16735142	-0.029552989	-0.13766554	0.11511637	0.13707863	0.03453782	-0.08807662	-0.03646452
DB06693	-0.06873117	0.10485696	0.11736311	-0.074450724	-0.11408606	-0.07357979	-0.101062074	-0.16768825	0.02191582	-0.042735677	0.13530177	-0.027636398	-0.0415599	-0.09380278	-0.124433964	-0.015984822	0.1539287	0.0797908	-0.054347657	0.008607713	0.12872411	-0.012115024	0.15298879	-0.07392054	0.007969562	-0.0005139478	-0.09638383	0.035717003	0.09067517	0.011449149	0.14853948	0.084240004	0.011183135	-0.12619056	-0.089162804	-0.006188475	0.057885945	0.013580427	-0.12185399	-0.010094267	-0.059812132	-0.14334767	0.22140713	-0.06033878	-0.14550485	0.09799603	0.12622578	0.013752896	0.011095714	-0.08678106
DB06690	-0.12192772	0.07266139	0.14604971	-0.038702156	-0.056117844	-0.037460178	-0.07626731	-0.101988144	0.14436178	-0.1340955	0.15435138	-0.09204193	-0.05374635	-0.07204214	-0.14274473	0.02609032	0.12347412	-0.0072115734	-0.04923777	-0.06029182	0.0086065475	0.020708133	0.14773355	-0.022228334	-0.021682408	0.03437395	-0.13570191	0.05191189	0.105808966	0.009715306	0.13150363	0.0749552	0.061996862	-0.119415	-0.10936546	-0.04835738	0.056547504	0.015572356	-0.014970804	-0.06602514	-0.009806361	-0.1396454	0.17784727	0.015468475	-0.12287972	0.107401684	0.037678994	-0.025604948	0.0021728945	-0.058736663
DB06691	-0.08222485	0.12127911	0.24345507	-0.012424629	-0.06846147	-0.03482948	-0.100144885	-0.17095543	0.11943532	-0.08621052	0.12553692	-0.06785496	-0.025849938	-0.10191526	-0.15725616	-0.038762696	0.17307673	0.042354513	-0.060987324	-0.15906914	0.03329629	0.036974523	0.13005184	-0.040780697	-0.059622638	-0.0045760414	-0.100289024	0.11133697	0.15990491	0.09341907	0.17752607	0.09967045	-0.03498554	-0.10164235	-0.20061769	-0.046828292	0.06628898	0.01889701	-0.015191725	-0.07650224	-0.07085747	-0.19240138	0.23935522	0.08863137	-0.1767237	0.11781366	-0.011835197	-0.05594067	-0.1127358	-0.14346056
DB00997	-0.111420475	0.055728443	0.24583738	-0.08881734	-0.081270434	-0.11036824	-0.09414727	-0.22410291	0.05202263	-0.065828174	0.13089578	-0.017077928	-0.08631343	-0.09931204	-0.16818619	-0.032459773	0.16481097	0.008138232	-0.008550971	-0.10991238	0.13818565	0.0867303	0.17568196	-0.10260095	-0.018187135	-0.09992368	-0.13984965	0.030256879	0.14780395	0.1341973	0.21818869	0.062083952	0.01621114	0.005055157	-0.22841065	-0.016169924	0.15617408	0.016121995	0.0410703	-0.036688548	-0.08494645	-0.20667686	0.25054213	0.08208187	-0.18972526	0.11234906	0.09967896	-0.010868094	0.013169163	-0.14243624
DB00996	-0.08283773	0.055619802	0.27020106	-0.080346204	-0.06308519	-0.10542354	-0.09784543	-0.19720864	0.14354157	-0.046718985	0.16886385	-0.10046657	-0.09095738	-0.091949984	-0.15623665	-0.0103117945	0.18038161	-0.013335366	0.008328888	-0.08451941	0.13602199	0.11217022	0.19944982	-0.09873354	-0.021624018	-0.07454555	-0.12619376	0.038544666	0.20457168	0.1526912	0.21409175	0.11242296	0.008353429	-0.006194251	-0.2218223	-0.03696383	0.15408677	0.02765681	0.047574457	-0.06030914	-0.07491872	-0.24202842	0.2934703	0.07201479	-0.26004618	0.082908995	0.080166884	-0.012612575	0.00038287253	-0.11669465
DB00994	-0.09146896	0.111521386	0.24209368	0.024587091	-0.0104144905	-0.034250006	-0.074040204	-0.14221847	0.115924224	-0.050596528	0.12371138	-0.047387686	-0.06702854	-0.09683966	-0.15710339	0.039984338	0.18525237	0.022681398	-0.052229863	-0.13500386	0.053268146	0.020356461	0.24733269	-0.011737411	-0.062087692	-0.09273268	-0.10931483	0.13990018	0.121887825	0.10001807	0.1960519	0.07093179	-0.008775832	-0.11229833	-0.17732674	0.020369332	0.07752396	0.030063033	0.031975184	-0.07899936	-0.07554651	-0.1990327	0.29736015	0.13547054	-0.2036407	0.098609835	-0.002833893	-0.018237308	-0.09442493	-0.14345635
DB00993	-0.111260906	0.0766261	0.24217641	-0.08437621	-0.07025718	-0.09489803	-0.101140864	-0.23925917	0.016186947	-0.057188466	0.12511155	-0.02630579	-0.07063848	-0.09622132	-0.16221225	-0.049616978	0.17101304	0.012852168	-0.018872418	-0.062727585	0.13864297	0.091643795	0.22135822	-0.103294045	0.03331635	-0.103502445	-0.13869072	0.0132622495	0.12630682	0.1301402	0.21005924	0.070515685	0.029105656	0.013495564	-0.19511138	0.002440213	0.13691917	0.0047263065	0.028075013	-0.054553717	-0.10658294	-0.18039154	0.25978088	0.05727136	-0.17531352	0.072396845	0.091618836	-0.0071951994	-0.0062508574	-0.11819572
DB00992	-0.07734147	0.067475066	0.21531118	0.0055963164	-0.041011304	-0.13526194	-0.1023018	-0.16073027	0.03360689	-0.07096898	0.1298338	-0.09403587	-0.052928258	-0.072047554	-0.14291143	-0.0725568	0.18090574	-0.0057119383	-0.015022471	-0.06956907	0.115232475	0.058420636	0.1831187	-0.07995119	0.0014210962	-0.08507649	-0.13720448	0.029649906	0.113876775	0.10882075	0.19885087	0.084772274	0.060974646	-0.10032782	-0.13416705	0.020352691	0.11396532	0.005415079	0.015703965	-0.04061573	-0.05986444	-0.18228227	0.19622767	-0.039048404	-0.1275064	0.12552026	0.1380271	0.0060003707	-0.13295476	-0.12237473
DB00991	-0.08430394	0.08435442	0.24276099	-0.080051176	-0.043115664	-0.11925245	-0.09002584	-0.17599607	0.1374276	-0.05992398	0.1590432	-0.0831907	-0.09049693	-0.112931795	-0.1520322	-0.05854649	0.18087527	-0.01236568	0.0051499233	-0.057605878	0.11097513	0.0915589	0.19440402	-0.082447305	-0.0065550394	-0.06467625	-0.16526659	0.034269303	0.12731434	0.115191914	0.21228574	0.09309206	0.028173357	0.0029683365	-0.19029568	-0.017729014	0.14764939	0.006983929	0.02967067	-0.07888494	-0.090486065	-0.21052933	0.24083614	0.030925507	-0.15407531	0.07920553	0.11311284	-0.008346945	0.008075032	-0.11276542
DB00990	-0.11319689	0.06594684	0.24152821	-0.06887535	-0.040577497	-0.11079795	-0.097596005	-0.14869276	0.040677786	-0.021283854	0.15507862	-0.004948389	-0.078365766	-0.10346288	-0.15229973	-0.04588014	0.13308027	-0.017212741	-0.015707776	-0.051810756	0.09619149	0.100518115	0.200524	-0.012789331	0.020430313	-0.07684082	-0.12391162	-0.008686889	0.1446068	0.10413652	0.20542449	0.099865936	0.045364697	-0.041255128	-0.19127463	-0.011988914	0.11630409	0.02710959	0.002344638	-0.07826047	-0.07115454	-0.19812591	0.26143065	-0.06935847	-0.1431523	0.08370642	0.10517144	0.003246522	0.015072734	-0.13154274
DB00999	-0.109831855	0.11918326	0.24346104	-0.017441021	-0.09490692	-0.059905227	-0.094844244	-0.23522533	0.1293223	-0.03353744	0.14391261	-0.08404	-0.06056751	-0.0928986	-0.16044821	0.010092434	0.17559332	-0.03685171	-0.009611568	-0.07452016	0.08837312	0.11340091	0.2027827	-0.068193056	-0.023652539	-0.09740344	-0.14910856	0.048874035	0.15719481	0.13214287	0.2025809	0.08001412	2.200855e-05	-0.074683	-0.20055512	0.0074170902	0.11036013	0.044118874	0.0517916	-0.07660307	-0.056748234	-0.27779493	0.2669822	0.09152846	-0.18428068	0.07897317	-0.0038960965	-0.00824037	0.0007462251	-0.120558366
DB00998	-0.0574973	0.075619124	0.23788318	-0.056100592	-0.0335383	-0.14012784	-0.066703856	-0.16873413	0.12170754	-0.07028876	0.12611954	-0.08663326	-0.07322104	-0.10250568	-0.15599267	-0.03721473	0.17022121	0.011240261	-0.0029351534	-0.071191505	0.12867391	0.0922473	0.18899888	-0.06925025	-0.010086762	-0.10597145	-0.13220555	0.049930807	0.13200913	0.11364056	0.16569841	0.097622626	0.028643418	-0.025594562	-0.20191489	-0.039771236	0.1390739	0.010358076	0.035678275	-0.0614198	-0.09848652	-0.18685639	0.24845259	0.08929722	-0.13817964	0.08787938	0.12794393	0.033190724	-0.11764383	-0.07168546
DB00492	-0.08883025	0.052478928	0.25154102	-0.017464045	-0.020822288	-0.12854686	-0.08756119	-0.20274742	0.09911531	-0.05573058	0.14689508	-0.0668553	-0.06326123	-0.09695737	-0.1490761	-0.042857695	0.16302592	-0.004349962	-0.003364088	-0.10657536	0.15052728	0.055272005	0.16623245	-0.08501372	-0.03411875	-0.087696515	-0.09981568	0.07914509	0.14009121	0.119988516	0.2145784	0.05930941	0.025831219	-0.016826365	-0.20822665	-0.035975035	0.11534567	0.031665076	0.041536883	-0.07980835	-0.097789	-0.2103546	0.26536217	-0.012948389	-0.22965327	0.0907158	0.014764156	-0.0065003224	-0.054396216	-0.10564618
DB00542	-0.107547	0.09795251	0.24946554	-0.008176743	-0.07094698	-0.09151003	-0.09336274	-0.2146825	0.12506694	-0.048959274	0.13561356	-0.07381582	-0.08639574	-0.11479027	-0.16406469	-0.015778393	0.19193256	-0.012264909	0.006310283	-0.08764525	0.11580141	0.09669844	0.21728425	-0.0896434	-0.01885389	-0.11330636	-0.12689574	0.053334434	0.16208528	0.14142513	0.2385807	0.066588	0.03681887	0.014745051	-0.20891409	-0.02457602	0.14909683	0.03670506	0.05380535	-0.06257547	-0.08424968	-0.21112448	0.27794725	0.08267239	-0.2036015	0.08138748	0.017064411	-0.016235564	-0.0031665713	-0.13847722
DB00493	-0.09215295	0.063300915	0.25375435	-0.0114520285	-0.057983402	-0.09832916	-0.12643674	-0.21482205	0.16209659	-0.034238808	0.13696243	-0.08764992	-0.08065254	-0.08612008	-0.15569986	-0.045824412	0.1660127	-0.011779485	-0.0060475795	-0.051902674	0.13225928	0.09285557	0.1946741	-0.02240356	0.003473344	-0.064106815	-0.15039334	0.058242526	0.17206098	0.12449837	0.2369167	0.039137706	0.05495416	-0.0014816435	-0.21597546	0.0053967675	0.14098138	0.044447765	-0.00959648	-0.0757689	-0.07720977	-0.20722754	0.27780706	0.081266314	-0.21702379	0.0862381	0.019112658	-0.002669513	-0.054635406	-0.13850433
DB00543	-0.10611082	0.042798873	0.2187344	-0.082517244	-0.0711972	-0.15129927	-0.07922537	-0.21540588	0.14135872	-0.045823224	0.09427146	-0.09227555	-0.083119474	-0.08065392	-0.15520148	-0.05610282	0.14652538	-0.016694505	-0.008735266	-0.074058935	0.121065184	0.042971164	0.23396733	-0.111648194	0.031699665	-0.09046337	-0.1290465	0.053506836	0.19384691	0.10978877	0.22991003	0.053181022	-0.016757863	-0.0927628	-0.21730168	0.02410262	0.16928834	0.007748341	0.0008143891	-0.072897755	-0.09008886	-0.15121083	0.26327825	0.09334211	-0.13003923	0.064913586	0.06456581	0.0076869875	-0.1270017	-0.06632981
DB11124	-0.05422717	-0.047430236	0.022858428	0.030948574	-0.039173417	-0.062489398	-0.037901267	0.0567761	0.04770505	-0.051341802	0.045090474	0.035184763	0.05532485	-0.029226188	0.031770382	-0.035205856	0.027011462	-0.044072933	-0.020953044	0.0658	0.07045543	0.037380595	0.03667455	-0.065567546	-0.05071329	0.024264846	-0.05140083	-0.052558046	-0.009184432	0.015609252	0.04660654	0.015439415	-0.042801846	-0.020173172	-0.060665898	0.011842191	-0.018828988	-0.05297965	-0.026565887	-0.04295759	0.038860776	-0.04151725	0.030467004	-0.01050821	-0.03354715	0.03695101	0.04862303	-0.016592124	-0.03712408	0.008631997
DB01700	-0.007428386	0.09091843	0.11624399	0.044336375	-0.14823972	-0.060403217	-0.07562415	-0.12790494	0.043425113	-0.06421626	0.101153806	0.05255444	-0.011992915	0.018060384	-0.08274033	-0.037300996	0.14969723	0.10247729	-0.0766261	0.052932806	0.039493073	-0.089456625	0.16153343	-0.07844389	0.035352603	0.020407734	-0.08817726	0.012346324	0.051734988	0.023846183	0.14059725	0.020044683	0.07840082	-0.045748413	-0.112325534	-0.0010957697	0.06365397	-0.0025567976	-0.12648892	0.04084092	-0.08525255	-0.153774	0.14768562	-0.051963232	-0.15922737	0.043944348	0.011675394	-0.008069098	-0.047913473	-0.06902841
DB00490	-0.07619669	0.0672194	0.2745865	-0.03851781	-0.023429763	-0.10837986	-0.07725495	-0.20851262	0.13245252	-0.06920703	0.109862894	-0.07866103	-0.090212315	-0.09151925	-0.16354293	-0.051604003	0.18079941	0.0019874773	0.002328705	-0.073822565	0.14401248	0.1006608	0.19448644	-0.09519903	0.03805213	-0.095081046	-0.15126844	0.059613604	0.17490833	0.14572299	0.21271096	0.067121774	-0.00095907866	-0.010951342	-0.21941225	0.018560985	0.14286143	0.0061919577	0.010506371	-0.039753187	-0.10126746	-0.17636904	0.25827083	0.062238436	-0.2310509	0.064183414	0.053790584	-0.011521442	-0.009188626	-0.10056086
DB05245	-0.09011978	0.069277175	0.24523693	-0.004715629	-0.055256285	-0.11397558	-0.078154996	-0.19836313	0.112433046	-0.02713418	0.14114611	-0.10445776	-0.06792558	-0.09403816	-0.13460144	-0.050586853	0.17273581	-0.001289611	0.011665817	-0.07960764	0.13308379	0.07658166	0.18361372	-0.05697725	-0.029718896	-0.088316	-0.12661311	0.09096913	0.12670355	0.1019162	0.20321614	0.07655514	0.026332773	-0.08188959	-0.17430362	-0.021782678	0.12992552	0.034801118	0.027422855	-0.06924867	-0.08339495	-0.18210682	0.1839113	-0.02656301	-0.15908158	0.068024985	0.079967715	-0.0023505762	-0.09199246	-0.12177801
DB05246	-0.11514802	0.113504425	0.21213901	-0.062199857	-0.09120984	-0.118916065	-0.07223968	-0.18873776	0.021460881	-0.037464492	0.1386445	-0.08090514	-0.0622118	-0.098717235	-0.15158394	-0.05734598	0.17365094	0.04467632	-0.009444915	-0.10587846	0.140169	0.032521985	0.18296166	-0.06370106	-0.008562451	-0.07747688	-0.14097619	0.10313277	0.09481508	0.110761106	0.20462158	0.10272001	0.02890137	-0.028225824	-0.13426243	-0.057010964	0.102138	0.02549318	-0.0291544	-0.067456596	-0.08902167	-0.17047231	0.20514166	-0.014182599	-0.1635342	0.051680613	0.13358176	0.00036228413	-0.015245606	-0.049950063
DB00078	-0.09191232	0.00082357053	0.2859334	-0.085873745	-0.09499997	-0.08746432	-0.051995076	-0.16726813	0.05237639	-0.034965575	0.08784722	-0.047810677	-0.1037177	-0.039874405	-0.13091734	-0.06623141	0.1108114	-0.02559375	0.010712981	-0.009803693	0.08693168	0.08266005	0.17505209	0.00048674014	-0.016610418	-0.05902491	-0.11633059	0.06707918	0.09979994	0.13328853	0.14431266	0.07168638	0.04139702	-0.03326586	-0.14944857	0.07683286	0.13056216	0.011874565	0.01135434	-0.04519864	-0.05767047	-0.16815099	0.16246536	-0.06562339	-0.12591669	0.12986416	0.13959926	0.11815133	-0.11473665	-0.06238944
DB02261	-0.08219998	0.036472704	0.14103788	-0.01856391	-0.1046787	-0.10448396	-0.079362705	-0.17405394	0.11407515	-0.13068566	0.07172089	0.04315774	-0.042068258	-0.074174225	-0.12940368	-0.04561017	0.17650719	0.09599595	-0.044516467	-0.046546366	0.076159135	-0.041393425	0.0872064	-0.020657893	0.0061253095	0.00056608685	-0.12171419	0.07082282	0.068530545	0.017933058	0.092546694	-0.012560349	0.11674501	-0.056670636	-0.15624304	0.038449362	0.018403988	0.014458212	-0.12761888	0.02657882	-0.058975153	-0.13744268	0.17154521	0.08662327	-0.108994216	0.056576908	0.120423056	-0.039295398	-0.13423666	-0.04827578
DB05804	-0.03502929	0.065455705	0.17211208	0.02492314	-0.05731079	-0.047807198	-0.13975188	-0.18956666	0.11692452	-0.17089213	0.121245876	0.04924216	-0.028214388	-0.10125763	-0.15950032	-0.056290008	0.1440992	0.04146944	-0.062052567	-0.10375084	0.14944477	-0.037605353	0.10972	-0.023520121	0.035405997	-0.060558315	-0.124248624	0.02531437	0.07272627	0.06603391	0.07038721	0.028280485	0.072691716	0.0023387116	-0.18057247	0.029559627	-0.010944701	0.0013373869	0.01989569	0.055453993	-0.034330267	-0.1956731	0.24187116	0.01573314	-0.14519179	0.14350554	0.010616006	-0.014486752	0.0072029456	-0.019590132
DB08984	-0.06920774	0.1418564	0.14185654	0.015780427	-0.14274874	-0.12559262	-0.09235338	-0.1393574	0.10263559	-0.13661948	0.10914575	-0.013333856	-0.055127434	-0.06977023	-0.006845963	-0.08326403	0.1760469	0.06469192	-0.049265333	0.011642393	0.047597967	0.012477313	0.1852565	-0.028769145	0.01883117	-0.052233998	-0.11353271	0.004677671	0.009649728	0.04984416	0.19740032	0.06565688	0.046017893	-0.101590864	-0.09404266	-0.019083595	0.06870527	0.017897092	-0.111509115	0.03849064	-0.11680222	-0.16604151	0.18435284	-0.050084326	-0.1506074	0.032126542	-0.009700356	-0.08436592	0.007760736	-0.110691346
DB08985	-0.10911867	0.06117159	0.032407783	-0.036163006	-0.112647556	-0.084138274	-0.1255252	-0.072132125	0.037925843	-0.08034999	0.16673517	0.02309007	-0.061242342	-0.09736475	-0.11376579	-0.060732283	0.12953775	0.050562922	0.0015633063	-0.06908674	0.0512879	0.018104877	0.16309883	-0.064672604	-0.056266487	0.05707457	-0.100510344	0.06959854	0.0055889944	-0.025209192	0.098160535	0.047629543	0.070895724	-0.022092681	-0.07262195	-0.09467754	-0.004426858	0.025211126	-0.017618656	-0.042296525	-0.07197239	-0.1253122	0.17220111	-0.014827575	-0.13316017	0.12209365	0.10279117	-0.0021204192	0.026395077	-0.031395476
DB08986	-0.1493953	0.10210929	0.05374735	0.0059243077	-0.095859565	-0.10047732	-0.08073361	-0.12586808	0.017994665	-0.040627014	0.14907067	-0.07779135	-0.06397308	-0.14291549	-0.046292584	-0.084292024	0.118780784	0.073304415	0.012946023	-0.06496008	0.066380195	0.0046123927	0.14805372	-0.0010636358	-0.016773121	0.025841743	-0.1082388	0.091266006	0.05169994	-0.031155441	0.11760828	0.07898405	0.05669844	-0.049331594	-0.14314654	-0.09591254	0.01707685	0.057553694	-0.012723285	-0.057029508	-0.050616916	-0.13864513	0.16340072	-0.04284191	-0.119467385	0.108314596	0.100554705	-0.02571165	0.04650549	-0.018123958
DB08987	-0.13047461	0.09169928	0.048547305	-0.010544543	-0.07753084	-0.062135946	-0.20170937	-0.119636446	0.085119575	-0.037523516	0.16834548	-0.08181644	-0.07125431	-0.09152969	-0.06523002	-0.051763773	0.123130515	0.050065953	0.007876607	-0.041647013	0.10724303	0.029934134	0.16356632	0.051862206	-0.033727974	0.04807993	-0.07913513	0.07176209	0.008845604	-0.009548653	0.1318925	0.078146346	0.06165968	-0.07972703	-0.09117352	-0.07476217	-0.0068408423	0.038269814	-0.025379045	-0.046433676	-0.079388395	-0.1351749	0.21886823	-0.022732649	-0.109610684	0.11326959	0.10036957	0.013645693	0.0016023275	-0.05581455
DB08980	-0.11577018	0.08767586	0.013792172	-0.019270012	-0.08010193	-0.103943124	-0.10607158	-0.0914377	0.02740971	-0.08143356	0.20875625	0.030628331	-0.009754234	-0.114330165	-0.013558916	-0.022775441	0.11872886	0.051562645	0.04200064	-0.056830134	0.0740637	0.010923761	0.16619174	-0.07982746	-0.076881625	0.0404469	-0.078156136	0.059290376	0.055024162	-0.053739086	0.08927544	0.061935846	0.052026995	-0.006730455	-0.0995821	-0.09228178	0.017566573	0.017348783	-0.027789926	-0.02909413	-0.13055544	-0.12965772	0.19668621	-0.004956129	-0.13877772	0.12214396	0.123986624	-0.0012889778	0.038486715	-0.026582468
DB08981	-0.07539738	0.10138312	0.12448232	0.017264498	-0.13629629	-0.14594252	-0.06906599	-0.1061525	0.06652161	-0.12149748	0.089519985	-0.0122986715	0.0020140866	-0.054629166	-0.12084752	-0.05929098	0.14702949	0.06900927	-0.01672281	-0.055544794	0.03518014	0.020719497	0.117536895	-0.058842197	-0.041568857	-0.051819675	-0.123705626	0.06736349	0.021273976	0.02156467	0.13973357	0.03600668	0.054835856	-0.1037198	-0.10323582	-0.013313431	0.038920272	0.004797245	-0.095461294	0.01527184	-0.075615	-0.154497	0.16129941	0.016420212	-0.1488747	0.07856901	0.08836685	-0.08178504	0.03252007	-0.05017773
DB08983	-0.13508305	0.093908206	0.11024023	0.03224961	-0.122478336	-0.08433706	-0.054979526	-0.1517512	0.03116665	-0.13005812	0.11273681	0.029592365	-0.04316573	-0.09183704	-0.11472076	-0.053176977	0.11834954	0.096510254	-0.04431817	-0.0031585724	0.082083456	-0.022018442	0.16323894	-0.061394565	0.017201623	-0.014784993	-0.08494917	0.08877345	0.006477236	0.042968504	0.14138468	0.04295635	0.11742924	-0.09296057	-0.094969146	-0.004572427	0.050797194	0.0077288025	-0.038181905	0.034381248	-0.1325992	-0.14829323	0.1812026	-0.04242471	-0.14342266	0.062298108	0.09184506	-0.011888008	0.012702264	-0.09485453
DB09345	-0.07666359	0.13451262	0.23934966	0.014236384	-0.009348884	0.019591691	-0.08244918	-0.14989856	0.11959937	-0.052031867	0.13524525	-0.046565346	0.039630465	-0.098494336	-0.15427926	0.07111418	0.1844037	0.035012636	-0.0840301	-0.11237269	-0.020699024	0.012371415	0.23937224	0.03226617	-0.061444294	-0.044995267	-0.09407585	0.13992795	0.13249151	0.05852196	0.12852162	0.07028162	-0.02237958	-0.11675619	-0.1862114	0.007498083	0.060256906	0.009794248	-0.009596515	-0.0571066	0.0059157796	-0.18145755	0.30133086	0.16020764	-0.21744777	0.21135613	-0.015219323	-0.07851912	-0.057557445	-0.115936436
DB01017	-0.07936794	0.041915	0.29213667	-0.05269773	-0.051516443	-0.07604009	-0.08536272	-0.20917818	0.14657782	-0.03614477	0.13213593	-0.09653031	-0.09391168	-0.12075505	-0.16767676	-0.0106684975	0.178713	0.0061272616	-0.015925072	-0.10063304	0.12621744	0.085574724	0.20935339	-0.09885965	-0.013924254	-0.07738012	-0.14645226	0.049859904	0.16328591	0.13960864	0.21728034	0.045660455	0.029933171	-0.011814114	-0.22378348	-0.02827488	0.1331467	0.019545268	0.02996657	-0.069515154	-0.07384759	-0.21860662	0.2698252	0.0835519	-0.247	0.097535454	0.09533644	0.0023557197	-0.0050361007	-0.12846611
DB00072	-0.10033893	0.031963736	0.24018194	-0.11265392	-0.03105937	-0.085606694	-0.0707128	-0.1645627	0.06314216	-0.04877054	0.096955515	-0.09412219	-0.103132285	-0.068920225	-0.15276821	-0.08367895	0.108219154	-0.06280746	0.020517357	-0.016469387	0.08627788	0.06694626	0.16785954	0.02045126	-0.010442574	-0.07070421	-0.13065861	0.06088865	0.13162404	0.12906778	0.19408503	0.053151652	0.024806928	-0.014423575	-0.19244775	-0.0057837325	0.11346054	0.015623939	0.021023683	-0.08071465	-0.051812287	-0.15095378	0.19803663	-0.027616315	-0.12287961	0.09637014	0.13350278	0.093336105	-0.099126466	-0.08795511
DB09342	-0.046195347	0.086465366	0.03101246	-0.0025365292	-0.14951107	-0.09031269	-0.07027875	-0.12017716	0.0446254	-0.054760102	0.12906332	0.035483804	-0.040218607	-0.024857596	-0.1041765	-0.05179451	0.119539656	0.06688253	-0.03670592	0.029572183	0.058402024	-0.045290958	0.1270008	-0.041175272	0.026380977	0.04311356	-0.052926887	0.07604597	0.021409307	-0.0037641656	0.1376063	0.07073901	0.08612249	-0.10131198	-0.07251947	-0.037137035	0.034825325	0.018771362	-0.02543647	-0.032463923	-0.07147903	-0.15926488	0.1388367	0.04559628	-0.14775778	0.080372885	0.07554146	-0.045573507	0.007597612	-0.00033492153
DB00073	-0.121289186	0.018504072	0.24168245	-0.06897799	-0.060856212	-0.11690268	-0.10391177	-0.10312562	0.097586766	-0.033448484	0.10533252	-0.07470364	-0.08989176	-0.055785067	-0.14012127	-0.07995682	0.11791962	-0.05805256	-0.007776057	-0.021789018	0.082576536	0.12285159	0.19574338	0.010865675	-0.0066923774	-0.008193031	-0.108292416	0.06716366	0.116939135	0.1336749	0.19542736	0.08308259	0.03241061	-0.0132824825	-0.11188542	0.0769588	0.08770255	0.019862492	0.008305338	-0.09174459	-0.0620573	-0.20781684	0.19599211	-0.06957116	-0.135033	0.140815	0.119291134	0.10797236	-0.11591341	-0.054992538
DB02665	-0.08218953	0.058338203	0.06820332	0.026181258	-0.1186522	-0.053769886	-0.10368902	-0.0816068	0.021767296	-0.11801681	0.14620961	0.0036835854	0.019002296	-0.07462959	-0.031946797	-0.06872085	0.11824146	0.09459081	0.016333153	0.00024725124	0.042024568	0.020740783	0.15474047	0.047605667	0.010290674	0.00476847	-0.085598685	0.05253422	0.034714367	0.009164527	0.12401578	0.05548104	0.08378293	-0.0690497	-0.08416105	0.0046957713	0.019352451	-0.031589806	-0.027182281	0.029032405	-0.095340006	-0.16920511	0.16937158	0.004573643	-0.12376736	0.077950254	0.122201696	-0.0057779853	-0.070757434	-0.013696463
DB00831	-0.11738616	0.07385896	0.25340152	-0.08697973	-0.051147755	-0.09455033	-0.1072239	-0.21895777	0.04099097	-0.056534924	0.1782415	-0.08950964	-0.07613533	-0.088342614	-0.1450565	-0.030195681	0.13423488	0.023839306	-0.0058411956	-0.09045505	0.0822653	0.074482255	0.16966711	-0.09935326	0.015618078	-0.106546946	-0.14646634	0.06478075	0.14922759	0.11512564	0.21219629	0.049128417	0.03694631	-0.100940496	-0.1932888	-0.013367452	0.12592772	0.037162382	0.033382356	-0.07571846	-0.08671707	-0.1913036	0.2702235	0.07865	-0.13942613	0.055923063	0.019857464	0.022007484	-0.041599277	-0.12280155
DB00928	-0.12175173	0.091566846	0.22769831	-0.04534941	-0.077150986	-0.13601658	-0.10252914	-0.1866651	0.05726825	-0.045614418	0.11660115	-0.103758164	-0.08042574	-0.082267076	-0.15638681	-0.05713084	0.1793872	0.008671485	-0.0024689112	-0.08733673	0.12510173	0.04443569	0.2134423	-0.06638992	0.011315982	-0.07290001	-0.10751666	0.022035228	0.13177276	0.14861336	0.2189593	0.06547201	0.034087133	-0.013746685	-0.20659882	-0.004377852	0.13461414	-0.0023911821	0.008954806	-0.07295123	-0.115823336	-0.17819898	0.2544507	-0.045520756	-0.14577526	0.07932506	0.07040057	0.024266955	-0.12078724	-0.13607682
DB01011	-0.10294097	0.066860534	0.22750045	-0.03147465	-0.05145815	-0.10823809	-0.115931824	-0.1888203	0.0072587943	-0.08036786	0.15299477	-0.060345035	-0.06617728	-0.09170843	-0.15390041	-0.06450146	0.17076918	-0.0006422233	-0.0022941828	-0.08359965	0.1345867	0.057898894	0.17411703	-0.07199646	-0.007832291	-0.08785601	-0.13954826	0.061408367	0.1273148	0.10907502	0.15046933	0.08187818	0.0048229303	-0.011269675	-0.18185048	-0.01335637	0.10063453	0.0040795826	0.021626364	0.033074256	-0.069028884	-0.16463004	0.26307398	-0.06853264	-0.17992187	0.11723962	0.08131262	0.047212485	0.0044733407	-0.14326893
DB09008	-0.07793673	0.14142638	0.17875631	0.02490864	-0.15079093	-0.099490255	-0.067893066	-0.16341607	0.04093759	-0.14733496	0.09324555	0.023585	-0.06474515	-0.030167747	-0.1478075	-0.026628159	0.14929678	0.07816339	-0.06263031	-0.008601382	0.06373359	0.0038499883	0.16754751	-0.07129843	0.06605208	-0.04905782	-0.10127369	0.04813414	0.054468773	0.115555	0.1749921	0.054251224	0.06588276	-0.09781207	-0.1743979	0.010134476	0.115322955	0.03125302	-0.09675818	0.064461686	-0.12224105	-0.16978328	0.15599796	-0.035462003	-0.16865008	0.0019566475	-0.025747357	-0.067363486	0.013369164	-0.114568844
DB09009	-0.1180767	0.08284139	0.055982664	-0.028464226	-0.095296316	-0.020912992	-0.13240267	-0.16044585	0.1160737	0.004524081	0.19601773	-0.0802697	-0.0365772	-0.13420969	-0.13268556	-0.066163205	0.13272151	0.023738293	0.0140503915	-0.082918644	-0.013134571	0.04691127	0.1940838	-0.061187662	-0.015184077	0.03072017	-0.101241276	0.01840946	0.04449682	0.012515256	0.14824905	0.14106075	0.028040398	0.016818076	-0.1303099	-0.081078224	0.028379595	0.042492837	0.045809913	-0.073247425	-0.041731026	-0.19698782	0.28053346	0.06060438	-0.15393564	0.10528776	0.042914953	-0.001498475	-0.0011934588	-0.070047334
DB09000	-0.12074009	0.07758486	0.016863938	-0.019716073	-0.08822928	-0.11414786	-0.13469161	-0.1296435	0.021463756	-0.044889677	0.15188463	-0.04006578	-0.05359905	-0.111054346	-0.02878432	-0.08462071	0.13172738	0.06302628	0.016251016	-0.004160053	0.043237757	0.010228966	0.17033553	0.030512854	-0.034016266	0.02798144	-0.108563386	0.07632616	0.06952213	-0.011983778	0.12640105	0.09121775	0.049653143	0.0114784725	-0.11247071	-0.0867229	0.03061022	0.025649127	0.0070748753	-0.010171098	-0.10019433	-0.1578826	0.18339552	-0.008796383	-0.12544578	0.12068694	0.11198125	-0.006793036	0.010755926	-0.046393294
DB09001	-0.028840309	0.07836834	0.122664526	-0.012380351	-0.08312746	-0.09538566	-0.101669736	-0.14972742	0.016365448	-0.1100906	0.07861285	-0.084725566	-0.070634104	-0.05635567	-0.110608935	-0.07220764	0.11100758	0.062592626	-0.016449124	0.0024605768	0.12815441	0.02052415	0.12856098	-0.002489924	0.011011908	0.014447924	-0.115464605	0.04846393	0.027129872	0.04290264	0.114112586	0.08217059	0.05091579	-0.11140752	-0.07064544	-0.077890046	0.09418788	0.0057388614	-0.02972534	-0.0037510213	-0.06727773	-0.16304731	0.12574805	0.067937985	-0.13589706	0.033854745	0.087790705	-0.045046195	0.0012395398	-0.032966983
DB09007	-0.14426865	0.069311425	0.038494043	-0.05141429	-0.09705397	-0.10366924	-0.120114975	-0.08842766	0.08836043	-0.050165493	0.17819771	-0.082706876	-0.01701422	-0.09121926	-0.063028984	-0.09198988	0.12864424	0.042530242	0.023874814	-0.008937515	0.060907986	0.02664368	0.14462447	-0.017075524	-0.035424083	0.046580914	-0.076496765	0.059196036	0.0362222	-0.015604237	0.13186367	0.083103195	0.016936522	-0.0048173214	-0.09527517	-0.07398593	-0.0048575187	0.018771226	-0.009944709	-0.03185063	-0.06736245	-0.17341284	0.22295044	-0.010147055	-0.114361525	0.105299175	0.03962907	0.01256736	0.028798474	-0.011647442
DB01010	-0.10389093	0.08687305	0.24300246	-0.004624562	-0.048494034	-0.105603665	-0.12334998	-0.18945907	0.100197025	-0.030823108	0.13173363	-0.05424873	-0.07422716	-0.054189444	-0.15231551	-0.06281715	0.16280693	0.021289265	0.01758967	-0.07499217	0.12540144	0.043125533	0.17706868	-0.058923166	-0.037241716	-0.08398772	-0.13299203	0.04643549	0.09011011	0.08207886	0.1859264	0.095876746	0.042897236	-0.05861093	-0.107670486	0.0077569	0.10414602	-0.01232564	-0.0025222022	-0.09825704	-0.06973183	-0.17193358	0.27527875	0.051908284	-0.18474875	0.1108301	0.1258172	-0.0028139912	-0.0383285	-0.032519616
DB01764	-0.07212631	0.12127671	0.21404694	-0.06731908	-0.05479841	-0.11835966	-0.09394978	-0.14411326	0.0028679455	-0.0063300137	0.12866974	0.042294394	-0.030842463	-0.043537647	-0.1587671	-0.038048074	0.20725237	0.030126525	-0.018591292	-0.10014034	0.08311194	0.038825877	0.18279554	-0.09276452	0.05366447	-0.03348474	-0.1406916	0.049555097	0.13343665	0.08805033	0.14785393	0.06733189	0.055240333	-0.09647761	-0.17297786	0.021560062	0.14538793	0.047960028	-0.030643348	-0.06969343	-0.14481021	-0.17499056	0.1632048	-0.05889358	-0.12728441	0.06497991	0.0024987604	0.009228157	-0.11796276	-0.14955895
DB09174	-0.08012678	0.066087015	0.11639589	0.028841589	-0.113319814	-0.0843443	-0.07378051	-0.099262215	0.010818369	-0.13597071	0.13712928	-0.016165126	-0.021882812	-0.042625234	-0.10166191	-0.07078164	0.13222137	0.07847052	-0.013208193	0.0078063216	0.038076747	-0.04005315	0.1302151	-0.011759976	0.018234218	-0.00044870225	-0.09480661	0.025567599	0.03857155	0.015336414	0.14370924	0.06307503	0.07691547	-0.08110186	-0.09174053	-0.040499732	0.05576424	-0.00879999	-0.04132704	0.037760083	-0.110597715	-0.12634283	0.12874068	-0.031962972	-0.15075201	0.102669746	0.023135744	-0.024056293	-0.009821871	-0.025543572
DB00422	-0.0962834	0.055042017	0.2822237	-0.0684096	-0.06224612	-0.111583486	-0.0931485	-0.18652955	0.12860495	-0.069473855	0.15835829	-0.08759144	-0.08405368	-0.10781593	-0.16248876	-0.014357425	0.16891608	-0.010982	0.012465184	-0.0932378	0.076154724	0.0991663	0.18221827	-0.09830351	-0.020424977	-0.090177074	-0.1069414	0.060029503	0.18825269	0.13890482	0.22213216	0.09285719	0.029664394	-0.0004944897	-0.22997762	-0.004821693	0.1336995	0.018001972	0.055951852	-0.07247019	-0.08443277	-0.2197293	0.258422	0.08664662	-0.22105029	0.08944848	0.08304183	0.004753502	0.011866455	-0.12793893
DB00480	-0.07550448	0.06273741	0.24407485	-0.0032736724	-0.042093035	-0.11861316	-0.11947038	-0.1676589	0.14095984	-0.050239768	0.1127249	-0.0904268	-0.07802026	-0.09259787	-0.16324344	-0.059054058	0.16622365	0.019304935	0.010748639	-0.10381337	0.043134864	0.032459326	0.23714438	-0.07140573	-0.024190255	-0.08693997	-0.1373683	0.03272698	0.14382674	0.13591133	0.19624263	0.026257921	0.07827369	-0.043795228	-0.20313823	-0.04073924	0.14724109	0.018952806	0.010730706	-0.075303786	-0.13964207	-0.19463682	0.24372269	-0.031326555	-0.19469912	0.085642844	0.1167605	0.01938934	-0.09236189	-0.12236927
DB01363	-0.09309079	0.03407554	0.22525823	-0.07620396	-0.031518646	0.0060739173	-0.10992285	-0.16004036	0.12664457	0.05144534	0.17649263	-0.11446018	-0.004347555	-0.07611668	-0.14519285	-0.07777915	0.118267536	-0.09289811	-0.058016308	-0.062591426	-0.0012444338	0.03341342	0.17251109	0.021701863	0.035759106	-0.004495968	-0.14100261	0.040724184	0.12188207	0.081093	0.1941796	0.11295879	-0.016131423	0.0080153905	-0.17204261	-0.012806784	0.10933743	0.01917075	0.004273398	-0.08523109	-0.006644938	-0.16109252	0.23257324	0.087215915	-0.14118132	0.10832231	0.05834708	0.008961521	-0.08957731	-0.076098144
DB01362	-0.08686441	0.12334859	0.23589076	0.012822316	-0.11210336	-0.07489575	-0.09169839	-0.21001475	0.10956455	-0.036185678	0.1096196	-0.063170515	-0.06803982	-0.09716374	-0.15427968	-0.010413709	0.18398888	0.029454755	-0.01021502	-0.08716308	0.14088577	0.026620498	0.17995286	-0.07537044	0.008446757	-0.10190877	-0.10269757	0.0721289	0.13965689	0.12260318	0.21068193	0.06819043	0.06063993	-0.11999238	-0.16420506	0.0043740002	0.11408113	0.018660948	-0.004409923	-0.08808973	-0.0606051	-0.12903711	0.23268856	0.101055056	-0.20089473	0.062463135	0.06780964	-0.027618177	-0.12471899	-0.11996445
DB08437	0.017997	0.09995248	0.17524616	-0.001523158	-0.15581453	-0.07148027	0.015616915	-0.19254385	0.15869275	-0.1116174	0.02991599	-0.0014860076	0.048882123	0.0056605656	-0.13561893	0.010632539	0.10600806	0.11024635	-0.051603213	0.06665216	0.061199017	-0.035360437	0.31025898	-0.06788318	0.07668549	0.0007352807	-0.13671237	0.020603362	0.109870285	0.030812182	0.15011291	-0.0013734765	0.07964123	0.0051445253	-0.13168551	0.005081953	0.04571474	0.011005251	-0.094459	0.053530667	-0.05327626	-0.11257302	0.25080353	0.15504414	-0.14567868	0.045931257	0.026261333	-0.02787221	-0.077224396	-0.052103706
DB01367	-0.08725984	0.06422915	0.20487761	-0.065874636	-0.050353337	-0.1298677	-0.10419093	-0.16852039	0.10395497	-0.021567892	0.14910994	-0.09046317	-0.070374034	-0.10565359	-0.15892208	-0.047314055	0.1653659	0.015352603	0.005900327	-0.08703899	0.083699316	0.05577889	0.16746974	-0.080492	-0.03606754	-0.06784498	-0.1071563	0.060880844	0.1437877	0.09382025	0.19916058	0.056280766	0.03098715	-0.08770659	-0.18351698	-0.05860468	0.13070038	-0.008465608	0.025587313	-0.06660889	-0.11045091	-0.21583933	0.21250038	-0.027476327	-0.15167303	0.08141622	0.098997325	0.052544646	-0.036402196	-0.1104467
DB01366	-0.115035556	0.07581113	0.21066184	0.0039063636	-0.05210701	-0.117821865	-0.1312237	-0.10757988	0.026402172	-0.027678533	0.14932287	0.019567233	-0.061202586	-0.10333271	-0.13675316	-0.047201365	0.1984688	0.004557302	-0.036082976	-0.050803483	0.1477646	0.06358624	0.17260271	-0.0648925	-0.016695106	-0.10005299	-0.12824124	0.062050987	0.14202157	0.06644173	0.21288313	0.1029567	0.04239484	-0.08771614	-0.16504778	-0.010067236	0.09406548	-0.02228674	0.02852859	-0.038524874	-0.074683405	-0.18428108	0.19453976	0.03879654	-0.10848072	0.08724903	0.023971539	0.026651377	-0.13866623	-0.080087185
DB01365	-0.13286592	0.073320106	0.22421645	0.02168569	-0.060608134	-0.1440023	-0.11933554	-0.12783742	0.01470109	0.011348095	0.13461326	-0.0893742	-0.04285169	-0.10029038	-0.122084334	-0.09248963	0.20202525	0.039855983	0.025320603	-0.08727434	0.109492674	0.08923556	0.17437458	-0.08303819	0.007238414	-0.07522833	-0.13676684	0.062279016	0.10069056	0.04499203	0.19372739	0.07961833	0.046725288	-0.06686648	-0.08504935	-0.016687833	0.09380884	0.041546732	-0.0037468113	-0.038784545	-0.097217195	-0.19058059	0.21073551	0.073412284	-0.11847065	0.09750974	0.1302403	0.05401652	-0.10117991	-0.1167269
DB01364	-0.13973254	0.06402922	0.26686993	-0.07570726	-0.050036777	-0.09018828	-0.09257312	-0.22592142	0.030080097	-0.03776883	0.17117354	-0.066507556	-0.11068524	-0.10183332	-0.15604924	-0.026740579	0.15156773	0.0063764	0.0035714288	-0.13550264	0.08633796	0.081812724	0.16161369	-0.09406334	0.018972732	-0.06647994	-0.12980688	0.07814113	0.16542695	0.10527555	0.20953739	0.089920945	0.019363545	-0.09553085	-0.19349863	-0.01952179	0.11405791	0.032737043	0.046545994	-0.08672928	-0.07354622	-0.19498868	0.20614061	0.052261792	-0.15542924	0.076780125	0.11835251	0.0071381493	-0.12514101	-0.057337366
DB01012	-0.091055274	0.052613787	0.2209882	-0.033592533	-0.05345376	-0.12399144	-0.09600471	-0.16640578	0.12666978	-0.10768085	0.12127729	-0.031422105	-0.092479154	-0.11297602	-0.17862967	-0.057574794	0.18105657	-0.0022758376	0.006406746	-0.10901142	0.117001906	0.048068684	0.19403331	-0.0884953	-0.018414253	-0.09385645	-0.12185701	0.08192646	0.13848712	0.12774089	0.19027218	0.094129585	0.03794165	-0.09213948	-0.20609953	-0.01098972	0.12305713	-0.007332393	0.016137488	-0.039082218	-0.05263066	-0.22155352	0.21602231	0.0742004	-0.10584366	0.1250758	0.094078064	0.05598696	-0.008285371	-0.07612039
DB01369	-0.050576095	0.104494154	0.24166697	-0.000738673	-0.062172618	-0.102126285	-0.08803923	-0.12062241	0.14904962	-0.030027341	0.12542771	0.06015776	0.05163718	-0.017431116	-0.16129948	-0.048037726	0.17484906	0.03623588	-0.027747737	-0.04770879	0.14185713	0.049917802	0.2756889	-0.083699204	0.06104615	-0.09896856	-0.118986025	0.04658102	0.1353472	0.08821417	0.2013815	0.053563967	0.010314009	0.0034877947	-0.1824687	0.028241424	0.09677557	-0.037681416	-0.014712667	0.05014389	-0.104977384	-0.15616412	0.26648745	0.08377514	-0.18800743	0.10281834	0.10808722	-0.0021171193	-0.1400778	-0.12420146
DB08439	-0.023705175	0.11654172	0.16261645	-0.03376499	-0.075518996	-0.07147655	-0.10878581	-0.1791352	0.036678575	-0.091930665	0.115768805	0.0054764287	-0.01261394	-0.079122975	-0.1307724	-0.020830985	0.16026092	0.07118504	-0.06056269	-0.009834541	0.03113797	-0.04746223	0.17017017	-0.014202848	0.06740843	-0.012458142	-0.1223727	0.06553119	0.058613367	0.07220422	0.14772391	0.06492401	0.042815614	0.004557643	-0.15527572	-0.023327969	0.047295813	0.006189277	-0.022986293	-0.0035913782	-0.021462863	-0.15795645	0.1856865	0.026117466	-0.19534597	0.090430066	0.0073748226	-0.017791865	-0.01845602	-0.05780592
DB00108	-0.118704066	0.026980184	0.27609935	-0.08745465	-0.034657475	-0.08316802	-0.08522774	-0.12549835	0.050878968	-0.022189217	0.10632045	-0.096214876	-0.047992773	-0.05110652	-0.14377886	-0.08899765	0.10562077	-0.08582495	-0.01511147	0.03045982	0.08900857	0.06899516	0.18406583	-0.01665432	-0.024577545	-0.054625392	-0.13020375	0.049576037	0.11808885	0.085500315	0.1842982	0.075711444	0.02916853	-0.017697675	-0.11923328	-0.04932764	0.083849736	0.017940862	0.016638199	-0.09801434	-0.02598669	-0.17640382	0.18691553	0.035372842	-0.11838706	0.104443535	0.11437968	0.08917035	-0.10036681	-0.05390173
DB01109	-0.13282509	0.0465528	0.28791475	-0.036524408	0.008322764	0.026796127	-0.12517841	-0.18839377	0.123834826	-0.04837146	0.1561218	-0.09137481	-0.10262749	-0.10604985	-0.16311984	-0.035893396	0.16562708	-0.03494332	0.013315166	-0.07751119	-0.006753284	0.10988138	0.18266684	0.05354939	-0.03592452	-0.010844114	-0.12877971	0.09361046	0.13263059	0.12642461	0.23243599	0.07836725	0.013109421	-0.022974754	-0.21841264	-0.034063157	0.105902255	0.029745046	0.06217793	-0.09553104	-0.011616945	-0.17490114	0.24667275	0.060869947	-0.1536306	0.112868324	0.10399999	-0.0044023627	-0.034932453	-0.110811435
DB01108	-0.10093813	0.07877613	0.21636637	0.0037528367	-0.10723012	-0.110448204	-0.09380791	-0.119872406	0.014684923	-0.03561345	0.10422123	-0.105881065	-0.046863515	-0.09878231	-0.14897864	-0.052896507	0.17015585	0.02945785	-0.011650635	-0.040427417	0.13669324	0.038478427	0.20011039	0.030688198	0.009465123	-0.0740529	-0.123796634	0.06229148	0.13602781	0.104348294	0.2073532	0.050408967	0.027579498	-0.10394226	-0.18864273	0.016370585	0.12756689	0.018903647	0.0106386505	-0.046288233	-0.12032819	-0.1492466	0.15614724	0.076926276	-0.11380421	0.08469741	0.12782617	0.028040428	-0.14884411	-0.15849751
DB01103	-0.10273349	0.06440852	0.24444334	-0.026328254	-0.088989556	-0.116667196	-0.102742456	-0.20009004	0.032087717	-0.02868654	0.09571332	-0.09864196	-0.06494081	-0.10137347	-0.14840177	-0.054748457	0.16801506	0.019659203	-0.0056555048	-0.082064256	0.14874119	0.04430251	0.17491135	-0.06653099	0.028574012	-0.049146242	-0.14174347	0.0466935	0.1511069	0.10610683	0.16356757	0.0558881	0.019964708	-0.0059409263	-0.17519455	0.018862873	0.1304289	0.0044892044	-0.011492437	-0.0548707	-0.118387625	-0.14725055	0.27335396	-0.0027031424	-0.12826285	0.08866622	0.13116683	0.041625366	0.009337175	-0.1453022
DB01102	-0.09980561	0.06557834	0.19236706	-0.017229665	-0.09641564	-0.12835777	-0.13106965	-0.08186086	0.092839636	-0.012830753	0.1063572	0.007753704	-0.019500868	-0.09940241	-0.14635944	-0.07462286	0.18036431	-0.015344356	0.017977262	-0.05543253	0.106090054	0.056651372	0.18858436	-0.015420593	-0.0188711	0.016365942	-0.084600486	0.06480135	0.12996536	0.10156137	0.18175244	0.0893055	-0.011083112	-0.081109285	-0.16026528	-0.03272123	0.10191644	0.008451553	-0.0041771866	-0.08046351	-0.08505462	-0.18818337	0.15747738	0.0123323705	-0.09096247	0.07901499	0.14128578	-0.00894966	-0.13336517	-0.14164937
DB01101	-0.06807197	0.071517944	0.21945864	-0.0382768	-0.07987031	-0.13090007	-0.08895263	-0.17031984	0.06518533	-0.0804114	0.14373338	0.029579852	-0.081841044	-0.078782655	-0.15745378	-0.051423065	0.18204965	0.02271643	-0.016571363	-0.07165735	0.124043405	0.05384524	0.23954053	-0.08500069	0.053507455	-0.098821625	-0.11482999	-0.012429526	0.12963551	0.13863349	0.20602033	0.039442565	0.047679037	-0.044500284	-0.2262868	0.013857638	0.1550099	-0.03818764	0.008955619	-0.029279096	-0.094688356	-0.19655025	0.26432276	-0.03436239	-0.21204281	0.104156196	0.08315489	-0.010102267	0.015536454	-0.14616856
